2.07732042174034 3.17799960269021 -3.02606824957377 -2.56906439714103 -1.95737616972703 -2.96134075687862 -2.37099774466963 2.66094115919743 2.77701633011931 -2.15564867591493 -2.11447148395582 -2.85088683315459 -2.2053254951011 -2.04488325625845 3.51861848525096 3.2396836266027 -2.50372308629985 -3.54867759386482 -2.90627961526822 1.99722702550964 -2.45606266370799 -2.50182447950838 -3.30038432499296 -2.6822303386764 2.39104731060988 -2.42197815299671 2.06734866597171 -2.38245294761712 -2.30008599111253 2.2527944891967 2.99184638907914 2.44546549184721 2.47396008953017 -2.09771109305098 2.59152078418337 -1.70772081987274 2.55659147754066 2.56434299612587 2.02857360013543 1.9509112813425 2.15577659361962 -1.88500077150413 -2.62297434698324 -2.62751605314085 2.22296782037742 2.77570960948502 2.3929586025331 2.44672377035251 2.33045184897315 -2.30094323267319 -2.46518723085555 2.48972723237731 2.43608546681346 -2.91645518547799 1.36179434207859 -2.08233909271032 -2.0336807220642 -2.81310633022949 -2.1294977726459 2.41234426150678 2.81455666694208 -0.206017432456782 -2.65341020475216 -1.58642839055281 -2.7173680249226 2.85761256832475 -2.15998071576916 2.61121350469407 -1.89846297249029 2.67616348955051 2.92631224796917 -2.5390636161656 -3.24319539837544 -2.87327855357439 2.22065202825429 2.31697757659832 1.94485050993267 -2.07138191139945 2.63040824952537 -2.12738796481427 -1.93317962537355 -1.94877068846814 -2.44587096461896 -2.6050804029283 2.53707500540146 2.78012746092243 2.47549191108463 -2.5721230021495 2.73706721465461 2.05150627988357 -2.86587298464146 2.73110038098688 2.57715970558536 -2.54121843512039 2.34819331701611 -1.83599707022421 -2.18333347529397 -1.91740322287694 2.38877097628531 -2.58434579674363 -2.57054569773162 -2.08421971037225 -2.20239382398111 2.05878068304773 -2.46758032755029 -1.90694989649897 -2.93484469302413 2.55764917617687 2.66602229334982 2.30752771015066 3.01274548628639 -2.75282737735858 -2.61222950916681 2.85105866233012 2.6274676464555 -2.98152756055134 2.45323633709006 -1.89244261858301 2.78317693033219 -2.52651931829493 -2.64791734458285 -2.60965063744145 1.90997342828849 2.69428227025417 2.07067403774592 -2.81216449760944 2.45641147978488 2.09875904310831 1.72184682003398 2.18905277366766 1.96793111770812 2.13729170536246 -1.99240230227892 -2.33908038539122 1.64474194120176 2.02012390942595 -2.30043378372814 1.94574725360204 2.48827082236094 -2.18471911482014 -3.89176972273879 1.91112328779143 2.16331011816809 -3.37365616144799 -2.37549665574028 3.00701186260894 2.29607203200934 2.80662655852187 -2.25176289153034 -2.45952687503417 2.50035230309484 2.93369936854778 1.95352009984164 2.12984906655594 1.6919663692017 2.71887447331024 -2.46180451150747 2.2985278493528 -2.13164663855799 2.17806172677779 -4.60845130673662 2.59191863239937 2.10978715287189 -2.18592435925874 2.16939013529295 2.52443927759333 -1.94606650125629 -2.06813079346297 2.84852127367264 -2.25921751952155 -2.36368181119847 2.4392685335211 1.98559291307406 -2.48052923490966 -4.20733752825847 -2.64766880413451 1.95800627625992 2.67922504946584 1.74879671770794 2.58866951090874 2.30410629162443 -2.13263561993552 -1.85963574512884 -3.27077345612606 -2.53463449886053 2.68750019052158 1.7080679425381 2.60953984003288 2.67553779212834 -2.25967936469784 2.17432878013742 -2.81744140943128 -2.45643158761694 2.39945130266445 -2.27109412417792 -2.37505482993214 2.61735073578809 2.47477705261523 1.90348100697908 -3.20857882158409 2.002223546209 2.71479726772922 2.16124286856103 -2.7847982126966 2.99358488975496 -2.818616601652 2.5195985735729 2.24466776950188 2.02927720772241 -1.95270299504478 2.92093294794198 2.72355433893019 -2.65228869090034 -2.0521623740683 -1.99066736495816 2.18463574139795 -2.64271889416381 -2.75345324730627 2.09599200281412 -2.39240470445627 2.56890194995945 2.72342834654323 2.19973065605322 -2.03073679717992 2.41233192116593 2.37453698717035 -2.74720494534128 -2.5902552539573 2.46314896699388 2.47301654681099 2.27090020191563 1.84000616543408 -2.16661556192754 2.05019580877706 2.53806022564125 -2.33112751907948 -2.90864224609009 2.33355214222087 -2.42701466766168 2.74743963199855 2.4951488931407 -2.68312675284878 2.99879448752652 2.79526826816941 -1.89379195052113 2.67701412631116 2.67015687589789 2.45097409595047 2.23958603549875 2.21995049658268 1.93281648400215 -2.1849834666347 -2.39756394991435 2.64423982379566 2.67435146214742 -2.53431428165706 2.58393141225278 2.87324382447922 -1.94132361324991 2.37230189056184 -1.94604521155349 1.88563429799249 2.37597070849364 2.17325877271686 -2.53374301332417 -4.08723424960542 1.92435162101815 1.73863681978018 2.07965331955839 -3.29808906501234 1.84225164119271 -2.50363447835543 2.73952204561968 2.81998435813738 -2.65126657914334 -1.74810056697091 -4.57475692664526 2.96117630916228 2.80190659503672 -2.36669364416756 -2.26035701708306 2.41872439564971 2.47748790281268 2.17597297409927 2.19921790438504 2.64663904250694 2.74822340913591 -2.67400707741777 1.8787707533803 2.78716725312941 2.71718358953241 2.05385412505482 -2.25439491771183 -2.11567223144176 2.44452729254424 2.4734902010716 -2.73742972673441 2.15891606891506 -2.69657801499243 0 2.20610129645505
2.4588938067339 2.66555990281546 -2.57041471937531 -2.78543981075589 -2.56946854563249 -2.20758657607139 -2.03610403483033 2.7857753406211 2.63207937710807 -1.94532778407079 -2.41248267828281 -3.20850804822546 -2.17468189469888 -2.44141535073383 2.60854568487061 2.81160277831078 -2.69745432596361 -1.97871758911349 -2.56468941673145 2.44372450146985 -2.72643566254489 -1.9099678280152 -2.35260265281232 -3.64454679950497 1.63850533180165 -2.29881872392472 2.02643569834345 -2.7312879503453 -2.87701166983651 2.22819300742594 3.0562401700203 2.67808194019222 2.40566880133962 -2.6676299321473 2.780988556589 -1.84866170814208 1.9801996079467 2.60254254109548 2.13895106562645 2.89036541838464 2.71445449558403 -2.63763923663849 -2.55964192487437 -2.26032943376574 2.45337251307891 2.84755397317925 2.81603303420801 2.03318937516001 2.92905390841535 -2.5123448386867 -2.78203077689087 2.06105787360647 1.89960563119537 -3.5538547989413 1.14624940761023 -2.44373420565024 -2.81505365194833 -2.84588485564269 -2.14342317282142 2.78502219013354 2.24895289639903 0.256602244832454 -1.98050137743589 -1.33548314422679 -2.51431334339645 2.15683756083697 -2.21513266814046 2.26057492858602 -2.45259291476951 2.79320231793249 2.11988164762015 -2.67805768246971 -2.7782528666253 -2.42605106727557 2.67309138621047 1.81958654661322 2.28391349352026 -2.78891720956945 2.81141073968133 -2.21895190296275 -2.38368327503678 -2.77360375510985 -2.63438092747254 -2.0985442104681 2.58408259558903 2.86113093505701 2.37515426769835 -2.77492194086232 2.66966080632612 2.26683709289578 -2.00641874739177 1.92990065981585 2.93643157479218 -2.83899797133281 2.31587661539681 -4.04067889999518 -2.67359398719982 -2.43142098203392 2.67679019781847 -2.62092926701214 -2.50160415692588 -2.34674300996907 -4.51975827238957 2.73240418767546 -2.08406762031089 -1.90681673363684 -3.00625177730764 2.43291718606134 2.48406999670781 2.122600695192 3.12009959635711 -1.90526722700261 -2.81289790119854 1.90445739511295 2.69958263028077 -3.03617995385119 2.33632291587545 -2.74910295128072 1.94219383419667 -2.77318922755989 -2.42634416725062 -3.10116680437238 2.58727136275816 1.96917954818619 1.92360278151087 -2.54846487113854 2.21457345828606 2.79784677865405 1.49788566786237 4.55686818457831 1.44465369091857 2.09672906501285 -2.82167389845065 -2.17094728557142 1.75606032332471 1.98461279757089 -2.53979241855698 2.22426449389167 1.78680400933204 -2.65668606612349 -2.38041555959718 2.1642451524603 2.194918848496 -2.53727857377468 -2.30459186163138 3.22353563254079 2.58322140624307 2.84618597536831 -2.24590752394644 -3.03485103251901 2.44284782719809 2.39480247334744 2.27692191649218 2.71319669959282 3.2726070776024 2.83223553644297 -2.27720377856413 2.45047088320048 -1.93520692966008 2.32124908848922 -2.24492779706032 2.15122438211783 2.36560826844839 -2.13471834724831 2.10969277408998 2.68986208256624 -2.1372701923065 -2.56026179062256 3.04524292545647 -2.59652232413266 -2.87866816108208 2.07669729704745 1.95185103136025 -1.87987393872458 -2.05920696646266 -2.69575688261622 3.1703462439252 2.06246598019113 2.43795120570951 2.07059157784866 2.21286189485633 -2.46671897032437 -2.17180857818533 -2.11857942116987 -3.01474203419507 2.99981599018072 3.79763904270545 1.98866152850218 2.82340350760372 -2.48166700779296 2.21722655600126 -2.21408748489491 -2.39662843156146 2.41626443325919 -1.72357180490598 -2.58135589097791 2.60047131492148 2.63863743845416 2.16210714269288 -2.46807185712184 2.0901380251999 2.39908038458956 2.14877773823384 -2.5448910013508 1.9821103235455 -2.47049723244564 1.893249485947 1.2866877940701 2.26112931549253 -2.23060772733047 2.11062420891843 2.41412718207616 -2.88511391903254 -2.17731478932536 -2.6856731428748 2.76254212399223 -2.88841860306747 -2.57379482139468 2.46038688211475 -2.42186375871456 3.187903788988 2.21346013429934 2.26787853343995 -2.52845188209228 2.45753305707717 2.19178868609772 -2.18189982690086 -2.36193234623987 1.9437495309102 2.05716887346504 2.26856905641658 1.76798059020238 -2.1617306925247 2.76758165233575 2.79548159248426 -2.19950640427869 -3.06736579916642 2.77369066725537 -1.35349090640607 2.804241524054 3.2273539591562 -2.58475349617023 2.27247019847497 2.96989283049109 -1.96505797097104 2.61119513114813 2.5634883476978 2.60408336468506 1.98974009041532 2.80752710769803 1.92428069126449 -2.61695385306769 -2.66855805182017 1.93399223535493 3.00849585412395 -2.01960128245654 2.05815811520911 3.05924766486409 -2.45357427282304 2.66528800618291 -2.17490398637356 2.32280895553039 2.07726296338525 2.01026652172951 -2.6500046481771 -1.85669318309849 2.52978288927665 1.88965584415804 2.38863767885813 -3.33229065515531 2.51318440789672 -2.94206930291662 2.52123546590036 2.69888193684302 -2.41835652824462 -2.16234532469926 -2.30362404656052 3.12234435920899 2.85441372957276 -2.7628607380014 -2.25759179916888 2.84119618068511 1.79824288144843 2.01266089962408 2.73875043217437 2.00890442411952 2.72926239561371 -1.87235611362201 2.43744254537294 1.7182179055131 2.31610564268234 1.93648130903812 -2.37260015706493 -2.71374065525689 1.95035445669979 2.13207164749028 -2.03653793544487 2.66739801994052 -2.80809206241985 0 2.26956641075174
2.09172424441664 3.13997374943228 -3.24621767679278 -2.16149081022576 -2.63303669444424 -2.90583201321049 -2.2122350225707 2.24587310310848 2.60164526204027 -2.37717483269528 -2.12088836331948 -3.13374120721129 -1.92688161485425 -2.74310424856913 2.14313639237477 3.08305628379805 -2.38554754741409 -2.22255500019894 -2.7942630850037 1.58449353924253 -2.97331942445417 -2.10775633092255 -3.76464028819815 -2.46678749488246 1.40267267508144 -2.22208751996253 2.26657140070269 -2.33348663952554 -2.1463554803709 3.36860094923633 3.0513081769881 2.38606661136961 2.06556078964367 -2.28714474757361 2.53779426286759 -3.23385700792853 3.05337772967045 2.15988075722865 5.24853901734159 2.57098505513534 2.31763736248267 -2.23736423231765 -2.73514640258894 -2.07553939517762 2.53527527847054 2.1396040438287 2.36086515312021 2.15146723067325 2.84960207117375 -2.32457126039128 -2.62866459177506 2.43805928998487 2.16668348068133 -2.86693754036649 1.38287113887568 -2.5424442785703 -2.23290093491004 -2.4345042859306 -1.9644534927943 2.55451107434692 2.46185650062178 -0.977804067786862 -2.21778616972057 -2.72976871542876 -2.68306293102209 2.79577129252626 -2.53675156332989 2.17139703697801 -2.48248823446105 1.85898273371414 2.46093220769296 -3.29629928828871 -1.88482484888739 -2.16787710873159 2.38567665410698 1.95798312408655 2.37707314576392 -2.66101822523457 2.82157502356946 -2.19049959254984 -2.42590710419208 -2.48526583701111 -2.33957494283777 -2.44405175172915 2.38130785995561 2.22112500556965 2.02361391355045 -2.62412503211611 2.07080143103609 2.34580870769701 -2.36598948964463 2.43296090745622 1.99837843313092 -2.70392516815567 2.84518479551939 -2.61545061208848 -2.01468745196776 -2.64390356974194 2.08799079162649 -2.16350934739184 -2.36694086079454 -2.11437823005456 -1.70692808439884 2.63623946327095 -2.38184999985334 -2.36791750289657 -3.26973984529113 2.52655408187298 2.03162486589574 2.55083142258317 2.94671394640271 -2.56805656668872 -2.41695762558425 2.05539913122099 2.51203482573745 -3.00315464318502 2.49961842658027 -2.58861295597771 2.14612748868345 -2.50165237285717 -2.03183554638399 -2.68572775813763 2.10438007389011 2.74423986039098 2.15298023243394 -2.55379517725976 2.55802709288789 2.13621183678227 2.98649785655976 1.80530560047206 1.72675730315218 2.42896333281533 -2.42516711172644 -2.45062426962141 1.63037089609935 2.37390835563721 -2.39194093484404 2.43102225404643 2.49795181349949 -2.2355422940365 -2.63724659780596 2.2612577531303 2.85414577248853 -2.68103113221262 -1.87991097557301 2.52894729585736 1.85890257935422 2.06389692058478 -2.10038989077189 -2.57834753082199 2.48754063401043 2.9050681006817 2.77369897058058 2.71975230857034 3.17185029086148 2.5625507351123 -2.39348102309057 3.1028286534131 -2.4032663772543 2.16267704972574 -3.24427132061145 2.64439007151822 2.87431752379755 -2.02130509499589 1.98460602007284 2.7118812933958 -2.52996091793148 -3.01096978165285 3.4834532991082 -1.9916746035743 -1.96393161780612 1.98062488984729 2.22940478284323 -2.114977394167 -2.36866944843829 -2.39324794133181 2.56943915816557 2.81241079627252 2.29843621591776 1.79721308393672 1.99726031105066 -2.33222152680836 -2.18355086199989 -2.2462801933036 -2.55171901274383 2.78200686499396 2.2861919259528 2.26578704759267 3.2282269150569 -2.29659187190334 2.7863153944257 -2.38030441951303 -2.79958549711328 2.54125572940184 -4.59172879359883 -2.665922213676 2.19679599333942 1.94411595044472 2.82183004907437 -3.31572032237356 1.6528180181976 1.79909261166626 2.72523530200148 -1.95840545520257 2.56726188345836 -2.35369843836232 2.10597269067165 1.3734957582302 2.275990446865 -2.36007410767157 3.34565979561175 2.49086907234623 -2.06693343083795 -2.52507340698017 -2.66537191087477 2.57365065770522 -2.54097945093565 -2.29979502126675 1.96122611192316 -2.53205690146856 3.26823399224089 1.98388985508945 2.42889886116862 -2.47362004829906 2.14182486249804 2.28795670351892 -2.89179805463485 -2.10844916409892 2.20413290436875 2.12825843086989 2.04676953940958 1.97921883246503 -1.78392299472584 2.68889168720833 1.86554083819847 -2.79157427622431 -3.01808122478008 2.53788328470384 -2.07950491025075 2.28924739296648 3.28869023966812 -2.60480892869967 3.1037995491725 2.46645253703385 -2.32891734219746 2.03934319428374 2.50899898141558 2.57508668899855 2.17683086950611 2.37429143560696 2.35068744675912 -2.35822070919239 -2.86508932065997 2.54899551558072 2.65877929211708 -2.76824109126122 2.21144536248274 3.16511532975361 -1.97080748498907 2.2243879033228 -2.37096042860296 2.39606618969495 3.57595753436374 1.96176180325452 -3.01980999971025 -1.41203507789083 2.58541529796232 2.74158984097535 2.19330438284153 -3.49421249288284 2.22982737503274 -2.48515808358176 2.35311120761664 3.12219662493414 -2.22054846340826 -2.56811508791328 -2.68872672491979 3.22455463919797 2.53373384705455 -2.19631591827889 -2.17631465733855 2.10560538057755 1.74447444558498 2.61325998924376 2.3182204382996 2.41196738814846 2.42907873613395 -2.50335551872232 3.27590594362303 1.86396963543053 2.49596223420216 2.28647286657869 -2.1965254329727 -2.69938887803582 2.63894743847729 1.48248831092365 -2.44099835920724 2.37088281462442 -2.262384674358 0 4.83856546401496
2.44044923982823 2.28886452413869 -3.0363889212226 -2.50330719721195 -2.85239281422482 -2.56872756040629 -2.84079894745325 2.06924020692575 2.01601923332453 -1.9160212713782 -2.33290499646905 -3.15913607448782 -2.67477945768772 -2.49495831495718 2.19658084031646 2.88314907913656 -2.25063446281907 -2.39533526695749 -2.54794452022681 2.01397535725589 -2.1996833513011 -2.41999908194326 -2.90820524655569 -2.3748586238214 1.12923605321088 -2.50640871707304 2.86044743568591 -2.43086137543837 -2.77957348942209 2.1715602491293 2.56503328127908 2.64926287659072 1.89888218778587 -2.59743265020573 1.89635683754652 -2.27096049991725 2.7082371602806 2.41881952509209 2.80788793549265 1.74248496214333 2.36760223075827 -2.36705498007167 -2.78589947616845 -2.34010729523214 2.31488363858421 2.42078441939586 2.23175232687704 2.43026413276539 2.64729298255947 -2.2413191750986 -2.36975256043021 2.79503834893856 3.23032473286646 -3.32829995848879 3.21159898291361 -2.7839796377177 -2.63728194348442 -2.51489884416101 -2.78324305815977 2.75936186328492 1.99113594864735 0.497267191931285 -2.82848193776199 -1.2847089009741 -2.86959150547222 2.75126729428954 -2.04833388593773 2.73522854036855 -2.67228121401277 2.47267313376912 2.13055265878452 -2.66752364262625 -2.951289436889 -2.45047662977794 2.16391488680337 1.60825285325834 2.4360657269504 -2.76457274631131 2.63996421207534 -2.31010489539109 -2.76648236470878 -2.29356789547928 -2.82835287459302 -2.22438463629026 3.14733230734612 2.76126528597012 1.89909523856449 -2.67618783966047 2.29825755493849 2.88002232943859 -1.98113312968877 2.22938194555292 2.08943488432483 -2.0082188650738 2.07119666593483 -0.79032440857156 -2.36235408299205 -2.44478327276555 2.15341874303054 -2.55347716245211 -2.6994909351288 -2.66722060041078 -1.92675579569944 2.52446480587563 -1.99006414519969 -2.38005002217275 -3.20388518201151 2.15825190116472 2.60253587281239 2.57220459172974 2.97514300056098 -2.87621823385207 -2.31022860533944 2.35322009337343 2.61556775437605 -2.95646437231554 2.45041315514721 -2.34661249172516 2.53129845251075 -2.06427925976486 -2.05677805927811 -3.01536918220898 2.42792703164748 2.13995408433672 2.90485718375664 -2.59690919179201 2.41386499421329 2.51585186438603 2.89134547851279 1.50524090140944 4.41052152912884 3.02133863921873 -1.62355499086997 -2.60288022916139 1.76306796340082 2.83829886355309 -2.46667259909588 2.16939345778352 2.58378491977464 -2.31980674504625 -2.5478541341666 2.53651719552119 2.42045672496489 -2.86094725891739 -3.43421442910499 2.95464592487629 2.61323842761273 2.83837386910918 -2.72221284117694 -2.80715067048119 2.17477937782326 2.0151821323163 2.67098688790447 2.32290660762736 3.64633840080091 2.43948689186512 -2.3096146480151 2.67685914706963 -1.6918500148344 2.49577665807066 -1.81124777343431 2.59013272067958 1.98274248479713 -2.81182112104348 1.92422737761624 2.32838170324894 -2.65982527301673 -2.41251576684915 2.63482021952512 -2.16636390679512 -2.62373370317963 2.22563947324399 2.52923865802732 -2.66773817859988 -1.75527334866161 -2.70935729230175 3.42555075333977 2.75426223881482 2.24013926167389 2.61223934474578 2.32357488790512 -2.30352283698507 -2.01262888832718 -2.73585134863351 -2.74897528084081 2.60578105728899 1.49228957405938 1.19048589991467 3.28991040776445 -1.9790870388189 2.14212647880769 -2.46492951233278 -2.59062954849076 1.95924712211332 -2.22038018255474 -2.53981970526399 2.43534184961256 2.26726031483287 2.2301311752576 -3.69238084157038 2.64789603699953 2.32475022763569 2.69510618795339 -2.53301957372942 2.24357990458465 -1.92847730225186 2.3209453635554 2.99559915716929 2.64957350973892 -2.18366292998829 2.62160957321209 2.56282163773165 -1.98919341107942 -2.69670109231223 -2.61498486290905 2.12448277391536 -2.65895368795651 -2.77554365977757 2.80654461137097 -2.0069281170241 3.03444071731833 2.56971096543289 2.46473049747342 -2.70611697817018 1.85540624658659 2.66072268976185 -2.7769227766829 -2.28768243341869 2.26021435178406 2.25261547636028 2.44397022745194 2.97272326848122 -2.35997464398432 2.64611553084476 1.98981571988797 -1.95887524560124 -2.93143014851296 2.02427350671746 -1.21712461791027 2.36512329270238 3.36707380855418 -2.61510551671487 2.55206539273771 2.81735444964822 -3.14534183429814 2.41346215067016 2.38139670553655 2.01186782274904 2.99918971722576 2.28012545805944 1.85547179508365 -2.70536736209311 -2.18830329356179 2.42145650085387 3.04887944396159 -1.84835326727125 2.82310679405424 3.24476392426692 -2.87863593130609 2.47695756761456 -1.97295517930258 2.69275696080697 1.59324481004125 2.73509074717472 -3.08322284114279 -2.28792036823131 1.98380811068075 2.03517413222061 1.9682553891243 -3.8979364147635 2.41766914506297 -2.97423998655632 2.0778706450534 3.1742407983428 -1.92010812310963 -3.70880821477457 -2.13218097285104 2.53658610623794 2.75392397203644 -2.21913343848731 -2.63909244865906 2.80030782977284 2.67519022195972 2.83515753972784 2.15015081689913 2.21619830232033 2.4076816633929 -2.7598470438135 1.53040326168183 1.9211003342143 1.94122058070015 3.53407702995659 -2.88720631599617 -2.15971257173023 2.16861070415107 0.933213680069599 -1.84347044603584 2.17818984196908 -1.88182809032158 0 6.27846293102942
2.53374670914168 2.22908004113139 -3.46772703832941 -2.70056012249743 -2.16451070613551 -2.7001030741331 -1.95029336998949 2.86046494689397 2.66249916667024 -2.09053358426215 -2.7181048304896 -3.43289110763718 -1.91446005073354 -2.58306476340617 2.14555818738315 3.1386804103704 -2.67899586393126 -2.48506602049248 -2.60237058041515 2.1566764983647 -2.06504941871761 -2.85099242154004 -3.21589738444019 -2.5170585901265 1.75783136940181 -2.03456887216371 2.73874924603675 -2.41113462942512 -2.48856420830976 2.1946997060335 3.09579664262454 2.70657170715727 2.62452232119633 -1.97729955108656 1.69860467966308 -1.75067789917119 3.43565438445118 2.20113212127331 1.13282431768886 1.82621021313774 2.29723314389474 -2.17725882513596 -2.59680550588271 -2.46005434258969 2.11556732788689 2.87436619750919 2.56705357324742 2.69978791284665 2.66181610072095 -2.38070047773396 -1.97847805188755 2.39305988523444 2.0340230711783 -3.77278713714259 0.826160295865022 -2.49674426020702 -2.30156903612353 -2.78814484992112 -2.72087826699253 2.80757324567648 2.01818359682541 -2.21251746100392 -2.45001259960409 -4.02378781456885 -2.87105578039085 2.09216948650511 -2.49562501120686 1.95976126454432 -2.60509697363167 2.25135734035787 1.85951878507071 -2.78967396552052 -3.3565140261202 -2.09516925409191 2.12119433071815 1.74857099638801 2.55904723422485 -2.58130673758406 2.66128177707808 -2.54376122944228 -2.65224555049678 -2.82364828050215 -2.70589323106785 -2.76407730100343 2.60870557405944 2.75576118373015 2.9177226261169 -2.51503348662588 2.73092527103561 2.41005986200438 -2.51513538534505 2.6693803640192 2.16730625462607 -2.61672203264931 2.09001160271382 -1.6746999732105 -2.70244066688487 -2.67313085650067 2.17869500047027 -2.8950133238053 -2.44775897999921 -2.15848613932446 -2.22522086858217 1.84169924037881 -2.74658519068878 -3.3773894061126 -3.38531970562435 2.30741249691397 2.01081485723481 1.99268679495746 2.87511265497798 -2.65994470354859 -2.61839183740835 2.64476276461003 2.7336286412192 -1.99966277050507 2.24645299512589 -2.35185677199624 2.16453372460487 -2.08003254950442 -2.36204690749221 -3.44470947151221 2.18785561098305 2.79786717516515 2.40610580405388 -2.46137280377761 2.59874157381711 2.77991952531571 1.8820192256896 2.7715747451699 2.20685105874263 2.33480280259661 -1.3905367465268 -2.18436931752825 4.02973959870943 2.30398131517882 -2.22028440739365 2.0948846791813 2.63003207943779 -2.17737244499147 -2.13094152497512 2.13735074212748 2.23432810630021 -2.25555411641995 -2.63897732582819 2.48054533234635 2.16967976619253 2.21618301832337 -2.38012994516069 -2.90738718973236 2.56924502021268 2.91163640421546 1.97624004151898 2.3163574191689 2.54311902888804 2.35691337808896 -2.58418727346258 2.90056550192372 -2.47811569191634 2.63888164052242 -2.63991434246026 2.37178219270686 2.61798223196271 -2.21373351657871 2.59313830936637 2.29417444034078 -2.60386241695378 -2.05241870034724 2.96142679764505 -2.56673751372663 -2.64963041123942 2.06311516346556 2.27908613024911 -2.4186725658377 -2.15275555242724 -2.48697137233933 2.86632495983746 2.48328718298153 2.42757724314143 2.86821879509173 1.95111108522761 -2.43008949823495 -1.60408420425265 -2.70686161622812 -2.80957021831516 2.7619658335422 1.83523005958352 2.43357509699302 1.8329526333485 -2.44332882882467 3.00256168222137 -2.83412602882209 -2.77653881091857 2.14464646617167 -1.85509528884911 -2.48885408252708 2.34545076036152 2.5104777437768 2.23546740198854 -2.95054025009172 2.91017321266888 2.62703330239383 2.53350662806081 -2.74956554116853 2.8486691933903 -2.44858415268414 2.44252044914862 1.48603080188453 2.13882939924902 -2.79215285019821 2.74522664631339 2.80497840215453 -2.48461805909332 -2.74833576122217 -2.15592025339589 2.63596385268852 -2.85820607862786 -2.60445781278126 1.95638448699783 -2.40063595644758 2.93005323887694 2.50976569511414 2.13857765412092 -2.51338897490781 1.69246429624668 2.10857921532857 -2.89893143037687 -2.75880188669571 2.86061213630487 2.61623017022082 2.7827362914614 1.33664519691664 -2.96226095251831 2.69059478544242 2.83250604086269 -2.68223324681662 -3.5924846316551 2.06985266981291 -1.497783267129 2.34094331290507 3.15295522388825 -2.15754091898042 2.63188233109263 2.7917991628654 -1.69532429537316 1.92225884428134 2.56232630469512 2.67979673055541 2.09197443766476 2.64010746240621 2.41923220665518 -2.6243852405001 -2.36507212650709 2.79861042511915 3.49664006100919 -2.67288045702138 2.10020476028552 2.72560040669817 -2.24726134154283 2.6783087723158 -2.4754787128221 2.24357536843152 2.14463451042322 2.57620942398061 -2.59072428498293 -2.46979706190037 2.50506605086923 2.49537602171663 2.8885276624257 -2.7626111046964 2.48149736143165 -2.19809145743633 2.58769584694498 2.86642442641834 -2.67464877303244 -1.62748284452227 -2.30689301141202 3.41930573742011 2.47586327443036 -2.53033627687501 -2.37327223547234 2.02011453535045 2.03931239624046 2.11166994462479 2.19748469403849 2.4690388993041 2.50225870018906 -2.45327500210456 1.88082380541082 0.950629453891759 2.64716488733516 1.93107150640556 -2.34876237316131 -2.06178026719395 2.63319329919949 1.33465516436932 -2.48425904493852 2.75006743565604 -2.75630583674056 0 6.00271774440577
2.37196792716377 2.77100897030535 -3.03226284872747 -2.41052024073745 -2.80453583026952 -2.32812642665544 -2.25930324740837 2.64579509072763 2.81863381159418 -2.40498914785206 -2.87339839650454 -3.12978598866252 -2.42405060456654 -2.60967329697816 1.41288350452998 2.40545584810223 -2.17455216081974 -2.12463726967282 -2.74933480882395 1.60413284982093 -1.85121478241174 -2.76757164308073 -2.85615862378433 -2.30820159256668 3.45244325540615 -2.27208202730414 2.24396773978537 -2.07677076211145 -2.8479532557048 1.72372991071238 2.80360378374352 2.19592966506372 2.70795617789806 -2.73977224694046 2.58148754879255 -2.3347782239832 2.43054716190375 2.70323710350316 1.75734504984704 2.13500896443976 2.78445647198447 -1.93391980803529 -2.4282892776455 -2.0991795597385 2.7415834727199 2.35189330716412 2.3395894437715 2.16705785825095 2.72771167327653 -2.32968585837635 -2.56753025687497 2.56307997704737 2.66664128970781 -3.22913574874352 1.93923158331693 -2.52737234665125 -2.42638661623474 -2.61913064050425 -2.7283083888033 2.39303018165826 2.14574043893478 -0.0232928385827272 -2.21157015615815 -2.12342329924871 -2.9037327482931 2.69912094387839 -2.55871065802594 2.18626393462597 -2.56138394955116 2.40615551969091 1.80788965349883 -2.82113884866218 -3.55368126858975 -2.38995323875727 2.48571581899554 3.04320366025394 2.6261564438641 -2.30192134688471 2.76777509207081 -2.33894018422651 -2.65102004042251 -2.76935595412622 -2.72684876788891 -2.17600387505862 2.61991030275444 2.25141273877668 2.61597708810873 -2.65554576645911 2.55756461813298 2.5485672292798 -2.74643406493085 2.05193720526947 2.5138517543678 -2.34545355354719 2.44211907964161 -1.81046166743697 -2.67445797384443 -2.3054336139307 2.19890819694082 -2.06663150430384 -2.3310905319115 -2.59947997246841 -1.84425292225544 1.97274122179664 -2.66442148555683 -1.84891089264662 -2.86864009695414 1.94834114062819 3.18884072528167 2.46314691200294 3.13253392511617 -2.03626700413436 -2.56302660345024 2.36677343592425 2.56743658028858 -3.34980347599251 2.53829056650933 -1.90948027006081 2.13672652235399 -2.67091088042315 -2.85820093503543 -2.46773011958712 2.62618767574788 2.60369199501422 1.91706459008781 -1.97219256713565 2.03132358785089 2.71350634451856 1.71715802334027 2.20763970177212 2.45498918363446 1.89814999981269 -1.68846121407105 -2.86922148227076 1.48769596740795 2.857210380376 -2.61099002952085 2.03346824766471 2.12858846895084 -2.56514531738557 -1.6604000278312 2.58542442502553 2.01594945686872 -3.15767296832936 -3.52872731661504 3.08516816554208 2.55507622501995 2.09208560075026 -2.64227115314659 -2.67014692903067 2.35579427428257 2.52553268670186 2.31956633076423 2.90048480414798 3.19245951737028 1.98886152273789 -2.44936442652666 2.05168061903503 -1.92188895555498 2.21799069027619 -1.46067570826381 2.40065512130891 1.94769642868951 -2.49696877073022 2.88931632383608 2.47321519305305 -2.26632469470625 -2.3189457291178 3.02874271843446 -2.65709338739096 -2.0270953270401 2.45865064268067 2.35057443656949 -1.92150300757605 -1.79043740540058 -2.52233465548553 1.93445513675677 2.47116008326572 2.16318442208372 2.11690342570376 2.0485266676139 -1.96704437617037 -2.26568054218698 -2.5368259536355 -2.89852984126246 2.27879926314404 1.82133818075165 2.18241162207759 2.59284188366007 -2.90309819681626 2.31350215324092 -2.89137713678025 -2.49933383076307 2.0571186468537 -2.10430642124108 -2.57662028158661 2.52604860346771 2.49714170275567 2.10188753275997 -3.19339519312876 2.65419789106705 2.35661991858023 2.85328879040825 -1.99778167878772 2.37355798097009 -2.03067581008027 2.76365605797386 3.57002979823413 2.38549120493645 -2.39577373142306 2.80052903951541 2.72143617724945 -2.39987028040375 -2.33734231769154 -2.63050255909977 2.21993466374287 -1.98816231922765 -2.55571595211154 2.2457392338199 -2.38349930632976 3.02286424885641 2.18658701627766 2.70317837398492 -2.43659125034464 5.68561242136015 2.69957686060694 -2.7837419441165 -2.51815423443505 2.80470360154729 2.14645477518004 2.9228110845487 2.2132436863534 -2.16099564209767 2.09804051185697 2.39118667393371 -2.35243457642321 -3.1118914528714 2.47744221679325 -1.75761375429213 2.32563420168348 2.83641043756783 -2.74470215937625 3.14933894557562 3.08201462389256 -1.96464061905363 2.52467066227134 2.43254915689198 2.59899571658178 2.23707144996993 2.67632631632873 1.88839010675824 -2.65448428859406 -2.3982851372982 2.66511199490159 3.16194375700398 -2.46744553307654 2.46097707721643 2.82973613449056 -2.83800639313708 2.65006201538533 -2.17381233192203 2.4916993143201 1.94652039807135 2.09321787037258 -2.69249111096022 -2.64458577249729 2.20549932780409 2.06335026082808 2.16598759461822 -3.36638032045041 1.89895061766028 -2.9579484224719 2.20478383821673 2.53867962834499 -1.85571875845338 -2.18603688133801 -1.28873425161666 3.03931877850004 2.14493961189879 -2.65086737749983 -2.62192188625277 2.25305469071233 2.07582678273031 2.08813065999833 2.73471877432497 2.35817840363817 1.95903637292019 -2.09684649552518 1.86195603300415 1.70894115947982 2.82805966518321 3.79818630106054 -2.32836910534181 -2.58190385243685 2.30905969650257 5.00816616238814 -2.22363662854152 2.35466275577378 -2.56656752726686 0 5.91850649683807
2.19279128354389 2.07767922060231 -3.10291559623876 -2.80776755087625 -2.2296864344888 -1.83668228725994 -2.84888351935823 2.24483936395793 2.74521905930757 -1.92466140276888 -2.05339452655111 -3.21872848078738 -2.71902716330781 -2.08048869585284 2.44871007633979 3.07058726790142 -2.59847927595435 -2.47968563548819 -2.77382700458519 1.62493055000412 -2.27575289658017 -2.26813561024399 -2.93642107751988 -2.1433598409157 1.93855186813529 -2.48049766987663 2.61498179742066 -1.98843913855029 -2.23022928143003 2.6778971622292 2.40578204883112 1.93175356544124 2.50663657549729 -2.62976699852621 2.93546600816077 -1.91699977001926 2.4432237732352 2.05797463077665 1.89511897719977 2.5144168917478 2.30721962489332 -2.14764861659949 -1.993453348575 -2.2481326172824 2.15312286127494 2.26873278368439 2.57738246841384 2.55729371142415 3.1393472762523 -1.70763625538685 -2.0096597265705 2.09745613762688 2.52651164352103 -2.91812763362424 1.16921033787202 -2.1488326052989 -2.42604962197852 -1.99227953815756 -2.38020115705951 2.24467444250775 2.02465687208594 -0.386785512796579 -2.1533877123702 -2.63209503719321 -2.39624401623486 2.59620430749924 -1.82199869963631 2.71928413020364 -1.95394835950017 2.33140669842823 2.59401252800238 -2.5006049097095 -3.17128733570158 -2.24464972175508 2.54681300069642 2.05691221288625 2.57013805191382 -2.63837842405189 2.46344108554954 -2.41032995012992 -2.19719079522613 -2.7998296735705 -1.92900939304495 -2.19182959736382 2.06694575013235 2.71162393651893 1.93453725150115 -2.41438745606927 2.30493833876869 2.04764692347941 -2.09217351186034 2.55537983311313 2.60190866772204 -2.77720928803922 2.56849958478103 -1.57006248143403 -2.79590391240626 -2.0224551472727 2.52942954260894 -2.30487017668515 -2.4963607167344 -2.05604071019141 -1.78816835332699 2.35237307047723 -2.82269497485898 -1.38584422728054 -3.63366945635016 2.15025451948427 2.43445103973641 2.0274649236962 2.9784595134274 -2.71575641242531 -2.56050186442292 1.99252826033605 2.68627103529897 -3.21416644502688 2.06763502849665 -2.53927827639951 2.83061545068499 -2.79888876419258 -2.20563248171151 -2.5844316600066 2.34379177224681 2.59518113887187 2.01942463485728 -2.55720990880214 2.05451682764647 2.65496819526482 2.14715674702473 1.8464257805807 1.92621453897593 2.64033912632133 -2.74693897830832 -2.93113715633864 1.39570025484935 2.60485370397069 -2.59634223745843 2.15054296551103 2.17792198142972 -2.70843612651252 -2.74879414457061 2.63207809513904 1.87129239865132 -3.28654636780289 -2.40581037506814 3.06600487306478 2.12069188630908 2.66804082961782 -2.63075023028519 -2.577324306968 1.99813200958536 3.04609258026168 2.73872292436924 2.58378971953945 3.11594635815809 2.71473371525412 -2.71338449117276 1.96171963700849 -2.45142478972311 2.5772787316044 -1.54725543678432 2.41091844869096 2.27252526242256 -2.81848882373977 3.65743149169809 2.47077812183622 -2.15117290715575 -2.51775273541223 3.44157029220797 -2.72333641475144 -1.96257255530756 2.76738241522385 2.29447927784601 -1.99972345149667 -1.79536248709376 -1.96682674837776 2.57374612208149 2.18885500062656 2.42538935248782 3.39913359432641 2.66586240007001 -2.36839185612908 -1.93142598343626 -2.67811893259924 -2.95661850576085 2.47747859319716 2.43650469582189 2.35321612081109 2.05816915798015 -2.58720047404566 2.20827264301134 -2.71864712719536 -2.688859171337 2.6615991496371 -2.04862104322233 -1.99250165645273 2.1609071838062 1.88349637919081 2.160793459417 -3.55794449018329 3.10200183641364 2.11094260164724 3.01814845742619 -2.76647806725822 2.59439683607982 -2.6685728277423 2.39877718313909 1.64363657308358 2.02915260152235 -2.77661613700026 2.40510036633158 2.78340594431288 -2.29663843620517 -2.62212207925144 -1.8759228315953 2.00754729584028 -2.83229263799356 -2.79169523849941 2.60445161297746 -2.34911011116079 2.44096714530758 2.83639091603841 1.86856718238954 -2.22770099663659 2.72140327269815 2.55276909683452 -2.1133786242264 -2.21966112844083 2.24389296633329 2.60829348609046 2.37517002426226 1.98791843298203 -3.76545107332271 2.35579295289598 2.78422933888861 -2.27448885094524 -2.78228259791798 2.52141494156566 -4.81300736956386 2.23068558433944 2.6755331583683 -2.06913323734547 2.72892092350925 2.74090773465057 -1.69513592906191 2.23346619106913 2.43026930591142 2.91589154241073 2.3130489672508 2.20464129064034 2.45229177322924 -2.60093679720002 -2.61570612114618 2.83873201152515 2.8281303870331 -1.95691940809518 1.99242569910727 2.89506285329387 -2.47904875846989 2.86259775886742 -2.44172956732509 2.63284708540902 2.1380647019113 2.063070393662 -2.59823942711426 -2.78498322219354 2.75274348067472 1.93549252055402 2.56411952608499 -3.44786246574033 2.31665023914483 -2.52891572414045 2.33270682146125 2.80313945525234 -2.38605178004613 -1.53373879362575 -2.17495398871709 3.55198313886902 2.62508934337654 -2.60871459218034 -2.68643622503261 2.65760525142664 2.19520450102871 2.79573459099935 2.74850902048317 2.18401562343174 1.98026333559293 -2.75290577305387 2.44393473062929 4.64739995112885 2.27530813648016 2.28383424126345 -2.68272352913098 -2.43296734401843 2.47861588960838 2.15091026824535 -3.50192645872749 2.17984542101357 -2.23260826207918 0 3.05238408593593
2.42562487459499 2.52020297890804 -2.58163668858783 -2.6755159680484 -2.08317259258666 -2.39373424329414 -2.08318584883281 2.48907803689168 2.5844066403159 -2.25729812320954 -2.56667169783286 -3.08147774605272 -2.35931281023773 -2.64554030201169 2.52650884932696 2.87994891314018 -2.79099313861098 -1.91553618682261 -2.70468682040262 1.67123892722845 -1.96858669623351 -2.00722366941126 -3.31883938882367 -2.63832458752333 1.42909596665836 -2.64917696637145 2.30262353299725 -2.02709713974095 -2.80276441618765 1.8386802125186 2.74714198542269 2.82091049778617 2.13987973771966 -1.91791718486249 2.28098303336978 -1.76564791553321 2.29270801694447 2.27481270471647 1.90580269451727 2.00047746521035 2.32343258766902 -2.19164702246281 -2.47328616108884 -2.76151514528155 2.12420308624706 2.64765493072353 2.74696024476396 2.58682977428818 2.6142328878848 -2.58394743150511 -2.66054296354468 1.97489894833098 3.00425464137633 -3.38712299138911 2.89405400273298 -2.21154045837032 -2.78343207448771 -2.4716931569071 -2.47462288786624 2.50573917155261 2.71646182516805 -1.35984844158727 -2.40412162617477 -1.24692139700595 -2.77392766822894 2.61814267031961 -1.22232246525343 2.43626097147933 -2.34725895020805 2.01017390560145 2.18448937162912 -2.97186216829827 -2.64736259683739 -1.96100066630603 2.49761270716099 1.89961953839284 2.15179676572607 -2.5010805517258 1.89994661421684 -1.99887980226117 -2.41113676808344 -2.27411917654655 -2.83266129477882 -2.75215811762769 2.7882117311404 2.51058529304324 2.20823900764361 -2.06513931242499 1.91815618936844 2.83576560798558 -2.24608686023044 2.64746600362282 1.94876376914127 -2.42151294787329 2.53974700357809 -1.99880204230553 -2.75170660769589 -2.18325230434715 2.6718359266085 -2.36061052628891 -2.70407006389072 -2.47078061120986 -3.48438958252488 2.32923628771904 -2.38603648816947 -2.02794258884481 -2.88073206670325 2.76538413404548 2.51878528130973 2.29261262804675 2.6044411859034 -2.13931305527936 -2.58576253243945 2.36272395019396 2.52874062926575 -2.90064726472063 2.77465547114371 -2.28908495466307 2.63007904374415 -2.02962101652025 -2.20206295938771 -3.05900027946708 2.39398598315396 2.45702020046774 2.14206886591091 -2.12286268216533 2.31124699768473 2.09883864992813 1.73896389263636 2.49653040053917 2.12504585395295 2.65604462326547 -2.00008786131853 -2.29026851859336 2.43502294710124 2.78408055303277 -2.55195404768445 2.27978672279409 2.31508549750544 -2.59453960554642 -2.04780756179531 2.00510772313342 3.10134850195106 -2.5490005656974 -1.97274134272125 3.03909201688397 2.31525437126259 2.32928002772032 -2.75406657780797 -3.30663393475228 2.50137122129907 2.61506496776966 2.81307024682193 2.85660458681095 2.64295762418051 2.80057121308151 -2.13491499259867 2.43263451297534 -3.44050567482626 2.68903432371345 -1.98625794943214 1.87955669099767 2.57015031093976 -2.22832457087535 2.54351962038801 2.25989882253074 -2.54691112768929 -2.24617352097468 3.16705409925351 -2.40408071139683 -1.85310377188627 2.42769850240931 2.65930746212476 -2.30362183120326 -2.59180916199292 -2.32381914009865 2.69428963985977 2.01368834474149 2.78932150010462 2.42742935866409 2.06135258679411 -2.7502410483584 -5.43556106101214 -2.18284818871613 -2.76592678596779 2.52694804442016 2.26589455305058 1.78034717338589 2.86694259601555 -2.08359774090799 1.95572791395003 -2.37416831718318 -2.59890068040846 2.60338955483193 -3.37029200061699 -2.0481623445716 2.26949469084085 2.13191932325245 2.78815040508142 -3.21989939249344 2.43565820189296 2.53803592398183 2.33102788631598 -2.23019058748468 2.23584015199676 -2.75792633605004 2.74606698052478 1.43398474552766 2.72903878761464 -2.50126652815041 2.90391019085808 2.63940128147434 -1.96075027441085 -2.37639677590909 -2.24423194188389 2.70194664066316 -2.00030037486686 -2.29519162573174 1.98758493197966 -2.56193251398364 3.26068657390663 2.70017667446949 2.81301443830432 -2.75591015849891 2.53001904013141 2.29208054329334 -2.63275074127615 -2.74582169378511 2.02460704319959 2.14975436253879 1.91143883613481 1.46360430291745 -2.43760469122416 2.4164749618591 1.85225237031325 -2.52777178455268 -2.99063656359314 2.3427847451426 -1.70800732748761 2.40759278757999 3.16672650029999 -2.57829749374043 2.41895059988109 2.92733025225558 -3.15330429462512 2.27319042640957 2.51726455053695 2.59329895067529 1.50950379017945 2.29643211979577 2.82400454778564 -2.2428648849386 -2.6584350890104 2.72527927749692 3.55571027411051 -2.14106348075016 2.36568689610345 2.92156702858982 -2.59155310064457 2.8138439970063 -2.02480814761986 2.54933120852979 2.43374309189084 2.25001712668408 -2.8364394408763 -2.29016036429902 2.40027317103892 2.24686638613708 2.50756333105523 -3.13773443604009 2.1443143686093 -2.80093461867418 2.16417128785141 3.12249536120804 -2.17176685246424 -1.74700071330534 -2.43554536788273 3.04539478579059 2.76367151862835 -1.86419127431807 -2.07470905282846 2.28123605940315 2.17464450067581 2.61506170569998 2.21528156520541 2.30538239834131 2.63669113218846 -2.45619031157765 4.18893912370879 1.92899423239258 2.4095263876206 2.26884346653101 -2.53237717100059 -2.26684138770448 2.41728562410261 1.73935593445563 -1.96543281426484 2.80681472830237 -2.64353026942722 0 4.56478264670568
2.73633669018921 2.17835130677625 -3.11613107682843 -2.44424733056839 -2.86258313803106 -2.15951208452937 -2.55450783884174 2.40969746361369 2.28259219626488 -2.32886968369763 -3.53738029017003 -3.40775211919369 -2.14998706924577 -2.64507594464539 1.85762638218981 2.58684716159552 -2.15374686179536 -2.28481620296485 -2.76103595854257 2.951222853158 -1.73286549472602 -2.64360766939307 -2.91360493091712 -2.90738389700607 2.6883263937752 -2.07918780121359 1.95157775419049 -2.2120988591549 -2.80245159954108 2.33194865306169 2.92045507569573 2.33970738077261 2.21301812742966 -2.45066920393011 1.72369020715537 -2.85611559006325 2.81678009068573 2.05071812745202 1.82057577976422 2.78563034699959 2.01801136779329 -2.61421282770453 -1.97288751512284 -2.31409669043376 2.78253077999681 2.31309705667887 2.15075414151669 2.87699441766319 2.48357041769484 -2.6020219758364 -1.87859359886015 2.1631634450769 2.28577289074912 -3.37859628543101 2.29463393640306 -2.35419968336933 -2.12336815577564 -2.65932203768851 -2.80958873532209 2.36155305181883 2.44324989724957 0.878078486310283 -2.48710794591273 -1.74111332340278 -3.0257159678003 2.84970371699435 -4.37670164298235 2.0426553962143 -2.69619600953101 2.4283445356664 2.07610870271683 -3.14896254715349 -3.2792531461588 -2.41649510047118 2.48614683027142 1.9939566920883 2.09683595589953 -1.94159621011955 1.99436537733712 -2.41692827401048 -2.27186268323646 -2.67069262953567 -2.65430464334271 -2.85468593734283 2.5657458407824 3.26472718994874 3.84875650143861 -2.07374698701227 2.88297139349276 2.37066786731151 -1.99396843173366 2.6821787404678 2.07788445677026 -2.71085739421018 2.16763327960939 -2.0020278603639 -2.01039000682906 -2.57246392815504 2.6590978664395 -2.75108339018572 -2.61403736769177 -2.03756378962837 -1.0740591156728 2.61335603413585 -2.22328172940328 -1.92331065707575 -3.80808590470747 2.01596387802749 2.77932598938331 2.8113805724162 2.66501701567324 -2.19062631083839 -2.71312067781367 2.47949305738106 2.77444110083387 -3.0706163224598 2.29782604889648 -2.42996256218855 2.85200075200823 -2.46995952782048 -2.7384473518816 -3.32555671089367 2.20119666887338 2.61734557577999 3.34278638777954 -2.42408136627433 2.71314054143307 2.65593206120648 1.74374492975964 1.27614636401334 1.53095739625521 2.75460512038836 -2.10904545222645 -2.86009206926447 1.12437153565656 2.61999592839182 -2.53893261846343 2.2912159099591 2.03606687530029 -2.43808542175799 -2.05299480751825 2.48382300725326 2.70329742431953 -2.83157375726549 -3.36128130944104 2.82332227711488 2.40989626406989 2.25410354379367 -2.63229371472635 -3.06141501349049 2.00795301944831 2.54236462914502 2.47144986734679 2.20094014902571 3.76450191335435 1.939015620753 -2.57254178240141 1.91295446288828 -2.10365796314759 1.9915027737957 -2.55259241203912 2.36888961316681 2.83784562867579 -2.23197380198179 2.2157895193364 2.77813821173858 -2.31263756286854 -3.18295633866995 3.21155265665438 -2.74959165165586 -1.92660644805106 2.90023713523109 1.93587915192372 -2.40109637805442 -1.58882723649403 -2.34379867301364 2.58137461294184 2.08773616208746 2.33590320181133 2.23203745206342 2.76733384516899 -2.61673767655219 -1.91134814103191 -2.25250034492885 -3.02820057712973 2.52983244868593 1.68775554341472 3.89287304503509 2.18774458783379 -2.66019372334307 2.10621578682914 -2.51972003127682 -2.80241648743428 2.14110427942236 -0.599201232156529 -2.49935906701959 2.5030455817584 2.25182314485765 2.87766254958714 -2.81267700464201 2.56851419575027 2.38042931585903 3.46973975747842 -2.78368481426996 2.73338219160649 -2.80614733518542 2.37251134734104 1.11932055429519 2.58590883923994 -2.47571589171272 2.69922753041358 2.20080162859512 -2.39008579112732 -2.05456635066077 -2.63880215650839 2.31584440748398 -2.87710353103479 -2.48221691201547 2.52557009144022 -1.97968545616182 3.42276422317319 2.5955313003597 2.76451043979824 -2.75311312148293 1.6763573457185 2.47840771901446 -2.07129077134623 -2.12105007195308 2.52060792717295 2.13556553304063 2.62716315827235 3.40881376563771 -2.73732618305478 2.54410895749135 2.56184053114969 -2.65088218248891 -2.78078753527907 2.25230463437381 -1.08687608471358 2.7117212773433 3.6692902273609 -2.53085564264727 2.42284574471568 2.83409286782338 -1.91539798157965 2.63707338606008 2.7550403277767 2.08557787608985 1.73134026726073 2.16977324988119 2.11855521196724 -2.80688054995719 -2.21326487569739 2.06909223529903 3.55694925380394 -2.00422381387751 2.61829734284493 2.51384042655074 -2.83224978865941 2.18665060994628 -2.66869394064483 2.55087644637165 2.77746338620489 2.37994384399657 -2.92610501496567 -1.68003893956246 2.05223558577255 2.78536989501249 1.69883223301871 -3.0685156444511 1.96246145739683 -2.60855409183319 1.99572703259144 2.93928083271753 -2.67525257035407 -1.36926337351152 -2.12711807329103 2.82313265470599 2.63177556766502 -2.78354202022925 -2.15205290870253 2.51048909071502 3.02911976533426 2.30526782396411 2.79419418353772 2.64853189293501 2.07611578350377 -2.73006914847011 1.90649143440789 1.87211283030356 2.5755105724637 3.10602899182189 -2.4998961917634 -2.6158950365089 2.57959375833091 0.5993114652609 -2.15676178508067 2.55322432957803 -2.61165829168917 0 7.39304033912921
2.65644747833668 2.78963681757645 -3.14208104920072 -2.80438916066766 -2.80836840341141 -2.18218326284847 -2.87255045065102 1.94815774941917 2.05113555056728 -2.75844016714184 -2.75984027583286 -3.15569663998815 -2.7512772231952 -1.91485348002923 2.19880805490682 2.6693145876287 -1.95444612388455 -2.71849143395987 -2.52820925165407 2.61128265022704 -1.97637151206741 -2.82269121959965 -2.93804486650455 -2.67255657050171 1.77141844140541 -2.08715161834356 2.12607945049125 -2.06560237560846 -1.97231330310507 2.48911442470242 3.08188037748039 2.84823361966686 2.88252939103041 -2.63543363064787 1.96854905066062 -1.51728196637917 3.01351682744258 2.66394573873836 1.63774622840542 1.80289057984158 2.65723167126147 -2.57719952529215 -2.00612970875812 -2.49448849047156 2.37959152735824 2.37507241229033 2.29324315077223 2.4095761601594 2.70991380429323 -2.5823310915164 -2.6131998978238 2.50016080327459 2.00314763460936 -3.26005594669658 3.50384584997447 -2.28476160485936 -2.12066572330194 -2.11931726476399 -2.11793317841331 2.26892686050147 2.30189538915848 -2.17921902333989 -2.84404625271816 -0.0422260618376243 -3.12782380673193 2.26153225419918 -2.49476400137199 2.75770085597665 -2.31886659570907 2.62790759556434 1.9155802901003 -2.87414071029557 -2.57662101480017 -2.55245848930051 2.70158949462934 2.26812386983955 2.00179497207016 -2.17013359970039 2.77808974731347 -1.99374270012815 -2.2934997691562 -2.00155453665688 -2.74626507961431 -2.02564151691094 2.58943896543088 2.78614882093117 3.50146797548097 -2.55264552225638 2.49839769847219 2.59618475047748 -2.00711804063864 2.65683616614475 2.75432403598191 -1.99913528730943 2.68705654538219 -2.15740687401468 -2.71783247313353 -2.24073802582959 1.87104933005603 -2.76196889567943 -1.93729020067486 -2.41695442418559 -1.97086921037081 2.65971380697431 -2.00306962336965 -3.50871869293522 -3.20232525704004 2.50779585839013 2.7865920762137 1.80048091126367 2.91575984980338 -2.7647913837725 -2.00120013313602 2.73504046576969 2.79178589895172 -2.72373775924337 2.86110999502958 -2.52700330142247 2.39220170776763 -2.92938590710517 -2.45153624011317 -2.93802322687399 2.2071697945949 2.81430618261088 2.26342609020729 -2.45041193828382 1.95383511398347 2.82477848754497 1.91672966972711 1.57993567598796 2.11835800900106 2.31816109718402 -1.74560321688892 -2.14534674881069 3.67776105297009 2.00304326740736 -2.84344956606785 2.16958232263065 2.57569883818154 -2.35954583644326 -2.45735491278287 2.13635385116428 2.43255429572896 -2.63730536655383 -3.0886919244434 2.79542513476344 2.53787300329894 1.98566266994293 -2.85587417236903 -2.86746537592973 2.68824401899686 2.68736195132804 1.96372228602856 2.81834050646936 2.82667782531087 2.82671588415835 -2.86213753397247 3.1210997956757 -2.49144710616783 2.41639135204936 -1.56388562979905 2.7563285235626 2.03000573517003 -2.41692453913007 2.75374488004296 2.75875803702856 -2.4253827174424 -2.74245043768067 2.95944688400003 -2.14768430538459 -2.3852042246428 2.61157079255103 2.18016934769953 -2.76367201471094 -1.9106650714604 -2.58059686045073 2.16619721510198 2.67742128552786 2.69138574775487 2.12447267656266 2.49109237203564 -2.81604521771591 -1.01501552169214 -2.5255799656146 -2.64695916233332 2.39852169666545 2.12719245848277 2.04135498110619 2.48875247172085 -2.86263271452988 2.77398096926189 -2.8357198999319 -2.74775222523562 2.35705935656869 -1.72531052368379 -2.24610680538039 1.92584398573986 1.95355697191492 2.62300585614739 -2.99223036855585 2.1014969798682 2.53349500786731 2.57745407903747 -2.6713577146545 2.57138209874683 -1.9567564550933 2.53402001857854 2.08520393227687 2.27817569123185 -2.4960799422716 2.53254451123353 2.22366393965721 -2.72671537011975 -2.91477079343663 -1.94765925837304 2.72603633263553 -1.98966960729202 -2.14404352875073 2.8413110026264 -2.57881376506191 3.09912887868775 2.58430985092198 2.77775563483596 -2.00663867121409 3.35848335106055 2.25609937609885 -2.34886001232101 -2.07552566513573 2.37384768150515 2.86162819445763 2.08700526479095 2.05243213575597 -2.76789881859174 2.31143349731869 2.56879375811209 -2.05849902571157 -2.74363606340704 2.64092116128381 -1.76901460457236 2.56475126845354 3.16772004149437 -2.62824386947124 2.24806563553512 2.82671751103951 -1.87669685563272 2.53852771176521 2.80981291796757 1.96461460485016 1.84531017215489 2.61777164112516 2.62524927761012 -2.60114543615914 -2.72582790821792 2.51062429715142 3.47639372016562 -2.24316480791077 2.66094610115581 3.24234400327488 -2.44916087447318 2.25264440293213 -2.48202548147843 2.63020162156022 1.9256803110118 1.98670047866281 -2.89491739963571 -3.18498743177363 2.09571275384627 2.33184130857933 2.57049883297953 -3.1728283088519 2.74295491861314 -2.62755959223018 1.9507533692378 3.07527739432553 -2.44378751830609 -1.8951001128779 -2.31906198168369 3.02266811887075 2.18328599234174 -2.83649527061018 -2.47687910179561 2.36350073793804 1.8339443145054 2.69551625335212 2.16260726917368 2.81697767461378 2.11411940894336 -2.37053531236981 1.97852288623342 1.63381478635067 1.9682835568343 2.64084476745531 -2.70420687555373 -2.50076517221029 2.11181959048053 1.41511762306523 -2.84260988191592 2.857036231409 -2.25947153983092 0 7.47887663382468
