2.082504774534 3.18171936866533 -3.00584810284026 -2.55875833117816 -1.96256080800945 -2.95773423443559 -2.37618225342702 2.67020312637029 2.78220085574415 -2.16083564913137 -2.11884927879381 -2.83638086433906 -2.21051002325662 -2.03405624682584 3.5103777086652 3.22654459265138 -2.50890761139367 -3.54236154534086 -2.88373693017006 2.00241336946597 -2.46124713180445 -2.50700900579722 -3.26711704969226 -2.68574626526056 2.39542343795355 -2.42716264990054 2.07253432343989 -2.38763747453366 -2.30527052150646 2.25797943908456 2.98039810169481 2.45065221804092 2.4791449095135 -2.10287169479765 2.5967053139935 -1.71320982220097 2.54880259134852 2.5695275297226 2.03148601205555 1.95609582551739 2.16096111950914 -1.89018529411969 -2.62877452675369 -2.63269082765748 2.22454154159944 2.76760491078051 2.39074189150574 2.44481019194475 2.32157899250339 -2.30612776034167 -2.47037178534355 2.49491829208223 2.44749722886449 -2.90051138942566 1.36193466588431 -2.08322388569685 -2.03886524528349 -2.81829323048931 -2.13472498314661 2.41752659803358 2.81973981345065 -0.215522709408931 -2.65859480037258 -1.59251371496331 -2.69502684455612 2.86279710244087 -2.16263773342977 2.61639803038699 -1.90364750347453 2.68092745558747 2.93463775413509 -2.53475023535349 -3.23298049769132 -2.87846303366434 2.22583655879217 2.32189524180453 1.94663175995652 -2.07656518336601 2.63559277653813 -2.1325678461137 -1.93837026750044 -1.95395548446975 -2.45105548749461 -2.61026495328462 2.53504768949023 2.76195783057482 2.48387596461516 -2.57730761392117 2.74225173400073 2.05669080771647 -2.87105751156741 2.73628490806375 2.58138747808877 -2.5464029478401 2.353377814609 -1.84143042940331 -2.18851800477734 -1.92263150005668 2.39395560565537 -2.58953035795771 -2.57573185774539 -2.08940424289379 -2.20764481454198 2.06396520901164 -2.4728823395712 -1.9096240987985 -2.91934038933312 2.56283374987858 2.6656230434511 2.31271223564434 2.99603383566853 -2.75801203873905 -2.61741403700195 2.8562314037819 2.60942417548839 -2.96724929247597 2.45842086233737 -1.8976271369789 2.78836213482717 -2.52826752379097 -2.65310186907246 -2.60406351545104 1.9151570880327 2.69946679569792 2.07585856319713 -2.8173489838341 2.46159598771756 2.10393734186553 1.72699870974579 2.19426077662824 1.9683016346585 2.1376016913721 -1.99758683542465 -2.34426369111036 1.64994121315735 2.02530844475838 -2.30561867738046 1.95093088539719 2.49348799930332 -2.18990364320806 -3.8859676292904 1.91508589092045 2.1686810892734 -3.36603957709641 -2.37299563723628 2.99392587845878 2.30125655490055 2.81181107564164 -2.25692697069267 -2.45042196264854 2.50553682874145 2.92119172784743 1.95870463205376 2.13503279608666 1.69480129872041 2.72405899883049 -2.44274596951909 2.30277232208724 -2.13683116400199 2.18324639524442 -4.60232590293902 2.59710315811245 2.11497167823002 -2.19110894792748 2.15864868058874 2.52058645239098 -1.95125103405763 -2.07331562123908 2.83538581645926 -2.26344945248941 -2.36886724926285 2.44445305942653 1.99077743891559 -2.48571476976532 -4.19913086388867 -2.65285331448573 1.96198712241584 2.68440957490959 1.74994278472352 2.58819932136808 2.30928962415867 -2.13782014521692 -1.86564343179503 -3.25838695600596 -2.52310741641513 2.69447860765299 1.71325246797304 2.61338101984368 2.66247016280725 -2.26486385898312 2.17951330578496 -2.82192780276919 -2.46161611341724 2.40463414274289 -2.26901390682062 -2.38023935998415 2.6201344711002 2.47998162055243 1.90866555650843 -3.18553407751224 2.00590841847955 2.7199817932245 2.16233390209932 -2.78998273873214 2.99549085079149 -2.82380112718253 2.52478270747903 2.247654378208 2.03446175547537 -1.95788752056857 2.91468968006606 2.72873883467254 -2.65747322100879 -2.05734701355194 -1.99585189100949 2.18981863965329 -2.64944528223229 -2.75163429359558 2.10106489296155 -2.39926490571934 2.55498424028909 2.72861619225607 2.20490105541602 -2.03592132299585 2.41350767321062 2.37978282442415 -2.75255680130452 -2.58429885013177 2.46833350019493 2.47820559096199 2.28284098148967 1.84842973111043 -2.16437869595016 2.05538032966681 2.54324475299041 -2.33631211779212 -2.89890355308451 2.33883850740199 -2.43288767287378 2.7314476753604 2.48304266117676 -2.68621133741007 2.9752844348592 2.77152572497354 -1.89897647596415 2.68215208584277 2.67534140134164 2.45248278698961 2.24476631785321 2.22513501995422 1.9345122574542 -2.19016792300782 -2.40274847473991 2.64942435171835 2.66278210423815 -2.53949920212618 2.57799784579813 2.85698002835025 -1.94652227366242 2.37745957206177 -1.95152232324491 1.89081882342933 2.37636534587127 2.17844329816061 -2.52684260203236 -4.07978768782661 1.92953565731923 1.74382139044464 2.06985805147177 -3.27983204430553 1.84743617362731 -2.49140875664947 2.74470656783539 2.79248803153432 -2.65645225932427 -1.75153520148708 -4.5629723701331 2.93724988032019 2.80709113478065 -2.37187776772465 -2.26554154259746 2.4239089164989 2.48096624730624 2.18115790410636 2.20440937210301 2.65182487857751 2.75340881832216 -2.67919160312759 1.88545868371532 2.78714056939692 2.72236811498165 2.05428076389312 -2.26045709987959 -2.12085834013466 2.44971132918249 2.47251631162222 -2.73894053093079 2.1641009570401 -2.70176255627827 0 2.19297023886067
2.46421325199895 2.64839366225679 -2.55612233928428 -2.79129847316453 -2.5747879907884 -2.21429670197915 -2.04142349425385 2.79135930284309 2.63739882225446 -1.95064726296226 -2.41580914112103 -3.18226856766804 -2.18008221861637 -2.44846358780506 2.61386968781454 2.79886722975052 -2.70277377122843 -1.98399248904729 -2.56738222122455 2.44904336061906 -2.73175514072103 -1.91528727327385 -2.34157642423344 -3.64949281462836 1.64383066169647 -2.30413817089922 2.0317576239765 -2.73660746619526 -2.88233109788522 2.23351245265081 3.03835081174134 2.68340141187553 2.41098824650722 -2.67294938220242 2.78630171410952 -1.85493777142902 1.97910829401152 2.60786195370105 2.14588990848933 2.89567788170047 2.71977394077842 -2.64295868182659 -2.56496161777148 -2.26564887973976 2.4528732327194 2.84225371704441 2.80337763514888 2.03896932425161 2.91793452778357 -2.51766428426415 -2.78735069288165 2.06637731880575 1.89485079711078 -3.54166515866889 1.14876792936153 -2.43114178873635 -2.82037309747379 -2.85120431448956 -2.14874263896592 2.79034163586564 2.25427192397966 0.240152512122194 -1.98582082336916 -1.34117172894806 -2.49959565896797 2.16215700811478 -2.22038520690649 2.26589437411591 -2.45791236121569 2.79852182063419 2.1253572818106 -2.67245531984842 -2.77103381607912 -2.43137051265121 2.67841083138135 1.82490599201992 2.28927241492284 -2.79453624220998 2.81673018492148 -2.22427135208789 -2.38900410823065 -2.77892320618541 -2.63970037364865 -2.10386363319279 2.59131183115093 2.85965550818347 2.37695847846362 -2.78024138474106 2.67498025133157 2.27215656863615 -2.01173819299287 1.93522027445516 2.92475983661505 -2.84431742440622 2.32119606113367 -4.03065876185086 -2.67891343742803 -2.43658272036829 2.68210964249536 -2.62624909808817 -2.50692360213073 -2.35206248580539 -4.5021431595416 2.73772363281734 -2.08967436973011 -1.91218643991258 -3.00728721410831 2.43823662065855 2.47975535391393 2.12792013877922 3.11208415580543 -1.91058671463467 -2.81821736684801 1.90977684092336 2.66783024972888 -3.00232482194459 2.34164236103253 -2.75442238912637 1.94751368558136 -2.78226056348907 -2.43166361219742 -3.07862254457643 2.5925908021528 1.97449899333173 1.92892222665505 -2.5537843162938 2.21989275090143 2.80316622993527 1.50268898431836 4.54981263533943 1.45600559304002 2.09900984115686 -2.82699480434759 -2.1762686226409 1.76100938358361 1.98993224279241 -2.54511190135196 2.22958216232184 1.79212358764828 -2.66200551130775 -2.37299423719673 2.16956585463734 2.20023242937308 -2.52698255427375 -2.31065496920955 3.20520655084058 2.58854085145264 2.85150542054396 -2.25122696267807 -3.01398425132022 2.44816727232109 2.37557491649128 2.28224136157013 2.71851614480988 3.25814665406273 2.837555126481 -2.26851899583722 2.45462872763836 -1.94052637482961 2.32656853491174 -2.25087168074324 2.15654382729754 2.37092771360507 -2.14003776451744 2.09890442827693 2.67017841168161 -2.14258974702123 -2.56558123584304 3.02000266415225 -2.60207663816584 -2.88398760904129 2.08201674222921 1.95717047700841 -1.88519338399797 -2.06476041606089 -2.70107623574035 3.16061057701814 2.06778542534669 2.43877672680069 2.06540301441872 2.21818136143475 -2.47203841603116 -2.1771492339581 -2.10202378321091 -3.00517808274553 3.00004372999509 3.80295848775076 1.98586564032037 2.80544948570627 -2.48698645305432 2.2225460036031 -2.21834352370861 -2.40194788078742 2.42158783418131 -1.72747566878094 -2.58667533626086 2.6036400454651 2.64395703040479 2.16742658705635 -2.45618505669262 2.0913055173607 2.40439982974521 2.14982431514009 -2.55021044652932 1.98742978288528 -2.47581667761612 1.89856893110145 1.29198469365543 2.26644876661952 -2.23592717345013 2.10187756271547 2.4194466274217 -2.89043336489628 -2.18263443198014 -2.69099258803036 2.76786160287626 -2.89374592661245 -2.55909924980159 2.46570632816788 -2.42954495681403 3.18374727122072 2.21877958103971 2.27319843533113 -2.5337713272428 2.46394574384593 2.19710815323806 -2.18717689052578 -2.36724793474774 1.94906897698889 2.06248862396611 2.27306549771414 1.7766733728182 -2.15345134216915 2.77290109767606 2.80080097482761 -2.20482588372981 -3.04266580285468 2.77904300997464 -1.3634438402064 2.79815180444913 3.21142860878591 -2.59060438285498 2.26287711646579 2.95156021782532 -1.97037741611683 2.61651457641811 2.56880779285336 2.60247772309429 1.99506032144277 2.8128465556593 1.93070467356064 -2.6222732983497 -2.67387749803624 1.93931168071983 2.99397823573354 -2.02492072911205 2.06330784136234 3.053629010744 -2.45889383868034 2.670611235746 -2.18022663509804 2.32812840068594 2.07692409084463 2.01558596688515 -2.643929350565 -1.86196748987412 2.53510233547598 1.89498708366231 2.40175879661132 -3.31793888010033 2.51850385308169 -2.92331284227738 2.52655491107308 2.68825367073065 -2.42367597363288 -2.16000219623257 -2.30906536885567 3.09069290553342 2.85973308603233 -2.76818018315704 -2.26291124431965 2.84651562584283 1.80356277916963 2.01798050819172 2.74406989172397 2.01422385531356 2.73458183810227 -1.87767555967968 2.42833676394691 1.72200603073527 2.32142508786207 1.94500716372393 -2.37795945820181 -2.71906010043608 1.95567390432698 2.13747286219235 -2.0365493266857 2.67271746875448 -2.81341150760217 0 2.25253883423719
2.09727220090538 3.13384386419037 -3.23956433715887 -2.13531444164541 -2.6385837358106 -2.89473039820487 -2.21778220725881 2.25346240669885 2.60719230453779 -2.38274419547994 -2.11506590267569 -3.11715422401891 -1.93243343820066 -2.7358064726229 2.14230435455402 3.0632502910216 -2.39109458918989 -2.23059740732401 -2.7707883458654 1.59003966778169 -2.97886729758793 -2.11330330817611 -3.7498465937706 -2.48009757361136 1.40834922495517 -2.22764550235482 2.27213265695427 -2.33903389915207 -2.15190250202244 3.3741455317984 3.04708287204655 2.39163710846399 2.07110736420097 -2.29269183179195 2.54334640317693 -3.23486940769747 3.0365725076465 2.16542756629681 5.23786900090091 2.57652498179044 2.32318440389948 -2.24291138805811 -2.73863820949185 -2.08108637728224 2.54270189367035 2.12803162862361 2.34362646361579 2.14914644955985 2.8417063136095 -2.33011830197379 -2.63421164003739 2.4436463582876 2.17750236332576 -2.84769277176116 1.3853100913144 -2.55012732130511 -2.23844797719561 -2.44005688011739 -1.97008255556413 2.56006087112297 2.46737525302617 -0.965728645757859 -2.22333321034258 -2.73070188835898 -2.66132695338941 2.80131837391528 -2.52852898020461 2.17694407199856 -2.48803495105274 1.86457518841517 2.46422465862815 -3.28379306223287 -1.88542305237141 -2.17342060667092 2.39122375435238 1.96353094365864 2.38622909891814 -2.66613393102528 2.82712206478639 -2.19604728288809 -2.4314712446965 -2.49081431270721 -2.34512198390157 -2.44959886378945 2.38187659749467 2.21226719461062 2.02582605098914 -2.62967178109399 2.07633893123627 2.35135588814045 -2.37153657335984 2.43850810554185 2.0043017828354 -2.70947311689766 2.85073193278149 -2.61718142257268 -2.02023701547877 -2.64834925034886 2.093537276277 -2.16888483247359 -2.37248790310084 -2.11992598248521 -1.71804389205954 2.64178650775079 -2.38675494621102 -2.3763671677416 -3.26694491231324 2.53210150953777 2.03541300484423 2.5563784630804 2.923174410027 -2.57360393297544 -2.42256329507911 2.0609462243095 2.489521417512 -2.98274452859898 2.50516546820325 -2.5941890490998 2.15167512092442 -2.50094194260103 -2.03738238054348 -2.67042841160659 2.10992692538251 2.74978690177498 2.1585268650251 -2.55934197167975 2.56360229934884 2.141759077851 2.98414706396411 1.81185439010398 1.7398175681459 2.41700896094729 -2.43065303526684 -2.45716902181234 1.63688960116935 2.37945540349231 -2.39749060611277 2.43657759578802 2.50342042756608 -2.2410892845669 -2.63362260319395 2.26791630923859 2.85382530523156 -2.64880383951273 -1.89230290920944 2.51223122317639 1.86444962121478 2.06944396231724 -2.10593691835999 -2.57338404368695 2.49308767543115 2.88196418857553 2.77924604575056 2.72529964143891 3.16415747688647 2.56809893711852 -2.38799363873101 3.10502178555007 -2.40881339179885 2.16822403004606 -3.24132213177415 2.64993711299855 2.87986440848295 -2.02684999144586 1.99407995039228 2.69550488797938 -2.53550844470708 -3.01644571410361 3.46489207817752 -1.99751631463617 -1.96948858638457 1.98617193286679 2.2349514882975 -2.12052759217456 -2.37248177000801 -2.398790975241 2.57250850825483 2.81795783765685 2.27162827847729 1.79991987579161 2.00280750220397 -2.3377685175934 -2.18614058391456 -2.24631123427303 -2.54193729397078 2.79255167392585 2.291738967437 2.27456481267164 3.22144307665039 -2.30213892480936 2.79186122102323 -2.38332605266483 -2.80513447484705 2.54682253327581 -4.59592610897868 -2.67146934404099 2.19858729274217 1.9466962263015 2.82737710790024 -3.30664742464442 1.6657675357343 1.8046396527644 2.71353170126577 -1.96395249845028 2.57280471488664 -2.35924547967313 2.11151973323786 1.37776324318189 2.28198285729466 -2.36562177840092 3.34063975043263 2.49641611282232 -2.07248080596127 -2.53062336111172 -2.67091895208192 2.57919773752231 -2.54574075126832 -2.27459163409081 1.96677379822884 -2.55624765588779 3.24510704480389 1.98943768209556 2.43444605634421 -2.47916706687396 2.1443405454122 2.29343127144912 -2.89340439080661 -2.11865133715044 2.20968057888899 2.13380573861282 2.02868076506686 1.97758035988939 -1.77697645142952 2.69443946408972 1.87108776090641 -2.79712204452217 -3.00819617388224 2.54080836314853 -2.08405794110907 2.27656126962352 3.27065656833614 -2.61619033007948 3.08103982860384 2.44718078497464 -2.33446437333723 2.04489013606987 2.51454602279992 2.58879142204195 2.18419640263192 2.37982894238885 2.35461733426668 -2.36376781428452 -2.8706363688192 2.55454368192877 2.63501462947147 -2.77378816945774 2.1926243762845 3.14159804099795 -1.97620912079568 2.22898799317558 -2.37668759708413 2.40161323108093 3.57494750913065 1.96730883208584 -3.00243195160898 -1.42918906732274 2.5909651501255 2.74784859278893 2.18964203215005 -3.47678758947413 2.23537441950506 -2.46727972840024 2.35865821049742 3.1004675837764 -2.22605167187029 -2.56388134224653 -2.69001740300189 3.21500445835245 2.53932631495184 -2.20186295974464 -2.18186426143944 2.11115247483946 1.75001786068915 2.61880703325751 2.32377107786658 2.41753305568866 2.43462595672448 -2.50890257432615 3.26452296819693 1.87209567008306 2.50150927551715 2.28075124832957 -2.1988721420074 -2.70493578128936 2.64449443299242 1.48656051310536 -2.44055952126708 2.37643075151716 -2.26793171416473 0 4.80324730483756
2.4454622320629 2.29714410462724 -3.01608094735149 -2.49097125477851 -2.85740442051651 -2.57720082486593 -2.84581220441473 2.06763734856205 2.02103083987074 -1.92103527364544 -2.33517989080513 -3.14537379052737 -2.6797039148285 -2.4927136671064 2.20284266154618 2.8492543558402 -2.25564631513509 -2.40281095162986 -2.53083796523601 2.01904283022617 -2.2057440313735 -2.42500231332789 -2.89707637759851 -2.36786223095361 1.13455344558036 -2.51142030299915 2.86546896472012 -2.43587304937091 -2.78458483167461 2.17657342963857 2.537416757817 2.6545248669121 1.90389394631481 -2.60243954182627 1.9013683748044 -2.27651332440639 2.70174348778098 2.42383138113099 2.80647169886953 1.74749844227953 2.37261389649886 -2.37206647253244 -2.79181270859595 -2.34511907555351 2.30839231064787 2.42727943234953 2.20067856475802 2.42702253120671 2.62823079718123 -2.24633079156667 -2.37476418100471 2.8000501318444 3.22161259488364 -3.30383877771927 3.20235601568884 -2.79521105909436 -2.64229488549195 -2.51991085753304 -2.78824480634073 2.76437345661042 1.99708878402372 0.477855802522996 -2.83349354493342 -1.29809488474117 -2.87275578046266 2.75627684767014 -2.05239571612593 2.74024015225243 -2.67729280666027 2.47802804330675 2.13516120224315 -2.66099028788874 -2.94204664073827 -2.45549242822909 2.16892650277121 1.61328280565434 2.43925777276849 -2.76959053338436 2.64497580307505 -2.31511650328482 -2.7714965862498 -2.29857987732194 -2.83335781675074 -2.22939628046428 3.13128242607309 2.74675876042504 1.89973527175861 -2.6812005907374 2.3032691019498 2.88502832719353 -1.98614477237635 2.23439357179739 2.11380844219504 -2.01322950235792 2.07620828759622 -0.799623135831127 -2.3673689977832 -2.44695833174734 2.15843074171754 -2.55920979738928 -2.70450253895361 -2.67223220791953 -1.94396170945106 2.52947898881722 -1.99402120479936 -2.38261141993546 -3.18692882769898 2.16326193646053 2.59016171281588 2.57721619742343 2.94898095279839 -2.88122969477996 -2.31524020067539 2.35823167711053 2.59644596502443 -2.94792774269257 2.4554247706104 -2.3515950114983 2.53632501607347 -2.05760933019894 -2.06178979940672 -3.00473020183851 2.43293864906352 2.14496569063357 2.90986879035787 -2.60192080468653 2.41885441536646 2.52086340869693 2.89173507300207 1.52032701825979 4.40645886956196 3.03321076362384 -1.6285724734653 -2.60791375528096 1.76857721317065 2.84331047063029 -2.47168234128669 2.1744061024346 2.58827543215472 -2.3248184703934 -2.5558464127859 2.54373385544229 2.42610044987292 -2.84409899078407 -3.42084715358508 2.93581008032027 2.61824997509251 2.84338582937611 -2.72722445892252 -2.7910682273189 2.17979098424284 2.02504776062627 2.67601970736029 2.32791821960756 3.62687304907264 2.44449854636539 -2.30594478360293 2.68299675639994 -1.69686162301527 2.50078846444723 -1.82031590560333 2.59514432825472 1.98775424558714 -2.8168349960194 1.92778005502943 2.33518940609797 -2.66483813727221 -2.41757121058876 2.62250612038252 -2.17137114538065 -2.62876140522004 2.23065016947537 2.53425050654468 -2.67274979310659 -1.76547836058247 -2.71436891635768 3.41773831185244 2.75927384511119 2.23714544060404 2.61175834118157 2.32858708121826 -2.30853445802136 -2.01563344939124 -2.72739220061759 -2.74028417960255 2.6192099102624 1.4973011803461 1.19828290468067 3.27303992539757 -1.98409864611933 2.14713857614211 -2.47487091125685 -2.59564239677126 1.96425333179812 -2.20148910882022 -2.54483155402938 2.43033199263311 2.27328781981588 2.23514278299748 -3.66199091755233 2.64385309515084 2.32976183393713 2.70005120433648 -2.53803118007092 2.24860149103225 -1.93348890916421 2.32595697963401 2.99133260243091 2.6540938374159 -2.18867455293461 2.60370805506821 2.56783325583793 -1.99420501938074 -2.70199280010276 -2.61999646924402 2.13003626358291 -2.66418969076277 -2.76931445446589 2.81155625310434 -1.99940490996675 3.01483514067257 2.57577375250037 2.46974444153794 -2.71112859731028 1.86553067117524 2.66573764886284 -2.78653252852238 -2.2928199274075 2.26522605391677 2.25764209197352 2.44149566278965 2.97781410165382 -2.35421247192234 2.65112860176176 1.99481985730813 -1.96389158358726 -2.91905971156915 2.02732209724384 -1.2268873605515 2.35123274050866 3.36647413403987 -2.61978854845844 2.53340322275435 2.79709351005153 -3.15035343241171 2.4184739128055 2.38640831183288 2.00267315072895 3.00324617493581 2.28513711417895 1.85797781379292 -2.71038107548382 -2.19331489751929 2.42646810222278 3.03379834317293 -1.85336487879744 2.82075764500148 3.23078894716224 -2.88403065416786 2.48347599233542 -1.97902274717525 2.69776858831841 1.60932206447469 2.7401023781709 -3.08650579020276 -2.29747628978664 1.98881973289607 2.0398331806559 1.95701020497022 -3.89416289231244 2.42268075335481 -2.96733397550978 2.08288225721667 3.15544709902608 -1.92517618602217 -3.70651018669943 -2.13845457710664 2.54653162479141 2.75927524905982 -2.22414541221074 -2.64410146159289 2.80531947001294 2.67980267215896 2.84016993843166 2.15517422289681 2.22120994163208 2.41269327121248 -2.76484890251365 1.54027042487577 1.92309075541526 1.94623193448518 3.52169411972491 -2.89315925690201 -2.16472422192643 2.17362233527257 0.947210800407548 -1.84212762307517 2.18319231429194 -1.88684075916254 0 6.2327758699799
2.53836177633002 2.2272652209669 -3.45510341595405 -2.67270390501564 -2.1691257722399 -2.70486033262025 -1.95490848792786 2.86860308610885 2.66711423304316 -2.0945425858571 -2.71180000408919 -3.4068565530166 -1.91907511956589 -2.58703555882243 2.1503383293861 3.12421890195339 -2.6836109307577 -2.49016414181339 -2.59927657426075 2.16128388834745 -2.06966380932922 -2.85560748801836 -3.2023909362703 -2.50326304473871 1.76245463143273 -2.03917405244489 2.74336433223572 -2.4157454896458 -2.4931787091596 2.19931477241396 3.0839089062032 2.71118259402868 2.62913738957876 -1.98191462088923 1.70321978607835 -1.75569103140538 3.42259293465541 2.20574743914996 1.1393017095452 1.83082504423439 2.30184821023281 -2.18187391642857 -2.60142213515755 -2.46466940566398 2.12068431448148 2.86339197771977 2.58115481578705 2.70586937818048 2.64108133446046 -2.38531554383058 -1.98309317541539 2.39767440396763 2.04775392292485 -3.75221342323648 0.828518265922089 -2.48797894014633 -2.30618410166631 -2.79275931963509 -2.72549341731514 2.81218833559119 2.02279924381442 -2.20804491919539 -2.45462766596393 -4.01825015147485 -2.85369974482361 2.09678455073665 -2.49524056482075 1.96437611118903 -2.60971205957024 2.25597308836062 1.86425818206724 -2.77795693476868 -3.33557869230058 -2.09978432104073 2.12580940263301 1.75318637267328 2.56061954056199 -2.58592156588707 2.66589684346899 -2.5483763686238 -2.65685765820411 -2.82826622163545 -2.7105083118242 -2.76869236737014 2.61695574077256 2.74431682355755 2.91587372101534 -2.51964863959325 2.73554033637722 2.41467515965937 -2.5197519361121 2.67399567417188 2.14861933315009 -2.62133707277815 2.09462624023151 -1.67556492426271 -2.70705618919448 -2.67882891939735 2.18331007033277 -2.89962887893899 -2.45237322109517 -2.16310120060123 -2.2221531671551 1.84631430674397 -2.75211490511021 -3.37401739789615 -3.37487114184952 2.31202811959505 2.01165729572622 1.99730186127153 2.86782387143614 -2.66455976993553 -2.62294587311665 2.64937764566169 2.71981062197866 -1.98869836333125 2.25106806089237 -2.35647183886628 2.16916357184059 -2.09050288723258 -2.36666197272549 -3.42610833715784 2.19247113761138 2.80248224150114 2.4107208703871 -2.46598787011171 2.60335664169224 2.78453459555353 1.88666037958348 2.7658764544945 2.20586342298363 2.34702657732428 -1.39515182434586 -2.18911867411434 4.01746826164669 2.30859636421099 -2.22489944556951 2.09950040935281 2.63413619907335 -2.18198749972826 -2.13546123967783 2.14192691258644 2.23895122726554 -2.259939577312 -2.64085081498223 2.46036707499411 2.17429483312885 2.22079808569586 -2.38474501151145 -2.88921168907685 2.57386008633311 2.9122400698262 1.98085512266435 2.32097247393811 2.53549427136956 2.36153420406859 -2.57840918828072 2.9011219383941 -2.48273075825045 2.64349681309586 -2.63784841227624 2.37639717757132 2.62259729829788 -2.2183485750121 2.58581426061994 2.28292310251654 -2.60847748436677 -2.0570337656207 2.94939250617975 -2.57153886698495 -2.65424826317602 2.06773028834822 2.28370119574894 -2.42328763361269 -2.15761088505838 -2.49158721317808 2.86634885441733 2.48790224931471 2.41109034986544 2.86133033312824 1.95572554563135 -2.43470459559184 -1.61232237741311 -2.7088313317976 -2.78253479133071 2.75619053500419 1.83984512590797 2.43217663244834 1.83376380677013 -2.44794392031246 3.00717645416991 -2.84014570960863 -2.78115387741201 2.14935602627643 -1.86160535913247 -2.49346977000607 2.35210725598684 2.51509287173988 2.24008393094288 -2.93264089629524 2.90451728620662 2.63164836943541 2.53409960266962 -2.75418060195591 2.853286455586 -2.45319921731233 2.44713551549968 1.49417323679028 2.14344479078436 -2.79676791280792 2.72551178574798 2.80959346873004 -2.48923348223437 -2.75294761635675 -2.16053531972902 2.64057898254144 -2.86547173423898 -2.60948695837492 1.96100320878332 -2.39025409261932 2.91989287942475 2.51438592096949 2.14319323204106 -2.51800404194085 1.69695658637749 2.11319438057102 -2.90355626645953 -2.76663212449472 2.86522723484938 2.62084450972684 2.79092813629738 1.34918737853716 -2.95633254038524 2.69520985839373 2.83712112199201 -2.68684686013631 -3.57281409306378 2.07380683933076 -1.4991980272559 2.34329366349254 3.13873528369163 -2.16103802070297 2.61098259450767 2.77101584855687 -1.69993936169865 1.92687391117926 2.56694137102831 2.69454959378282 2.09659014306143 2.64472253782699 2.41961952298081 -2.6290002707693 -2.36968719302862 2.80322535736368 3.46603532961104 -2.67749558241114 2.10543064807193 2.70643118858158 -2.25187912901841 2.68293037085891 -2.47979343493815 2.24819043476476 2.15049137243869 2.58082449018289 -2.5770148891914 -2.47415711330791 2.50968099824851 2.49999116995887 2.87327091403837 -2.74697671002789 2.48611241910514 -2.18423083877606 2.59231092131967 2.85968546708704 -2.67926429948243 -1.63585083658861 -2.31398976373103 3.40161228144503 2.48047846396731 -2.53495134321484 -2.37788730190314 2.02472960181557 2.04392807171642 2.11628516297997 2.20210055933693 2.47365237735416 2.50687373720618 -2.45789021721539 1.88639469622483 0.963438814390167 2.65177995266047 1.93449228342602 -2.35338074604753 -2.0663953441226 2.6378083747923 1.34083496806124 -2.48506976748388 2.75468253187709 -2.76092090035105 0 5.97339555124295
2.37728780502276 2.7657885531697 -3.01911507749866 -2.39953074724702 -2.8098603363413 -2.32789275333842 -2.26462855713803 2.6536813690419 2.82395831744856 -2.41032410044759 -2.87507659378472 -3.11332806906323 -2.42937548573793 -2.61807208263428 1.43079840485623 2.40743408254269 -2.1798766965379 -2.13295177149895 -2.72543290394025 1.60945611852653 -1.85653928935217 -2.77289664668953 -2.84345861368705 -2.31169621389751 3.45620236181501 -2.27740657096088 2.24928131669412 -2.08209553375043 -2.85327773624858 1.72905441676786 2.80962930823886 2.20125008181162 2.71328068407813 -2.7451425268891 2.58681226950649 -2.33320813169872 2.43158288077198 2.70856079529406 1.76752935657962 2.14052632442694 2.78978097824422 -1.93924431465753 -2.43174541355071 -2.10450406538075 2.74348452824883 2.3545670146912 2.3427428502827 2.16814168275296 2.70976292088198 -2.33501036544969 -2.57285478011899 2.56840459078447 2.66323398457146 -3.20736345679651 1.94155801758675 -2.53419230604202 -2.4317099477947 -2.62445370591255 -2.733634059831 2.39835497013948 2.15105898764839 -0.0322275881745536 -2.21689466199736 -2.11375269660237 -2.88961391440969 2.70444539293127 -2.55705841679918 2.19158846538199 -2.56671045169653 2.41231683370823 1.81247962910183 -2.81539292225357 -3.54841088265755 -2.39527727192572 2.49104030830798 3.04848237676038 2.62694952628478 -2.30723907343973 2.77309957706744 -2.34426466801859 -2.65631034531948 -2.77467944053794 -2.73217517468613 -2.18132389953578 2.62153931850994 2.24162010710772 2.60781774001423 -2.6608710646071 2.56288919375406 2.55389619399458 -2.75175854419191 2.05726171286645 2.50799991340801 -2.35077829062458 2.44744366398113 -1.81409368614083 -2.67978248330507 -2.31197775189456 2.20423270867879 -2.07189120192837 -2.3364140514963 -2.60480447419168 -1.84653021848357 1.97806639907613 -2.67012623290531 -1.85364315090198 -2.85398797056967 1.95366585380416 3.18684993795192 2.46847142449867 3.1167987044954 -2.04159204570186 -2.56835167719729 2.37210103742475 2.55322825708438 -3.33338037045737 2.54361507197965 -1.9148047766395 2.14205247606348 -2.66185391544205 -2.86352545781545 -2.44657396904466 2.63151222626373 2.60901650085868 1.92238909592618 -1.97751710822648 2.0366483790793 2.71883661696725 1.72023462340898 2.2072562205268 2.45819138623821 1.89783572103993 -1.69378399044224 -2.87456725128057 1.48956133619229 2.86253488584004 -2.61631468488972 2.03879152299554 2.13394960697733 -2.57046982541496 -1.65878571742037 2.59081296093027 2.02128655957184 -3.14525970264024 -3.51690582878216 3.06124655782632 2.56040073105675 2.09741010680119 -2.64761584328685 -2.65122607474136 2.36111878054569 2.51210599736095 2.32489084655884 2.90580930733761 3.18768719679223 1.99418599045044 -2.45161040437309 2.05666357496614 -1.92721346140246 2.22331459686432 -1.47094786870303 2.40597962714937 1.95302093207712 -2.50229270635293 2.88765830545662 2.45150152248862 -2.27164917272677 -2.32427024144323 3.00526894801648 -2.6579352293656 -2.03242008269228 2.46397517264774 2.35589894372556 -1.92682752481334 -1.79235990168446 -2.52766127476031 1.94768490691077 2.47648458911456 2.1649709083048 2.11811947502067 2.05384156696746 -1.97236889343106 -2.2726089329897 -2.53675226706277 -2.89413014310449 2.28097925251825 1.8266626865912 2.17961343222084 2.58701818291443 -2.90842271266837 2.31882666112174 -2.89022000634623 -2.50465833799213 2.06240614802819 -2.11182961361293 -2.58194447071167 2.5328045514744 2.50372818507174 2.10721207539131 -3.17359131249029 2.6470198983808 2.36194442459725 2.84722842653976 -2.00310618463914 2.38038093477398 -2.0360003192973 2.76898061912584 3.56779119934668 2.39081477945562 -2.40109823727241 2.7987465942956 2.72676068322961 -2.40519393125614 -2.34266893751177 -2.63582706354166 2.22478643631153 -1.98619500536244 -2.52452540268335 2.25109494668955 -2.39261623312287 3.00917424510902 2.19191143737074 2.70850293213872 -2.44191575878859 5.66958051201538 2.7049123687107 -2.78590882780806 -2.52446213091365 2.81002811725127 2.15169172334837 2.90217183526791 2.21457978933879 -2.16474873839935 2.10336452735589 2.39651090425256 -2.3577519386436 -3.09649816077126 2.4848851577657 -1.76193562661109 2.30963321103931 2.81556425514714 -2.74809384195633 3.13387487916595 3.06388306602186 -1.96996512489321 2.52999633159295 2.43787366274082 2.61059266972673 2.24240952675929 2.68165138414962 1.89160186867908 -2.65981284779358 -2.40360964173583 2.67043654932238 3.14937260245693 -2.47277003952946 2.4588330033339 2.80719226030232 -2.84362890991288 2.65571548965137 -2.17672423870976 2.49702379281191 1.95037613100415 2.09854237650198 -2.66780507988747 -2.64092054872534 2.21082354416741 2.06867393127923 2.15955791092868 -3.33407922347065 1.90427526093513 -2.93321955507564 2.21010834728659 2.52785388991233 -1.86104334537365 -2.17651373033498 -1.30370934060373 3.02841091084891 2.15026396875822 -2.65619188336121 -2.62724636363575 2.25837913485413 2.08115096991355 2.09345546873375 2.74004397254247 2.36350222906257 1.96436047697574 -2.10217526810123 1.86934057961561 1.71113424779994 2.83338418576953 3.79109490704704 -2.33572216830455 -2.58722839581256 2.31438413469948 5.00361719139981 -2.22319033048253 2.35998873590228 -2.57189436299498 0 5.88307254605109
2.19770447646295 2.06334034172885 -3.08143512676184 -2.79819054899056 -2.23459950743039 -1.83957722274676 -2.85379634109077 2.24942139838495 2.75013225781147 -1.92957475841757 -2.04793678871099 -3.19526169999232 -2.72394036752419 -2.08796998479143 2.45505399192461 3.05631476891874 -2.60339247277254 -2.48182285360177 -2.76501019182808 1.62984439980918 -2.27949511347915 -2.27304888272974 -2.92982921657132 -2.12564287486647 1.94349174522462 -2.48541090538481 2.61991451550621 -1.99335295593672 -2.2351426087375 2.68281080648417 2.39061055526129 1.93671843073501 2.51154977348137 -2.63468902711152 2.94037862290431 -1.91785614616364 2.43477606033741 2.06288804423186 1.89882571599398 2.51933801541093 2.31213275454551 -2.15256172469576 -1.99830513753408 -2.25304609559542 2.16115950125665 2.2559794143074 2.57287109453876 2.56345915540825 3.13220511044347 -1.71254942034688 -2.01457308676472 2.10233017879513 2.53105357599314 -2.90931730310525 1.1745840952533 -2.1469164827793 -2.43096282294915 -1.99718840952245 -2.38511435678437 2.24958763926371 2.02852726928442 -0.395934109606252 -2.15830090935335 -2.62970488642603 -2.3799420705404 2.60111750327446 -1.82446445958566 2.72419735890261 -1.95886155958796 2.33428660158714 2.598942370113 -2.48234209823967 -3.15194847124616 -2.24956291972591 2.55172620023622 2.06182544652869 2.57943460453523 -2.64339359916275 2.46835427970336 -2.41524534156286 -2.20210463766161 -2.80474291058351 -1.93392259240819 -2.19674645351464 2.06731795303323 2.70177549404839 1.938674960673 -2.41929975754938 2.30985153586883 2.05255956184894 -2.0970867178929 2.56029303936079 2.58231712934685 -2.78212251529999 2.57341416652519 -1.57626572013726 -2.80081886533357 -2.02530096082921 2.53434275527063 -2.30978396889857 -2.50127391589765 -2.0609539009853 -1.78986667922559 2.35728626467378 -2.82612807896968 -1.39397320201943 -3.61994036006539 2.15516778387911 2.43042494579528 2.03237812060221 2.94941127060321 -2.72066908690008 -2.56541506726877 1.99745172470889 2.68336729031463 -3.20469109959396 2.07254822534471 -2.54419144119988 2.83552869505597 -2.8012894928531 -2.21054567367344 -2.57805796125746 2.34870498938605 2.60009433566989 2.02433783165159 -2.56212310565006 2.05944169553679 2.65988137176878 2.15439292139349 1.85191325315373 1.92682373482358 2.65219426833296 -2.75185370498256 -2.93440142931691 1.40011420173069 2.60976689956929 -2.60125546018266 2.15545616107377 2.18283623122603 -2.71334934369673 -2.7463971307343 2.63608331392437 1.87620620388506 -3.27474584202884 -2.40578025341622 3.05217316671646 2.12560508436314 2.67295361735157 -2.63566341548824 -2.56966492147897 2.00304520644349 3.04317137231565 2.74361244304395 2.58870281335409 3.10231883062209 2.7196465427104 -2.70720482470346 1.9625096322673 -2.4563379865171 2.58219192933428 -1.55482126114111 2.41583164602087 2.27743845919009 -2.82340175302164 3.66493956834273 2.4711999358871 -2.15608610690347 -2.52266593253514 3.4292201170439 -2.7304358818572 -1.96748476970355 2.77229561217777 2.29939247372778 -2.00463664834478 -1.79913519374145 -1.97174039877918 2.55898324178932 2.19376819742052 2.41545707607593 3.3996913243434 2.67077866334768 -2.37330503396871 -1.93640858651321 -2.67537867395347 -2.93612740707747 2.46527053098714 2.44141789261586 2.3505955251019 2.05419485340042 -2.59211364728782 2.21318607931565 -2.72144024863515 -2.69377237937405 2.66651258956175 -2.05689126578487 -1.99741489903069 2.16988560931537 1.88840887091826 2.16570666492636 -3.53903817554344 3.09871285429777 2.11585579844842 3.02221004194901 -2.77139126405505 2.59931012490365 -2.67348602603608 2.40369044501763 1.64659433771084 2.03403974800993 -2.78152933437208 2.40217248770847 2.78831914114872 -2.30155163984724 -2.62703480512763 -1.88083602837792 2.0124610375493 -2.83711638086859 -2.78381823207994 2.60936710664113 -2.35150243789021 2.43961479572322 2.84010993764752 1.87348032708138 -2.23261455135894 2.72573816955902 2.55768386076328 -2.11829384333413 -2.22138271997751 2.24880483557543 2.61320838123541 2.38167948955359 1.98841682712143 -3.76270729443841 2.36070614744732 2.78914283181921 -2.27940210289174 -2.75739716713382 2.52400279165424 -4.79677028348026 2.20480484590921 2.66506403086545 -2.07151170290442 2.71649799931371 2.71829488626855 -1.70004912584753 2.23838191242 2.43518250270538 2.91847263503523 2.3169435238651 2.20956165840742 2.46164652063035 -2.60584999415043 -2.62061931948523 2.84364417556821 2.81257889025989 -1.96183197366919 2.0045326629294 2.85904626392331 -2.48412656028842 2.86630639947053 -2.44446220170546 2.63776028222984 2.14465248804531 2.06798359141894 -2.59163491607737 -2.78605467082508 2.7576570238736 1.9404078467904 2.55195747961668 -3.41735465070282 2.32156354197717 -2.51771293549335 2.33762001868707 2.78234567570846 -2.39096499270467 -1.54113523970505 -2.18624929969309 3.52520862110176 2.62956890145206 -2.61362778897629 -2.69134941937625 2.66251837424095 2.20022694408273 2.80064779457897 2.75342225755811 2.18890970838502 1.98517660409747 -2.75781833545023 2.44157170193035 4.63737490696954 2.28022133374579 2.27525928102672 -2.68826219072657 -2.43787890658087 2.48352911801693 2.16307165788453 -3.51471739949022 2.1847588071412 -2.23751427514758 0 3.03181001731325
2.43166174683304 2.5091465011909 -2.56307001128524 -2.65745567770218 -2.08920946452448 -2.40723040240166 -2.08922115737306 2.47740746624318 2.59044351270915 -2.26284264812997 -2.55425845770485 -3.06080208702236 -2.36534968516339 -2.64966113194756 2.53249914023053 2.85791252194315 -2.79703001075264 -1.92324002598987 -2.68264298662452 1.67727582515767 -1.97462356786885 -2.01326054132999 -3.30507718939905 -2.639131174293 1.43514296573471 -2.65521063454946 2.30865513725917 -2.03313404041267 -2.80880128850342 1.84471708445079 2.73246956854369 2.82694814964059 2.145916611175 -1.92395416341193 2.28701996485092 -1.77358025401757 2.28912236721167 2.28085076947448 1.90873335250195 2.00651434762329 2.32946945958856 -2.19768389473555 -2.47932470732435 -2.76755201778451 2.12926788332292 2.63401784069899 2.74617832029243 2.59019824752763 2.59599594083574 -2.58998430381531 -2.66658004499304 1.98093589723097 2.98112171334254 -3.37565763426462 2.89573640101877 -2.21316331285045 -2.78946893711562 -2.47773670227618 -2.48062555684321 2.51177604292173 2.72249476836558 -1.34676464472443 -2.41015851443613 -1.25635856032338 -2.76848507163243 2.624179548145 -1.23621123351612 2.44229783785268 -2.35329605894234 2.01620752233841 2.19055149266309 -2.96242582573159 -2.63608417516115 -1.9670375382618 2.50364926202291 1.90565646614593 2.1581548350644 -2.5071178575672 1.90598348620733 -2.00491660320957 -2.41717366047408 -2.28015184199878 -2.83869816650226 -2.75819499006827 2.78204416237873 2.51146157394342 2.21643308056541 -2.07117619303585 1.92420226309037 2.84180250446484 -2.25212373701435 2.65350603807595 1.93638663038773 -2.42754968050939 2.54578128999622 -2.00217288773269 -2.75774350252328 -2.1858145737982 2.67787279959874 -2.36662888868099 -2.71010695185028 -2.47681753513523 -3.47290484575782 2.33527315609264 -2.39330214404844 -2.03400858951065 -2.8650513188859 2.77142103144992 2.52779399057059 2.29864950002949 2.57728989286393 -2.14534992751578 -2.5917980576785 2.36876083347959 2.51017836158627 -2.88021903782373 2.78069234302187 -2.29512182671647 2.63608840132606 -2.0343701046367 -2.20809983284379 -3.05906514509096 2.40002286705999 2.46305707239291 2.14810573784007 -2.12889955421271 2.31729318418189 2.10487554864248 1.74713206865382 2.48876877595383 2.12199685784814 2.65246942311108 -2.00612468616519 -2.29631340542309 2.43551976955066 2.79011742775036 -2.55799121792822 2.28581406192589 2.32113606387485 -2.60057639391341 -2.04360071575149 2.01114467032297 3.1096756301711 -2.53755827227669 -1.98093317359852 3.02281374278931 2.32129146925648 2.33531689967084 -2.76010344997872 -3.28811540955916 2.50740809304106 2.61095303524241 2.81910712367619 2.86264145360711 2.63942934768072 2.8065972204726 -2.12641886311723 2.43907926989571 -3.44654256622564 2.69507376412956 -1.99079475697472 1.88559375301232 2.57618718290234 -2.23436140562924 2.53264542970078 2.25999885500265 -2.55294790735489 -2.25221039353022 3.16094752386936 -2.41214072658538 -1.8591413506343 2.43373525329014 2.66534433382001 -2.30965459353054 -2.59137783936458 -2.32985303948862 2.69120949837991 2.01972521667066 2.77635451209491 2.42909684618831 2.06738945421639 -2.75627784192725 -5.42391829207904 -2.18473187708217 -2.74407549709927 2.51185294112588 2.27193142498006 1.78491811126481 2.86871630156386 -2.08963461752632 1.96176481226303 -2.3693143504382 -2.60493326934334 2.60942674801493 -3.3709777746484 -2.0541990838018 2.27629256782962 2.13795664693934 2.79418316017129 -3.18349742742619 2.43157759029204 2.5440727959201 2.33840038663421 -2.23622745939204 2.24188812340403 -2.76396321538266 2.75210385242948 1.44064885928065 2.73507501213803 -2.50730248824355 2.89021497671783 2.64543816110548 -1.96678732645187 -2.38243379775443 -2.25026881404043 2.70798356330119 -2.00553682313441 -2.26821014567169 1.99362128523711 -2.57133475524841 3.25020535972515 2.70621367461206 2.81905152016872 -2.76194703034495 2.52926953118275 2.29811744178145 -2.63938623680742 -2.75451593807932 2.03064391514066 2.15579143822846 1.91487684441565 1.47401862500025 -2.44481957074088 2.42251049705216 1.85828924276404 -2.53380703772797 -2.96353726667837 2.34773179500091 -1.71435292873246 2.39020966501546 3.15522810381061 -2.58449341536301 2.40010871878513 2.91500791547472 -3.15934118319984 2.27922729789202 2.5233014224662 2.58245879426044 1.51554103464192 2.30246899337836 2.82790498419573 -2.24890175993978 -2.66447196392832 2.73131612927324 3.54545091733675 -2.14710035301827 2.36416614724541 2.91883056964218 -2.5977115948552 2.81988169635004 -2.03053618881574 2.5553680804589 2.42963307672729 2.25605399861173 -2.8145103291863 -2.29458088472398 2.40631015320577 2.2511050451703 2.50307359657664 -3.13023745451139 2.15035124123098 -2.78942112676657 2.17020815977669 3.09792302017871 -2.17780369452162 -1.7583941857934 -2.43757664469468 3.0105105249346 2.76971084966174 -1.87022814629171 -2.08074592475604 2.28727293134058 2.18068304631481 2.62109867361203 2.2213184926254 2.31141844096072 2.64272760398597 -2.46222703838908 4.1848706393592 1.93541342402037 2.41556325834583 2.26803915657999 -2.53800302180751 -2.27287825965498 2.4233225062946 1.74514160249606 -1.97108687640511 2.81285475142393 -2.6495671413641 0 4.53446712360685
2.74112574555244 2.15332879283566 -3.10445591262748 -2.42101170038147 -2.86736995970493 -2.16212484856517 -2.55929472851834 2.4150027974882 2.28737901303188 -2.33367299256717 -3.52839920219478 -3.38968309173548 -2.15477204670202 -2.65107670247678 1.86272051825031 2.57005303616661 -2.15853333428973 -2.28458674478108 -2.73267818672665 2.95595407639144 -1.73765538420656 -2.64840016472412 -2.90309870767317 -2.9109094301569 2.69378744556405 -2.08397462882008 1.95635661473465 -2.21688421537511 -2.80723900744097 2.33673547518425 2.92467955128058 2.34330729805442 2.2178049332066 -2.45541790542364 1.72847719523987 -2.85193787709985 2.80806506923564 2.05550552209152 1.8277273760156 2.7902162130061 2.02279818948366 -2.61899966565929 -1.97832477726158 -2.3188899441242 2.78895330132859 2.29969055783818 2.13788913321567 2.88793671782451 2.47902667014522 -2.6068087977197 -1.88338098386287 2.16795044279427 2.30134646489826 -3.36188536278896 2.30055458851339 -2.3592556651922 -2.12815391775796 -2.66410505867968 -2.81421055366036 2.36633901444934 2.44806653268266 0.859135795852704 -2.49189477517339 -1.74248238169694 -2.99579162899767 2.85449247431793 -4.37056170050927 2.04744221454675 -2.70098079758375 2.43323687085981 2.08169940799521 -3.14084457803972 -3.26920083029314 -2.42128161622012 2.49093367380351 1.99876845094681 2.10274961436412 -1.94638371826091 1.99915222276209 -2.42171513034676 -2.27665101582384 -2.67548064527767 -2.65909448357015 -2.85947282658414 2.57197515786198 3.25793355467068 3.83619788397379 -2.07853193368152 2.88775839484003 2.37545481344343 -1.99875455896993 2.68696556453499 2.06199132913669 -2.71564397093628 2.17242011881524 -2.0154396411696 -2.01516618377099 -2.5758225597382 2.6638847045957 -2.75508974415967 -2.61882281661295 -2.04235060812685 -1.09322283759815 2.61814286188568 -2.22832379057512 -1.9243685266457 -3.78199162230502 2.02074980114788 2.78489387571539 2.81616738081208 2.6564058482111 -2.19541242097729 -2.71790758283641 2.48428021665885 2.76332219562227 -3.05835466492049 2.30261285938732 -2.43474938538566 2.85367415220543 -2.46496553493077 -2.74323422321835 -3.30351911286357 2.2059797001097 2.62213239741399 3.34757359682029 -2.42886840593986 2.71785531153855 2.66071899927587 1.75332438492273 1.28595042704734 1.53931686830508 2.75887768143898 -2.11388230070219 -2.86497024477941 1.12893294555458 2.62478274973084 -2.54371533299046 2.29600363582229 2.04094639453518 -2.44287224838309 -2.05798426632186 2.4886382711485 2.70764144646716 -2.83949434154488 -3.35326387376618 2.79818920110826 2.41468308629688 2.25889037903926 -2.63708053558272 -3.03285628045461 2.01273984159637 2.52650337001246 2.47623667144925 2.20572703158757 3.76186138855117 1.94380244636913 -2.5612258654272 1.92002056362656 -2.10844478668574 1.99628958350085 -2.53903282632061 2.37367643406274 2.84263245473824 -2.2367606728764 2.20643637798316 2.76126683123684 -2.31742570054508 -3.18776653969383 3.18185625270782 -2.75298506492952 -1.93134985766316 2.90502479673481 1.94066603122822 -2.40588313119839 -1.59975632786962 -2.34858364167631 2.56583261751965 2.09252298372183 2.31927064663025 2.24479141493655 2.77212027288117 -2.621524492662 -1.91724306365084 -2.26445305399417 -3.01791177761106 2.51816354927068 1.6925423650402 3.88727587342021 2.19223991174511 -2.66498054521319 2.11100247280452 -2.52766832730269 -2.80720398243651 2.14591150225627 -0.615536467843909 -2.50414581952879 2.51245504179202 2.25666584825182 2.88244937889498 -2.79397983596735 2.5750086717226 2.3852161374947 3.47280991231216 -2.78847163579887 2.73944070498522 -2.81093414927395 2.37729817942297 1.12752308231363 2.5906987100754 -2.48050271875161 2.70097412298234 2.20558845439859 -2.39487261294378 -2.05935361457632 -2.64358897733357 2.3204985248669 -2.88225101364543 -2.47834135099417 2.5303569268199 -1.97249648964771 3.41301145682925 2.60032601543925 2.7693050447856 -2.75789955402868 1.6876360692831 2.48319396329231 -2.07568681463308 -2.12152990663435 2.52539483959707 2.14036415774314 2.6423731073565 3.40256393678528 -2.74673962473016 2.54889572829059 2.56663433597667 -2.65566740730459 -2.7821545533806 2.25886301532634 -1.10371557893446 2.71496491917232 3.66052160128759 -2.53361095418724 2.41608173128169 2.82624964316501 -1.92018480320004 2.64188943665344 2.75982714941107 2.09003691904872 1.73613912335073 2.17456007617728 2.1073792634458 -2.81166036537046 -2.21805170230163 2.07387906491095 3.55181818046733 -2.00901060987775 2.60023425836597 2.49925250317591 -2.83704640036405 2.19113840530319 -2.67380633442624 2.55566327086654 2.76734473578138 2.38473064409755 -2.91615002867915 -1.68637556191765 2.05702181328414 2.78920624774723 1.7107334291664 -3.05010771849026 1.96724815596141 -2.6031932535158 2.00051385700342 2.93918818093134 -2.68004009648352 -1.38350575901881 -2.13031728405849 2.78846094576092 2.63656372332377 -2.78832884187189 -2.15683975863548 2.51527594915349 3.03522411217207 2.31005679128671 2.79897868735943 2.65331922878813 2.08090209791132 -2.73486080639488 1.91340174492637 1.88271308498978 2.58029760422739 3.09934726586354 -2.50353616982481 -2.62068180703747 2.58438096788932 0.609288221294083 -2.16030413920562 2.55801081394376 -2.61644543605528 0 7.34833059070105
2.6621148041924 2.80481506050078 -3.13490557146783 -2.80768491406402 -2.81403565584923 -2.18314895751272 -2.87821826679786 1.953789933823 2.05680280247646 -2.76465781587838 -2.75288124905286 -3.13474484256478 -2.75694447785532 -1.92011227232334 2.20447404744673 2.63746611297456 -1.96011337636676 -2.71740483162256 -2.52225522591399 2.61695189334943 -1.98203886374348 -2.82835849077237 -2.9194916907209 -2.66430792234444 1.77684358691417 -2.09281979366637 2.13175018633493 -2.07127037940406 -1.97798069034255 2.4947816771949 3.06449865916509 2.85454275712699 2.88819661297042 -2.64110201270694 1.97421632476108 -1.52302270758799 2.9993488086203 2.66961087434774 1.64526762687114 1.80855785015331 2.66289892366103 -2.5828667776869 -2.01179865749548 -2.50015574539638 2.38567467159505 2.36255992919843 2.29315592311298 2.41092820109999 2.70138751397075 -2.58799834420059 -2.61886655128076 2.50581789815655 1.99911012228915 -3.2584526813665 3.50792011539191 -2.28758220079134 -2.12633306125585 -2.1249827753545 -2.12373457414017 2.27459411235909 2.30755923994275 -2.18224675811024 -2.84971343792708 -0.0651160289359253 -3.12764655555111 2.26719943534583 -2.49637598000396 2.7633681023013 -2.32453385555539 2.63357581278456 1.92032570359655 -2.8670467751529 -2.55645162237144 -2.55812574208563 2.70725674758536 2.2740424278684 2.00733427173326 -2.17580091601925 2.78375699975848 -1.99940999473874 -2.29916886243343 -2.00722293649061 -2.75193233301826 -2.03130923702269 2.5842985082559 2.77033538142849 3.4881821978786 -2.55831259458685 2.50406498515758 2.60185201708232 -2.01278424869539 2.66250295516304 2.75119886735917 -2.00480267207469 2.69272392301497 -2.15113845057603 -2.72349805091955 -2.24883013508795 1.87671657955259 -2.76763430737072 -1.94295852633606 -2.42262167089295 -1.97605502050961 2.66538107249923 -2.00560631966687 -3.51463265645726 -3.19181540847386 2.51346199119927 2.77439035396628 1.80614816369574 2.90309288665973 -2.77045863615176 -2.00686776932047 2.74070772794862 2.77994938874104 -2.72428229156941 2.8667772467689 -2.53267055433008 2.40096345272486 -2.93221851079888 -2.45720350286158 -2.92424326917126 2.21283924934586 2.81997343499977 2.26909334259607 -2.45607919051608 1.95951289308308 2.83044575016725 1.92244945225075 1.58985961073636 2.12183881634728 2.32153996945898 -1.75127046943535 -2.15088687107062 3.67744765728406 2.00871051554523 -2.84912265656831 2.1752499063224 2.58211071255661 -2.36521305598499 -2.45800987799769 2.13842693161509 2.43901094876 -2.64032325368955 -3.07805178318218 2.78115671894011 2.5435400353216 1.99132992243361 -2.86154142481561 -2.84845220931545 2.69391127135276 2.69766344352239 1.96938954038701 2.824007810275 2.81505479796473 2.83238314591003 -2.84861072778708 3.11626487137977 -2.49711435840992 2.42205454664082 -1.57309839754312 2.76199986987394 2.03567298756241 -2.42259227326538 2.74932380103332 2.76433970821378 -2.43104888243684 -2.74811773419262 2.94535548052899 -2.15093960101946 -2.39086492579207 2.61723805051513 2.18583660242491 -2.76933941703469 -1.90903713062528 -2.58626560254842 2.1684346351154 2.68308853791657 2.6842762769079 2.12080106231137 2.49676047115647 -2.82171249598629 -1.0276195891162 -2.52062628324093 -2.63233162437155 2.39451771251484 2.13285971087153 2.04265639136291 2.47140667316785 -2.86829995675656 2.77964862534507 -2.82433159013952 -2.75341949720298 2.36262132602061 -1.73141270399995 -2.25177249068078 1.92836763873781 1.95922804962849 2.62867368083579 -2.96516055584911 2.11653215610369 2.53916226003304 2.56613176602212 -2.67702496707815 2.57712978935558 -1.96242369369128 2.53968727072576 2.08305350961234 2.28384304526821 -2.50174719220982 2.50927820341314 2.22933118204943 -2.73238449520369 -2.92012346379695 -1.95332651194831 2.73170479559793 -1.99479260120633 -2.15977922912436 2.84699813099375 -2.57875852392192 3.08640501081773 2.58997625678855 2.78341756200125 -2.01230592376526 3.35738672632569 2.26176679049369 -2.35348229010887 -2.07625516872037 2.37951493391575 2.86728880835787 2.095132616327 2.0496618967983 -2.76417185766734 2.31710075198988 2.57446112604031 -2.06416973874555 -2.73104519539346 2.64617628366758 -1.7744204633072 2.55812216004813 3.15129464237556 -2.61745370966258 2.24372126558467 2.81586014605012 -1.88236410781055 2.54419500242367 2.81548017035628 1.96916207332476 1.85097728892549 2.6234388913765 2.62900332469812 -2.60681271661744 -2.73149514836371 2.51629130227781 3.46666628480902 -2.2488320772831 2.64646642716595 3.21556797699848 -2.4536516720109 2.25830058996663 -2.48830208287793 2.63586887394898 1.92917171445406 1.99236773104191 -2.89028091856908 -3.17570244107011 2.10138004818058 2.33877427363353 2.57670644031577 -3.16223815753235 2.74862226887754 -2.61271192765297 1.95642062161425 3.04942792493052 -2.44942655179787 -1.89411660931543 -2.32973366649974 2.99622121949298 2.18895328909343 -2.84216252354218 -2.48254635419458 2.36916799052415 1.83960874114798 2.70118112434618 2.16823365634023 2.82264500564104 2.11978666235328 -2.37620256433649 1.98699938864018 1.64001542746634 1.97395081028906 2.62866069269433 -2.70657521463798 -2.50643242461176 2.11748684915621 1.42154417235038 -2.83520736616418 2.86270556496041 -2.26513879514293 0 7.43183563149575
