2.08092184691562 3.18059927397802 -3.01223012605094 -2.56185645743756 -1.96097778778456 -2.959048157681 -2.37459928463638 2.66737628734445 2.78061787481417 -2.15925197080362 -2.11754083655443 -2.84076392034118 -2.20892704155364 -2.0375063416391 3.5129709564112 3.23064051511627 -2.50732463061683 -3.54454474044917 -2.89082977478636 2.00082980453545 -2.45966417238141 -2.50542602459532 -3.27762840177928 -2.68475803262773 2.39411043319489 -2.42557967778558 2.07095094667412 -2.38605449319434 -2.30368753898205 2.25639637779009 2.98410525303095 2.4490685651623 2.47756186032004 -2.10129534138111 2.59512233170792 -1.71153128496236 2.55153594742772 2.56794455603939 2.03063735417647 1.95451283763362 2.15937813848171 -1.88860231412166 -2.62700566244065 -2.63111084846661 2.22420630957545 2.77002118768469 2.3913436590886 2.44537217672903 2.32442429442551 -2.30454477894371 -2.46878879603868 2.49333331491352 2.4438705272505 -2.90521895146669 1.36199292792073 -2.08286215145959 -2.03728226510653 -2.8167095230864 -2.13312810461053 2.41594442402184 2.81815722077657 -0.2125975407951 -2.65701180264502 -1.59041965189854 -2.7021572946507 2.86121411811879 -2.16184954548047 2.61481504943412 -1.90206452081482 2.67946292020599 2.93208280498454 -2.53597331742043 -3.23619540471102 -2.87688006929332 2.224253576282 2.32038902613081 1.94601534023216 -2.07498274958023 2.63400979519909 -2.13098625933794 -1.93678538850857 -1.9523724533538 -2.44947250747604 -2.60868196232735 2.53577326869218 2.76773952429996 2.48146856222291 -2.57572461165436 2.74066875503011 2.05510782545538 -2.86947453038942 2.73470192666827 2.58007936584 -2.54481997092234 2.35179484265125 -1.83975737146854 -2.18693502227216 -1.92103511259297 2.39237259227833 -2.58794736588148 -2.57414835619752 -2.08782125965223 -2.20604022821456 2.06238222787296 -2.47129248257043 -1.90882342983027 -2.92413730276143 2.56125075185198 2.66573286928767 2.31112925477273 3.00142639976069 -2.75642901255904 -2.61583105512532 2.85465211433974 2.61513693376659 -2.97180727351775 2.45683788152658 -1.8960441556096 2.78677893764385 -2.52778220484988 -2.65151888848217 -2.60581359825191 1.91357433737386 2.69788381482081 2.07427558231804 -2.81576601427958 2.46001301220878 2.10235615451717 1.7254283890777 2.19266967777371 1.96811100993702 2.13749911680676 -1.99600385217727 -2.34268104102962 1.64835363374898 2.02372546055526 -2.30403561463229 1.9493481583962 2.4918987113213 -2.18832066146355 -3.88773001347481 1.91389097178095 2.16703050983089 -3.36850036134481 -2.37385083149509 2.99805458950176 2.29967357491381 2.81022809713811 -2.25535014043258 -2.45309002066415 2.50395384781371 2.92510326726238 1.95712164900705 2.1334500939951 1.69390319773539 2.72247601792362 -2.44866272195234 2.3014727824718 -2.1352481831248 2.18166336751427 -4.60432899678242 2.59552017714444 2.11338869737886 -2.18952594412335 2.16192050954257 2.52180270737251 -1.94966805057753 -2.07173254269386 2.83945489449866 -2.2619978193865 -2.36728398187022 2.44287007839445 1.98919445789754 -2.48413154119614 -4.20190305934928 -2.65127033554713 1.96063111427068 2.68282659403248 1.74956092915535 2.588381704238 2.30770701167555 -2.13623716438993 -1.8638807610118 -3.26209816972207 -2.52681407661012 2.69245894705381 1.71166948709925 2.61221748922946 2.666385532848 -2.26328088873187 2.17793032484227 -2.82063260577326 -2.46003313246268 2.40305170414346 -2.26977228694252 -2.3786563771868 2.61904948648606 2.47839187809677 1.90708256693842 -3.19298967610337 2.00470100620833 2.71839881233107 2.162101517047 -2.78839975768352 2.99493914748523 -2.82221814627997 2.52319985496843 2.24676662930885 2.03287876649588 -1.95630453964524 2.91640084396454 2.72715586019534 -2.65589023851062 -2.05576400249531 -1.99426890993867 2.18823596309581 -2.64741205791054 -2.75206434067014 2.09951797682995 -2.39724573970175 2.55929318660188 2.72703250156988 2.20332234497893 -2.03433834199531 2.4131080693358 2.37818024152126 -2.75092043027457 -2.58616611426296 2.46675051683339 2.47662126002366 2.27937089822681 1.84576656680037 -2.16525511140708 2.05379735049899 2.54166177153729 -2.33472911140353 -2.90199231764537 2.3372222198005 -2.43109414565346 2.73649399921845 2.48686707264439 -2.68533510515079 2.98264526925705 2.77901922672157 -1.89739349508794 2.680583129502 2.67375842046453 2.4518456770676 2.24318408543114 2.22355203978876 1.93402542888362 -2.18858496169172 -2.40116549411212 2.64784137008368 2.66631317216191 -2.53791608642592 2.57995774043682 2.86223464434363 -1.944936360731 2.3758841207963 -1.94984785093703 1.88923584255521 2.37628732764207 2.1768603172835 -2.52888996166034 -4.08226289145518 1.92795283061292 1.74223839506933 2.07268388058195 -3.28573779386891 1.84585319042727 -2.49557204156446 2.74312358821411 2.80101861330295 -2.65486862059792 -1.75054226882638 -4.56680380183599 2.94436771353236 2.80550814891826 -2.37029490417205 -2.26395856170559 2.42232593692622 2.47989979349366 2.17957479262092 2.20282375760496 2.65024158635435 2.75182555051123 -2.67760862217221 1.88352087894364 2.78705635352984 2.72078513410292 2.05410838787941 -2.25864077103521 -2.11927488494539 2.44812849949564 2.47295491449097 -2.73885279205387 2.16251786073514 -2.70017956999421 0 2.19711859400085
2.46255437211371 2.65357969820139 -2.56050519110028 -2.78975084013726 -2.57312911093542 -2.21219905850912 -2.0397646096343 2.7896150170804 2.63573994240423 -1.9489883731493 -2.41453868429679 -3.19079839484146 -2.17839973041243 -2.44628328113521 2.61220930993772 2.80303861395193 -2.70111489134147 -1.9823473272402 -2.56635297579098 2.4473840641152 -2.73009625048222 -1.9136283933825 -2.34487248506813 -3.64794259494496 1.64216996737819 -2.30247929044957 2.03009782306344 -2.73494856387 -2.88067222380014 2.23185357277704 3.04347808068952 2.68174252511447 2.40932936664997 -2.67129050058294 2.78464478991759 -1.85306083942245 1.9795110280361 2.60620308609469 2.14350863010783 2.89402123106043 2.71811506091255 -2.64129980196352 -2.5633026789729 -2.26398999960875 2.45302139507741 2.84401477422193 2.8071126053041 2.03721377661032 2.92102921937962 -2.5160054042839 -2.78569166695756 2.06471843893737 1.89622503205706 -3.54523636859336 1.14771183918247 -2.43524499053769 -2.81871421749282 -2.84954543011588 -2.14708375165487 2.78868275583019 2.25261317224946 0.245266163034952 -1.98416194327568 -1.33929797254265 -2.50420853265854 2.16049812743209 -2.21857766946831 2.26423549413588 -2.45625348101129 2.7968629247282 2.12365483096131 -2.67407883921504 -2.77327573115709 -2.42971163273019 2.67675195152341 1.82324711208351 2.28759966727832 -2.79278290640067 2.81507130504463 -2.22261247095354 -2.38734477828339 -2.77726432440189 -2.63804149345991 -2.10220476022378 2.58910750655096 2.85985383640395 2.37646832193343 -2.77858250520601 2.67332137151084 2.27049767932728 -2.01007931298197 1.93356133953894 2.92830349107961 -2.84265854208657 2.31953718114425 -4.03363801634617 -2.67725455592875 -2.43497251350293 2.68045076279573 -2.62459008482944 -2.50526472226213 -2.3504035960872 -4.50794115512173 2.73606475296925 -2.08800419691632 -1.91051352509496 -3.00669188542186 2.4365777389592 2.4811272950425 2.12626125941437 3.11473004052965 -1.9089278258398 -2.81655847949818 1.9081179608783 2.67797440469389 -3.01321460139678 2.33998348117907 -2.75276351159409 1.9458546689705 -2.77952117896455 -2.4300047324104 -3.08596927257409 2.5909319241112 1.97284011348211 1.92726334680586 -2.55212543644107 2.2182339186281 2.8015073483604 1.50119864971924 4.55196993183683 1.45244463552588 2.09827821155703 -2.82533543704764 -2.17460920835518 1.75941912195644 1.98827336291826 -2.54345301024547 2.22792384205105 1.79046466856389 -2.6603466314471 -2.37536766892881 2.16790656763063 2.19857524588436 -2.53012773611286 -2.30874557596382 3.21042346316643 2.58688197158248 2.8498465406764 -2.24956808485931 -3.02045682022079 2.44650839247845 2.381474389381 2.28058248174434 2.71685726493762 3.26300033514456 2.83589618969623 -2.27085952989653 2.45340861950372 -1.9388674949732 2.32490965472013 -2.24900744420268 2.15488494743705 2.36926883375162 -2.13837889366413 2.1021722449115 2.67618825334866 -2.14093082970564 -2.56392235596854 3.02762620003863 -2.60032991091813 -2.88232872814042 2.08035786236772 1.95551159700248 -1.8835345041084 -2.06303211985759 -2.69941738298425 3.16377113084923 2.06612654549382 2.43851261082878 2.0671231656017 2.2165224742579 -2.47037953598509 -2.17548559926522 -2.1075038602469 -3.00798782432755 2.99974316817565 3.80129960793969 1.98668700807993 2.81123101194157 -2.48532757316855 2.2208871230352 -2.2170077893428 -2.40028899961926 2.41992768023867 -1.72638306014075 -2.58501645636993 2.60261543755896 2.64229810858069 2.16576770747934 -2.45976511021314 2.09089998052117 2.40274094989231 2.14945339848249 -2.54855156666937 1.98577089901364 -2.47415779775944 1.89691005124925 1.29033406056444 2.26478988479502 -2.23426829316672 2.1045382213444 2.41778774750304 -2.88877448479372 -2.18097548549279 -2.68933370817749 2.76620271724423 -2.89208482170183 -2.56356243771716 2.46404744801713 -2.42708411909188 3.18487059045421 2.21712070074659 2.27153942225147 -2.53211244739102 2.46182166299122 2.19544926633481 -2.18552548035562 -2.36554936481994 1.94741009678368 2.06082964134834 2.27174393902309 1.77378792438134 -2.15614733981664 2.77124221777486 2.79914211495601 -2.20316699163982 -3.05023343854002 2.77737368389774 -1.36034679892383 2.8000088427132 3.21628496762747 -2.5887812030346 2.26582808129606 2.95737944650501 -1.96871853626714 2.61485569653708 2.56714891300049 2.60263584898688 1.99340122966887 2.81118767494314 1.92868826070109 -2.62061441845937 -2.67221861784534 1.93765280080512 2.99833272211051 -2.02326184829932 2.06166021697566 3.05466941753317 -2.45723493037119 2.66895161789269 -2.17856679712995 2.32646952083308 2.07701829662456 2.01392708703225 -2.64567889455061 -1.86031779563272 2.53344345527248 1.8933243450442 2.3977237096456 -3.32236566043805 2.51684497322033 -2.92860230136272 2.52489603121539 2.69178394524976 -2.42201709372324 -2.16078822891295 -2.30737219937507 3.10061360656672 2.85807423315417 -2.76652130330415 -2.26125236446775 2.84485674598929 1.80190376233813 2.01632157265845 2.7424110076205 2.01256497993054 2.73292295911644 -1.87601667954756 2.43110012691672 1.72089357705016 2.3197662080012 1.9424876884229 -2.3762880680729 -2.71740122057629 1.95401502373208 2.13577965685753 -2.03645825609232 2.6710585877159 -2.81175262774238 0 2.25795470157136
2.09553255680235 3.13604401582705 -3.2414712800211 -2.14330985891149 -2.63684440529364 -2.89813846965974 -2.21604283355384 2.25109076909304 2.60545297365112 -2.38099794408775 -2.11671318114558 -3.12233140905179 -1.93069265465052 -2.7382514719574 2.1425859379459 3.06974013512703 -2.38935525856531 -2.2278380709615 -2.778189330689 1.58830065028575 -2.97712770446441 -2.11156399801067 -3.75488323872145 -2.47590535963393 1.40657353919964 -2.22590275211383 2.2703887262231 -2.33729450149298 -2.15016317791745 3.37240691533976 3.04887606646008 2.38989133336823 2.06936815544888 -2.29095249848955 2.54160540118703 -3.23455818691528 3.04198662667267 2.16368830783972 5.24152844980226 2.57478629075581 2.32144507337244 -2.24117202206209 -2.73756335137933 -2.07934707502193 2.54053325408656 2.13116771448431 2.34895234398545 2.14974248099514 2.84418467660708 -2.32837897140119 -2.63247230695615 2.44189327360938 2.1742202536496 -2.85393833155579 1.38490408349068 -2.54755165312259 -2.23670864639037 -2.43831567687655 -1.96831455371758 2.55832056177375 2.46564531939909 -0.969721653946214 -2.22159388010016 -2.73053350452625 -2.66779124352846 2.79957903164793 -2.53113178574822 2.17520474440924 -2.48629572387399 1.86282163826385 2.46319547216207 -3.28785703914897 -1.88545046612356 -2.17168235117783 2.38948440701705 1.96179139101607 2.38359097562701 -2.66452326765047 2.82538273425292 -2.19430774408064 -2.42972716860663 -2.48907451561517 -2.34338265349048 -2.44785951190718 2.38163127888171 2.21540969849926 2.0251375985581 -2.62793249721666 2.07460319497018 2.34961651202485 -2.36979723384341 2.43676873675095 2.00242233105625 -2.70773350054023 2.8489925702721 -2.6168041069429 -2.01849676711167 -2.6468071876324 2.09179811827122 -2.16724282519027 -2.37074857227214 -2.11818644704991 -1.71443866203832 2.64004717560537 -2.38495820291606 -2.37371906670712 -3.26786269586706 2.53036204730059 2.03436578946122 2.55463913286549 2.930690828778 -2.57186449353836 -2.42080408925684 2.05920687764048 2.49643289500448 -2.98829912067804 2.50342613764847 -2.59244241558003 2.14993553260661 -2.50124014181993 -2.03564312790145 -2.67544004651662 2.10818766705654 2.74804757125853 2.15678768228737 -2.5576027166696 2.56185231407002 2.1400196726878 2.98482517242522 1.80983791947488 1.73591513930308 2.42092330324048 -2.428933797156 -2.45509741633379 1.63483770844192 2.37771607085745 -2.3957504147624 2.43483649067879 2.50170209250247 -2.23934997086755 -2.63497876138474 2.26578571205497 2.85391134425822 -2.65831678563996 -1.88855052825625 2.51771956675399 1.86271029055905 2.06770463163693 -2.10419759226394 -2.57470962039217 2.49134834490451 2.88895011521827 2.77750670451956 2.72356020843896 3.1665433930068 2.56635924296085 -2.38968085873325 3.1042211285345 -2.40707407136145 2.1664847243373 -3.24221684623239 2.64819778244897 2.87812512653815 -2.02511131244679 1.99077976836635 2.70043247095143 -2.53376895124189 -3.01473172962836 3.4708328187602 -1.99578558421573 -1.96774559217605 1.98443260182349 2.23321227723833 -2.11878720829329 -2.37130680926999 -2.39705283941517 2.57162277948902 2.81621850714029 2.28013732513012 1.79872991251215 2.00106812507702 -2.33602920412355 -2.18533314105317 -2.24599495153021 -2.54525438775296 2.78905950079978 2.28999963688224 2.27211016501967 3.22324069593751 -2.30039959062482 2.79012220150652 -2.38213939080645 -2.80339451297931 2.54507705319751 -4.59441859859695 -2.66972998566814 2.19797355989313 1.94589326741193 2.82563777016553 -3.30939458686676 1.66181731638739 1.80290032233654 2.7174717228446 -1.96221316746492 2.57106600307711 -2.35750614918952 2.1097804021899 1.376378625419 2.2801147104525 -2.36388224368 3.34232486337394 2.49467678259107 -2.07074137596562 -2.52888307863373 -2.66917962163222 2.57745839615694 -2.54425525951964 -2.28263740394053 1.96503424958521 -2.54889010167321 3.25203355827491 1.98769764701253 2.43270667839998 -2.4774277448333 2.14363468777456 2.29171466745522 -2.89287281130655 -2.11545345131039 2.2079410501804 2.13206632032927 2.03376260343493 1.97809688983021 -1.77907570202406 2.692699912045 1.86934846767873 -2.79538248830097 -3.01188430546277 2.53986372952365 -2.08262139055806 2.28077886497214 3.27645875217593 -2.61261305034521 3.08853438905077 2.45278178651569 -2.33272504574678 2.04315083862461 2.51280669228336 2.58470888227776 2.18190413885784 2.37809262243455 2.35336751709858 -2.36202846551995 -2.86889703616816 2.55280401813828 2.64249422213641 -2.77204882372678 2.19860351090421 3.1491689025053 -1.97450690560421 2.22748489130705 -2.37489163577204 2.39987390056363 3.57531771648279 1.9655695048277 -3.00792939540461 -1.42387550487354 2.58922497510407 2.74588989348897 2.19105214224717 -3.48264775110489 2.23363508803894 -2.47248207488296 2.3569188922899 3.10753846430035 -2.22432699457275 -2.56530121490827 -2.68968330871124 3.21809655501025 2.53757262071487 -2.20012362920057 -2.18012417403893 2.10941312980976 1.7482796585089 2.61706770173387 2.32203021610081 2.41578871669551 2.4328865729286 -2.50716323928229 3.26793933133729 1.8693627491675 2.49976994501103 2.28262610723448 -2.19822261220038 -2.70319650158928 2.64275511713371 1.48535090304035 -2.44056156835103 2.37469118718829 -2.26619238413715 0 4.81436001249269
2.4438686319444 2.29372522360253 -3.02253218265473 -2.4950205282945 -2.85581124816257 -2.57427948820467 -2.84421840063035 2.06807625574113 2.01943766743909 -1.91944242648711 -2.3347208384038 -3.1496827577305 -2.67813625359459 -2.49337635081397 2.20090056509826 2.85942748533009 -2.2540530680437 -2.40049194004657 -2.53643507811214 2.01743625060638 -2.20382202584785 -2.42341175205935 -2.90015800389212 -2.36999799785256 1.13285766229201 -2.50982713489219 2.86387205495219 -2.4342798578303 -2.78299174274095 2.1749797414887 2.54570993671448 2.65286767220945 1.90230072541705 -2.60084767979535 1.89977521912821 -2.27504891549793 2.7035801241788 2.42223813276079 2.80674537086157 1.74590467751735 2.37102070551157 -2.37047333504828 -2.78994054572645 -2.343525840306 2.31021329010594 2.42559479789383 2.21075512814647 2.4279073679281 2.63409590604781 -2.24473761559321 -2.37317100597062 2.79845690423949 3.22419901742295 -3.31193824494657 3.20514398927967 -2.79212839260117 -2.64070128354107 -2.51831756695118 -2.78665490520236 2.76278028268164 1.99520300915416 0.483917228010417 -2.83190037226719 -1.2939380101252 -2.87153996108577 2.75468434356804 -2.05129051529515 2.73864697818881 -2.67569963856112 2.47632002765398 2.13368792858633 -2.6631220168158 -2.9451181365061 -2.45389799472071 2.16733332724624 1.61168424437176 2.43818329163736 -2.76799547561363 2.643382634982 -2.31352333018922 -2.76990178013936 -2.29698656163585 -2.83176673622662 -2.22780309598892 3.13633247965374 2.75123835573779 1.89961712722521 -2.67960706333098 2.30167595493299 2.88343727343495 -1.984551589254 2.2328003927392 2.10589836668255 -2.01163663619313 2.07461510933784 -0.796421760329604 -2.36577480776646 -2.4463256433559 2.15683745697142 -2.55734596076549 -2.70290936710413 -2.67063903539127 -1.93852226634691 2.52788500231347 -1.9924837735485 -2.38194338940721 -3.19221716746246 2.16166924590161 2.59381861540914 2.57562302474651 2.95649336204797 -2.8796365665144 -2.31364703131193 2.35663851276767 2.60232267993955 -2.95068171636161 2.45383159564442 -2.35000914705389 2.53472712630668 -2.05990669682065 -2.060196572516 -3.00816101805062 2.43134547393455 2.14337251827749 2.9082756179047 -2.60032763041798 2.41726826600187 2.51927025080332 2.89148564000834 1.5155582584786 4.40777913188108 3.02933321899846 -1.62697731905256 -2.60631415716043 1.76690032614176 2.84171729804163 -2.47008971914514 2.17281260521094 2.58686621430063 -2.3232252605582 -2.55366963332503 2.54146312623048 2.42430819727571 -2.849517006735 -3.42497722673833 2.94112973140382 2.61665682332161 2.84179254605901 -2.7256312831127 -2.79627023992143 2.17819781184618 2.02185127904782 2.67441993689755 2.32632504512166 3.63237996685139 2.4429053590007 -2.30676648820014 2.6810757231553 -1.69526845006482 2.49919522569985 -1.8174367525094 2.59355115548672 1.9861610255879 -2.81524113150532 1.92663587388137 2.33273028662804 -2.66324456252033 -2.41596254199884 2.62676848778749 -2.16991092295901 -2.62716332716566 2.22905728467458 2.53265724734632 -2.67115661793655 -1.76223948359413 -2.71277574032055 3.42030149230358 2.75768067275526 2.23843261296785 2.61230717735963 2.32699373119379 -2.30694128158566 -2.01466417425378 -2.73026764726691 -2.74278710377157 2.61512617325576 1.49570800799327 1.19584361690977 3.27851392233111 -1.98250547343346 2.14554528802914 -2.47183831774634 -2.59404883110992 1.96266174052649 -2.2073779286612 -2.54323829983079 2.43183344027741 2.27136578397377 2.23354960845143 -3.67143301188833 2.64506763903606 2.32816866157956 2.69808801487816 -2.53643800769771 2.24700569201434 -1.93189573667007 2.32436380378566 2.99304518739821 2.65264346226731 -2.18708137489654 2.60949087919962 2.56624008064192 -1.99261184632339 -2.70031301431113 -2.61840329687591 2.12825941065368 -2.66252779725867 -2.77082905637699 2.80996306687731 -2.0021768850121 3.02141783478033 2.57385137918643 2.4681506138641 -2.70953542004343 1.8624157568178 2.66414337738299 -2.78348372963764 -2.29117878223657 2.26363284900087 2.25604402422195 2.44239723106324 2.97633734880848 -2.35607503686157 2.64953495246369 1.9932290923136 -1.96229698687303 -2.92265903122081 2.02632387574338 -1.22380450480904 2.35490374699972 3.36652006863272 -2.61821926568886 2.53913151456689 2.80401094094296 -3.14876026108898 2.41688069443503 2.38481513947696 2.00457556873339 3.00193590485786 2.28354392621914 1.85718242338592 -2.70878722007922 -2.19172172571086 2.42487493141235 3.03896969219555 -1.85177170409941 2.82124295595029 3.23525971517666 -2.88234387758179 2.48146299768947 -1.97709564888827 2.696175409416 1.60413199189539 2.73850919792682 -3.08539499509168 -2.29420463580736 1.98722655450193 2.03835685283341 1.96032509832683 -3.89573527934553 2.42108758047661 -2.96981484054809 2.08128908295653 3.16158824252552 -1.92356475978744 -3.70710783803565 -2.13641007672847 2.54328743709841 2.75757931636038 -2.22255213263795 -2.64250905592583 2.80372628831803 2.67832426944692 2.83857652608633 2.15357836103018 2.2196167578849 2.4111000985228 -2.76325877572468 1.5372480317671 1.92228026367406 1.94463884099054 3.52526506433167 -2.89117201606908 -2.16313103616073 2.17202915532571 0.942801848802636 -1.84191684136788 2.18160194094986 -1.88524723082822 0 6.24715216311005
2.53683912000667 2.22752104261235 -3.45914704035166 -2.68154826865001 -2.16760311625396 -2.70328844251729 -1.9533858154901 2.86577980566151 2.66559157697283 -2.09324322626591 -2.71381988578781 -3.41469895066939 -1.91755246275793 -2.58572066106594 2.14876060209836 3.12884951637273 -2.68208827453952 -2.48851888405139 -2.59998669294778 2.15976361080904 -2.06814135612507 -2.85408483190893 -3.20638606895278 -2.50770186357232 1.76092940116927 -2.03765450777216 2.74184166989769 -2.41422413981586 -2.49165623089198 2.19779211634021 3.08768010634508 2.7096584559544 2.62761473285321 -1.98039196383699 1.701697117776 -1.75403579960514 3.42656099182766 2.2042247018627 1.13721829115487 1.82930246154811 2.30032555417303 -2.18035124892673 -2.59989911624725 -2.4631467506325 2.11901543790563 2.86705566348773 2.57647123972658 2.704195767652 2.64771015803779 -2.38379288783151 -1.98157049999765 2.396151913999 2.04338269847291 -3.75850255745428 0.82756539396754 -2.49056346798695 -2.30466144584762 -2.791236845886 -2.72397073043174 2.81066567526816 2.02127637402452 -2.20946818368532 -2.45310500989836 -4.0199805692978 -2.85901053752777 2.09526189527541 -2.49503268662341 1.96285352277521 -2.60818939737563 2.25445021811559 1.8626950678159 -2.78157160146885 -3.3417040777667 -2.09826166479252 2.12428674371134 1.7516636062495 2.55987109442229 -2.58439897263848 2.66437418739249 -2.54685369060072 -2.65533591899058 -2.82674262312558 -2.70898565094075 -2.76716971130147 2.61446664047247 2.74783049058713 2.91629866828349 -2.51812595695915 2.73401768064018 2.4131524306676 -2.51822864648778 2.67247294232138 2.15444456242529 -2.61981442539428 2.09310371132498 -1.67515777079459 -2.70553339963317 -2.67704205228713 2.18178741317989 -2.89810606107423 -2.45085084630573 -2.16157854596497 -2.22301117304939 1.84479165067646 -2.75039448617633 -3.37509917221472 -3.37805080177287 2.31050528740651 2.01100274276493 1.99577920522102 2.87010411015058 -2.66303711386904 -2.62144386322731 2.64785504732693 2.72412263580654 -1.99202684036757 2.24954540492113 -2.35494918264821 2.16763636763984 -2.08709055600263 -2.36513931702395 -3.43141159325936 2.19094833782966 2.80095958544206 2.40919821432903 -2.46446521405338 2.60183398502348 2.78301193813921 1.88512938834548 2.76770676056545 2.20605453021903 2.34295608806593 -1.39362916425204 -2.18754088350245 4.02126481511909 2.30707371359082 -2.22337679906783 2.09797755005514 2.63275626213912 -2.18046484737355 -2.13398112231566 2.14041610040913 2.2374255092541 -2.25844161633357 -2.64009879843928 2.46686145296 2.17277217687414 2.21927542931465 -2.38322235544794 -2.89482262739987 2.5723374303372 2.9119873670643 1.97933246197692 2.31944982387644 2.53777162350869 2.36001017202591 -2.58022597230051 2.90085037958668 -2.48120810219205 2.64197412392337 -2.63845871003762 2.37487454814129 2.6210746422394 -2.21682592152613 2.58779382940077 2.28668378767085 -2.60695482795349 -2.05551110992809 2.95353979174536 -2.56998170530175 -2.65272446988641 2.0662076135759 2.28217853995186 -2.4217649771028 -2.15593845388918 -2.49006432972417 2.86623828196988 2.48637959325666 2.41632601536068 2.86372261665183 1.95420305512041 -2.43318192870995 -1.60964285243628 -2.7083678279231 -2.7913439759992 2.75765060430214 1.83832246985282 2.43257518246735 1.83316786097027 -2.44642125605314 3.00565392978819 -2.83824520177088 -2.7796312213015 2.14779510810274 -1.85947262567995 -2.49194692980473 2.35011777177737 2.5135701978769 2.23856085290711 -2.93822270239824 2.90626447770158 2.63012571316477 2.53380379128386 -2.7526579474765 2.85176324411874 -2.45167656179012 2.44561285943571 1.49154095455282 2.14192203346413 -2.79524525808389 2.73154279390816 2.80807081260554 -2.48771070627166 -2.75142591664153 -2.15901266367101 2.63905631897127 -2.8630516631513 -2.60750769111085 1.9594794035051 -2.39292299855955 2.92313288234962 2.51286118037765 2.14167043521618 -2.51648138569753 1.69544623947587 2.11167170050992 -2.90203057164916 -2.76415074662343 2.86370456748544 2.61932204862228 2.78828382633562 1.34520726648295 -2.95824356391101 2.69368720030799 2.83559846082827 -2.68532461792051 -3.57891598232475 2.07248160290098 -1.49874260741079 2.34245096677904 3.1429592641628 -2.15972643334316 2.6172890073434 2.77756947679554 -1.69841670564321 1.92535125498365 2.56541871497025 2.69055767216955 2.09506732432077 2.64319987873196 2.41923544796933 -2.62747762585312 -2.36816453690763 2.80170274554329 3.47554902065394 -2.67597290798199 2.10390550013683 2.71229875881131 -2.25035583997273 2.68140616575957 -2.47834299433604 2.24666777870668 2.14848468159627 2.57930183417021 -2.58118876355104 -2.47270246449802 2.508158383638 2.49846848620875 2.87812464871016 -2.75180748299097 2.48458976570143 -2.1881914809051 2.59078826259348 2.86149635209584 -2.67774147606287 -1.63315361078741 -2.31167528850976 3.40716048476781 2.47895577323063 -2.53342868715394 -2.37636464581434 2.02320694571474 2.04240525729702 2.11476246411169 2.20057761441455 2.47213023602289 2.50535109008187 -2.45636751403338 1.88470267427533 0.959465657989751 2.65025729696862 1.93334155019182 -2.35185724446326 -2.06487268484361 2.63628571496111 1.33881895455884 -2.48489529459764 2.75315986653269 -2.75939824514821 0 5.98269535462434
2.37550904333455 2.76802589351316 -3.02318290027951 -2.40300067438453 -2.80808020304285 -2.32813294384369 -2.2628482064856 2.65111738638622 2.82217818422015 -2.40854138405118 -2.87433927659609 -3.11843071512397 -2.42759523900548 -2.61540881418199 1.42504411178032 2.4064655881751 -2.17809655580019 -2.13025165027952 -2.73222247795541 1.60767623735094 -1.85475915583138 -2.77111636422048 -2.84707655713805 -2.31046814665294 3.45490671085362 -2.27562642599519 2.24750522438587 -2.08031532074879 -2.85149761120502 1.72727428347347 2.80780066911045 2.19947118468036 2.71150055075312 -2.74334717555386 2.5850320679921 -2.33355856854206 2.4315652623623 2.70678092391597 1.76410394428291 2.13868699529457 2.78800084490284 -1.93746418108524 -2.43051050191413 -2.10272393235692 2.74285563059201 2.35378335441041 2.3415850410821 2.16739802855259 2.71503805017991 -2.33323023181895 -2.57107464113138 2.56662441606165 2.6641810621726 -3.21422742800703 1.94092311637057 -2.53202225028325 -2.42993020425413 -2.62267402996276 -2.73185354730751 2.39657475528441 2.14928055910105 -0.0292389638457411 -2.21511452876981 -2.1168067689505 -2.89379946069612 2.70266527385951 -2.55742536072322 2.18980832526445 -2.56492965665546 2.41027512052953 1.8108756450062 -2.81707446687567 -3.54985130825861 -2.39349728607231 2.48926018002602 3.04672828776274 2.62644132533699 -2.30546101996046 2.77131945043367 -2.34248454286549 -2.65454097210928 -2.77289961966428 -2.73039444615109 -2.17954514155107 2.62073643308902 2.24491713450648 2.61031471591664 -2.65909070138591 2.56110903661363 2.55211437086641 -2.74997841930033 2.05548157950863 2.50974649134797 -2.3489980824413 2.44566350597092 -1.81314013783833 -2.6780023489904 -2.30984617858716 2.20245257340011 -2.07012852782207 -2.33463420261389 -2.60302434237285 -1.84573879104225 1.97628605425006 -2.66832843622391 -1.85204731970157 -2.8583377396182 1.95188567119925 3.18750548868607 2.4666912892813 3.12167942707736 -2.03981175895755 -2.56657134258168 2.37031991979924 2.55733395219923 -3.33850904984115 2.5418349388691 -1.91302464316602 2.14027188746716 -2.66444402040351 -2.86174531806752 -2.45313317035174 2.6297320801101 2.60723636763382 1.9206089627026 -1.97573696484116 2.03486815934123 2.71705483589279 1.71919651565687 2.20718845406533 2.45690487638413 1.89778046617146 -1.69200437512935 -2.87278095255111 1.48897694708744 2.86075475273981 -2.61453450214929 2.03701179238933 2.13215757597632 -2.56868969143855 -1.65918681738791 2.5890188832022 2.01950230708707 -3.14957407877306 -3.520777939324 3.06952486903993 2.55862059784031 2.09562997350216 -2.64582963943279 -2.65707378191557 2.35933864719251 2.51611755930485 2.32311071001777 2.9040291750684 3.1894587331672 1.99240586863606 -2.45087850536624 2.05496507818319 -1.92543332817683 2.22153465497923 -1.46759104997763 2.40419949392526 1.95124079958516 -2.50051275327996 2.88827286592833 2.45805584360375 -2.26986904811869 -2.32249010626414 3.01251460380168 -2.65759402202813 -2.03063985868305 2.46219503094206 2.35411881009428 -1.92504738814434 -1.79182261583069 -2.52588051230618 1.9435839110278 2.47470445588851 2.16435250766334 2.11732216078047 2.05206454459652 -1.97058875691398 -2.27031986685244 -2.53669882318817 -2.8953225202568 2.2800942745088 1.82488255336807 2.180285146443 2.58868226448396 -2.90664257578148 2.3170465272681 -2.89044287934617 -2.502878204304 2.06063759244871 -2.10943778620599 -2.58016443878731 2.53053371325883 2.50154749652657 2.10543192982814 -3.17972238506665 2.64938790634109 2.36016429132185 2.8492471742312 -2.00132605141091 2.37813229067442 -2.03422018507545 2.7672004644396 3.56818552720151 2.38903493922048 -2.39931810404588 2.79957148617239 2.72498054999762 -2.4034140792795 -2.3408880983382 -2.63404693077921 2.22317100506929 -1.98677404389197 -2.53403816101006 2.24930509932906 -2.38944630952142 3.0133766891918 2.1901313179891 2.70672278144203 -2.44013562468861 5.67465124884764 2.70312919496307 -2.78509285785084 -2.52243549485656 2.80824798112663 2.14993839843907 2.90843050402552 2.21398045891251 -2.16345160446063 2.10158455146337 2.39473084417742 -2.35597405437223 -3.10171689058928 2.48247208875561 -1.76062594332927 2.31480097926815 2.82203620166668 -2.74686764594476 3.13884806692745 3.06934662111324 -1.96818499167007 2.52821577680489 2.43609352951477 2.60697262261767 2.24062580518708 2.67987110800088 1.89049081859652 -2.65803150249095 -2.40182950899507 2.66865640153507 3.15317870271663 -2.47098990604942 2.45962303059993 2.81397115052416 -2.84178369270947 2.6538614087186 -2.17573613583571 2.49524366815857 1.94921437373235 2.09676224317981 -2.67584167736785 -2.64203137849689 2.20904350792632 2.06689400928372 2.16141705267267 -3.34383532867898 1.90249508441925 -2.94108523024784 2.20832821281077 2.53143480745385 -1.85926318839131 -2.17932704762757 -1.2990134457225 3.03197662336861 2.14848387844747 -2.65441175012931 -2.62546623969309 2.25659902153018 2.07937080997037 2.09167524146078 2.73826360808689 2.36172230876771 1.96258044003985 -2.10039366386344 1.86695181946788 1.7102007329272 2.8316040481338 3.79327002812003 -2.33329054083487 -2.58544825046218 2.31260402254303 5.00491319107485 -2.22343023672378 2.35820822168031 -2.5701134914452 0 5.8942176268684
2.19610317659321 2.06772012631282 -3.08859215216618 -2.80144799161198 -2.23299824893873 -1.83862488631488 -2.85219515113835 2.24796243174023 2.74853095551866 -1.92797340721362 -2.04961392884962 -3.20260360043796 -2.72233906322133 -2.08557634459141 2.4530821849813 3.06105808591098 -2.60179117092284 -2.48101650940402 -2.76792129610601 1.62824288726002 -2.27826562249304 -2.27144755653007 -2.93186335413763 -2.13072885981077 1.94186642340182 -2.48380959137498 2.61830645739332 -1.99175145266598 -2.23354126890917 2.68120939092394 2.39542563974532 1.9350973023514 2.50994847123885 -2.6330855888669 2.93877776319567 -1.91747439950068 2.4373857452724 2.06128668058786 1.89775675289454 2.51773585641752 2.31053147402312 -2.15096046220451 -1.99672440889922 -2.25144472054094 2.15860356856727 2.25993525276058 2.57399476122873 2.56118978370432 3.13508514673526 -1.71094812862131 -2.01297172767341 2.1007423640564 2.52964500408916 -2.91182152775265 1.17282373956693 -2.14739486323842 -2.42936151923541 -1.99558861188941 -2.3835130539446 2.24798633743382 2.02725546338975 -0.392939563303283 -2.1566996074423 -2.63044878949079 -2.38509789982677 2.59951620170559 -1.8235372705547 2.72259604641501 -1.95726025668774 2.33334777661509 2.59733612615241 -2.48779513481716 -3.15781422264396 -2.24796161746372 2.55012489759286 2.06022413155303 2.57662880728198 -2.64176710549703 2.46675297865677 -2.41364340458647 -2.20050313543004 -2.80314159604616 -1.93232128979938 -2.1951440345058 2.0672590318703 2.70481594524961 1.93737287346942 -2.41769868797283 2.30825023391415 2.05095844832622 -2.09548541353726 2.55869173433272 2.58812272465107 -2.78052120356652 2.57181242863856 -1.5741768245155 -2.79921702084555 -2.02432220024951 2.53274144996587 -2.30818237564727 -2.49967261325513 -2.059352601037 -1.78915706506666 2.3556849636255 -2.82472556013112 -1.39129670456616 -3.62449011027278 2.15356645944761 2.43181154565297 2.03077681872456 2.95888630720233 -2.71906793464277 -2.56381376351307 1.99584722295221 2.68444671008718 -3.20777520027491 2.07094692348737 -2.54259015038998 2.83392737906035 -2.8004580235816 -2.2089443733824 -2.57982140322314 2.34710367683599 2.59849303382616 2.02273652980888 -2.56052180379086 2.05783681088608 2.65828010178802 2.15215752092498 1.85013904910667 1.92654539525344 2.64877935808045 -2.75025194568435 -2.9333361584575 1.39861285502143 2.6081655980751 -2.59965415103715 2.15385485990065 2.18123474035631 -2.71174803599995 -2.74698805190065 2.63474943531052 1.87460479205612 -3.27844227005322 -2.40567053005522 3.05678678977799 2.12400378210185 2.67135244594145 -2.63406211729206 -2.57209237542942 2.00144390458175 3.04465165759838 2.7420186023559 2.58710153403374 3.1066602338167 2.71804535524948 -2.70972713021756 1.96214285868649 -2.45473668467446 2.5805906271667 -1.55234288795181 2.41423034400838 2.27583715735746 -2.82180053327255 3.66264563163898 2.47149973087462 -2.1544848041128 -2.5210646306142 3.43332448734772 -2.72817486799386 -1.96588385526229 2.77069431030945 2.29779117221391 -2.00303534648692 -1.79782032394727 -1.97013896110127 2.56347556464998 2.19216689557789 2.41843369489313 3.39953663774785 2.66917650116099 -2.37170373778246 -1.93478306705484 -2.67637719741938 -2.94290773803464 2.46893340055997 2.43981659077323 2.35115352959689 2.05560093254671 -2.59051235315797 2.21158470036017 -2.72039598727974 -2.69217107324005 2.6649112050357 -2.05430442676569 -1.99581358202869 2.16705600030222 1.88680782645688 2.16410536066227 -3.54524319993629 3.09957727620128 2.11425449660305 3.02074140556695 -2.76978996221148 2.59770905426059 -2.67188472373882 2.40208912603781 1.64556036088436 2.03244733376183 -2.77992803231179 2.40268961044838 2.78671783929217 -2.29995033544245 -2.62543365189636 -1.87923472653909 2.0108595656017 -2.83555794931046 -2.78607853982207 2.60776516393838 -2.35049468409571 2.44015700862311 2.83888930210749 1.87187904145094 -2.23101313188029 2.72435223758225 2.55608206454073 -2.11669187941129 -2.22087932698567 2.24720395790147 2.61160670226491 2.37978208570976 1.98815119846834 -3.76326933822984 2.35910484625014 2.78754146801552 -2.27780078477917 -2.7650218382708 2.52310843955027 -4.80158630390221 2.21300053974923 2.66876284885314 -2.07072177000891 2.72055272374612 2.72547075192443 -1.69844782400766 2.23677994164875 2.43358120086275 2.91759028350124 2.31566472274771 2.20795801110363 2.4588374507343 -2.60424869225915 -2.61901801715786 2.84204317626162 2.81755435624557 -1.96023086538902 2.00080197384169 2.87054231320697 -2.48248504338071 2.86505947056585 -2.44358084285824 2.6361589803784 2.14247033018367 2.06638228935954 -2.59378586480099 -2.78565652551423 2.75605560755993 1.93880603219151 2.55537784759298 -3.42693461546537 2.31996220698978 -2.52124767659937 2.33601871667609 2.7881441860762 -2.38936368214701 -1.53874623453473 -2.18268110444092 3.53380547862322 2.62810124838187 -2.61202648713391 -2.68974811844824 2.66091709255195 2.19859604240769 2.79904649050611 2.75182094336215 2.18731343796086 1.98357528096434 -2.75621716481311 2.4422165081307 4.64101585214356 2.27862003175929 2.27817094282308 -2.68653835955323 -2.43627809391939 2.48192780771883 2.15915207967279 -3.51031656145047 2.18315744781241 -2.23591527225642 0 3.03822521231469
2.42988763805613 2.5124782807091 -2.568595202244 -2.66297689831467 -2.08743535584165 -2.40313932471796 -2.0874476152777 2.4814457476109 2.58866940387193 -2.26121302803881 -2.55838101903415 -3.0677723864199 -2.36357557554543 -2.64849809612066 2.53074117503377 2.86494847612959 -2.79525590200683 -1.92098658015479 -2.68926355672072 1.67550170847813 -1.97284945935183 -2.01148643265361 -3.30968023597542 -2.63921725156646 1.43336616088767 -2.65343753334444 2.30688279868362 -2.03135992320814 -2.80702717971376 1.84294297577048 2.73737102846953 2.82517380728822 2.14414250209604 -1.9221800212534 2.28524583447393 -1.77122771807799 2.2901572183181 2.27907625063387 1.90791838843555 2.00474023524269 2.32769535091151 -2.19590978595661 -2.4775500778696 -2.76577790890673 2.12779627724053 2.63829275944449 2.7462037131964 2.58883845769181 2.60168044567305 -2.58821019502266 -2.66480587393363 1.9791617644984 2.98869254866601 -3.37934077712527 2.8950080632728 -2.21268672993005 -2.78769483174112 -2.47596046526694 -2.47886362627739 2.51000193441418 2.72072195382921 -1.35091578510325 -2.4083844003177 -1.25343596985043 -2.7701680795315 2.62240543771824 -1.23191460048427 2.44052373086789 -2.35152187568399 2.01443433256614 2.18877102709711 -2.96559150959749 -2.63959035097355 -1.96526342957375 2.50187525537576 1.90388234237606 2.15629713033096 -2.50534361213041 1.90420937750777 -2.00314251667242 -2.41539954515235 -2.27837907037813 -2.83692405784922 -2.75642088121782 2.78408342900389 2.51122191048211 2.21393017200803 -2.06940208188557 1.92242468413608 2.84002838757774 -2.25034962686166 2.65173094316883 1.94074247770135 -2.42577561972348 2.54400804429737 -2.00125148992114 -2.75596938555903 -2.18513804905933 2.67609869061096 -2.36485924620084 -2.70833283446857 -2.47504341136568 -3.47677010282249 2.33349904853626 -2.39152284450771 -2.03220016931988 -2.86989653897224 2.76964691085129 2.52507897736375 2.29687539132853 2.58564177016356 -2.14357581873336 -2.59002442811912 2.36698672146269 2.51593773995535 -2.88651167262483 2.77891823435868 -2.29334771799352 2.63432300861649 -2.03283189211885 -2.20632572382832 -3.05901130542154 2.39824875554252 2.46128296371418 2.14633162916 -2.12712544549512 2.31551647899205 2.10310143068212 1.74469725460374 2.49141875141117 2.12306634156426 2.65353080953642 -2.00435059264477 -2.29453676703356 2.43542947809084 2.7883433181498 -2.55621701162052 2.28404212826298 2.31935765083136 -2.59880231069936 -2.04487863230119 2.00937053642464 3.10718830348646 -2.54068136495111 -1.97849779306771 3.02776765237598 2.31951728918621 2.33354279097881 -2.75832934122342 -3.29377937673823 2.50563398441222 2.61229013977367 2.81733301371242 2.86086734655256 2.64076103024848 2.80482600669175 -2.12854176102023 2.43715899669374 -3.44476844997661 2.69329881681354 -1.98953330705965 1.88381958395374 2.5744130742115 -2.23258730865386 2.53626410151246 2.26002258400109 -2.55117383149435 -2.25043628463577 3.16278850661513 -2.40976476032162 -1.8573670318908 2.43196118439676 2.66357022521134 -2.30788177882781 -2.59143841362993 -2.32807986422157 2.69234688443834 2.01795110799059 2.78009614099032 2.42845576184815 2.06561534749188 -2.75450375787673 -5.42758551750216 -2.18435285657285 -2.75083929773333 2.5166743418071 2.27015731629989 1.7835260832088 2.86859340540345 -2.08786050731838 1.9599906952689 -2.37104148709297 -2.60316052391835 2.60765254025025 -3.37075987936487 -2.05242501803267 2.27428814214571 2.13618239270685 2.79241036517389 -3.19488879263677 2.43261732147455 2.54229868723721 2.33612205190283 -2.23445335071858 2.24011159742026 -2.76218910463914 2.75032974375744 1.4386706878705 2.73330111699177 -2.50552867720612 2.89445333657992 2.64366405011099 -1.96501316035879 -2.38065965357186 -2.24849470527795 2.70620944111319 -2.0040342936574 -2.27640138696396 1.99184727057216 -2.56870135876412 3.25352655451155 2.70443953217315 2.81727734559821 -2.76017292169303 2.5296083187894 2.29634332487093 -2.63742512516461 -2.75196684766045 2.02886980645438 2.15401725700703 1.91328663302855 1.47074269165415 -2.44254832453993 2.42073682914013 1.85651513391534 -2.53203347417089 -2.9719382417695 2.34633318491644 -1.712482957458 2.39563095607116 3.15891118051608 -2.58262563836769 2.40562488960976 2.91867478394853 -3.15756707104231 2.27745318936371 2.5215273137861 2.58537554302342 1.51376682761353 2.30069488422689 2.82665748271861 -2.24712765040039 -2.66269785436981 2.72954202696331 3.54836605603654 -2.14532624390879 2.36422473225411 2.91959727746141 -2.59590580489469 2.81810741343361 -2.02886444954548 2.55359397177885 2.4309949635455 2.25427988993214 -2.82166877400109 -2.29331908284609 2.40453601255204 2.24988534554205 2.50435634033827 -3.13248073225891 2.14857713234727 -2.79301018274376 2.16843405109783 3.10561530234861 -2.17602959634851 -1.75497882293065 -2.43696449364083 3.02113641215062 2.76793597589436 -1.86845403759864 -2.07897181607634 2.28549882265801 2.17890842668558 2.61932453521586 2.21954436508471 2.30964460776228 2.64095361443859 -2.46045297702369 4.18636423410123 1.93351069582415 2.41378915009625 2.26839658230754 -2.53635411935743 -2.27110415096809 2.42154839457427 1.74340481549389 -1.96942426705738 2.81107965331531 -2.64779303268255 0 4.54407252575625
2.73989130554483 2.16090214361294 -3.10837911897367 -2.42853669978845 -2.86613613817001 -2.16148157467064 -2.55806088409242 2.41361478945674 2.28614519295069 -2.33243374479295 -3.53118522747809 -3.39559074401015 -2.15353878670349 -2.64943178706119 1.86135310123452 2.57494718063472 -2.15729961694882 -2.28496120481203 -2.7417659333754 2.95473407078707 -1.73642023797959 -2.64716456912575 -2.90679313555216 -2.91038316579235 2.69236802838607 -2.08274080587508 1.95512578460884 -2.21565085645974 -2.80600499424089 2.33550165348027 2.92323099210056 2.34241371611852 2.21657111722922 -2.45419696314449 1.72724329643605 -2.8533917503084 2.81102114611812 2.05427153995843 1.82577448469105 2.78904443196497 2.02156436792384 -2.61776583659226 -1.97690122522222 -2.31765410902774 2.78711916539338 2.30392334345834 2.14173431638913 2.88508503584993 2.48041455524653 -2.60557497610288 -1.88214698020159 2.16671656720946 2.29684096724556 -3.36759731188852 2.29898384699613 -2.35747135718137 -2.126920428972 -2.66287248151597 -2.8130371992498 2.36510544751466 2.44682175896835 0.864602191386344 -2.49066095130145 -1.74219673499944 -3.00584197488367 2.85325803959114 -4.37295733278464 2.04620839393127 -2.69974764729247 2.43196962436184 2.08018858387922 -3.14339930661122 -3.27268208040426 -2.42004786991736 2.48969984556455 1.99752730264141 2.10100646839936 -1.9451496763411 1.99791839410834 -2.42048129769326 -2.27541673409497 -2.67424645587658 -2.65785971205484 -2.85823898404817 2.56990014967002 3.26024025732034 3.84040031866837 -2.07729882925612 2.8865244950511 2.37422095126079 -1.9975209363569 2.68573174219241 2.06741306511712 -2.71441022686422 2.17118629159162 -2.01161773488325 -2.01393592730923 -2.57512991128523 2.66265087344763 -2.75410904616691 -2.61758947536278 -2.04111677582015 -1.08741701750537 2.61690903882943 -2.22707521300793 -1.9242212758448 -3.79026440397509 2.01951629821702 2.78303123269321 2.81493356376813 2.65901164686037 -2.19417882804443 -2.71667373658668 2.48304628846476 2.76707200553729 -3.06275256547683 2.30137904102483 -2.43351556339725 2.85342070377657 -2.46670097748915 -2.74200038717153 -3.31075123716553 2.20474709941802 2.62089857589242 3.34633963482137 -2.42763451761945 2.71664574648554 2.65948513236699 1.75057849556939 1.28306168024427 1.53711137878785 2.75772902852487 -2.11263207018718 -2.86371061175534 1.12772068727697 2.62354892830469 -2.54248281828989 2.29476950543702 2.03968265664032 -2.44163842493717 -2.05659053267889 2.48740343685694 2.70654772292878 -2.83715932124346 -3.35565593469725 2.8059646646044 2.41344926455566 2.25765655251385 -2.63584671428013 -3.04220569249452 2.01150601992426 2.53173673622203 2.47500284839959 2.20449319219862 3.76263149562403 1.94256862362271 -2.56496841267546 1.91810582771689 -2.10721096449515 1.99505576554133 -2.5435565461935 2.37244261277462 2.84139863166554 -2.2355268386085 2.20960686252076 2.76674976338478 -2.31619147835783 -3.1865242324138 3.19152858629908 -2.7520037601905 -1.93013041261926 2.90379071104871 1.9394321886476 -2.40464933136977 -1.59653309270113 -2.34735041373197 2.57060384536374 2.09128916220014 2.32478875473514 2.24089783441501 2.77088651901769 -2.62029067220381 -1.91566888798207 -2.26094929103632 -3.02129808717824 2.52189462479505 1.6913085435213 3.88921459855744 2.19081866554532 -2.66374672362202 2.10976868838229 -2.52536590787348 -2.80596995863482 2.14467178359517 -0.610781912286623 -2.50291201979945 2.50971285608283 2.25541398169683 2.88121555573103 -2.79979519265994 2.5730266890497 2.38398231597293 3.47209742798554 -2.78723781431094 2.73779754124452 -2.80970033003806 2.37606435484417 1.1252675797259 2.58946385093507 -2.47926889539684 2.70064228326654 2.20435463186785 -2.39363879134012 -2.05811971767118 -2.64235515606998 2.31930058722461 -2.88086714138385 -2.48028387614702 2.52912310124093 -1.97428630599698 3.41684940803088 2.59908901551328 2.76806878860871 -2.75666586048538 1.68442569841798 2.48196030195192 -2.07464281315097 -2.12159328857644 2.52416098857293 2.13912697428085 2.63794433987643 3.40501059865661 -2.74420276586246 2.54766192237167 2.56539823663714 -2.65443406389825 -2.78154974768486 2.25707493833334 -1.09879737084305 2.71408658946704 3.66355575949877 -2.53301938259878 2.41865282059843 2.82900945590462 -1.91895098168276 2.64064667720443 2.75859332788938 2.08898375162964 1.73490117606867 2.17332625294441 2.11094598165891 -2.81042872949034 -2.21681787921025 2.07264524069785 3.55357633922784 -2.00777679714192 2.60593040430486 2.5038479000738 -2.83580953247921 2.18996800304667 -2.67246120026958 2.55442944841952 2.77071438574775 2.38349682971573 -2.91899168014328 -1.68472987644862 2.0557881527767 2.7882425833905 1.7071323738538 -3.05589189604705 1.96601436961543 -2.60480208066577 1.99928003467859 2.93964991087765 -2.67880607593766 -1.37909149406706 -2.12954053504256 2.79941906651339 2.63532936735665 -2.7870950203476 -2.15560592797164 2.51404211540766 3.0335914277153 2.30882229984551 2.7977455613278 2.65208524278218 2.079668474002 -2.73362554297142 1.91157508749484 1.87966762179719 2.57906371789038 3.10152826839685 -2.50261317510363 -2.6194479992273 2.58314702361444 0.60640573717589 -2.15944088795162 2.5567770906196 -2.61521151198532 0 7.36234327005059
2.66031366299968 2.80026304254759 -3.13706707010742 -2.80601878468567 -2.81223453688414 -2.18278948063565 -2.8764169589951 1.95185471161766 2.05500168369054 -2.76266106292361 -2.75516263428056 -3.14144863376658 -2.75514335821704 -1.91828016744313 2.20266968192059 2.64730963712787 -1.95831225738596 -2.71778918279942 -2.52390435213002 2.61515015898543 -1.98023771525631 -2.82655736686704 -2.92550153619255 -2.66678776258223 1.77511362881283 -2.09101832919369 2.12994792330386 -2.06946901601275 -1.97617953109976 2.49298055821558 3.06993460093771 2.85255771987924 2.88639550391074 -2.63930056866138 1.97241519625282 -1.52119727527912 3.00355495450576 2.66781042095751 1.64282224911922 1.80675672597579 2.66109780470822 -2.58106565873551 -2.00999704234694 -2.49835462573259 2.38370737406906 2.36620732942466 2.29322633809281 2.41072774997699 2.70387834364969 -2.58619722516312 -2.61706561551511 2.50401997721771 2.00034843784548 -3.25957645310146 3.50703134362031 -2.28672157017299 -2.12453191607209 -2.12318218077496 -2.12188313289873 2.27279299358526 2.30575920413719 -2.1814429463148 -2.84791233434634 -0.0578644417675957 -3.12784043433708 2.2653983384598 -2.49609940732357 2.76156698541695 -2.32273273400943 2.63177440685761 1.91885645529945 -2.86938893130824 -2.56316442270033 -2.55632462301269 2.70545562869303 2.27215700305701 2.00551085902335 -2.17399977786004 2.7819558807919 -1.99760886291858 -2.29736717670979 -2.00542147537639 -2.75013121368632 -2.02950796598625 2.58589407504355 2.77514171179299 3.49238233557391 -2.55651153233882 2.502263856142 2.60005089679832 -2.01098363009051 2.66070198455021 2.75203488942672 -2.00300151059462 2.6909227550497 -2.15326692818713 -2.72169741937886 -2.24616184234539 1.87491546140539 -2.76583357605032 -1.94115704038539 -2.42082055355333 -1.97442484853373 2.6635799490641 -2.00415259154724 -3.51272415717349 -3.19547763376237 2.51166122139295 2.77823396051246 1.80434704473358 2.90703525344977 -2.7686575171834 -2.0050665221426 2.73890660554395 2.78358939972129 -2.7241164688621 2.86497612801863 -2.53086943523197 2.39818823347825 -2.93128490828192 -2.45540238057866 -2.92889400782124 2.21103744429101 2.81817231605073 2.26729222364707 -2.45427807161088 1.95770867531731 2.82864462820168 1.92063145351202 1.58661009923068 2.12083366008524 2.32029888219899 -1.74946935044373 -2.14913237455873 3.67760155245245 2.00690939792787 -2.84731968702591 2.17344868500881 2.58008156528268 -2.36341194736154 -2.45776866804615 2.13782233419296 2.43699194497289 -2.63925842297316 -3.08157822572472 2.78532037624298 2.54173898440222 1.98952880344125 -2.85974030584771 -2.85493332864869 2.69211015241173 2.6943924469624 1.967588420527 2.82220667452563 2.81871908610066 2.83058202386707 -2.85265348007076 3.11786070440608 -2.49531323946784 2.4202547213797 -1.57016629967569 2.76019744844241 2.03387186861235 -2.42079099753075 2.75092060964995 2.76279460677392 -2.42924809695378 -2.74631660067832 2.94974670921923 -2.14978532388404 -2.38906613347584 2.61543692943898 2.18403548275231 -2.76753825049275 -1.90947499741203 -2.58446398346919 2.16752918964607 2.6812874189676 2.68660613706407 2.12154025930901 2.49495893349185 -2.81991136905546 -1.02370355295617 -2.52192487033338 -2.63659952924901 2.3957104996743 2.13105859192254 2.04220284672547 2.47679587638721 -2.86649884113423 2.77784737619742 -2.82771228615598 -2.75161837133645 2.3608618365265 -1.72945320484617 -2.2499718517421 1.92754616807492 1.95742586588765 2.62687236531248 -2.97398168649643 2.11193893731705 2.53736114115207 2.57007161770752 -2.6752238481186 2.57530495794013 -1.96062257853236 2.53788615185473 2.08353599870923 2.28204189140901 -2.49994607410669 2.51652376388606 2.22753006622542 -2.73058279529302 -2.9184199000371 -1.95152539260786 2.72990337185986 -1.99315601721635 -2.15498858850804 2.84519048901477 -2.57846943710357 3.09029057601926 2.58817539293686 2.78161821247232 -2.01050480477117 3.35757485197771 2.25996561031885 -2.35203359002118 -2.07578574173333 2.3777138149599 2.86548973722047 2.09225919960913 2.05029200301417 -2.76535047353802 2.31529963217122 2.57265997223195 -2.0623675630629 -2.73502013017433 2.64449819052305 -1.77265174512306 2.56035996477206 3.15663453222555 -2.62097234306188 2.24504817137272 2.81935866871733 -1.88056298892971 2.54239387265432 2.81367905140731 1.96782890151044 1.84917621679209 2.62163777334235 2.62798701593044 -2.60501158880605 -2.72969403316449 2.51449026073604 3.47009553169646 -2.24703095213146 2.65078124824158 3.22402747256545 -2.45214353257305 2.25650206486139 -2.48625625275078 2.63406775499999 1.92805628941741 1.99056661209613 -2.8916646717305 -3.17853914179514 2.09957891655543 2.33659768267646 2.57478169978325 -3.16555984178606 2.74682112187301 -2.61749713461331 1.95461950266967 3.05746926876185 -2.44763434067328 -1.8944411155015 -2.3263398910116 3.0048622182328 2.18715215741226 -2.84036140446309 -2.48074523524205 2.36736687151777 1.83780849561063 2.69938076980501 2.16644538759521 2.82084385879721 2.11798554295787 -2.37440144450582 1.98422064578898 1.63804055292917 1.97214969093852 2.63247350755759 -2.70577918278325 -2.50463130565936 2.11568572917717 1.41952700411637 -2.83742665824927 2.86090377395747 -2.26333767517324 0 7.44665564153296
