2.0843894739975 3.18301542161843 -2.99840321514278 -2.55531886932481 -1.96444561233588 -2.95612102830219 -2.3780669869763 2.67351291602017 2.78408561395801 -2.16272115621162 -2.12043825441465 -2.83127469043691 -2.21239478238489 -2.03009863698459 3.50739689170137 3.22188816303477 -2.51079236944376 -3.53966291766886 -2.87547079531403 2.00429875323681 -2.46313186143622 -2.50889376440482 -3.25484562703739 -2.68681009650251 2.39698906309091 -2.42904739801573 2.07441959187579 -2.38952223322698 -2.30715528192879 2.25986425940372 2.97619601341132 2.45253766720833 2.48102973416358 -2.10474997012888 2.59859007399358 -1.71521046780639 2.54532247230233 2.57141227225171 2.03249498553562 1.95798059311051 2.16284587785257 -1.89207005130501 -2.63087263428106 -2.63457229307738 2.22494657871554 2.76519570226075 2.39033495539888 2.44418376999591 2.31819070214482 -2.30801251890275 -2.47225655288251 2.49680531342364 2.45190216178439 -2.89521701019781 1.36184042910187 -2.08383920936753 -2.04075000262785 -2.82017874991989 -2.13662508564567 2.41941057375115 2.82162417891691 -0.218948917461024 -2.66047957454574 -1.59516109165743 -2.68643178328629 2.86468186539036 -2.16361218524153 2.61828278863178 -1.90553226384732 2.68268628987253 2.93762875328815 -2.53340959928579 -3.22908225720502 -2.88034776882109 2.22772131900412 2.32369546811032 1.94752833151944 -2.0784491320837 2.63747753520261 -2.13445097273408 -1.94025722969515 -1.95584025852461 -2.45294024452013 -2.61214973073409 2.53419575557886 2.75512550190657 2.48648281002287 -2.57919239122453 2.74413648951287 2.05857556838133 -2.87294226997435 2.73816966684943 2.58303766101576 -2.54828770098621 2.35526256238881 -1.84343522269498 -2.19040276484625 -1.92453132213588 2.39584040033168 -2.59141513047795 -2.57761717628671 -2.09128900379928 -2.20955574854373 2.06584996763673 -2.47477114415872 -1.91060024906347 -2.9137806404588 2.5647185312686 2.66560202576762 2.31459699378091 2.98965644606633 -2.75989685393104 -2.61929879669973 2.8581113811317 2.60270633497633 -2.96181691840301 2.46030562041557 -1.89951189812205 2.79024715282073 -2.52889090011393 -2.65498662690493 -2.60191444183962 1.91704162020684 2.70135155385658 2.07774332135763 -2.81923372988353 2.46348073972264 2.10582011474996 1.72887490314863 2.19615515983048 1.96866312411397 2.13771520335227 -1.99947159650809 -2.34614811350527 1.65183142835391 2.02719320690575 -2.30750349796856 1.95281538430682 2.49537596592039 -2.19178840231955 -3.88414303742879 1.9165819496801 2.17066163665811 -3.36308169588354 -2.3720202017158 2.98907619859827 2.30314131192217 2.81369583129296 -2.25880475118998 -2.44757392442465 2.50742158693967 2.91671650613834 1.96058939259919 2.13691720674333 1.69603283844369 2.7259437570297 -2.43586632070446 2.30441231225858 -2.13871592216075 2.18513121450054 -4.59982225829267 2.59898791638129 2.11685643636024 -2.19299374050983 2.15497600716741 2.51921432745903 -1.95313579607658 -2.07520049006622 2.83067676877319 -2.26544456527781 -2.37075232575181 2.44633781776808 1.99266219723592 -2.48759975430063 -4.19568125460389 -2.65473807373576 1.9636895011471 2.68629433306825 1.75054462121162 2.58813777934997 2.31117397988074 -2.13970490332106 -1.86769775106315 -3.25446659360826 -2.51863872348065 2.69672606068825 1.71513722612773 2.61459901024443 2.65806820393544 -2.26674860379808 2.18139806402084 -2.82345798512887 -2.46350087159851 2.40651831792173 -2.26806583554797 -2.38212412222702 2.62170856224612 2.4818748458461 1.91055032609079 -3.17651579017563 2.00752831898947 2.72186655140227 2.1625457630665 -2.79186749709022 2.99618234018743 -2.82568588537082 2.52666731074076 2.24872791084027 2.03634652503459 -1.95977227883238 2.91302634033748 2.73062358701008 -2.65935798126475 -2.0592317917845 -1.99773664937036 2.19170316424057 -2.65180168860877 -2.75131492992589 2.10290654351409 -2.40155509766449 2.54995673406521 2.730501563678 2.20678143406134 -2.03780608139605 2.41415030382898 2.38169091790344 -2.75451577107559 -2.58220083504357 2.47021826123502 2.48009193718247 2.28664049646789 1.85163047029701 -2.16328491989786 2.05726508549573 2.54512951184486 -2.33819690856903 -2.89536234717059 2.3407629493728 -2.43499740656036 2.72548246245085 2.47852429785767 -2.68721225284678 2.96661390328333 2.76274152862955 -1.90086123412142 2.68402173214125 2.67722615950029 2.4533334976447 2.24665086328679 2.22701977725364 1.93513374706196 -2.19205265902938 -2.40463323255431 2.65130911070553 2.65883852280533 -2.54138411649624 2.57557981093656 2.85058230203314 -1.94840942860776 2.3793373890587 -1.95351736770332 1.89270358158418 2.37632942100833 2.18032805631927 -2.52465624733006 -4.07679502778504 1.93142023515363 1.74570616513708 2.0667242810564 -3.27262463086254 1.84932093449108 -2.48626890265496 2.74659132437416 2.78242700942178 -2.65833844450814 -1.75273114423913 -4.55823630203303 2.92964872528827 2.80897589942498 -2.37376240500056 -2.26742630076724 2.42579367327791 2.48230678975425 2.18304282140966 2.20629832292487 2.65370989196049 2.75529391663878 -2.68107636136935 1.88769019040957 2.7874410109437 2.72425287314144 2.05469644468052 -2.2625555934969 -2.1227436504834 2.4515959224061 2.47190317655337 -2.73857820400039 2.16598585591986 -2.70364732027971 0 2.18809561295608
2.46613186630065 2.64240073025433 -2.55090925234235 -2.79259564265491 -2.57670660505288 -2.21674027634988 -2.04334211429576 2.79338344720685 2.63931743651606 -1.95256588865556 -2.41750056732273 -3.17219454087387 -2.18202670106688 -2.45097202354514 2.61579021957048 2.7936790034966 -2.70469238553428 -1.98589467469422 -2.56876921364108 2.45096352960091 -2.73367376653297 -1.91720588759043 -2.33803017362368 -3.65141494705548 1.64575152483154 -2.30605678584047 2.0336773990501 -2.73852610566951 -2.88424970496994 2.23543106694067 3.03245547292922 2.68532003359941 2.41290686077769 -2.67486799883622 2.78821805407107 -1.85712798341824 1.97855655467119 2.60978055106595 2.14875064350594 2.89759381003939 2.72169255505951 -2.64487729610366 -2.56688027036474 -2.2675674943512 2.45267368853886 2.83987146072906 2.79905583822584 2.04098269771436 2.91467213494717 -2.51958289868495 -2.78926947266622 2.06829593309254 1.89336988951205 -3.53761750019249 1.1505928144341 -2.4260282273812 -2.82229171190983 -2.85312293439674 -2.15066126347804 2.79226025035359 2.25619038059256 0.234148138555405 -1.98773943790514 -1.34347188084038 -2.49395637387926 2.16407562360914 -2.22275223179769 2.2678129885501 -2.45983097587352 2.80044045227498 2.12732016956002 -2.67077396534015 -2.76863507341057 -2.43328912699805 2.68032944565225 1.82682460638726 2.29120658856807 -2.79656120223752 2.81864879921269 -2.22618996798544 -2.39092326020093 -2.7808418229251 -2.64161898829588 -2.10578223945714 2.59384063018024 2.85963724169277 2.37775543309696 -2.7821599986927 2.676898865599 2.27407519442827 -2.01365680744048 1.9371389528502 2.9206089491427 -2.84623604151521 2.32311467555231 -4.0273625943648 -2.68083205368501 -2.4384470271836 2.68402825658671 -2.62816790012783 -2.50884221641409 -2.35398111179447 -4.49515373964274 2.7396422470758 -2.09159902388696 -1.91411982295395 -3.00817025394829 2.4401552434058 2.47798123940034 2.12983875246493 3.10920788537092 -1.91250533746639 -2.82013599180528 1.91169545540031 2.6558110862048 -2.98958712286615 2.34356097529769 -2.75634100062583 1.94943246363309 -2.78542548667316 -2.43358222638501 -3.06974501823906 2.59450941432845 1.97641760759194 1.93084084091476 -2.55570293055793 2.22181131019613 2.80508484598284 1.50441376369225 4.54748490329939 1.46022681375834 2.09987866122135 -2.8289139780451 -2.1781877966784 1.76290173959269 1.99185085708253 -2.54703052922065 2.23150011653908 1.79404224707428 -2.66392412558007 -2.37002697915873 2.171484986872 2.20214921663771 -2.52323115156308 -2.31288692421391 3.19973276409791 2.59045946573809 2.85342403486239 -2.25314557449928 -3.0067262721442 2.4500858865734 2.368458212701 2.28415997579809 2.72043475909842 3.25202418306176 2.8394738202561 -2.26609046606893 2.45597497661828 -1.94244498909717 2.32848714952517 -2.25306054295458 2.15846244157031 2.37284632787026 -2.14195636754793 2.09523732941169 2.6631568042562 -2.14450840752839 -2.5674998501331 3.01134322833176 -2.60411061422821 -2.88590622483287 2.08393535650779 1.95908909145101 -1.8871119983071 -2.06675815711706 -2.7029948215202 3.15661289077424 2.06970403961103 2.43924919670492 2.0631682187118 2.22009998535196 -2.47395703054217 -2.17907367174667 -2.09529154200621 -3.00180053368546 3.0004438789389 3.80487710194679 1.9849314474035 2.79879782622101 -2.48890506735671 2.22446461867168 -2.21990312108954 -2.40386649662981 2.42350801039035 -1.72855402301728 -2.58859395057071 2.60487248349108 2.64587568810753 2.16934520098547 -2.45218491996534 2.09188102485232 2.40631844400961 2.15028887821451 -2.55212906080203 1.98934840109407 -2.47773529188364 1.90048754536457 1.29382110731502 2.26836738323253 -2.23784578844863 2.09869308860229 2.42136524176451 -2.89235197950821 -2.18455312879399 -2.6929112022947 2.76978022171307 -2.89566651580996 -2.55401255050629 2.46762494280362 -2.43207226129914 3.18254350665533 2.22069819580348 2.27511719032258 -2.53568994150709 2.4665677794516 2.19902677635818 -2.18909265275336 -2.3692639696648 1.95098759174066 2.06440736620928 2.27453349279197 1.7801841554611 -2.15004159950802 2.77481971197001 2.80271956545638 -2.20674451394309 -3.03406271886305 2.7809755207255 -1.36702783444082 2.79633365239234 3.20606450987461 -2.59271610356662 2.25946017678392 2.94478658391899 -1.97229603037712 2.61843319071479 2.5707264071177 2.60274200338252 1.99697915234349 2.81476517094232 1.93303901809784 -2.6241919126546 -2.67579611270991 1.94123029505159 2.98908587660077 -2.02683934661683 2.06531732630597 3.05326599970347 -2.4608124800964 2.6725304407433 -2.18214642721096 2.33004701495029 2.07675340115981 2.01750458114953 -2.64173816549646 -1.86387571065236 2.53702095016467 1.89691046989163 2.40645342626719 -3.31289886459509 2.52042246735528 -2.91744672375032 2.52847352534252 2.6841400251299 -2.42559458795164 -2.15895707043914 -2.31102284363114 3.07930416864562 2.86165166871048 -2.77009879742142 -2.26482985858379 2.84843424010793 1.8054815473623 2.01989918977115 2.74598851071685 2.01614246423967 2.73650045132709 -1.87959417424686 2.42528521750242 1.72322095295825 2.32334370213645 1.9476023417107 -2.3798935639238 -2.72097871470832 1.95759251944014 2.13945223435898 -2.0367036348584 2.67463608451526 -2.81533012187427 0 2.24608892645328
2.09948872313145 3.13095640606167 -3.2373164077063 -2.12651889328187 -2.64079988763784 -2.89107275663481 -2.21999841069122 2.25646520906331 2.60940845682337 -2.38496840076488 -2.11326312897406 -3.11120300950566 -1.93465130571015 -2.73294105361872 2.1421804541687 3.05569442260939 -2.39331074114138 -2.23423082944969 -2.76241814091352 1.59225549275324 -2.98108376774808 -2.11551943507607 -3.74380941425131 -2.48512556241084 1.4106040099853 -2.22986563231295 2.27435435996556 -2.3412501285832 -2.15411864625786 3.37636091385434 3.04473244740714 2.39386005095184 2.07332338170349 -2.29490797297802 2.54556462459303 -3.23517199784757 3.03009990858193 2.16764363776011 5.23314267675859 2.57874061037828 2.32540055573274 -2.245127578697 -2.74004972276697 -2.08330248733396 2.5452690109185 2.12519745390397 2.33742672636563 2.14875858415671 2.8388647637358 -2.33233445385632 -2.63642779560995 2.4458780527876 2.18142155638479 -2.84038011539582 1.38554031024097 -2.55338782564914 -2.24066412935823 -2.44227515805473 -1.97233402820979 2.56227800281781 2.46958586791587 -0.961231694288197 -2.2255493617537 -2.73081913740901 -2.65412735350705 2.8035345383038 -2.52566246943956 2.17916021966095 -2.49025098062927 1.86680819262544 2.465610906971 -3.27936018668063 -1.88500414303062 -2.17563553574142 2.39343992420237 1.96574732655483 2.38928268043349 -2.66821187814281 2.82933821679125 -2.19826372030312 -2.43369168632119 -2.49303104032183 -2.34733813561581 -2.45181504366312 2.38233572275743 2.20871662117058 2.02694073515352 -2.63188786707115 2.07855004667703 2.35357209581585 -2.3737527337583 2.44072429954728 2.00646317690647 -2.71168960514893 2.85294812509382 -2.61777459748224 -2.02245435648571 -2.65043389027847 2.09575322885798 -2.1709562225036 -2.37470405521915 -2.12214235492859 -1.72255071850702 2.64400266163136 -2.38902940417019 -2.3796518006451 -3.26557893577714 2.53431783602909 2.03672389610925 2.55859461448963 2.91460429413587 -2.57582022084271 -2.42480446773777 2.06316239505884 2.48136737369552 -2.97691678590006 2.50738162004959 -2.59641207935046 2.15389161568201 -2.50059300800062 -2.03959843102204 -2.6642165472604 2.11214298065922 2.75200305359525 2.1607428179161 -2.5615580349493 2.56583198243624 2.14397535234236 2.98371922616073 1.81437592351581 1.74421179460938 2.41266583160639 -2.43284644313831 -2.45979163051236 1.63944265289802 2.38167155772273 -2.39970779465918 2.43879510906768 2.50561659521335 -2.24330541689173 -2.63200445739835 2.2706229762766 2.85389665880452 -2.63867355945545 -1.89644114480845 2.50584647258337 1.86666577319496 2.07166011440669 -2.10815306490393 -2.57176982395838 2.49530382726365 2.87410202521452 2.78146221059722 2.72751591800634 3.16134842483704 2.57031550969545 -2.38635868031722 3.10611422312752 -2.41102952962801 2.17044014584288 -3.24032720245242 2.65215326485959 2.88208050381511 -2.02906540050037 1.99835166323621 2.68989007395087 -2.53772478570739 -3.01862834853073 3.45812356163762 -1.99958477734033 -1.97170955538279 1.98838808538122 2.23716751478095 -2.12274501856671 -2.37398783664244 -2.40100582839623 2.57351420872322 2.82017398947724 2.26195802767574 1.8017455659732 2.0050237067639 -2.3399846469 -2.18726115832653 -2.2470465386839 -2.53759449723136 2.79703234415567 2.29395511932052 2.2774830695948 3.21985358074437 -2.30435508091071 2.79407704546337 -2.38520918144336 -2.80735131451261 2.54904580331066 -4.59786354528803 -2.67368552936204 2.19954053610784 1.94781010731123 2.82959327004348 -3.30381573919658 1.67026448665142 1.80685580448355 2.70883927148041 -1.96616865068893 2.57502052043367 -2.36146163144412 2.11373588585353 1.37961017435727 2.28433689355885 -2.36783816042578 3.33898666128135 2.49863226430359 -2.07469706420435 -2.53284066654988 -2.67313510380826 2.58141390414987 -2.54766559431104 -2.26464712342572 1.96899022728405 -2.56310113459694 3.23737784886302 1.99165504651194 2.43666226275067 -2.48138320647674 2.1452671198437 2.29562071525314 -2.89421397362961 -2.12258928667171 2.21189695225589 2.13602200544837 2.02339526103208 1.97706308280038 -1.7748048889481 2.69665587140204 1.87330386880401 -2.79933846222992 -3.00328871155754 2.54204097751694 -2.08586973227725 2.2719186105078 3.2639926792915 -2.62049496327522 3.07182585932854 2.44079739499809 -2.33668052213711 2.04710624488149 2.5167621746203 2.59366689747923 2.18707601935064 2.3820415466571 2.35627074724933 -2.36598398691262 -2.87285252309258 2.55676023862741 2.62607247383606 -2.77600434468685 2.18602638497598 3.13287135143121 -1.97839094571181 2.23097250634062 -2.37897103974816 2.40382938290242 3.57465152164126 1.9695249807924 -2.99611585249077 -1.43561890568677 2.59318225640351 2.75031150220814 2.18800641920962 -3.46948055987365 2.23759057240982 -2.46211440038975 2.36087434784017 3.09213202811891 -2.22824840438792 -2.56223683981338 -2.69064469580479 3.21118703865817 2.54155981365072 -2.20407911159969 -2.18408127410688 2.11336863973194 1.7522327641229 2.62102318659431 2.32598960732154 2.41975472456769 2.43684217421582 -2.51111873159198 3.2609540750071 1.87552883353582 2.50372542734555 2.27871368158006 -2.19977844051209 -2.70715186334907 2.64671056742746 1.48805245535355 -2.44116511403192 2.37864712802814 -2.27014786530374 0 4.79021268870364
2.44722817098011 2.3020217004568 -3.00849268194346 -2.485916931599 -2.85916987930956 -2.58064926940163 -2.84757840076911 2.06704441798849 2.02279629875207 -1.9227988753082 -2.33530462500038 -3.14027731481673 -2.68144127027179 -2.49195477357272 2.20496452574385 2.8375531993729 -2.25741186073614 -2.40543896411367 -2.52372880081825 2.02081940470268 -2.20790462788795 -2.42676474770834 -2.89354864885522 -2.365145043693 1.13645211314764 -2.5131857552394 2.86724019360436 -2.43763852759369 -2.78635018378284 2.17833948224685 2.52803015534012 2.65634741115116 1.90565946738934 -2.60420380436748 1.90313382796158 -2.27786968882087 2.69965199437445 2.42559692502111 2.80632339487936 1.7492645645968 2.37437937769498 -2.37383189382925 -2.79388296209956 -2.34688461391657 2.30635611825903 2.42900591535838 2.18877820308015 2.42607825306478 2.62148382389377 -2.24809625575854 -2.37652964220254 2.80181565478456 3.21854366878239 -3.29393731958727 3.19883414175562 -2.79858125885892 -2.64406084651558 -2.52167644940924 -2.79000608572383 2.76613892580857 1.99919744784478 0.471061276977156 -2.83525900417705 -1.30282440020251 -2.87458374376495 2.75804153717303 -2.05344482010883 2.74200561309263 -2.67905826044715 2.47993384191017 2.13683033387669 -2.65842160297312 -2.93830835586782 -2.45725931430175 2.17069196520315 1.61505397660184 2.44053603242236 -2.77135816551632 2.64674125685729 -2.31688196328041 -2.77326533778442 -2.3003455271338 -2.83512080894239 -2.23116175442469 3.12544273140955 2.74145448042603 1.89961889917151 -2.68296647258329 2.30503452519712 2.88679054508511 -1.98791024302082 2.23615903821171 2.12380274061601 -2.01499459781561 2.07797375400755 -0.803435415537713 -2.36913548511171 -2.44761690417907 2.16019632370157 -2.56131491437539 -2.70626799749069 -2.67399766687531 -1.95011262251491 2.53124542403219 -1.99575663251475 -2.38313300270996 -3.18076872753407 2.16502684420893 2.58601912383571 2.57898165782426 2.94043440543499 -2.88299510188449 -2.31700565617486 2.35999712451458 2.58966080109851 -2.94449024856679 2.45719023176355 -2.35335358960207 2.53809595059268 -2.05436432382393 -2.06355533176804 -3.00109351623275 2.43470411075489 2.14673114943034 2.91163424926075 -2.60368626550091 2.4206116354549 2.52262885861247 2.89192726238698 1.52583038742835 4.40476562547209 3.0375684050091 -1.63034019655824 -2.6096866545651 1.77039020439249 2.84507592969244 -2.47344723784137 2.17617193505451 2.58979851367933 -2.32658397444831 -2.55802824748461 2.54630506943049 2.42809568577325 -2.83790085827694 -3.41613910546788 2.92990366071635 2.62001540617081 2.84515142156345 -2.72898992153752 -2.7848238111887 2.18155644308684 2.02937715174089 2.67779302616573 2.32968368112197 3.62090011260629 2.44626402310998 -2.3051103579843 2.68516707976143 -1.69862708256335 2.50255400497979 -1.82372990509936 2.59690978756323 1.9895197596447 -2.81860124975393 1.92902009566119 2.33871228283924 -2.66660408178143 -2.41935694678938 2.61702430208431 -2.17280918114949 -2.63053193447255 2.2324152896031 2.53601605000131 -2.67451525555072 -1.76925270498915 -2.71613437740192 3.41455193290241 2.76103930390778 2.23463664840966 2.61081027405986 2.33035274796296 -2.31029992145475 -2.01664395828205 -2.72379679272508 -2.73758688957744 2.62348231739641 1.49906663913888 1.20101003650901 3.26616836528173 -1.98586410532792 2.14890414912998 -2.47814392504804 -2.59740832040142 1.96601732609625 -2.19456506896265 -2.54659711562445 2.42859379167118 2.27544470997035 2.2369082444695 -3.65117591470051 2.64244204054841 2.33152729273568 2.70239433384407 -2.53979663890281 2.2503695596909 -1.93525436808998 2.3277224429837 2.98894928626799 2.65570441422261 -2.19044001928937 2.59668409653487 2.5695987173665 -1.99597047908714 -2.70385722180382 -2.62176192805366 2.13203757152552 -2.66601747046492 -2.76803254645676 2.81332172907433 -1.99638006241975 3.00672044212547 2.57793440034656 2.4715106196731 -2.712894063305 1.86885172768992 2.66750445317401 -2.78993483642919 -2.29459509578448 2.26699155479081 2.25941407973432 2.44019431034545 2.97920511971869 -2.35180974125092 2.65289459970386 1.99658254751906 -1.96565866755138 -2.91483147840756 2.02846837715959 -1.23045397819484 2.34775094093305 3.36612248507195 -2.62159226847595 2.52662285392942 2.78855062857415 -3.15211889190926 2.42023941865613 2.38817377062945 2.00039956318866 3.00467297376206 2.28690259138871 1.85878702526564 -2.71214737697954 -2.19508035600812 2.42823355921623 3.02746456734052 -1.85513034291314 2.82047806030393 3.22492933195251 -2.88588082420559 2.48570118230424 -1.98118948400549 2.69953405475299 1.61546710783327 2.74186784597429 -3.08774641204024 -2.30144229161781 1.99058519917345 2.04145410812297 1.95329512877997 -3.8915537377211 2.42444621266006 -2.96385289013955 2.08464771810617 3.14797700506823 -1.92696511599645 -3.70572701182971 -2.14076502881263 2.55037644344645 2.76115898206584 -2.22591098052888 -2.6458660463294 2.80708494076921 2.68144637097427 2.84193568273639 2.15694194493558 2.22297541412834 2.41445873029294 -2.76661080981015 1.5434558338169 1.92412547006117 1.94799730096653 3.51760080412146 -2.89540870904049 -2.16648969669663 2.17538780244192 0.952241776035116 -1.84266170360628 2.18495448697481 -1.88860665444438 0 6.2157726472104
2.54017346659811 2.22722857709053 -3.45048534404692 -2.66208776712295 -2.1709374620983 -2.70674663021942 -1.95672019862464 2.872107213961 2.66892592300342 -2.09605735488674 -2.70947708330865 -3.3977445540234 -1.9208868103162 -2.58862206399538 2.152236304047 3.11879035354038 -2.6854226208948 -2.49207875695032 -2.59887050775219 2.16309280432001 -2.07147526866187 -2.85741917803104 -3.19771612830771 -2.49789991161608 1.76426933223658 -2.04098207213732 2.7451760305388 -2.41755572489559 -2.49499019195098 2.20112646237915 3.07928458607207 2.71300084242898 2.63094908035684 -1.98372631204166 1.70503149051436 -1.75767295408224 3.41828828268712 2.20755922806216 1.14182755732036 1.83263664885792 2.3036599001804 -2.18368562532114 -2.60323416855891 -2.46648109437589 2.1226514856859 2.85884284130422 2.5868493759273 2.70786983008088 2.63304248612351 -2.38712723371749 -1.98490489002537 2.39948590527248 2.05289016905297 -3.74477337851626 0.829701982527766 -2.48506609242669 -2.30799579132842 -2.79457079694668 -2.7273051543976 2.81400002955982 2.0246111681821 -2.20612785906374 -2.45643935591804 -4.01615937792889 -2.84763213338465 2.0985962400625 -2.49566378607207 1.96618772686494 -2.61152375644384 2.25778501233328 1.86611788076411 -2.77386266683611 -3.3288664846366 -2.10159601119747 2.12762109679959 1.75499821739953 2.56171242919722 -2.58773319341102 2.66770853343592 -2.55018808314908 -2.65866830598125 -2.8300790394481 -2.71232000776324 -2.77050405732818 2.61993383815267 2.7401941121031 2.91514118815725 -2.52146035944906 2.73735202594262 2.41648693545132 -2.52156462494928 2.67580745231777 2.14148528952939 -2.62314875202073 2.09643782044776 -1.67613249719024 -2.70886802913633 -2.68091292713275 2.18512176152342 -2.90144080221947 -2.4541845468781 -2.16491288913073 -2.22119944684591 1.84812599669925 -2.75405504760698 -3.37272365611287 -3.37097504909919 2.31384002173001 2.01258391518575 1.99911355120742 2.86515997736535 -2.6663714598853 -2.62473154434646 2.6511892689679 2.71476210088579 -1.98499862508073 2.25287975079979 -2.35828352899141 2.17098052815909 -2.09454536557237 -2.36847366224018 -3.42056062355584 2.19428299031243 2.80429393144801 2.41253256033268 -2.46779956005761 2.60516833251014 2.78634628729294 1.88848251501543 2.7637367621873 2.20569819239027 2.3518461292869 -1.39696352012619 -2.19101273636756 4.01261791847802 2.31040804777681 -2.22671112379635 2.10131234763564 2.63580016090207 -2.18379918543548 -2.13712100042641 2.14372244338349 2.24076729737841 -2.26177064946133 -2.64206474361832 2.45249602007 2.1761065233288 2.22260977604503 -2.38655670146311 -2.88268939291758 2.57567177620735 2.91253745161517 1.98266681809867 2.32278415495616 2.53303405036385 2.36334721342689 -2.57583665230365 2.90154351930951 -2.48454244819649 2.64530854157056 -2.63715308613109 2.37820883445475 2.62440898824387 -2.22016026171324 2.58392578030808 2.27833845874065 -2.61028917475628 -2.05884545512375 2.9441540263129 -2.57337786548198 -2.65606170796701 2.06954200094845 2.28551288540674 -2.42509932411906 -2.15963840578162 -2.49339914749038 2.86669807352232 2.48971393926029 2.40506230625824 2.85840876375061 1.95753707512356 -2.43651630033338 -1.61545141273724 -2.7093913959705 -2.77192667931471 2.75476343786322 1.84165681584971 2.4316330329838 1.83451329724825 -2.44975562005096 3.00898795255668 -2.84243242159591 -2.78296556741796 2.15122574833278 -1.86417721796817 -2.49528166747236 2.35433664622538 2.51690458199367 2.24189610107234 -2.92607005718931 2.90257559267004 2.63346005962731 2.5347768355692 -2.75599229011347 2.85509865761988 -2.45501090661162 2.448947205453 1.49737404344999 2.14525660605209 -2.79857960103241 2.71820205915231 2.81140515874519 -2.49104532012409 -2.75475821606405 -2.16234700967455 2.64239067681923 -2.86843626724267 -2.61233722914639 1.96281627585739 -2.38879054437091 2.91596641193781 2.51620071086698 2.14500506635282 -2.51981573205638 1.69879219855677 2.11500609426214 -2.90537149242686 -2.76951403225916 2.86703894005572 2.62265600403519 2.79408540782486 1.353847958495 -2.95408365284955 2.69702155073263 2.83893281840512 -2.68865813520706 -3.56600069607315 2.07545193940571 -1.49978680873079 2.34423559434009 3.13396988945255 -2.16277604260791 2.60357403390377 2.76272827080365 -1.70175105164069 1.9286856012571 2.56875306097388 2.69873244319628 2.09840199193299 2.64653423146188 2.4202389842489 -2.63081194800055 -2.37149888304758 2.80503699434222 3.45453735387695 -2.67930729530868 2.10728253319404 2.69962373914948 -2.25369137935647 2.68474349621471 -2.48153237617218 2.25000212471034 2.15293032560024 2.58263618006941 -2.57255617952612 -2.47592488556163 2.51149263567172 2.50180290209869 2.86764193222691 -2.74088511503892 2.48792410604194 -2.17977671351857 2.5941226145361 2.85795372577145 -2.6810761854709 -1.63903885494225 -2.31674325671177 3.39489266629734 2.4822901924655 -2.53676303316585 -2.3796989918849 2.02654129181642 2.04573990714031 2.11809689588422 2.20391258524999 2.47546347126093 2.50868541641381 -2.45970196383841 1.88820179873806 0.968107177270272 2.65359164211274 1.93565866078447 -2.35519329037794 -2.06820703772013 2.63962007058628 1.34322549474387 -2.48526926715139 2.75649423274282 -2.76273258932814 0 5.96237220880088
2.3791786945487 2.7622643046387 -3.01407164020217 -2.3952367682158 -2.81175284510011 -2.32712697004365 -2.2665213122667 2.6564738037306 2.82585082612749 -2.41221935111791 -2.87575318561707 -3.10732448823338 -2.43126812177136 -2.6209692533719 1.43736546364972 2.40882946539687 -2.18176921294329 -2.13584071807606 -2.71802583004234 1.6113483197611 -1.85843179837902 -2.77478932159832 -2.839283715972 -2.31321963810918 3.45754575480394 -2.27929909319218 2.25116775986804 -2.08398813033861 -2.85517023595914 1.73094692552156 2.81153614403555 2.20314116868629 2.71517319286171 -2.74705399383631 2.5887048605284 -2.33271715705581 2.43088942498688 2.71045299433801 1.77151048428322 2.14248960524675 2.79167348704543 -1.9411368238977 -2.43310780369324 -2.10639657368644 2.74391491011882 2.35508998233488 2.34393656939881 2.16912639502496 2.70419097309929 -2.33690287458941 -2.57474729608333 2.57029716194977 2.66206741862469 -3.19911835646738 1.94221506546725 -2.53639567021135 -2.43360198371545 -2.62634565760136 -2.73552705936685 2.40024756941737 2.15294966149116 -0.0357576440512361 -2.21878717067787 -2.10985398850405 -2.88455397654195 2.7063378899623 -2.55651088695855 2.19348098087091 -2.56860378236776 2.41449526686654 1.81421949154939 -2.8130208213092 -3.5465510725525 -2.39716961298031 2.49293281156572 3.05033099333229 2.62750029933286 -2.30912918495696 2.7749920780311 -2.34615716714458 -2.65819047732324 -2.7765715788963 -2.73406835897077 -2.18321485720145 2.6224564116833 2.23765888085621 2.60460214327157 -2.66276382232325 2.56478173343703 2.55579130386879 -2.75365104306478 2.05915422156051 2.50577512393951 -2.35267088844269 2.44933620240376 -1.81475248006846 -2.68167499299533 -2.31424207449965 2.20612522016033 -2.07376461104296 -2.33830627528582 -2.60669698112498 -1.8472404792814 1.97995917056281 -2.67202138933174 -1.85532066434353 -2.84914410064524 1.95555839783096 3.18585264022574 2.47036393558766 3.11073616923893 -2.04348471925123 -2.570244443191 2.37399467188195 2.54853573135437 -3.32684114046023 2.54550758053227 -1.91669728567294 2.14394550207152 -2.6586706961004 -2.86541797562343 -2.43887904092997 2.63340474944473 2.61090900953261 1.92428160459906 -1.9794096278084 2.03854097724965 2.72073093535774 1.72121050280015 2.20709029745374 2.45975435320244 1.8977506009768 -1.69567592889353 -2.87646613452424 1.49010219458374 2.8644273943668 -2.6182072511847 2.04068352165801 2.13585615119184 -2.57236233499395 -1.65806801510948 2.59271294984207 2.02318439453515 -3.13992120145345 -3.51200537309214 3.05054100812918 2.56229323957555 2.09930261558247 -2.6495152372979 -2.64425924104058 2.36301128936182 2.50714937815168 2.32678335939214 2.90770181482481 3.18513248724324 1.99607848547255 -2.45255958477065 2.05843671817699 -1.92910597007706 2.22520687879368 -1.47468893967113 2.40787213582149 1.9549134399369 -2.50418500289202 2.88641095138327 2.44375233936836 -2.27354167120906 -2.32616275228879 2.99660221138223 -2.65817666154216 -2.03431271066042 2.46586769293595 2.35779145295104 -1.92872003725358 -1.79265742871621 -2.52955448602938 1.95224787316199 2.47837709778976 2.16561962151493 2.11906882305575 2.05573039775092 -1.97426140604852 -2.27513356187146 -2.53649952569294 -2.8929646400226 2.281836224763 1.82855519526283 2.17875198099892 2.58507738679398 -2.91031522624338 2.32071917046834 -2.88992371252315 -2.50655084728785 2.06428521523359 -2.11440250108171 -2.58383686099413 2.53527997664949 2.50610655430965 2.10910459975863 -3.16618478897382 2.64400543205566 2.36383693332756 2.84472987112052 -2.00499869331725 2.38281411833648 -2.03789282907707 2.77087315805675 3.56728660745953 2.392706942982 -2.40299074594807 2.79741844363413 2.72865319190212 -2.40708608740158 -2.34456234049194 -2.63771957168948 2.2264640337418 -1.98531880100526 -2.51343314795517 2.25299894245797 -2.39620325238776 3.00422930438985 2.19380395069121 2.71039546285155 -2.44380826853513 5.66339646915402 2.70680803005454 -2.78675596179097 -2.52662730934552 2.81192062991751 2.15354985294657 2.89485744943053 2.21528066122033 -2.16618371339019 2.10525684981835 2.39840334647157 -2.35964181529125 -3.08974355984022 2.48750389852359 -1.76329304394283 2.30344406325052 2.80798237241817 -2.74939781975032 3.12763404331626 3.05751608426524 -1.97185763356483 2.53188939491706 2.43976617141602 2.61477348358105 2.24430532831069 2.68354403860377 1.89275267847733 -2.6617067039055 -2.40550214980035 2.67232907377262 3.14467511786289 -2.47466254869117 2.45756689400386 2.79944819027669 -2.84557896958851 2.6576732007304 -2.17768916158149 2.49891629140946 1.95155766739825 2.10043488530058 -2.65792409808109 -2.63936205731558 2.21271593934919 2.07056625721711 2.15741363808745 -3.32299547120234 1.90616781862504 -2.92370004640101 2.21200085758213 2.52329178799666 -1.8629358788224 -2.17334386257538 -1.30897284596187 3.02384880874465 2.1521564337256 -2.6580843920471 -2.62913886293915 2.26027161850445 2.08304369906981 2.09534808384172 2.74193678972109 2.36539448755505 1.96625289705906 -2.10406964333655 1.87188418741343 1.71218500211717 2.8352766996018 3.78886643102504 -2.33838594053723 -2.58912091951821 2.31627661868828 5.00243046879641 -2.22256081513882 2.3618816628138 -2.57378768525962 0 5.86993168267636
2.19955467823634 2.05826864764961 -3.07240373770333 -2.79430165833451 -2.23644966093664 -1.84072140985258 -2.85564640833367 2.25101770931582 2.75198246290351 -1.93142502206776 -2.04606830643907 -3.18679751831973 -2.72579057555345 -2.09066880809857 2.45721101325718 3.05072618786411 -2.60524267744044 -2.48274288854313 -2.76152788422035 1.63169484342827 -2.28089201751718 -2.27489911694627 -2.92731518844488 -2.1202716016053 1.94537932815102 -2.48726112306722 2.62177357172361 -1.99520339416565 -2.23699286055843 2.68466111991225 2.38523310460233 1.93859554247522 2.51339997864178 -2.63654093258554 2.94222795455678 -1.91840992901084 2.43172625508505 2.0647383194037 1.90004020193362 2.52118894102606 2.31398293320958 -2.15441186829665 -2.00012957217945 -2.25489638763927 2.16412830112215 2.25179535887345 2.57183174234599 2.56635547436909 3.12814831893848 -1.71439961266896 -2.01642336673357 2.10416514651932 2.53264024672062 -2.90660876544035 1.17663807005899 -2.14648967798434 -2.43281303069558 -1.99903690474002 -2.38696456272891 2.25143784390941 2.02997795076986 -0.399344013246054 -2.16015111410696 -2.62875190929854 -2.37377195973023 2.60296770776996 -1.82550641617784 2.72604757628815 -1.96071176556967 2.33536030400043 2.60079743696242 -2.47611619657671 -3.14542751524991 -2.25141312496518 2.5535764057951 2.06367567178457 2.58247146680469 -2.64526556291496 2.47020448333961 -2.41709622692763 -2.20395506329524 -2.80659313042752 -1.93577279795732 -2.19859790475111 2.06728503789262 2.69833788897327 1.94018303040923 -2.42114975269169 2.31170174067473 2.05440953810841 -2.09893692489018 2.5621432479375 2.5760514032463 -2.78397273191331 2.5752648594731 -1.57879313048358 -2.80266967829863 -2.02646583042344 2.53619296299547 -2.31163452684946 -2.50312412151796 -2.06280410337647 -1.7908594309933 2.35913646843408 -2.82784911489232 -1.39710216453315 -3.61445122454856 2.15701802224311 2.42867964315432 2.03422832530222 2.93849298076796 -2.72251913138216 -2.56726527427164 1.99930608046613 2.68231911641936 -3.20109462866358 2.07439843001782 -2.54604163221348 2.8373789169595 -2.80233403522792 -2.2123958763924 -2.57621212654645 2.35055521131229 2.60194454033033 2.02618803631092 -2.56397331033183 2.06129597788768 2.66173149308006 2.15690167110838 1.85397640745107 1.92717992999898 2.65585571344105 -2.75370441067963 -2.93560978628908 1.40189252943052 2.61161710384671 -2.60310567337808 2.15730636474044 2.18468647620177 -2.71519955477915 -2.74587682799825 2.63762192986104 1.8780565797879 -3.27031925705907 -2.40612471119121 3.04678723578437 2.12745528953322 2.6748036624806 -2.63751361640905 -2.56684369607824 2.00489541112479 3.04108488385861 2.74545362976274 2.59055300734178 3.09746063234454 2.72149661329185 -2.70352804637608 1.96296714747853 -2.45818819117638 2.58404213443893 -1.55769834917581 2.41768185087931 2.27928866383575 -2.82525185911687 3.66748645712434 2.47070084422846 -2.15793631263255 -2.5245161372521 3.42424069847779 -2.73301133293415 -1.96933443015287 2.77414581689959 2.30124267795322 -2.00648685302344 -1.80065656852386 -1.97359075790331 2.55383523618211 2.19561840207979 2.41191139794247 3.39973246207667 2.67262976784971 -2.37515523200766 -1.93828938995583 -2.67409585292033 -2.92824189107882 2.46120464612217 2.44326809727512 2.3500034001809 2.05251890295005 -2.593963842498 2.21503637370501 -2.72301499693562 -2.69562259066249 2.66836290316969 -2.05997361607932 -1.99926512060711 2.17305955454954 1.89025874058544 2.16755687219605 -3.53192082015125 3.0976467242752 2.11770600311114 3.023978699353 -2.77324146871554 2.60115953074867 -2.67533623121012 2.40554066517987 1.64781664790996 2.03587934231875 -2.78337953931551 2.40219395585215 2.79016934582563 -2.30340184813285 -2.62888485564344 -1.88268623303241 2.01431144144062 -2.83891366537658 -2.78155110961871 2.61121799171496 -2.35300454026117 2.43882650738892 2.84149455659705 1.87533051044695 -2.23446489135465 2.72732657666352 2.55953469170727 -2.12014480115261 -2.22184254457076 2.25065454901435 2.61505892186056 2.38374421739261 1.98878044620777 -3.76218607078433 2.36255635139096 2.7909930871657 -2.28125232637963 -2.74847328319056 2.52507183628729 -4.79132059372538 2.19552248078598 2.66031569715779 -2.07242036681335 2.71174510159049 2.71022622947571 -1.70189933050323 2.24023286885741 2.43703270736464 2.91947763156955 2.31840126335497 2.21141468629377 2.46472044068731 -2.60770019886495 -2.62246952471101 2.84549401264402 2.80676970358416 -1.96368199018704 2.00867442741799 2.84553247651373 -2.48601357099225 2.86775081105551 -2.44544445851106 2.63961048690101 2.14725800218918 2.06983379624705 -2.58910543706891 -2.78643704062308 2.75950737257792 1.94225848715409 2.54841003129965 -3.40634685203341 2.32341378821442 -2.51339035054781 2.33947022358736 2.77658988225671 -2.39281521460428 -1.54393000816091 -2.19036043974542 3.51525541704224 2.63126218035343 -2.61547799363424 -2.6931996228818 2.66436855976057 2.20211082546477 2.80249800210233 2.75527247720046 2.1907544982504 1.98702683246758 -2.75966842237249 2.44081975157522 4.63251036659084 2.28207153857945 2.27175389884258 -2.6901988927707 -2.43972854226271 2.48537933224013 2.1674365252991 -3.51998107406446 2.18660907460391 -2.23936181104702 0 3.02430621871729
2.4336298851379 2.50541635867769 -2.55685591338881 -2.65115258892237 -2.09117760271418 -2.41189286011704 -2.09118865355001 2.47239657624752 2.59241165111011 -2.26463442781258 -2.54927655284919 -3.05211255487567 -2.36731782444338 -2.6509392200435 2.53444718319062 2.84932600719095 -2.7989981490026 -1.92574042679014 -2.67536463382018 1.67924397318809 -1.9765917058272 -2.01522867951342 -3.29921949267033 -2.63858229400718 1.43711411940454 -2.65717760472936 2.31062106376312 -2.03510218755872 -2.81076942679912 1.8466852226372 2.72660549037428 2.82891657508492 2.14788474975109 -1.92592234112098 2.28898813373442 -1.77622791582566 2.28802269091137 2.28281943643124 1.90963013885961 2.00848249096109 2.33143759777139 -2.19965203302508 -2.48129344002422 -2.76952015623509 2.13086570446158 2.6287807888059 2.74642042438783 2.59198702930982 2.58967911050499 -2.59195244212542 -2.6685482569221 1.98290406539023 2.97197217906203 -3.37128059651395 2.8969165823977 -2.21367188539598 -2.79143707077928 -2.47970738395349 -2.48257769081749 2.51374418090755 2.72446132296853 -1.34167448932088 -2.41212665907589 -1.25990959536597 -2.76638267614221 2.62614768839096 -1.24114291497838 2.4442659740318 -2.35526428441627 2.01817469775516 2.19252574989097 -2.95842991487544 -2.63196090782296 -1.96900567645728 2.5056172814881 1.90762462147752 2.1602078084803 -2.50908615565948 1.90795162441796 -2.00688471576821 -2.41914180679141 -2.28211839398958 -2.84066630470649 -2.76016312847104 2.77961378932315 2.51173288576451 2.21914252590647 -2.07314433395152 1.92617527474885 2.84377065297614 -2.25409187695994 2.65547533876424 1.93048000532313 -2.42951776080574 2.54774835274968 -2.00297612887063 -2.75971166932952 -2.18646973881239 2.67984093812099 -2.36859271231768 -2.71207510840647 -2.47878568982933 -3.46802922877783 2.33724129294679 -2.39526383342527 -2.03609103260461 -2.8593236896616 2.77338918562331 2.53096157782488 2.30061763825162 2.56755191631237 -2.14731806583759 -2.59376560036254 2.37072897537257 2.50355451812068 -2.87297296069019 2.78266048118846 -2.29708996495941 2.63804646879421 -2.03622016596638 -2.21006797117879 -3.05912530007675 2.40199100955375 2.46502521057776 2.15007387602647 -2.13086769244352 2.319264034612 2.10684369954321 1.74987568455775 2.48542620472695 2.12065760323265 2.65154420585479 -2.00809280653541 -2.29828470256243 2.43556238398662 2.792085567071 -2.55995947450381 2.28778035289269 2.32310966476505 -2.60254450184664 -2.04214411577914 2.0131128443835 3.11247329299428 -2.53441915204766 -1.98372280213817 3.01700604926116 2.32325969391609 2.33728503788724 -2.76207158825059 -3.28154676085323 2.50937623115842 2.60937811225045 2.82107526335235 2.86460958987512 2.63759776308041 2.80856233986445 -2.12435157002067 2.44129873334736 -3.44851071507862 2.69704283936363 -1.99212162349491 1.88756195628701 2.57815532110162 -2.23632953002094 2.52814068356245 2.25995756055784 -2.55491600875664 -2.25417853198182 3.15878205881456 -2.41473289916652 -1.86110971722473 2.4357033433074 2.66731247192289 -2.31162120617174 -2.59139631551489 -2.33182008202357 2.68971116876948 2.02169335485706 2.77242449118315 2.42993081576907 2.06935759014154 -2.75824595079989 -5.41949127399804 -2.18504564593966 -2.73624544873906 2.50624377754415 2.27389956316663 1.78654508150657 2.86838974621749 -2.09160275772003 1.96373296070231 -2.36722028265174 -2.60689986187653 2.61139500324926 -3.37120745527506 -2.05616717303613 2.27850878999013 2.13992495916996 2.79614975365096 -3.16980333309403 2.43061181111901 2.5460409341099 2.34112654056374 -2.23819559757032 2.24385825911154 -2.76593135573972 2.75407199060634 1.44283211760481 2.73704289018915 -2.50927027906118 2.88528398458506 2.64740630194087 -1.96875554072537 -2.38440195194322 -2.25223695233933 2.70995171538088 -2.00717604874974 -2.25900041744301 1.99558951452029 -2.57403661248503 3.24602705816665 2.70818184795664 2.82101973609275 -2.76391516849663 2.52869274233114 2.30008558984378 -2.64157456170796 -2.75732922895259 2.03261205334172 2.15775967645818 1.91724601431541 1.47797699859169 -2.44744941471122 2.42447813290165 1.86025738115293 -2.53577448333727 -2.95395733571069 2.34925069400732 -1.71643376079546 2.38398347537879 3.15074228783008 -2.58668956655915 2.39409692257325 2.9107971817679 -3.1613093232371 2.28119543591085 2.52526956065263 2.57950502734784 1.51750926911791 2.30443713210353 2.8293098138492 -2.25086989907847 -2.6664401031148 2.73328425953994 3.54214920447342 -2.14906849264656 2.36444621827741 2.91794072967199 -2.59970878798954 2.82184997855417 -2.03236191187213 2.55733621864528 2.4279776200203 2.25802213679766 -2.80595788497987 -2.29592639976136 2.40827832735211 2.25245135592156 2.50189758762243 -3.1275045197833 2.15231937964667 -2.78518744200897 2.17217629796167 3.08895095083852 -2.17977181938666 -1.76220281219266 -2.4382676242804 2.99814836280353 2.77167982299317 -1.87219628449349 -2.08271406294209 2.28924106952978 2.18265176003487 2.62306684718739 2.22328665482236 2.31338624328422 2.64469560264175 -2.4641951201328 4.182823713653 1.93755387117113 2.41753139590546 2.26745606192583 -2.53985401964883 -2.27484639784974 2.42529064796986 1.74711331014993 -1.97296916955166 2.81482408630337 -2.65153527955296 0 4.52306779203693
2.74299944069457 2.14563268127657 -3.10016468444255 -2.41244888672793 -2.86924291075408 -2.16333163195746 -2.56116770074059 2.41704366427315 2.28925196247217 -2.33555282123651 -3.52586043183073 -3.38284505259036 -2.15664436779196 -2.6533347409872 1.86479096385795 2.56492095668087 -2.16040616577991 -2.28458714268329 -2.72221929529847 2.95781506123789 -1.7395305539683 -2.65027516989613 -2.89871104233875 -2.91162481680531 2.69582889164962 -2.08584758120021 1.95822547573617 -2.21875663665996 -2.80911219035693 2.33860842652697 2.92682997451271 2.34482337337918 2.21967787814432 -2.45727414297485 1.73035029001656 -2.85074191869483 2.80497703718969 2.05737864917599 1.83030032497499 2.79201466209031 2.02467114059926 -2.62087262865645 -1.98037967247647 -2.32076503170624 2.79159257371454 2.29504593450626 2.13435126802866 2.89118552478142 2.4773346767614 -2.60868174888553 -1.8852541444375 2.16982345399035 2.30664065785863 -3.35456046646087 2.30232065797197 -2.36191555144135 -2.13002647084275 -2.66597663327198 -2.81600229859005 2.36821166835738 2.44995366068994 0.852520754541069 -2.49376772896945 -1.74332471047138 -2.98403461086379 2.85636610824967 -4.36770751131204 2.04931516412836 -2.70285291789058 2.43515046510409 2.08393949374789 -3.13824896466371 -3.26483207948383 -2.42315449440928 2.49280663248951 2.00064988421185 2.10520593513713 -1.94825692702407 2.00102518207498 -2.42358809487089 -2.27852449705897 -2.6773540248145 -2.6609685954059 -2.86134580203843 2.57493765924339 3.25502948399965 3.83150447047127 -2.08040396866347 2.8896314556549 2.37732781561592 -2.00062730123107 2.6888385165117 2.05541301458912 -2.71751682515987 2.17429307686917 -2.02012135564959 -2.01703503461106 -2.57700735797979 2.66575767101443 -2.75667047152755 -2.62069519140186 -2.0442235890044 -1.10057644153413 2.62001581456011 -2.23020814911696 -1.92501474614692 -3.77288506011479 2.0226223050863 2.7877702623866 2.81804032576189 2.65344857814531 -2.19728509539517 -2.71978056202509 2.4861532940947 2.75883518695658 -3.05305678543487 2.3044858075351 -2.43662233689849 2.85439148258908 -2.46335663314009 -2.74510718979858 -3.29485036580874 2.20785120521103 2.6240053484466 3.34944673778465 -2.43074143564188 2.71969916962254 2.66259201464585 1.75700412613332 1.28974604121842 1.54206233387067 2.76063577644047 -2.11577377042346 -2.86686991865583 1.13095089854371 2.62665570063651 -2.54558671502909 2.29787700064689 2.04285781870048 -2.44474520225863 -2.06014338235276 2.49050932491744 2.7093458902183 -2.84205312811332 -3.35093890527468 2.78940047986109 2.41655603762007 2.26076333713553 -2.63895348651826 -3.02212809736873 2.01461279278509 2.52069896119919 2.47810963712059 2.20760000186627 3.76120587209975 1.94567539882112 -2.55691668736838 1.92260871509695 -2.11031773857624 1.99816253089916 -2.53416503656285 2.37554938481772 2.84450540763018 -2.23863363429548 2.20327450393112 2.75484825416322 -2.31929911932475 -3.18965098743963 3.17060269717251 -2.75463294377609 -1.93320651651389 2.90689805575716 1.94253900916672 -2.40775605562296 -1.60400381864859 -2.35045587060626 2.5610195543646 2.09439593475459 2.31289370752764 2.24989634508235 2.77399322411469 -2.62339744244914 -1.91951227569993 -2.26892288052941 -3.01403064897474 2.51437738806543 1.69441531606978 3.88534068578345 2.1944617143869 -2.66685349632331 2.11287538628767 -2.53064003581332 -2.80907717073568 2.14779054146809 -0.621412582936122 -2.50601874432111 2.51611324609516 2.25856253974943 2.88432233123788 -2.7873516966673 2.57761289752111 2.38708908852725 3.4739345791977 -2.79034458679676 2.74179482026171 -2.81280709764959 2.37917113368237 1.13047232087878 2.59257305609027 -2.48237567212335 2.70150821906673 2.20746140653023 -2.39674556409944 -2.06122658793767 -2.64546192808798 2.32233330095337 -2.88428422924066 -2.47600067462821 2.5322298822991 -1.97179933447064 3.4081718197378 2.60220378582034 2.77118059023438 -2.75977235708265 1.69167155354817 2.48506674549648 -2.07727518109981 -2.12181882351119 2.52726782401451 2.14224131831134 2.64810201417237 3.39985734648917 -2.75010923961625 2.55076866146858 2.56850992987946 -2.65753976702365 -2.78335922062651 2.26136696062862 -1.10962807099808 2.71545189425447 3.65702000017327 -2.53471906031427 2.41298620425261 2.8231842862551 -1.92205775422759 2.64377163513353 2.76170010044383 2.09176705840215 1.73801721520785 2.17643302944857 2.10383531134996 -2.813530764426 -2.2199246551932 2.07575201912047 3.5498017178243 -2.01088354911344 2.5939799025803 2.49415514248679 -2.83892270359437 2.19296046447314 -2.67581867147541 2.55753622300565 2.76396330778538 2.38660358674195 -2.91353588506184 -1.6885724694674 2.05889459776702 2.79079983111509 1.71520045685852 -3.043622711045 1.96912107017809 -2.60161097192373 2.00238680890393 2.93809505676046 -2.68191326907434 -1.38929001313001 -2.13158703557836 2.77571254324602 2.63843750030331 -2.79020179290782 -2.15871271976927 2.51714891435364 3.03749470249406 2.3119305156782 2.80085084553141 2.65519237431429 2.08277479014773 -2.73673540600287 1.91577336612816 1.88671414943957 2.58217063057296 3.09713878314468 -2.50507318143281 -2.62255474477466 2.58625405121809 0.613112684386607 -2.1618144492866 2.55988365353225 -2.61831851249506 0 7.33188665230275
2.66411326561358 2.8096879569462 -3.13220179723392 -2.8101461956774 -2.81603408989044 -2.18350475088138 -2.88021693471064 1.95610201847163 2.05880123626572 -2.76692530904585 -2.74999304612183 -3.12674769416068 -2.75894291266559 -1.92230675660815 2.20647473654881 2.62591916921913 -1.96211181042254 -2.71686555314249 -2.52076505002953 2.61895105798519 -1.98403733204399 -2.83035692980258 -2.91237964063324 -2.66138394751349 1.77876298646943 -2.09481875338152 2.13375006639638 -2.07326909767437 -1.97997917119968 2.49678011123907 3.0579989779861 2.8567332645746 2.8901950348183 -2.64310081617166 1.97621477671702 -1.52504757351932 2.99450780924807 2.67160849471036 1.64808572471292 1.81055629012742 2.66489735768161 -2.58486521170563 -2.01379761984712 -2.50215418024 2.38786067839621 2.35851229087468 2.29293467586571 2.41085577008069 2.69860614319192 -2.58999677828733 -2.62086477398424 2.50781257526595 1.99751659387964 -3.25652356597991 3.50867167059319 -2.28846057463406 -2.12833152801562 -2.12698059700292 -2.12580325285357 2.27659254613648 2.30955645231351 -2.18325642032121 -2.85171185789821 -0.0736209901377 -3.12721932925414 2.26919784383947 -2.49637551108071 2.76536653362319 -2.32653229264585 2.63557454417357 1.92190253774589 -2.86389635309572 -2.54829207308328 -2.56012417624773 2.7092551811938 2.27614832308831 2.00937822355626 -2.17779937180126 2.78575543379502 -2.00140844389635 -2.30116799798988 -2.00922176021738 -2.75393076733338 -2.03330784654504 2.58221869049481 2.7649567728365 3.48345137385219 -2.56031096306731 2.50606343107104 2.60385044954167 -2.0147818269153 2.66450121141887 2.75058415198666 -2.00680116077463 2.69472242426242 -2.14838780377844 -2.72549598411432 -2.25190770613753 1.87871501277872 -2.7696323696325 -1.94495742836067 -2.42462010316974 -1.97787111851245 2.66737951195151 -2.00738586065949 -3.51679216779065 -3.18713508116206 2.5154600113855 2.7698217230804 1.80814659772659 2.89868444589428 -2.77245707019241 -2.0088663860278 2.74270616600706 2.77554213246815 -2.72416127041277 2.86877568055438 -2.53466898850414 2.40411048347825 -2.93327557158767 -2.4592019409011 -2.91847392970888 2.21483846427391 2.82197186901547 2.27109177661169 -2.45807762448622 1.96151485014155 2.83244418749442 1.92447028856617 1.59363265010546 2.12281835879992 2.3230113975743 -1.75326890349117 -2.15281996922775 3.67706257520298 2.01070894804277 -2.85112328575749 2.17724846144646 2.5843665601175 -2.36721147704526 -2.45807240183785 2.13892493642208 2.44125839644148 -2.64155489891271 -3.07346945647968 2.77639352555723 2.54553838950874 1.99332835650653 -2.86353985884832 -2.84036677838706 2.69590970538665 2.70131626646115 1.97138797559627 2.82600626416519 2.81054022993122 2.83438158399249 -2.84456785628822 3.11414419674167 -2.49911279248719 2.42405154438973 -1.57646815135244 2.76399979719558 2.03767142157933 -2.42459088837883 2.74712447622104 2.76564899451681 -2.43304693139894 -2.75011618486348 2.94023536984658 -2.15236655788996 -2.39286013436743 2.61923648713246 2.18783503724649 -2.7713379091085 -1.90850669452899 -2.58826464713662 2.16947237473075 2.68508697193216 2.68130179831227 2.12008907427771 2.49875941447711 -2.82371094025388 -1.03215130859537 -2.51898070553997 -2.62754002924865 2.39318926812908 2.13485814488714 2.04328896475903 2.46507860134933 -2.87029838648102 2.78164722223501 -2.82040911191167 -2.7554179404909 2.36455774976013 -1.7336476734233 -2.25377035516533 1.92925483914851 1.96122760332163 2.63067234823725 -2.95438178048036 2.12163115878898 2.54116069396949 2.56090068283671 -2.67902340110535 2.57915394195352 -1.96442212383466 2.54168570464481 2.08251605715235 2.28584151982986 -2.50374562514825 2.5010306458386 2.23132961241667 -2.73438359768488 -2.92201028790906 -1.95532494641323 2.73370353469335 -1.99661441019794 -2.16475169693298 2.84900410775718 -2.5794072108211 3.08194870612428 2.59197440589631 2.7854138345424 -2.01430435782859 3.35718229288574 2.26376530063392 -2.35507482223269 -2.07697053626574 2.38151336793498 2.8692848964303 2.09848631460164 2.04891146115977 -2.76267585154441 2.31909918710949 2.57645959940653 -2.06616938112469 -2.72613196473606 2.64801540806673 -1.77642855518342 2.55542924805053 3.1449804723733 -2.61299512545782 2.24243888356229 2.81197051971304 -1.88436254174246 2.54619344793793 2.81747860437187 1.97056521026658 1.85297566321539 2.62543732410269 2.63002376129633 -2.60881116082966 -2.73349357807861 2.51828964684481 3.46278522667563 -2.25083051940655 2.64190233862856 3.20577112031626 -2.45537953941593 2.26029644248823 -2.49061018152943 2.6378673079646 1.93036537442676 1.99436616505355 -2.88837936985135 -3.17232517720611 2.10337849652377 2.34117755333454 2.57859931787553 -3.15862027739058 2.75062073229931 -2.60719345622634 1.95841905562387 3.0400639534805 -2.45141439145637 -1.89355452549306 -2.33364151322609 2.98595963497613 2.19095173719138 -2.84416095768665 -2.48454478821486 2.37116642460443 1.84160619850863 2.70317865151959 2.17021687644903 2.82464347250211 2.12178509703829 -2.37820099989015 1.9903987981719 1.64221171044343 1.97594924487873 2.62407559858171 -2.7076082443431 -2.50843085863047 2.11948528249818 1.42366809798556 -2.83248367972898 2.8647048031939 -2.26713723043695 0 7.41432048591865
