2.09726994386057 3.20265167656994 -2.95176839976416 -2.53652852132843 -1.97732663367091 -2.94959899316461 -2.39094731308877 2.69492279990416 2.79696638928006 -2.17560546364283 -2.13338979524538 -2.79716179670857 -2.22527556482708 -2.0040200041499 3.4856697990581 3.19008910923708 -2.52367314363573 -3.52238489202913 -2.82544218211968 2.0171836968452 -2.47601238012605 -2.52177454408952 -3.17908661688614 -2.69085659096909 2.40815148104487 -2.44192810666388 2.08730270704612 -2.40240301162126 -2.3200361007386 2.2727451518942 2.95708785730132 2.46542236828168 2.49391082543946 -2.1176034311195 2.61147086496755 -1.7287906473876 2.52478254485979 2.58429287227107 2.04105581063738 1.9708615045012 2.17572665431991 -1.90495082111323 -2.64525854107442 -2.64743599528483 2.22812757469934 2.76125623814097 2.40464176352431 2.44013110631583 2.28885464936191 -2.3208932948929 -2.48513739460748 2.50970045645308 2.4822681895473 -2.86658901511218 1.36379463006915 -2.08908224101235 -2.05363077341138 -2.8330612737966 -2.14962071686585 2.43229061153434 2.83450169059698 -0.2400798989396 -2.67336043540699 -1.61152662435447 -2.62994125811186 2.87756269049773 -2.17305194647838 2.63116356439813 -1.9184130620771 2.69505648111086 2.95706627615258 -2.52725654198471 -3.198284130512 -2.89322820788987 2.24060211934621 2.33627381966897 1.95759731416235 -2.09132045521448 2.65035831335789 -2.14731933256909 -1.95315305068637 -1.96871992418812 -2.46582100375823 -2.6250309947883 2.52252643980941 2.70924813430183 2.49656422090931 -2.5920732652357 2.75701722983122 2.07145641251997 -2.88582304577904 2.7510504455991 2.60073598329503 -2.56116843314862 2.36814328009612 -1.85734050249256 -2.20328355092339 -1.93750615559194 2.40872135781475 -2.60429602531443 -2.59050185288277 -2.10416980242788 -2.22280001126773 2.07873074707629 -2.48766248572389 -1.9177696500915 -2.87348876611542 2.57759965956353 2.66330216414489 2.32747776845639 2.94942721724596 -2.7727780416741 -2.6321795953367 2.87095582767924 2.558471072179 -2.92749899933129 2.47318639486799 -1.91239281846895 2.80312967318235 -2.53911449703908 -2.66786739991423 -2.58107737285852 1.9299207036374 2.71423232888469 2.09062409639495 -2.83211445682103 2.47636147966202 2.11869373173332 1.74170915363535 2.20909936992709 1.97474785756439 2.13717351566261 -2.0123523990778 -2.35902755525351 1.66475372725537 2.04007400463993 -2.32038437108316 1.96569491774673 2.50825207968813 -2.20466918242259 -3.87198391344213 1.93004973281886 2.18502630895159 -3.34146196806479 -2.36698903475786 2.95955908712585 2.31602207784986 2.82657659490062 -2.2716300322083 -2.44291821377715 2.52030236210371 2.88914212467207 1.97347017194987 2.14979523676115 1.70448840993991 2.73882453247474 -2.38788589222741 2.31726810150638 -2.15159669718987 2.19801274646795 -4.57732631490894 2.61186869226192 2.129737211276 -2.20587509506729 2.13415046960844 2.50714088262234 -1.96601663782741 -2.08808177549458 2.79675193502313 -2.28229251851883 -2.38363535780895 2.45921859438811 2.00554297289389 -2.50048105569666 -4.16244171041545 -2.66761891723429 1.9786038625128 2.69917510809633 1.7595108420607 2.58822328432615 2.32405244526043 -2.15258567808145 -1.88181123733474 -3.23812440571933 -2.48444479010229 2.71262898229812 1.7280180011312 2.61737155195539 2.62649458611767 -2.27962925907212 2.1942788396204 -2.83277071886654 -2.47638164291451 2.41939591089283 -2.26202494618783 -2.39500501551772 2.63395023551746 2.49483161685694 1.92343122789571 -3.1129945012733 2.01986729304964 2.73474732656489 2.16297693355045 -2.80474827330724 3.00251425804121 -2.83856666062658 2.53954706474721 2.25443263500603 2.04922746735294 -1.97265305587753 2.90638170200028 2.74350434868878 -2.67223877727243 -2.07211223269662 -2.01061742584047 2.2045778811979 -2.66750373542247 -2.75838575147325 2.115507813518 -2.41660588383759 2.52251311051719 2.74338407334149 2.21964280038477 -2.05068686299283 2.42024233565478 2.39470881099138 -2.76799756934641 -2.56998578926416 2.48309905323572 2.49298285941568 2.30858606186961 1.87258544605471 -2.15896565889993 2.07014583096757 2.55801029127707 -2.35107788469741 -2.87053513419053 2.35398147510555 -2.44829296672677 2.68012980992937 2.45110202442864 -2.6925675125456 2.91803181599509 2.70961902590466 -1.91374200914329 2.69682938022462 2.69010693452837 2.45879328984607 2.25954154802634 2.23990054195256 1.94177892148677 -2.20493328678893 -2.41751400022859 2.6641898889828 2.63872109221537 -2.55426585475615 2.55945318402144 2.80403814469786 -1.9612964819039 2.39219668738114 -1.96684827212 1.90558435658247 2.37286752288738 2.1932088313474 -2.52083580354217 -4.05977660673062 1.94429980467183 1.75858703051015 2.04885077119245 -3.21873417586259 1.86220172908646 -2.45206535231127 2.75947208892477 2.72076948784039 -2.67124353731365 -1.76122810510769 -4.52161042179569 2.88607639273123 2.82185670584713 -2.38664271240091 -2.28030707581079 2.43867444159526 2.49291288218424 2.19592474810839 2.21923235246502 2.666590082049 2.76817648027603 -2.69395713772223 1.90313006906988 2.79436131057519 2.73713364815444 2.05885433211952 -2.27581513732227 -2.13562767639342 2.46447587486535 2.46659924122118 -2.73576852189607 2.17886775993177 -2.71652813557581 0 2.15390416037676
2.47914576837776 2.60263839129814 -2.51134742996587 -2.78800345723153 -2.58972050676937 -2.23391102614747 -2.05635607045162 2.80709935214255 2.65233133821788 -1.96557987988662 -2.43632666520697 -3.10213818105313 -2.19518227511568 -2.4674825221043 2.62882204539019 2.74345397475907 -2.71770628789878 -1.99882806100323 -2.57818651682042 2.46402645180261 -2.74668769501748 -1.93021978965798 -2.31564790079065 -3.65866856274148 1.65879202096304 -2.31907069179985 2.04670304989232 -2.75154013684954 -2.89726355165789 2.24844496888773 2.99498948476293 2.69833396837542 2.42592076256992 -2.68788191496881 2.8012169766103 -1.87160091545213 1.97200631699373 2.6227943308957 2.1689117947814 2.9105886975691 2.73470645690155 -2.65789119791693 -2.57989395247823 -2.28058139864279 2.45201746444464 2.81649114070861 2.78412727101163 2.05442789043306 2.89218064913101 -2.5325968018539 -2.80228424344813 2.08130983513804 1.8886443446732 -3.50884258340529 1.1763880495569 -2.39203621593709 -2.83530561555394 -2.86613688413124 -2.16367542807954 2.80527415398207 2.26920344749095 0.191942545818683 -2.00075334103258 -1.35986551948121 -2.45055109501271 2.17708953685313 -2.24409184237055 2.28082689144637 -2.47284487965834 2.81345443525416 2.14052810019925 -2.66919582655642 -2.75901653262201 -2.44630302999871 2.69334334747114 1.8398385091837 2.30428810795568 -2.81033176125209 2.83166270110344 -2.23920388454695 -2.40394134877629 -2.7938557518352 -2.65463289398836 -2.1187960889075 2.61127751508918 2.86845366200674 2.38686018602214 -2.79517389851795 2.68991276822777 2.28708917519186 -2.02667071134027 1.95015337172307 2.89603444463083 -2.85924996225233 2.33612857949019 -4.00495194553935 -2.69384597032676 -2.45122546374837 2.69704215690865 -2.64118460417703 -2.52185611833849 -2.36699509200544 -4.44719847906058 2.75265614875072 -2.10462046270717 -1.92723169663555 -3.00214419306201 2.45316917382972 2.46590311890376 2.14285265074611 3.08919265904151 -1.92551925571199 -2.83314997028167 1.92470935840611 2.57190770798084 -2.90548664397109 2.35657487702257 -2.76935488218199 1.96244742085831 -2.80555616070072 -2.44659612761639 -3.0042144992667 2.60752330008846 1.98943150928084 1.94385474259993 -2.56871683227167 2.23482487434238 2.81809875477465 1.51614619811206 4.53748796562968 1.48561509283288 2.10802459731231 -2.84193038980047 -2.19120521821521 1.77689989545919 2.00486475900858 -2.56004455838815 2.24450944636749 1.80705636726606 -2.67693802741925 -2.35402591677321 2.18450283506575 2.21515294717522 -2.490330410143 -2.3293061353278 3.16433174649068 2.60347336764997 2.86643793798542 -2.26615945878998 -2.96138761747227 2.46309978820742 2.3061306490931 2.29717387738083 2.73344866105689 3.20044653453968 2.85248848007456 -2.25297517113565 2.46631337345856 -1.9554588908177 2.3415010533233 -2.2674443081215 2.17147634333474 2.38586022958645 -2.15497017937091 2.07499781009316 2.61039114154994 -2.1575226462647 -2.58051375204605 2.95532636077007 -2.61732102963322 -2.89892014591224 2.09694925840819 1.9721029942937 -1.90012590035974 -2.08019510162071 -2.71600854365441 3.1273072095978 2.08271794132658 2.44730099116362 2.04049620304711 2.23311396591091 -2.48697093435484 -2.19207040482939 -2.04574841342466 -2.96751159656462 2.99366870010523 3.81789100265431 1.98573032725239 2.7532884231913 -2.50191896931635 2.23747852600494 -2.2314846465654 -2.41688041301352 2.43653271701985 -1.73179887259475 -2.60160785284634 2.61553991594148 2.65888977237588 2.18235909974395 -2.43100229707699 2.09704757763658 2.41933234572555 2.15614026786099 -2.56514296257683 2.00236230961158 -2.49074919360505 1.9135014470701 1.30501182024222 2.28138130228898 -2.2508597116336 2.07336930378998 2.43437914392089 -2.90536588453852 -2.1975676651594 -2.70592510401026 2.78279414425455 -2.90868755889603 -2.5285826782124 2.48063884824577 -2.44556927685072 3.17345706750868 2.23371210110637 2.28813178350373 -2.5487038432919 2.48581056618636 2.21204074372985 -2.20211647208586 -2.38312027903752 1.96400149632895 2.07742264104871 2.28580239705766 1.80652535309892 -2.12709986775659 2.7878336130652 2.81573330082638 -2.21975855702523 -2.98572680733116 2.79412138249848 -1.39039393985784 2.78036643928689 3.16995212520413 -2.60715323761486 2.22588439690542 2.88999009323356 -1.98530993206766 2.63144709291498 2.58374030883325 2.61433555725622 2.00999433774334 2.82777907877588 1.94867010000387 -2.63720581459174 -2.68881001781575 1.95424419712155 2.96637644794529 -2.03985333017236 2.08028491480757 3.06213919819583 -2.4738265161735 2.68554563102507 -2.19517188888536 2.34306091666584 2.07493796700693 2.03051848286535 -2.62446080235042 -1.87705692035818 2.55003485529966 1.90996980355227 2.43830783155081 -3.2744818893455 2.53343636912867 -2.87290708395509 2.54148742707216 2.65829309850436 -2.43860849005886 -2.15028044824499 -2.32424114587143 3.00121625970531 2.87466539450255 -2.7831126991373 -2.27784376033949 2.86144814182914 1.81849632722318 2.03291355041716 2.75900243762345 2.02915632719746 2.74951434503237 -1.89260807698247 2.41065118782112 1.72992675947199 2.3363576040482 1.95813208909923 -2.39304379082577 -2.73399261648359 1.97060642594723 2.15276640081992 -2.03783162823358 2.68765000263955 -2.82834402366781 0 2.20010474077039
2.11411325987223 3.10744247405151 -3.21198003522364 -2.08208468702352 -2.65542174978269 -2.87109043121996 -2.23462069092133 2.27693462806615 2.62403032274428 -2.39965469323083 -2.10605166380816 -3.0711314190094 -1.94928372364389 -2.70777192459072 2.14065248793225 3.01486504259526 -2.4079326037934 -2.2606325324585 -2.70359723613595 1.60687458374542 -2.99571557486768 -2.13014122236315 -3.69928795121824 -2.52161189911949 1.42544309823278 -2.2445140920909 2.28900388372546 -2.35587244306431 -2.16874045884218 3.39098076919618 3.02185393863598 2.40851274506438 2.08794385807356 -2.30952933435546 2.56020130024927 -3.23109650504765 2.9808212570155 2.1822648570198 5.1952537222267 2.59327881657844 2.34002241829242 -2.25974968037325 -2.74820677052324 -2.09792415587083 2.55927192588615 2.11160143356999 2.29218152937945 2.14555390718353 2.82549452088442 -2.34695631654961 -2.65104977784881 2.46057450530757 2.20589229839351 -2.79216528675843 1.38290779302338 -2.57218166842947 -2.25528599460509 -2.45691313011408 -1.98734046758194 2.57690174578486 2.48430833496018 -0.933216757939436 -2.24017121754634 -2.72559032504793 -2.60872983721413 2.81815644762258 -2.50796520224816 2.19378205635945 -2.50487198758717 1.88153495548276 2.47512449022562 -3.24513585762644 -1.87878836289438 -2.19024891721583 2.40806187432786 1.98036999963443 2.40588875585699 -2.68195811512038 2.84396008403705 -2.21288901015029 -2.44830422128406 -2.50765799295033 -2.36195999560769 -2.46643712796047 2.38890362475433 2.18436410120048 2.03599401493073 -2.64651041038 2.09310373295252 2.36819441521666 -2.38837463693729 2.45534645647412 2.02311675687683 -2.72631344199361 2.86757038909637 -2.62196821587021 -2.03709203169109 -2.66462285630427 2.11037387185621 -2.18510863999948 -2.38932592128231 -2.13676563849878 -1.75548306149909 2.65862452424777 -2.40384607744025 -2.40002983158274 -3.24213336583925 2.54894188024144 2.0489576116118 2.57321647002277 2.8556497039726 -2.59044305030501 -2.43962001459051 2.07778439731433 2.4270904450159 -2.94120352296733 2.52200348213004 -2.61110897257934 2.16851642130393 -2.49493660899664 -2.05421972117153 -2.62176696506673 2.12676413904763 2.76662491561518 2.17536159882601 -2.5761791656974 2.58058108279947 2.15859870816548 2.98869689887667 1.83015222074419 1.7698379528465 2.38901917436206 -2.44737424918782 -2.47777990862675 1.65860339717723 2.39629343403086 -2.41433732797862 2.45341453737883 2.52018030320548 -2.25792717696536 -2.6176439911332 2.28865088263912 2.85338104711955 -2.58614956616583 -1.91905178239227 2.46541185872977 1.88128763664794 2.08628198110984 -2.12277488387747 -2.54268364713136 2.50992568926742 2.82189887491374 2.79608430552485 2.74213838296657 3.1463390549177 2.58494003916797 -2.38025653690885 3.11000751843991 -2.4256512098716 2.18506181004365 -3.23433464832599 2.66677512730728 2.8967019410245 -2.04368199809563 2.02536895470506 2.65973290186 -2.55234779366135 -3.03282037031682 3.41926173670237 -2.01387694262732 -1.9863943629798 2.00300995444544 2.25178886079664 -2.13737730594624 -2.38456320435285 -2.41561988422626 2.57382209971251 2.83479585149752 2.1930993349552 1.82113280844972 2.01964596825435 -2.35460627347853 -2.19469993068284 -2.2550174401779 -2.51221258590888 2.8348039869366 2.30857698226768 2.29050166410341 3.21704072855057 -2.31897697565735 2.80869727919641 -2.40365981066194 -2.82197532500914 2.56370812730561 -4.60955012511835 -2.68830768581416 2.20635544903688 1.95475493921419 2.84421534650483 -3.28403997094245 1.69525939410138 1.8214776658864 2.67769586724764 -1.98079051460406 2.58964256426487 -2.37608349271517 2.12835778276374 1.39241083860139 2.29970074315545 -2.38246146818402 3.32867332155599 2.51325412392632 -2.08931957762925 -2.54747137690693 -2.68775696451816 2.59603589648565 -2.56049535170112 -2.18909244473891 1.98361732996837 -2.57864381742858 3.18670502559321 2.00629953301927 2.45128452532124 -2.49600493258653 2.15160092406014 2.3100905692892 -2.90023171390871 -2.14986349606539 2.22652023446225 2.15064492134344 2.00078839662228 1.97375586507074 -1.76118352592677 2.71127925191799 1.88792533214636 -2.81396186043478 -2.94724010817515 2.55108436952859 -2.09384413180118 2.24776559260653 3.21831801981209 -2.6479904994614 2.99557094616044 2.3982731950184 -2.35130236279276 2.06172766711615 2.53138403664059 2.61917345650148 2.20574813790762 2.39663941246124 2.36808702101183 -2.38060599578098 -2.88747440364351 2.57138485513599 2.55898733067286 -2.79062637098626 2.140519088028 3.07080303136372 -1.99291281044978 2.24485411065076 -2.39419267052951 2.41845124493697 3.57092012760198 1.98414683257232 -2.95105124388707 -1.48188357655659 2.60781069852217 2.76613525046884 2.17455211671069 -3.41620529318051 2.25221244128132 -2.43451466611471 2.37549613206019 3.02934667836269 -2.24270473048585 -2.54627196780053 -2.69726971468292 3.17292294573583 2.55629220770534 -2.21870097393349 -2.19870780936164 2.12799054944971 1.76684927240807 2.63564507402717 2.34062633594502 2.43440806938968 2.4514647747566 -2.52574063864364 3.24154529885253 1.90003385303912 2.51834729011481 2.27179293318263 -2.20628923475553 -2.72177293707003 2.66133230405111 1.4993878276049 -2.4456404563656 2.39327071584482 -2.28476974375463 0 4.70052428018672
2.45936368321122 2.35022580825633 -2.95650263012405 -2.45003089894167 -2.87130237365303 -2.60332240347172 -2.85971493447162 2.06401925721991 2.03492879377885 -1.93488117425355 -2.33525907887338 -3.11341177111316 -2.69341890312794 -2.49208796682601 2.21889529059638 2.75699371799825 -2.26954484137942 -2.42510809652275 -2.47391380378756 2.03299035545645 -2.22326930496511 -2.4388756031216 -2.8662561215353 -2.34712878162462 1.1495786494343 -2.52531817579401 2.87950297302489 -2.44977107882213 -2.79848187087771 2.1904732880122 2.46781762864206 2.66863114613085 1.91779295563013 -2.61633720537684 1.9152667162424 -2.28293819919505 2.68818848916137 2.43772999945865 2.80176427124176 1.76140163097053 2.38651205567149 -2.38596417097334 -2.80845831135172 -2.35901756548199 2.29727808256979 2.44528728493846 2.1150204163801 2.42136164540438 2.57110398201859 -2.26022881724676 -2.38866218732037 2.81394839593666 3.20753843369918 -3.2253710033177 3.18120090116551 -2.81662033229905 -2.65619752039091 -2.53380998777747 -2.80210260231232 2.7782717134994 2.01389079942723 0.42879029438804 -2.84739150520964 -1.33062639639519 -2.89400247499124 2.77016954322185 -2.05907919849783 2.75413812639017 -2.6911907183718 2.49282465760194 2.14909983468214 -2.63425384585229 -2.90030528477214 -2.46940144504768 2.18282448725011 1.62721639539691 2.45137483080217 -2.78350131775633 2.65887371145754 -2.3290144742102 -2.78545980480491 -2.31247949365562 -2.84723664530297 -2.24329437702088 3.08675497940409 2.71180903896565 1.8946803577843 -2.69510149913501 2.31716654686538 2.89888242950612 -2.00004280306375 2.24829157952421 2.20222805416953 -2.02712461690292 2.09010629292478 -0.834833964868441 -2.38127460169898 -2.45509924109062 2.17232939871031 -2.57460264850409 -2.71840049833173 -2.68613016239211 -1.9907217929335 2.54338512039162 -2.00797292780033 -2.38725644317624 -3.13489757436526 2.17715453505754 2.55967511429899 2.59111418743713 2.88254587937851 -2.89512730280078 -2.32913813207298 2.37212950033546 2.5532141260669 -2.91426291318557 2.46932273526153 -2.36541087762154 2.55026460254909 -2.03246184997667 -2.07568820311626 -2.97961692785623 2.44683662128339 2.15886364380986 2.92376674395788 -2.61581877206901 2.43268565212852 2.53476158420699 2.88966175081688 1.56365716559737 4.39083245367301 3.05575273373021 -1.6424869369348 -2.62186733534829 1.77994004133356 2.85720842589753 -2.48557741342065 2.1883071793208 2.59937771261215 -2.33871675731018 -2.56909803138914 2.56341448559379 2.44182121659035 -2.80824640422028 -3.39592975424731 2.88827909512648 2.63214768877753 2.85728500727443 -2.7411224375715 -2.74504512726843 2.19368893798424 2.06042456735473 2.68998612880148 2.34181619675812 3.58046360480616 2.45839660580664 -2.29603076412419 2.70086975864842 -1.71075958224161 2.51468691824071 -1.84661906128301 2.60904228723165 2.00165267749729 -2.83073947420808 1.93705637748994 2.37687099389573 -2.67873999836431 -2.43172202161851 2.56592261362859 -2.18238559155039 -2.64269722376152 2.24454561963336 2.54814873975351 -2.6866477871184 -1.79537179518292 -2.72826690194017 3.38584847353507 2.77317179828607 2.20578511072638 2.60175108450302 2.34248684330465 -2.32243244610543 -2.02525088391243 -2.69579617147082 -2.71870128340999 2.63718527956357 1.51119913349406 1.22637707342197 3.20825095813882 -1.99799660277938 2.16103700756793 -2.49464080804399 -2.60954508196872 1.97814928382868 -2.15850502253692 -2.55873079258005 2.4272077468499 2.29052468771392 2.24904076110271 -3.57882715389827 2.64192791005748 2.34365978712694 2.71403504146542 -2.55192913362237 2.2625103851036 -1.94738686292699 2.33985496122503 2.96969079776006 2.66692122623553 -2.20257258496095 2.54504790566243 2.58173121791884 -2.00810298111379 -2.71662324687886 -2.633894422531 2.14634116116448 -2.67968572070813 -2.75537894548363 2.82545435360619 -1.98994947100427 2.95026865537678 2.59329441597564 2.48364784516517 -2.72502663317211 1.88744175734306 2.6796477182854 -2.81258040826112 -2.30761695909311 2.2791243822599 2.27161534149846 2.43006445208766 2.97777754795505 -2.33560836294107 2.66503098169759 2.00869403936691 -1.97780314881993 -2.87468784547679 2.0372634309557 -1.25544200356354 2.33971684852308 3.36702583921306 -2.63822778062057 2.4858404136916 2.73104697813104 -3.16425147386632 2.43237209470888 2.4003062650076 1.99023944670465 3.01540938068367 2.29903521468343 1.86398198521308 -2.724286153605 -2.20721285419186 2.44036604361129 2.98316028066977 -1.86726289228681 2.80841149986187 3.1756870973593 -2.89834260728837 2.50004179064856 -1.99658629761747 2.71166658696687 1.65961178133074 2.7540003968226 -3.09239828726632 -2.33182030080442 2.00271784330602 2.05266346006144 1.92636060932058 -3.84641556262923 2.43657871070122 -2.94959542110237 2.0967802187759 3.09690798349529 -1.93928345986174 -3.70818834276446 -2.15789953552239 2.58311825881007 2.77402179754332 -2.23804388031221 -2.6579937154998 2.81921756006838 2.692812500406 2.8540703121586 2.16908057194125 2.23510799557075 2.42659122483604 -2.77871816140941 1.56212362415399 1.93272478615155 1.96012914890097 3.4938281804024 -2.91018920011593 -2.17862232777797 2.18752033427577 0.988123584115369 -1.85118493826372 2.1970639809461 -1.90074178837993 0 6.09628652433301
2.55267935581419 2.23045747499301 -3.42328491756995 -2.58844511569914 -2.18344334782141 -2.72019847180169 -1.96922629756041 2.89595424346624 2.68143180961743 -2.10568295592611 -2.69301656614476 -3.33133870770857 -1.93339270024404 -2.60168245432501 2.16644472023746 3.08248708579037 -2.69792850946335 -2.50449063202632 -2.60472468826577 2.17557964899519 -2.08397966840415 -2.86992506619404 -3.16508668666303 -2.45700497436454 1.77680187143282 -2.05346242206903 2.75768205199997 -2.43005227119361 -2.50749466720461 2.21363234911422 3.0448568562795 2.72555275037982 2.64345497532886 -1.99623220540759 1.71753748171082 -1.77134644084747 3.39346873580372 2.22006598966081 1.16095539784641 1.84514196224634 2.31616578669784 -2.19619171041058 -2.61574126543103 -2.47898697307067 2.13595819914557 2.82686862236149 2.62461984840255 2.72173161005272 2.5738442311169 -2.39963311998687 -1.99741103604798 2.41199083768956 2.08635945466643 -3.6922107320184 0.843603917959182 -2.46714809862333 -2.3205016761254 -2.80707509659963 -2.73981152280375 2.82650592616453 2.03711812240001 -2.19170811335712 -2.46894524247728 -3.99252443188469 -2.80232501967709 2.11110212414006 -2.50220620208615 1.978693110705 -2.62402969053197 2.27029196337899 1.87927884360139 -2.74676827956517 -3.28693860096167 -2.11410189991207 2.14012702717333 1.76750542934147 2.57168164181868 -2.60023859783777 2.68021442010065 -2.5626941234923 -2.67116713178123 -2.84259190406567 -2.72482595337381 -2.78300994391682 2.64025188788268 2.71762510598663 2.90115789624574 -2.53396643046839 2.74985790972294 2.42899339127499 -2.53408018721054 2.68831396364564 2.07619487720316 -2.63565455500127 2.10894394008697 -1.68159465380479 -2.72137559851718 -2.69393267895073 2.19762765610615 -2.91394832150785 -2.46668797246106 -2.1774187706752 -2.21653005835571 1.86063188328822 -2.76678082195574 -3.36498157559675 -3.3432119635292 2.32634745240804 2.02913800663323 2.01161943763619 2.8531239534155 -2.67887734627216 -2.63703273645867 2.66369470812636 2.68511698935412 -1.96104197986332 2.26538563761993 -2.37078941636963 2.18351770097925 -2.12246393969622 -2.38097954561548 -3.39493160473938 2.20679034447772 2.81679981795328 2.42503844683196 -2.48030544656325 2.61767422941302 2.79885219238911 1.90108456174548 2.74678522344527 2.20768810455879 2.38413529283628 -1.4094694945198 -2.20419306478464 3.97850036091668 2.32291389018873 -2.23921692574215 2.11382024911331 2.64775699722536 -2.19630504448451 -2.15029634234168 2.15595239708877 2.25340363474483 -2.27398299225827 -2.65017927517707 2.39389547130041 2.18861241211852 2.2351156658356 -2.39906258800306 -2.84220303994222 2.58817766230852 2.91203296823499 1.99517274112559 2.33528994393462 2.52034459328279 2.37585947539386 -2.55066905132497 2.90703846575319 -2.49704833470501 2.65781475788949 -2.63243418395628 2.39071436400287 2.63691487474465 -2.23266611917911 2.57531382058044 2.24257957846555 -2.62279506459053 -2.07135133871312 2.89952771130234 -2.58593849276537 -2.66858330082036 2.0820480503491 2.29801877021358 -2.43760521580251 -2.17484372614808 -2.50590651929749 2.87493894488316 2.50221982575948 2.36416385332005 2.83493915721492 1.97004254426002 -2.44902235880346 -1.63693699379169 -2.7084647735801 -2.69349933147118 2.75999401611412 1.85416270232376 2.42405309718941 1.84601290631979 -2.46226157980374 3.0214905384343 -2.85705614674362 -2.7954714542729 2.16423217095885 -1.88262349975194 -2.50778886279205 2.36711908973719 2.52941066432786 2.25440513981745 -2.87865017679692 2.88689295864104 2.64596594765981 2.54290514550962 -2.76849816587215 2.8676061594441 -2.46751678761741 2.46145309201851 1.52238345770648 2.15776362854297 -2.81108547208078 2.66408045904282 2.823911045615 -2.50355277387155 -2.76725730259322 -2.17485289617247 2.65489656769382 -2.89070202587985 -2.64385589184306 1.97533301012607 -2.39969003520598 2.89390280528529 2.52873185111469 2.15751148988266 -2.53232161880908 1.7124935697636 2.12751201669049 -2.91789190459821 -2.78882969281882 2.87954499161329 2.63516025918976 2.81194462877684 1.38540840039998 -2.94344927974815 2.70952745438013 2.85143876055856 -2.70116243642641 -3.51960251016395 2.08643487500245 -1.50306374116208 2.35042283871714 3.09983319037896 -2.17419339007063 2.5534353188709 2.69394476396653 -1.71425693811656 1.94119148831574 2.58125894747307 2.71744828903792 2.11090828037627 2.65904014384274 2.43175738911353 -2.6433177548189 -2.38400477185197 2.81754251114757 3.37827682976979 -2.69181336949516 2.12879141139828 2.64911170771063 -2.26619912639044 2.69725426172027 -2.49375315662532 2.2625080112096 2.17076266791461 2.59514206577877 -2.55474146695681 -2.48917316891991 2.52399812117938 2.51430909290858 2.83046914975651 -2.68634480155019 2.50042997307195 -2.15566015899686 2.60662852127449 2.85588772439123 -2.693582822852 -1.66062802692952 -2.33679855651963 3.33948739581084 2.4947962588551 -2.54926891975764 -2.39220487863222 2.03904717879907 2.05824618450103 2.13060296380628 2.21641974830968 2.48796571511448 2.52119123737697 -2.47220825639854 1.89563708541098 0.996840737107831 2.66609752295383 1.9357325315602 -2.36770170144947 -2.08071294389543 2.65212601242797 1.36040276687555 -2.4848828875221 2.76900020279631 -2.77523846946129 0 5.88396630250654
2.39359270107703 2.72550449729942 -2.97379110487794 -2.36420168516593 -2.82617579591598 -2.31319730244787 -2.28094567845572 2.67686692881262 2.84027377662405 -2.42665750904522 -2.87069652042187 -3.06724837866079 -2.44569165745247 -2.63944141211079 1.48489048878188 2.42532515172555 -2.19619226870862 -2.15351808312518 -2.68339240750023 1.62577261361943 -1.87285475000792 -2.78921319095227 -2.81562722247618 -2.3311052640199 3.46736381023441 -2.29372215727114 2.26544507753571 -2.09841157849109 -2.86959317528433 1.74536987627983 2.81487257220077 2.2175559357213 2.72959614394053 -2.76161618376355 2.60312831163104 -2.33076587317568 2.41435434146579 2.7248738172395 1.80200908531971 2.15749104195007 2.80609643804672 -1.95555977690307 -2.4455745916773 -2.12081951516952 2.74440679332853 2.34587943982419 2.34980292475859 2.18068702790165 2.67512869951141 -2.3513258268843 -2.5891703164404 2.58472124216972 2.65838865541329 -3.15312647200774 1.94445604392321 -2.55443155253536 -2.44801960259581 -2.64076494267068 -2.74995445219956 2.41467110797443 2.16736345677376 -0.0660054057276241 -2.23321012120222 -2.08758717975444 -2.85172220668358 2.7207607975437 -2.55442346628297 2.20790395021756 -2.58303259641841 2.430168496411 1.82827389663486 -2.79446197246809 -3.54031235270616 -2.4115915583174 2.50735573321186 3.06399748106281 2.63683434931703 -2.32353787135396 2.78941497760867 -2.36058006888996 -2.67253400162872 -2.79099219217346 -2.74849507156891 -2.19762970114351 2.6299655126834 2.21447042767698 2.5843243490627 -2.67718770595241 2.57920507779989 2.57024666120293 -2.76807392960347 2.07357717059841 2.493891969287 -2.36709433292097 2.46375948658803 -1.81756804879595 -2.69609794550676 -2.33046780522738 2.22054819877677 -2.08811006116222 -2.35272876891763 -2.62111992454248 -1.85333893335951 1.99438415130388 -2.68621063414412 -1.86842624816416 -2.82471372423309 1.9699810175729 3.17961839696564 2.48478690261585 3.0539347366146 -2.05790856127694 -2.58466903221633 2.3884250901724 2.51826366795945 -3.27688313888778 2.55993053040691 -1.93112024028601 2.15837328584336 -2.64035179548959 -2.87984099074335 -2.39019254364998 2.64782778181172 2.62533195995813 1.9387045550271 -1.99383261835308 2.05296437028542 2.73515959253528 1.7297930622018 2.20688953961019 2.47639178437052 1.90433091966881 -1.71009609516394 -2.89091438419677 1.49356418944863 2.87885034346706 -2.63263048579469 2.05510216002171 2.15033908122343 -2.58678529139067 -1.65135179129891 2.60698544938701 2.03771803918165 -3.1035455549101 -3.47005218685774 2.97290686687233 2.57671618563117 2.11372556828683 -2.66399289399665 -2.60452409884985 2.37743424047976 2.47891053342733 2.34120634116709 2.9221247548236 3.16124055512435 2.01050136350816 -2.47030578202438 2.07247126996436 -1.94352892050283 2.23962840383859 -1.50262816379468 2.42229508619615 1.96933638652923 -2.51860656665427 2.87270180773003 2.39298310638305 -2.28796456546404 -2.3405857158575 2.93560615088438 -2.66489137174261 -2.04873638881379 2.48029078558588 2.37221440919224 -1.9431430161321 -1.79553060070941 -2.54398213228542 1.97936071158942 2.49280004822128 2.17272410412632 2.1279205658082 2.07012827055869 -1.98868438543647 -2.29057913764742 -2.52881407513739 -2.89958576222608 2.29163282022482 1.84297814567088 2.17962728505428 2.57256015044984 -2.92473822567802 2.33514212411904 -2.88918418361732 -2.52097380599531 2.07862087340716 -2.12816559806589 -2.59825911454811 2.5512873115889 2.52332413762292 2.12352771214013 -3.11341261749714 2.61932850048612 2.3782598840477 2.83536618713668 -2.01942164377938 2.39957930672712 -2.05231578667881 2.78529631824259 3.56899062382308 2.40712756704499 -2.41741369639555 2.7911190017154 2.74307614260198 -2.42150616113146 -2.35899193890257 -2.65214251836013 2.23882545821868 -1.98021101182456 -2.45477677110074 2.2674947095976 -2.41813548112025 2.9730970279434 2.2082267521506 2.72481865661489 -2.45823122654028 5.61894279047934 2.72124165245867 -2.79603614933441 -2.54033266875033 2.82634360961242 2.16767533257912 2.85575411195237 2.22281672330252 -2.17960225387893 2.11967744483893 2.41282606722194 -2.37404633376942 -3.0398288099567 2.50678662492448 -1.77716693107105 2.26853104070811 2.76173203366107 -2.7590413996516 3.07580079032875 3.01822489083842 -1.98628058397323 2.54631573433608 2.45418912184754 2.64008907311089 2.25873897641672 2.69796787795967 1.90464185702901 -2.67613851823833 -2.41992509612799 2.68675210470728 3.10908126266476 -2.48908550341963 2.44655858897469 2.74177856013599 -2.86022327122073 2.67226256880244 -2.18577846073677 2.51333917636359 1.95742927070547 2.11485783677263 -2.58745879427406 -2.62416787129796 2.22713791165756 2.08498901263862 2.15096645300026 -3.25309495748804 1.92059108446998 -2.8539878552539 2.22642381845238 2.49319173075118 -1.87735900422921 -2.16253995976344 -1.3456227416197 2.98751575164278 2.16657912670876 -2.67250734263969 -2.64356179430343 2.27469434938669 2.09747109118318 2.10977177626188 2.75636458510891 2.37981584229344 1.9806753958699 -2.11850653562138 1.89053967638783 1.72324123918273 2.84969968532141 3.78066381468017 -2.35669186583293 -2.60354402239222 2.33069940187723 4.99858391335907 -2.22214566664232 2.37630694990859 -2.58821430603681 0 5.77913820202392
2.21222527038779 2.02319457399804 -3.00048644719096 -2.77272645276575 -2.24912003263132 -1.84858031402393 -2.86831559684924 2.25926523146306 2.76465311069908 -1.94409624664244 -2.03675744808681 -3.13038488330304 -2.73846125495441 -2.11031625062601 2.46843482999518 3.00892819917192 -2.61791332492277 -2.48539217451757 -2.73326539081823 1.64436813828315 -2.28936788205179 -2.28756995132971 -2.90321202616872 -2.09800724717466 1.95831308004324 -2.49993183352156 2.63452780408818 -2.00787631153411 -2.24966376906026 2.6973323191374 2.35498772106564 1.95148115042853 2.52607063017897 -2.64921452321602 2.95488706823026 -1.92408381221552 2.41515107108447 2.07740954949303 1.91147108876204 2.53394181698022 2.32665333990163 -2.16708196642908 -2.01256345362195 -2.26756675304435 2.18589155569356 2.23188586632267 2.57415155614293 2.58782942312232 3.09222056276128 -1.72707014602635 -2.02909466333526 2.11676265631358 2.54161519855633 -2.89018311065323 1.19237208323361 -2.14979517382725 -2.44548383940867 -2.01169345520469 -2.39963522829447 2.26410849145655 2.03911522784559 -0.421110297900806 -2.17282176248803 -2.61773249005514 -2.33197934722665 2.61563835723031 -1.83122405169991 2.7387183635632 -1.97338242562586 2.34396301948131 2.61350221735366 -2.44016188564769 -3.1058168426872 -2.2640837761077 2.56624705846396 2.07634653750133 2.59806716189223 -2.65798067056947 2.4828751201967 -2.42977087587644 -2.21662708574703 -2.8192639276145 -1.94844344993111 -2.21127479680359 2.06533824894248 2.68011675103463 1.94917627247295 -2.43382241376845 2.32437238974869 2.06707832391412 -2.11160757858335 2.57481391908967 2.54474263209905 -2.79664348256766 2.58793819537303 -1.59598898857992 -2.81534356097679 -2.03497303686687 2.54886362152207 -2.32430675965506 -2.51579477788289 -2.07547473427096 -1.80285643614232 2.37180711087051 -2.84021135745519 -1.4189449059227 -3.57510896606595 2.16968894285005 2.41282632557505 2.04689897301078 2.86538752451496 -2.73518887953974 -2.57993593871162 2.01200744273656 2.67896695046629 -3.17447695661536 2.08706907744577 -2.55871217443041 2.85004972540064 -2.81080437415562 -2.22506651296773 -2.5667164067872 2.3632260355403 2.61461518773122 2.03885868370682 -2.57664395787689 2.07398965978055 2.67440091396243 2.17297107754643 1.86802475147611 1.93154866740322 2.67527775570929 -2.76637738077371 -2.94339855598884 1.41611747837544 2.62428774874418 -2.61577640207788 2.16997699785739 2.19735592232987 -2.72787022750756 -2.74834845895877 2.64720753433475 1.89073932655587 -3.23700813494101 -2.40941914619205 3.00710962950195 2.14012594130774 2.68747283306694 -2.65018424070278 -2.54495502353246 2.01756605864299 3.02900538839833 2.7580458977082 2.60322406677776 3.0567880397563 2.73416633389257 -2.66288550442251 1.9653874095325 -2.47085883857222 2.59671279093766 -1.57745906509016 2.43035249988876 2.29195931107134 -2.83792179746472 3.67923386757719 2.46421179848699 -2.1706069685789 -2.53718678474242 3.38655622765262 -2.74794321253957 -1.98199755290171 2.78681646577361 2.31391331973201 -2.01915750060803 -1.81069208967072 -1.98626251230411 2.51896584343814 2.20828904947546 2.38610512956245 3.40538248489511 2.68530496661999 -2.38782583348117 -1.9513547849683 -2.67345510915357 -2.87281983443987 2.43904202176813 2.45593874467083 2.34705499966851 2.04822511157201 -2.60663441383308 2.22770766777567 -2.74178113584866 -2.70829345634054 2.68103574414621 -2.07982436411095 -2.01193584141916 2.19090641370526 1.90292593664208 2.18022754951589 -3.48378042696223 3.08700295235568 2.13037665053518 3.0325653389931 -2.78591211612474 2.61382569263478 -2.68800688082968 2.41821140443968 1.65740150752906 2.0484634833478 -2.79605018869622 2.41339807169696 2.80283999339292 -2.31607253650792 -2.64155458146764 -1.89535688039781 2.02698374320413 -2.85129061062825 -2.78257968955086 2.62389698198708 -2.37127002786407 2.43314882028538 2.84987472843447 1.88800091940417 -2.24713618812261 2.73961889333884 2.57221046206738 -2.13282024422941 -2.22432613354565 2.26332169673329 2.62773192006597 2.39767506027571 1.99343676128674 -3.75563227011447 2.37522699392098 2.80366407646276 -2.29392316945855 -2.69357373103137 2.53209850958697 -4.76336370421497 2.13351044405184 2.61943007644537 -2.07864492708199 2.6782180693341 2.65821555156235 -1.71456997787813 2.25290556777617 2.44970335476031 2.92533980974221 2.327489196473 2.22410457368161 2.48192684362979 -2.62037084662264 -2.63514017638369 2.85816226875907 2.76806436278229 -1.97635166706064 2.02990682176328 2.74819115482231 -2.49879323320546 2.87808951235684 -2.45150531014372 2.652281134392 2.16569309611156 2.0825044439361 -2.563796047319 -2.78873773624774 2.77217912073754 1.95492981919545 2.52670762212516 -3.34090428530932 2.33608475516256 -2.47599973819286 2.35214087191884 2.75318445137732 -2.40548612702304 -1.56420590723064 -2.21403710644362 3.45729177995736 2.64286051738343 -2.6281486409993 -2.70587024566815 2.67703913261526 2.21487167086511 2.81516868697404 2.76794325472536 2.20339667074429 1.99969756385028 -2.77233841851872 2.43463797219927 4.58677566724129 2.29474218988844 2.24668785881615 -2.70300983148849 -2.45239584249329 2.49804999773365 2.18939300827778 -3.55067508540901 2.19927992258146 -2.25201791738057 0 2.97145951207129
2.447900518891 2.48428860637801 -2.52678477324969 -2.61548343052887 -2.10544823526253 -2.4416378300497 -2.10545655538212 2.44610474566895 2.60668228534411 -2.27772781391389 -2.51765214550898 -2.97981273839067 -2.38158846493754 -2.66163476448035 2.54855379344496 2.77897919239045 -2.81326878188767 -1.94246887331148 -2.63661985002885 1.69351469231172 -1.99086233688719 -2.02949931204658 -3.25097074808632 -2.62892918002299 1.4514095372094 -2.67144072625728 2.32486956308006 -2.04937288332107 -2.82504005985964 1.86095585515919 2.69057461329406 2.84318997392637 2.16215538410911 -1.94019324988643 2.30325913751358 -1.79549811141928 2.28243724907842 2.29709370092967 1.91660662856415 2.02275318733919 2.34570823026603 -2.21392266595959 -2.49556792767283 -2.78379079102456 2.14187925235286 2.58836378126185 2.76137940467117 2.61319043604932 2.56284214111046 -2.60622307527314 -2.68281937263797 1.99717493378785 2.9108924495212 -3.33875151636105 2.90959597750643 -2.21880495843042 -2.80570766940784 -2.49399602486728 -2.49661040837253 2.52801481217176 2.73872313510005 -1.30037633076421 -2.42639733778308 -1.29317179104394 -2.75569710937062 2.640418337071 -1.27525287286937 2.45853657109785 -2.36953543000072 2.03244189500224 2.20682537184706 -2.92716045773974 -2.60166450843013 -1.98327630905021 2.51988715569023 1.92189539179742 2.17480802831361 -2.52335791086152 1.92222225715636 -2.02115518535119 -2.43341251801763 -2.29637762154424 -2.85493693812013 -2.77443376273882 2.76403309172654 2.51028437018548 2.23045608601675 -2.08741498264179 1.94051303844584 2.85804134565221 -2.26836252467245 2.66975436711474 1.87274799706113 -2.44378804367469 2.56200957423558 -2.00813107624544 -2.77398345174425 -2.19187487967609 2.6941115729213 -2.38284918191466 -2.72634607468452 -2.49305645729734 -3.42948962831931 2.35151191597675 -2.40953108932731 -2.0529583295298 -2.82811998544017 2.78766002260094 2.55684075652239 2.31488827134657 2.51381491969664 -2.16158869973002 -2.60803263904009 2.38499962854614 2.45361389647121 -2.82355385575517 2.79693111356256 -2.3113605978289 2.65225052201801 -2.05298248651602 -2.22433860016501 -3.06580506708806 2.41626175396961 2.47929584309045 2.16434450854761 -2.1451383252428 2.33354340451274 2.12111449584775 1.76846591103174 2.46384901327091 2.1116779293775 2.65714549146033 -2.0223633274811 -2.31258361644524 2.43752932666617 2.80635621010628 -2.57423102770966 2.30204753184723 2.33745786423292 -2.61681492243383 -2.03785642971353 2.02738404118919 3.13137527912764 -2.52890886188245 -2.00548302880625 2.98439695548825 2.33753092589388 2.35155567074236 -2.77634222124625 -3.2369187123319 2.5236468632393 2.60486435924966 2.83534590931804 2.87888020938095 2.62751706661941 2.82281631341004 -2.11950939180498 2.46098504694344 -3.46278150325489 2.71131905829617 -2.00120280303763 1.90183309737038 2.59242595371607 -2.25060007769104 2.49814072225477 2.26238010408714 -2.56918653581272 -2.26844916633646 3.14219518899343 -2.43060153428528 -1.87538144161644 2.44997359280281 2.68158310389689 -2.32588244694469 -2.59901256307326 -2.34608330625847 2.67961041989738 2.0359639873782 2.75634064323028 2.44086284580982 2.08362820362465 -2.77251637499151 -5.38947560974469 -2.18406203777997 -2.68398301403424 2.47203341708481 2.28817019569142 1.80175613830486 2.8585132987658 -2.10587340947974 1.97800367965645 -2.35605985936418 -2.6211608990045 2.62566629570333 -3.3743749127484 -2.07043759743161 2.29391816335341 2.15419687607864 2.81040905327965 -3.07772245971206 2.43223467628969 2.56031156665424 2.36553834041447 -2.25246623002917 2.25813234692393 -2.78020200027353 2.76834262306921 1.45938956388526 2.75131153096679 -2.52353839616472 2.85217589746836 2.66167695170228 -1.98302679239584 -2.39867218247303 -2.26650758632602 2.72422239658929 -2.01849349991982 -2.21475822660684 2.00985719330526 -2.58988468987333 3.2100233616253 2.72245272340316 2.83529096551231 -2.77818580074759 2.52414330919314 2.31435630374512 -2.65723902055252 -2.77578534737993 2.04688268602505 2.17203119152389 1.94210845544085 1.51242988963495 -2.46528355165542 2.43874561865558 1.8745280151619 -2.55003947666433 -2.89131400821367 2.36005241870264 -1.73146274598117 2.34634109605099 3.12224397441716 -2.60405188904104 2.36389825942107 2.88289300575939 -3.17557988613395 2.29546606733871 2.53954019317402 2.57785080310527 1.53178023338696 2.31870777072231 2.83837493951662 -2.2651405380796 -2.6807107401757 2.74755481848474 3.52111010870595 -2.1633391440119 2.37731305089856 2.91691108244495 -2.61408516895831 2.83612108869457 -2.04523055972098 2.57160685116626 2.42091371140453 2.27229276931964 -2.75690364176923 -2.30430960911347 2.42254929722577 2.26374469748043 2.50199411377606 -3.10482856381997 2.16659001368157 -2.753939049737 2.18644693047506 3.02993545478225 -2.19404237356162 -1.78257313830836 -2.44592572500073 2.9172937563064 2.78595383819703 -1.88646691717089 -2.09698469546267 2.30351170206594 2.19692536043411 2.63733775441071 2.23755739415474 2.32765430953791 2.65896518042601 -2.47846532013809 4.16451420502722 1.95356017819932 2.43180202400932 2.26409298750278 -2.55390165303086 -2.28911703042988 2.43956130152992 1.76322360768253 -1.98775846540867 2.82910255142191 -2.66580591211358 0 4.44086480843463
2.75494575469218 2.10344065265048 -3.07974436689377 -2.35017628302142 -2.88118692155193 -2.1729323970995 -2.57311179804422 2.42996317717655 2.30119596389211 -2.34757894655754 -3.51516776072461 -3.32965701242059 -2.16858463296523 -2.66744665401933 1.87999150469675 2.54037173245526 -2.17234938345087 -2.286228379588 -2.65148031576068 2.96966975011882 -1.75156632835804 -2.66223446959141 -2.86339191695778 -2.90759189069685 2.70949688002656 -2.09779160058652 1.97012881477942 -2.23069679946648 -2.8210578600422 2.35055244076079 2.92981052174573 2.35512940240522 2.23162188465509 -2.46908423917904 1.74229673617064 -2.84847970202669 2.79101777746732 2.06932410184978 1.84625172560944 2.80333902886788 2.03661515626208 -2.63281675847349 -1.99301083258425 -2.33272083782066 2.81233377174384 2.26175671875334 2.11979824788398 2.90636625246308 2.46554054385595 -2.62062576241384 -1.89719939416781 2.18176841637406 2.32777300083874 -3.27970977114791 2.30081272752524 -2.37826949876931 -2.14196694341151 -2.67791725523954 -2.82694966795195 2.38015367179499 2.46205554452609 0.809793582805203 -2.50571176110923 -1.75561029854144 -2.9092872519909 2.86831372161851 -4.34374447814697 2.06125915447083 -2.71479102986142 2.44726431735953 2.09846711890241 -3.11837179315204 -3.22018727125504 -2.43509826127734 2.50475067817093 2.01263990485144 2.1205648594213 -1.96020427545141 2.01296924740524 -2.43553222205913 -2.2904714917407 -2.68930093275939 -2.67292116109156 -2.87328993923842 2.59666507489379 3.2234469352804 3.80289711035682 -2.09233520695886 2.90157619605147 2.38927272005555 -2.01257033392257 2.70078253428607 2.00261542903461 -2.72945993877891 2.18623713473843 -2.04471314780865 -2.02893928817316 -2.58439402838779 2.67770191213408 -2.76722930549447 -2.63263358913269 -2.0561681384287 -1.14640009339924 2.63195984381238 -2.24220207059445 -1.92984955561559 -3.72021622347217 2.03456310210383 2.80953465387678 2.82998430151854 2.61665055976565 -2.20922723366296 -2.73172475845587 2.49809842617975 2.72243661511111 -3.0199698462344 2.31642980612087 -2.44856634882101 2.85852295968 -2.45448196400931 -2.75705127583455 -3.22438432554733 2.21978610930843 2.63594935911502 3.36139377246461 -2.44268611121711 2.73141855584657 2.67453647726111 1.78156199830898 1.31462126506646 1.55836789327148 2.77344297930033 -2.12778828114291 -2.8789586089711 1.14805273561276 2.63859971036664 -2.55751907590541 2.30982678628779 2.05526699358957 -2.4566892527255 -2.07203134085877 2.50236425108834 2.71972625019322 -2.84158372428756 -3.33585807300611 2.73497547387097 2.42850005078234 2.27270743551524 -2.65089749903329 -2.9418635233749 2.02655680421394 2.48334218568602 2.49005512270078 2.21954421944681 3.75435554997007 1.95761941849051 -2.528297555513 1.93763462819188 -2.12226175401369 2.01010653254287 -2.50267608675163 2.38749339355932 2.85644942120733 -2.2505777913602 2.18565783828173 2.70831414823037 -2.33124669253385 -3.20177850448158 3.10712080287424 -2.76404563384738 -1.94500429772292 2.91884386377658 1.9544832297413 -2.41969985534399 -1.63343782360114 -2.3623933860589 2.53678806321514 2.1063399454243 2.2704287638678 2.28469830407827 2.78594064708032 -2.63534144524121 -1.93376126749917 -2.29885051874011 -2.98514477053711 2.49419031588898 1.70635932671589 3.8628316226863 2.20739600345678 -2.67879750733727 2.12481925260969 -2.54830339142991 -2.82102332766641 2.15975109939994 -0.657974816996916 -2.51796255299816 2.53794338373992 2.27082305597651 2.89626634218881 -2.74841034200886 2.59675054081866 2.39903309919364 3.47849405950692 -2.80228859721323 2.75705097866652 -2.82475109441112 2.39111515850893 1.14584980842435 2.6045423287706 -2.4943197106514 2.70151727732322 2.21940542603956 -2.40868957655197 -2.07317070780411 -2.65740593679696 2.33407703801591 -2.89671926858067 -2.45565041940101 2.54417392268275 -1.97629691659813 3.36148134175807 2.61425976189771 2.7831380190489 -2.77171563966616 1.71443696301331 2.49701022823673 -2.08587114212989 -2.12256894044133 2.53921215752938 2.15421581545142 2.6922560860119 3.37865064077653 -2.77453611720411 2.56271266345565 2.58047391522555 -2.66947729954519 -2.80889053030278 2.27769301352615 -1.14376334753019 2.71028558339889 3.62312940469467 -2.54545097235951 2.38267221798755 2.80453403433913 -1.93400176485607 2.65576189931167 2.77364411111354 2.1027060206576 1.75006399841498 2.18837705758862 2.08065155188035 -2.82545724030092 -2.23186867900815 2.08769605807096 3.52716247736624 -2.02282748787395 2.56056555335669 2.48461907146486 -2.85089052665903 2.20485165934777 -2.68955348094547 2.56948024718853 2.74045309758472 2.3985475403329 -2.89973794450195 -1.70165110115655 2.07083776855008 2.80151123720723 1.74172791799162 -2.99887944072187 1.98106491047404 -2.59281823092393 2.01433082408135 2.90417431051032 -2.69385944104647 -1.4289063225708 -2.13914120483902 2.68295552784954 2.65040221956923 -2.80214580360931 -2.17065680403863 2.52909301684514 3.05126762091358 2.3238795561272 2.81279041094462 2.66713777036302 2.09471740640676 -2.74869143710113 1.93113967008658 1.91612351427357 2.59411515086025 3.0747852420668 -2.51485622064223 -2.63449871273785 2.59819884961155 0.640216275913948 -2.17525599091193 2.57182720285991 -2.63026310437776 0 7.21695776236334
2.67798784586521 2.83578045797731 -3.10710638786752 -2.83063529228039 -2.82990837185477 -2.18901915026 -2.89409305223982 1.97494147542214 2.07267551624648 -2.7832060211259 -2.7254040361117 -3.07622125650151 -2.77281719868455 -1.9376479782543 2.22059718626499 2.54947041107637 -1.9759860922494 -2.71673946688242 -2.51848415978959 2.63283109982693 -1.99791205344045 -2.84423124838287 -2.86251734608983 -2.64703349688599 1.79217001472555 -2.10869884122788 2.14763582508463 -2.08714508256157 -1.99385378586521 2.51065439273176 3.01739758693782 2.8714424768915 2.90406921923219 -2.65697685780834 1.99008924898188 -1.539111293745 2.96469074196051 2.68547712731078 1.67046101359135 1.82443060931187 2.67877163917938 -2.59873949313992 -2.0276742960906 -2.51602847372683 2.40276810327978 2.32833390735038 2.28518208466622 2.41006757678648 2.67968548795216 -2.60387105959384 -2.63473757706011 2.52166095200012 1.98820345495181 -3.23270439801722 3.50308219921649 -2.29557248417457 -2.14220615849371 -2.14085084985903 -2.14057952388923 2.29046682537142 2.32342337370147 -2.18718613975717 -2.86558607817229 -0.131315220712696 -3.11269886648505 2.28307195474669 -2.48750900719623 2.7792407931663 -2.34040660557883 2.64945000977335 1.93304868669659 -2.84044060528666 -2.49033248792937 -2.57399845891119 2.72312945153291 2.29095786682685 2.0236940363663 -2.19167387690207 2.79962971536623 -2.01528279510193 -2.31504872302223 -2.02309854387157 -2.76780504918323 -2.04718315831815 2.5674074407551 2.71988627861243 3.46059754463209 -2.57418479874353 2.51993778564315 2.61772473472238 -2.02864704485467 2.67837425009678 2.77052127331581 -2.02067595150768 2.70859809784688 -2.13030225406494 -2.73936795178607 -2.27361002940125 1.89258928995441 -2.78351018085929 -1.95883481189398 -2.43849437371299 -1.99080741106429 2.68125382720294 -2.02082136493085 -3.52683086716891 -3.1501052189728 2.52933140712834 2.73915344160542 1.8220208792188 2.88255320676984 -2.78633135188734 -2.02274416065998 2.75658047492199 2.7492745821627 -2.72317961004723 2.88264996056184 -2.54854327091953 2.42573144713526 -2.93472255384209 -2.47307624491473 -2.88018641509794 2.22871636932465 2.83584615044477 2.28496605803587 -2.47195190571152 1.97541082541944 2.84631848061244 1.93858856108668 1.61924417301236 2.12732630757581 2.33578973418654 -1.76714318522745 -2.16618806616209 3.664591832562 2.02458321844136 -2.86501280940008 2.1911236880072 2.59986374379053 -2.38108569865995 -2.45173603536644 2.14182064982386 2.45724202101894 -2.64851582386335 -3.03528450164596 2.74265770681553 2.55941211883516 2.00720263839014 -2.8774141403738 -2.78383988722328 2.70978398709654 2.72332021603722 1.98526227191222 2.83988068074221 2.78246477737115 2.84825590020844 -2.82959009352648 3.09728856081224 -2.51298707576657 2.43791720840494 -1.60051403303448 2.77788558047139 2.05154570301075 -2.43846623802948 2.72668116476331 2.76927021805833 -2.44691889213982 -2.76399055157324 2.90549987993296 -2.1652634129781 -2.40671057535764 2.63311080023848 2.20170932330985 -2.78521261477684 -1.90653640118995 -2.60214250893408 2.17627369387564 2.69896125335606 2.64772808457067 2.12025351275514 2.51263458308636 -2.83758528844563 -1.06415301729862 -2.50922078949565 -2.6028382245296 2.38441496926822 2.14873242631119 2.05140311502802 2.42503200163698 -2.88417262985151 2.79552347063729 -2.80476206939638 -2.76929233019854 2.37790966941967 -1.75201772115538 -2.2676397624446 1.93980054582966 1.97510132616371 2.64454850364892 -2.87890673491359 2.15274661412781 2.55503497487397 2.51640516153238 -2.6928976825598 2.59314341001206 -1.97829638323146 2.55555998539438 2.08152412800325 2.29971607676101 -2.5176198983191 2.45475052073274 2.24520386888522 -2.74826177502244 -2.93516600126217 -1.9691992309271 2.74757939058126 -2.00897884871759 -2.18953035648033 2.86292187673896 -2.58835618482917 3.0499040343102 2.60584725242759 2.79927213761706 -2.0281786394966 3.35896606637499 2.27764002163855 -2.36647722026393 -2.08520469613652 2.39538764919663 2.8831470389895 2.12058821866227 2.04507017146766 -2.74806033258246 2.33297347811176 2.59033407752201 -2.08005097793235 -2.69806305546832 2.66082107457312 -1.79173691594033 2.53808164319998 3.09824895769973 -2.57948643350125 2.23690484986965 2.78981486334294 -1.89823682253922 2.560067813179 2.83135288579577 1.97957059609437 1.86684971601627 2.63931159303422 2.63094431891009 -2.62268550570253 -2.74736783369333 2.53216319512826 3.42925987712688 -2.26470486998853 2.62993076300174 3.14361710772271 -2.46826137961495 2.27416606341393 -2.50626792380789 2.65174158938878 1.94053927906063 2.00824044646875 -2.87201195032877 -3.15108113120584 2.11725281270798 2.35682262517345 2.58826750048933 -3.14344266242365 2.7644951439191 -2.57239982965796 1.97229333700506 2.97940861547401 -2.46521961496298 -1.88732295865459 -2.3594188252528 2.92260463949947 2.20482613146785 -2.85803523944175 -2.4984190696893 2.38504070631293 1.85547705285309 2.71704668037791 2.18399281755598 2.83851795831208 2.13565938305957 -2.39207530924676 2.01918695518748 1.65719934990699 1.98982353168542 2.59147856925804 -2.72014543587907 -2.52230514005163 2.13335953796277 1.437263820611 -2.82152036999655 2.87858485051886 -2.28101152062111 0 7.28995883539809
