2.09474201875162 3.19618466790466 -2.96013003185499 -2.54029886396433 -1.97479861098665 -2.9497363510749 -2.38841945587859 2.69110057375702 2.79443840207912 -2.17307686028005 -2.13050266611037 -2.80427851782212 -2.22274757593888 -2.00962822322304 3.49007155863642 3.19701174243893 -2.52114515670077 -3.52554666372076 -2.83534903456261 2.01465479137886 -2.47348444853888 -2.51924655585651 -3.1934470225505 -2.69036329764799 2.40564460769237 -2.43940013293084 2.08477445767165 -2.39987502381123 -2.31750809988027 2.2702171595677 2.95987108305613 2.46289356415959 2.49138278121207 -2.11508037501405 2.60894287391688 -1.72616361860242 2.52793323380501 2.58176492776927 2.03917195771326 1.9683334797214 2.17319866686381 -1.90242283503317 -2.64240113086767 -2.64491141638212 2.22775411023688 2.76065192258897 2.39973640767552 2.44133098902324 2.29587185261156 -2.31836530760594 -2.48260939185514 2.5071694157267 2.47632068212087 -2.87165676286201 1.3628256196818 -2.0879852718731 -2.05110278687526 -2.83053315442995 -2.14706462477015 2.42976173808537 2.83197454631886 -0.23616367876617 -2.67083243115495 -1.60880282550645 -2.64106130934859 2.87503469132188 -2.17061774323962 2.62863557703567 -1.91588506789137 2.69261016641692 2.9533154332315 -2.52860790805516 -3.20499153731766 -2.8907003193354 2.23807412453886 2.33377648738219 1.95523490858374 -2.0887944994864 2.64783032556289 -2.14479397358499 -1.95062190971532 -1.96619230042185 -2.46329302141554 -2.62250286244841 2.52655915847581 2.71872106703236 2.49559671555239 -2.58954525565285 2.75448925145746 2.06892840228164 -2.88329505850872 2.74852245784497 2.59582800650481 -2.55864045669042 2.36561530164873 -1.85457772394332 -2.20075556238829 -1.93495806006222 2.40619334012393 -2.60176801356281 -2.58797294734489 -2.10164180944901 -2.22013148738855 2.07620275927522 -2.48513310362286 -1.91631302412224 -2.88209921601844 2.57507156419275 2.66413596625463 2.32494978141221 2.9567618490063 -2.7702499697079 -2.62965160124868 2.86843239731025 2.56690278106096 -2.93418217688865 2.47065840784821 -1.90986478441139 2.80060134164264 -2.53583463356707 -2.66533941317283 -2.58598313392111 1.92739317229574 2.7117043417394 2.0880961092478 -2.82958647566442 2.47383349884561 2.11616650080864 1.73919228575137 2.20655835138275 1.97332076354657 2.13739032428711 -2.00982440346561 -2.35649972517085 1.66221743302439 2.03754601429062 -2.31785637535752 1.96316708371979 2.50572122689143 -2.20214119457146 -3.87490258906854 1.92714598482466 2.18208520025322 -3.34611386769764 -2.3672186915501 2.96508241613821 2.31349409266796 2.82404861024134 -2.26911769227807 -2.44209741199436 2.51777437492919 2.8943775285608 1.97094218517684 2.14726790373668 1.7023888042495 2.73629654522266 -2.39792448158026 2.31470715805851 -2.14906871004432 2.19548455494212 -4.58307931827054 2.60934070493426 2.12720922414729 -2.20334693669451 2.13824531502426 2.51065162474313 -1.96348863176343 -2.08555371434795 2.80442617282741 -2.27869152633274 -2.38110684556636 2.45669060678408 2.00301498573484 -2.49795300157463 -4.17066172792887 -2.66509091162026 1.97532750161825 2.69664712095105 1.75704813552077 2.58884262855104 2.32152491367504 -2.15005769099053 -1.8789758948003 -3.24054046131432 -2.49198496143758 2.70901267207526 1.7254900139916 2.61738134860417 2.63408871128728 -2.27710129946241 2.19175085234603 -2.8306365722805 -2.4738536570556 2.41686846916886 -2.26312707492419 -2.39247699279346 2.63151691807128 2.49228455008202 1.92090320967457 -3.12556462719394 2.01746120335515 2.7322193393908 2.16255795414121 -2.8022202859324 3.0009016352494 -2.83603867342895 2.53701922141941 2.25365492934933 2.04669943158419 -1.97012506827005 2.90748389199993 2.74097636249264 -2.66971078516772 -2.06958433852231 -2.00808943833915 2.20205143176705 -2.6643023772585 -2.75437369819711 2.11302975859425 -2.41363052562174 2.52699875267217 2.74085587078002 2.21711822948241 -2.04815887324432 2.41882068556103 2.39215944184706 -2.76535894016545 -2.57220079451021 2.48057106303409 2.49045299724495 2.30418145871208 1.86859134024916 -2.15930682067393 2.0676178512379 2.55548230332587 -2.34854986218255 -2.87600215215401 2.35136782784335 -2.44611871825925 2.69066097786664 2.45662527286092 -2.69187135878178 2.9260119310184 2.71938648337998 -1.91121402199703 2.69431500470819 2.68757894738309 2.45782824008212 2.25701150715503 2.23737255741361 1.94016430720146 -2.20240532964056 -2.41498601540672 2.66166190145255 2.64189405297068 -2.55173768000605 2.56296034882262 2.81392901829104 -1.95876785735642 2.38967062199978 -1.96428753030826 1.90305636944436 2.37370556074157 2.1906808442021 -2.5199956055493 -4.06222180717821 1.94177206751765 1.75605903087535 2.05254165808423 -3.23013910444837 1.85967373829697 -2.45873176883056 2.75694410326327 2.73218930153895 -2.66871026275671 -1.75957952988242 -4.52889012940336 2.89537288541702 2.81932871514684 -2.38411479517388 -2.27777908866621 2.43614645571374 2.4907661164965 2.19339652824775 2.21669280045943 2.66406253354551 2.76564822713528 -2.69142915001799 1.89990521392765 2.79258748361786 2.73460566101604 2.0574995608558 -2.27325112950173 -2.13309916696199 2.46194805464257 2.46752021556642 -2.73630473056727 2.17633948938104 -2.71400014009466 0 2.16116442544997
2.47664216124274 2.61053578783814 -2.51973901239563 -2.79080584348752 -2.58721689972649 -2.23046750731229 -2.05385244963112 2.80448524092374 2.64982773117769 -1.96307625224572 -2.43191329815663 -3.11703265594347 -2.19265421722423 -2.46440180065807 2.62631374474197 2.75576556249356 -2.71520268061771 -1.99633019765727 -2.57596509040314 2.46150645369822 -2.74418408715573 -1.92771618256122 -2.32034439498828 -3.65858913887772 1.65628034733568 -2.31656708371316 2.04419632622584 -2.74903651029328 -2.89475995629735 2.24594136178962 3.00207210724927 2.6958303554812 2.42341715550652 -2.68537830557251 2.79871640782862 -1.86918842522447 1.97256849634769 2.62029074573773 2.16485630919191 2.90808889876099 2.73220284983517 -2.65538759085514 -2.57739042548812 -2.27807779101476 2.45216229964467 2.82197147949676 2.78423490039056 2.0518573928735 2.89840823617545 -2.53009319446108 -2.79978046627216 2.07880622800272 1.88869429614901 -3.51544692769178 1.17050448086052 -2.39831240012142 -2.83280200801565 -2.86363326580314 -2.16117172305026 2.80277054649418 2.26669993892314 0.200882327097396 -1.99824973371359 -1.35660894790036 -2.45973166173011 2.17458592753951 -2.23936762146698 2.27832328419661 -2.47034127222626 2.81095081814377 2.13799362953292 -2.66842709017019 -2.76033142223437 -2.44379942248353 2.69083974038808 1.83733490184909 2.30177605834993 -2.80767897581588 2.82915909402456 -2.23670027384829 -2.4014366186158 -2.79135213680267 -2.65212928596218 -2.11629249272106 2.60771380923633 2.86561814455654 2.3846266785263 -2.79267029193912 2.6874091608821 2.28458555162291 -2.02416710368014 1.94764965276392 2.89975665285899 -2.85674635128864 2.33362497176315 -4.00984496010344 -2.69134235992114 -2.44875525576075 2.69453855018852 -2.63868025425176 -2.51935251123925 -2.36449147240384 -4.45647425700436 2.7501525417155 -2.10211648297535 -1.92470634814468 -3.00480890344196 2.45066558255095 2.46827185964493 2.14034904427493 3.0942907272915 -1.92301564829426 -2.83064634864537 1.92220575110305 2.58880225024796 -2.92212570348082 2.35407126997753 -2.76685127945675 1.95994358916602 -2.80188609971316 -2.4440925206637 -3.01802746706654 2.60501969688365 1.9869279022431 1.94135113556302 -2.56621322522911 2.23232132999461 2.81559514661802 1.5139897402169 4.53933224804105 1.48125953340501 2.10623968948768 -2.83942652003742 -2.18870083512841 1.77411086535482 2.00236115191737 -2.55754091985306 2.24200679064421 1.80455272968339 -2.6744344203295 -2.35622679439981 2.18199843859876 2.21265129703029 -2.49879361466061 -2.32580361030808 3.17247631227571 2.6009697605552 2.86393433055116 -2.26365585536773 -2.97097183510809 2.46059618118129 2.32126165898319 2.29467027033089 2.73094505394205 3.21220626706878 2.84998469212114 -2.25555517985405 2.46388723977532 -1.95295528377471 2.33899744584283 -2.26471254159165 2.16897273628253 2.38335662254602 -2.15246659232803 2.07818979821186 2.6222163139983 -2.15501896708018 -2.57801014495976 2.96618727690701 -2.61480839177873 -2.89641653293039 2.09444565131944 1.96959938700208 -1.89762229323786 -2.07761778301396 -2.71350498047986 3.13327990735437 2.08021433428388 2.44509241953346 2.04568792417238 2.23061034089486 -2.48446732683432 -2.18958035579398 -2.05575676781686 -2.97652345656119 2.99637105028776 3.81538739587515 1.98482970584153 2.76311832779063 -2.49941536222872 2.23497491772113 -2.22912398649259 -2.41437680248299 2.43402694123885 -1.73129804082519 -2.59910424564023 2.61308067745587 2.65638613263824 2.17985549344679 -2.43469793916989 2.0958681134257 2.41682873868276 2.15471909908907 -2.56263935552082 1.9998587022987 -2.48824558655826 1.9109978400292 1.30298522020143 2.2788776911032 -2.24835609654675 2.07951571684876 2.431875536775 -2.90286227673208 -2.19506391800595 -2.70342149696756 2.78029053177908 -2.9061818922366 -2.53367871626311 2.47813524016959 -2.44302665638699 3.17551964160911 2.23120849328426 2.28562805563694 -2.54620023622125 2.48201043774593 2.20953712459227 -2.19961876330551 -2.38043537514971 1.96149788897285 2.0749186404274 2.28324607428135 1.8013480335584 -2.13175560458916 2.78533000632097 2.8132297292835 -2.2172549168782 -2.99436660668632 2.7915865232986 -1.38575627106812 2.78473093203612 3.17736575438575 -2.60437859044236 2.23443377922222 2.90204868972814 -1.98280632502913 2.62894348569374 2.58123670179055 2.61167692567951 2.00749042540537 2.82527547071395 1.94570119536182 -2.6347022075065 -2.6863064099567 1.95174059001407 2.96886152772667 -2.03734970036463 2.07748706398788 3.06014641369732 -2.4713228801299 2.68304193097949 -2.19266525086132 2.34055730962314 2.07557112381355 2.02801487582259 -2.62742208991507 -1.87448959209472 2.5475312475299 1.90745498650462 2.43195184276035 -3.28287087420358 2.5309327620736 -2.88288992861746 2.53898382002916 2.66293217375496 -2.4361048829173 -2.1524255148368 -2.32169927741811 3.0177774300031 2.87216181730264 -2.7806090920945 -2.27534015327947 2.85894453478511 1.81599253054794 2.03040983536606 2.75649882560713 2.02665272830346 2.74701073978681 -1.89010446985458 2.41303748082765 1.72893534111598 2.33385399694095 1.95680296960263 -2.39050761437203 -2.73148900942764 1.96810281802709 2.15019851352884 -2.03761677648194 2.68514639086273 -2.82584041660522 0 2.20994518244562
2.11121652534472 3.11295695380211 -3.21889109530201 -2.0886855338613 -2.65252553955912 -2.8745957509856 -2.23172436821669 2.2729313872168 2.62113411172668 -2.3967430250465 -2.10640911608818 -3.08020890247564 -1.9463856727972 -2.71341865434928 2.14124561360083 3.02147646280586 -2.40503639348479 -2.2553111544735 -2.71504854254159 1.60397888258775 -2.99281404401685 -2.12724501610698 -3.70840092371637 -2.51333479550852 1.42249650537245 -2.24161239322956 2.28610384736327 -2.35297614747887 -2.16584425859897 3.38808471705572 3.02734874655298 2.40561132986468 2.08504805465796 -2.30663330871256 2.55730190509618 -3.23285768627701 2.99090040929274 2.17936883954715 5.2040040291833 2.59043331825272 2.33712620779443 -2.25685341965389 -2.74675391097504 -2.09502796516324 2.55682898852117 2.11374645808198 2.30231265274238 2.14629098139625 2.82718624912168 -2.34406010611953 -2.64815352301932 2.45766738429477 2.20128025572313 -2.80200893084853 1.38321864657247 -2.57033469755519 -2.25238978347346 -2.45401300247909 -1.98432284966964 2.57400623673565 2.4813782291789 -0.938442512627393 -2.23727500944589 -2.72720529290148 -2.61864600677712 2.81526023094002 -2.51143361678856 2.19088584658792 -2.50197595526786 1.87861862360847 2.47311978087135 -3.25316950435634 -1.87967838729701 -2.18735450699989 2.4051656496438 1.97747369788708 2.40286507084445 -2.67922775635337 2.8410638731444 -2.20999195062987 -2.44541865450105 -2.50476053149523 -2.35906378597892 -2.46354087265809 2.38644868574249 2.18929976063513 2.03408583046665 -2.64361364413689 2.09022623756473 2.36529809969681 -2.38547842028783 2.45245014661192 2.01884051513094 -2.72341688592242 2.86467407070819 -2.62149769913634 -2.03419095220222 -2.66169767434383 2.10747790856431 -2.18222299438136 -2.38642970975351 -2.13386911920825 -1.74885349962756 2.65572831477543 -2.40092196315305 -2.39623931241599 -3.24922573089259 2.54604514140319 2.0456679088086 2.57032026109047 2.86857298412061 -2.58754663981764 -2.43668535642052 2.07488815776499 2.43792721074261 -2.94906169864232 2.51910727192638 -2.60819099853909 2.16561966314678 -2.4965914937896 -2.05132360648156 -2.63073550502093 2.12386802583351 2.76372870542023 2.17246596904205 -2.57328309972558 2.57765711631375 2.15570224612204 2.98714457874938 1.82714880841275 1.76553798245945 2.39322304267052 -2.44448620560116 -2.4740975904889 1.65437163831402 2.39339722054973 -2.41143947445989 2.45051916686235 2.51729144615134 -2.25503097278529 -2.62036548311236 2.28500643683302 2.85365800472125 -2.59517988954886 -1.91480309236148 2.4739744252426 1.87839142593812 2.08338576890811 -2.11987868590696 -2.55159154290637 2.50702947909087 2.83254313678164 2.79318798884593 2.73924207241446 3.14983149905685 2.58204330635013 -2.38140487249576 3.10968762082005 -2.42275504951299 2.18216561784062 -3.23548234406813 2.66387891699971 2.89380582821134 -2.04078692576381 2.02115438920256 2.66509949022668 -2.54945129705167 -3.0300292372129 3.42689134189275 -2.01098932999292 -1.98347965719048 2.00011374266717 2.24889274781061 -2.1344788342805 -2.38217127180261 -2.41272510919416 2.57499386760342 2.83189964130258 2.20753591274325 1.81588840627832 2.01674968019275 -2.35171012756513 -2.19331159876921 -2.25387489952033 -2.51611698727416 2.82604795092589 2.3056807718365 2.28911319341006 3.21703060646677 -2.31608075753274 2.80580139966954 -2.39936601654724 -2.81907918873936 2.56080504410264 -4.60805456394145 -2.68541139693074 2.20495033780348 1.95346028865354 2.84131906111214 -3.28970133329225 1.69082891889392 1.81858145581531 2.68413302008713 -1.97789430410294 2.586746245486 -2.37318728270245 2.12546155839575 1.38990648735491 2.29667418496345 -2.37956500630817 3.33081936969174 2.51035791423756 -2.08642321900235 -2.54457315058501 -2.68486075468761 2.59313965961285 -2.55789292231151 -2.20337338203415 1.98071929498925 -2.57705558557205 3.19734661316421 2.00339526801693 2.44838822739109 -2.49310876090399 2.15001149574847 2.30721878646091 -2.89890863935983 -2.14436280116008 2.22362374013189 2.14774843521813 2.0034453513182 1.97452594124773 -1.76409877409913 2.70838276674301 1.88502923304138 -2.81106539952952 -2.96077980178526 2.54896723843774 -2.09254599729851 2.25256724479029 3.22756912816032 -2.64269393661735 3.01206857017803 2.40837100923783 -2.34840615767597 2.05883155956949 2.52848782644565 2.61465914864067 2.20211488371079 2.39374801359409 2.36563853887841 -2.37770975288661 -2.88457818931688 2.56848808918878 2.57363732720149 -2.78773013356972 2.14990578234872 3.08320536741196 -1.9900312281908 2.2420194352033 -2.3911444045071 2.41555503473877 3.572308283352 1.98125062358702 -2.96013233223955 -1.47177135736365 2.60491305928024 2.76307568518367 2.17731626965794 -3.42857434117571 2.2493162297882 -2.43923800405721 2.37259993196108 3.04333945104056 -2.23984245597054 -2.55024154041786 -2.69573220983996 3.18200170328832 2.55337711114239 -2.21580476367363 -2.1958108231841 2.12509433360993 1.76395378475752 2.6327488556695 2.33772774679305 2.43150551423706 2.4485683625365 -2.52284441764113 3.24514418100763 1.89477219734742 2.51545107969086 2.27284377637251 -2.20498529304593 -2.71887691968481 2.65843612125724 1.49672349432666 -2.44548904138319 2.39037390314992 -2.281873522243 0 4.71925270349261
2.45699135436076 2.33892985853453 -2.96689353374257 -2.45716524660152 -2.86893053207245 -2.59921027999201 -2.85734263828477 2.06411928749546 2.03255695203641 -1.93253146860352 -2.3349292835367 -3.11803685754099 -2.69107379323057 -2.49089184048109 2.21618302009814 2.77332982588081 -2.26717290535983 -2.4209216039369 -2.48498242111603 2.03061238049166 -2.22028177418311 -2.43650866173264 -2.87299302409812 -2.35024699467364 1.14700852123292 -2.52294634911494 2.87708040533112 -2.44739923023068 -2.79611016271608 2.18810143967408 2.47889768845726 2.66623873474015 1.91542078718731 -2.61396370172797 1.91289478318368 -2.28231060406616 2.69146185229703 2.43535801997477 2.80273606355203 1.75902874097467 2.38414017915017 -2.38359237400802 -2.80547346862676 -2.35664564392425 2.29884165628554 2.44050543449509 2.13051295678193 2.42286809529807 2.58173656422448 -2.25785696199533 -2.38629033030425 2.8115765222677 3.20885326967736 -3.23960554646054 3.18450071719804 -2.81287407574794 -2.65382461173113 -2.53143789320182 -2.79973883794873 2.77589976257623 2.0110713802897 0.436915162925188 -2.8450196614256 -1.32555673029777 -2.88951839509985 2.76779846544413 -2.05795548114497 2.75176627964566 -2.68881888454841 2.4903517804919 2.1466618017485 -2.64074628774193 -2.90973707492693 -2.46702759737605 2.18045264079197 1.62484050775092 2.44919871627909 -2.78112812338661 2.65650187901414 -2.32664262881763 -2.78306656457078 -2.31010739354118 -2.84486820497712 -2.24092250587109 3.09461341167829 2.71651781402579 1.89602322935178 -2.69272921934379 2.31479483145896 2.89652173118135 -1.99767095024232 2.24591972896295 2.18545573325891 -2.02475325338982 2.08773444597042 -0.827570978819301 -2.37890122994753 -2.45353188089307 2.16995746016382 -2.57216538954139 -2.7160286545177 -2.68375832021425 -1.98234823918066 2.54101171101052 -2.005536917402 -2.38650974714134 -3.14453547595326 2.17478381179182 2.56627103019028 2.58874233675697 2.89410731437477 -2.89275552852787 -2.32676629380527 2.36975768104567 2.5580840630633 -2.92142087236989 2.46695089216647 -2.36306086333544 2.54788566990032 -2.0360721885896 -2.07331630347367 -2.98421068390373 2.44446477798972 2.15649180222014 2.92139490234482 -2.61344692789999 2.43032619790722 2.53238965403936 2.89026928930938 1.55602324647832 4.39365744578254 3.0527004154407 -1.64011236781611 -2.61948638397415 1.77839371073742 2.85483658384543 -2.48320592717449 2.18593481463721 2.59759563690008 -2.33634486994412 -2.5671451156448 2.56024471383614 2.43913623252344 -2.81264151566409 -3.39962721497674 2.89680745023614 2.62977589010071 2.85491295810704 -2.73875058928715 -2.75282377767923 2.19131709624822 2.05443645714371 2.68760341049922 2.33944435050686 3.58850202052291 2.45602475062378 -2.29822658984181 2.69791684049876 -1.70838773954833 2.51231502853647 -1.8421240221471 2.60667044443442 1.99928073863464 -2.82836638759049 1.93507376119459 2.36610835534773 -2.67636748703449 -2.42928253397249 2.57791459512007 -2.18044162707604 -2.64031850722705 2.24217412857277 2.54577687393408 -2.68427593522869 -1.79024046016211 -2.72589504793496 3.39183573711055 2.77079995669661 2.21351749490009 2.60405830599616 2.34011466535025 -2.32006059818737 -2.02339781890368 -2.70167974020238 -2.72255790676415 2.63647667662812 1.50882729190936 1.22034523313815 3.22137928049686 -1.99562476051076 2.15866512539583 -2.49224679857721 -2.60717200597501 1.9757763528291 -2.16401463441909 -2.55635862594979 2.42528074996434 2.28748265702003 2.24666891345613 -3.59268139584872 2.64194557069693 2.34128794553473 2.7123316890411 -2.54955729197009 2.26013788308412 -1.94501502126123 2.33748311626659 2.97371902495339 2.66473304989714 -2.20020072780283 2.55660869286938 2.57935937617888 -2.00573113800696 -2.71410960098435 -2.63152258092092 2.14347090656503 -2.67680262816566 -2.76151757978655 2.82308248635881 -1.98982121351069 2.96177848244366 2.5903080682497 2.48127507510471 -2.72265477149703 1.88441325707901 2.67727322240918 -2.80823630597544 -2.30497483869086 2.27675248980584 2.26922542541565 2.43192183049462 2.97918870279373 -2.33920882766896 2.66265838700483 2.00632708726745 -1.9754286529454 -2.88471853448774 2.03554510280143 -1.25038298209943 2.33959449156674 3.36683385185707 -2.63450523885379 2.49288709972897 2.7424834998334 -3.16187960865904 2.43000021635279 2.39793442341816 1.99158704304173 3.01328353436274 2.29666334506855 1.86332293975623 -2.72191308123112 -2.20484101137757 2.43799420370508 2.99260180088625 -1.86489104108359 2.81304902716899 3.18630366424573 -2.89591534755235 2.49747022599009 -1.99358927410175 2.70929474073455 1.6503638168633 2.75162854091549 -3.09310961254889 -2.32553887067331 2.00034595364238 2.05043166908992 1.93240910134611 -3.85776385303358 2.4342068683468 -2.95133861277349 2.09440837661515 3.10691935796497 -1.93687426766809 -3.70709459013222 -2.15380473071229 2.57586783721556 2.7715534739247 -2.2356719799168 -2.6556226949022 2.81684568409338 2.69059449364353 2.85169803391568 2.16670784740092 2.23273613679151 2.42421938334533 -2.77635183441114 1.55836318990387 1.93100824549885 1.9577574448039 3.4971266930812 -2.90705567127312 -2.1762504534629 2.18514849138599 0.980452313787765 -1.8482640128383 2.19469715550538 -1.89836948790915 0 6.1213520102552
2.55015161959089 2.22948000935341 -3.42763638119006 -2.60356692614538 -2.18091561240254 -2.71742595879527 -1.9666985062766 2.89141360558505 2.6789040739683 -2.10381764435527 -2.69644394004052 -3.34593882749864 -1.93086496413289 -2.5983466046153 2.16345031627028 3.08950650649817 -2.69540077327117 -2.5020425133155 -2.60207395618693 2.17305587437703 -2.08145223368612 -2.8673973297342 -3.17257609340346 -2.46581312994978 1.77426671674983 -2.05094001160941 2.75515427155129 -2.42752645040933 -2.50496721987809 2.21110461342357 3.05181435546167 2.72300031723314 2.64092723735122 -1.99370446845551 1.71500972247602 -1.76860399565907 3.39785818402837 2.21753803417737 1.15675900246843 1.84261434506124 2.31363805107054 -2.19366392726945 -2.61321334191605 -2.47645923906085 2.13329787630808 2.83302559375934 2.61806859327058 2.71913161801914 2.58548326546126 -2.39710538439551 -1.99488323240573 2.40946325457802 2.07994364816937 -3.70278647312429 0.839639787967784 -2.47040608652944 -2.31797394084426 -2.80454770383546 -2.73728368186739 2.82397818978884 2.03459024863151 -2.19435624075094 -2.46641750684022 -3.99896866794923 -2.81164240984399 2.10857438882302 -2.50065351934922 1.97616549055995 -2.62150194450404 2.26776410688901 1.87657999373276 -2.75186572831533 -3.29631645550887 -2.11157416364558 2.13759928186148 1.76497742748912 2.56945822514198 -2.59771097956855 2.67768668444112 -2.56016635645714 -2.66864093753242 -2.84006296899438 -2.72229820285633 -2.78048220827612 2.63663951526929 2.72085999492357 2.90528016594675 -2.5314386567773 2.74733017469386 2.4264655431644 -2.53154998633494 2.68578609663897 2.09243683493435 -2.63312683842004 2.10641606432903 -1.68042847263614 -2.71884734811617 -2.69145166569147 2.19509991897325 -2.91142037969798 -2.46416072398989 -2.17489103563471 -2.21727557020975 1.85810414764399 -2.76422895444974 -3.3664388456852 -3.34985124946946 2.32381937611214 2.0248803378529 2.00909170202855 2.85523275058316 -2.67634961067185 -2.63454657559943 2.66116707466124 2.68958526561447 -1.96522839075919 2.26285790191445 -2.36826168061106 2.18098556521437 -2.11695259703863 -2.37845181070786 -3.39866798589188 2.2042622662522 2.81427208232984 2.42251071120921 -2.47777771093813 2.61514649133724 2.79632445222259 1.89853310238365 2.75063926559861 2.2070235161981 2.37795045176191 -1.40694173618251 -2.20152190672324 3.98531149079331 2.32038616347134 -2.23668920617827 2.11129209205651 2.64529510798731 -2.19377731400109 -2.14738732784238 2.15349060182489 2.25082552792411 -2.27148724136036 -2.64898885683224 2.40653755677115 2.18608467589805 2.23258792937161 -2.3965348523719 -2.85017997238756 2.5856499267564 2.91256805564516 1.99264499917614 2.33276223497799 2.52295221861317 2.37333063058046 -2.55647030508524 2.90540988823307 -2.49452059907877 2.65528693231068 -2.633516859434 2.38818671367052 2.63438713912166 -2.23013839061504 2.57675045924944 2.24991109708161 -2.62026732832713 -2.06882360366394 2.90956709411323 -2.58340686665591 -2.6660517732778 2.07952028742757 2.29549103488086 -2.43507747899693 -2.17171237662234 -2.50337851392416 2.87213549442895 2.49969209013675 2.37218066975158 2.83992711339017 1.96751484547565 -2.4464945739908 -1.63261458892421 -2.70946667337188 -2.7106266285857 2.75755315151492 1.85163496670666 2.42635153830941 1.84282115425245 -2.45973382756666 3.01896390096835 -2.85417596450655 -2.79294371858921 2.16158641647341 -1.87878289039912 -2.50526092033603 2.36462262032967 2.52688287291291 2.25187683261822 -2.88783419479831 2.89043369598137 2.64343821173534 2.54159297855258 -2.76597043219382 2.86507829244108 -2.4649890533565 2.45892535638079 1.51694450073613 2.15523563710482 -2.80855773941748 2.67565247730948 2.82138330992022 -2.50102457317587 -2.76473095989509 -2.17232516055004 2.65236883098686 -2.88614830923316 -2.63664501952728 1.97280292833455 -2.39703372431609 2.89741034902331 2.52619882744595 2.15498369264825 -2.52979388324703 1.70971843349535 2.12498428946183 -2.91536260503836 -2.78501012527639 2.87701721247119 2.63263294099974 2.80924104951615 1.37906128095974 -2.94468633541396 2.70699971523967 2.84891101407094 -2.69863489903101 -3.52920537581194 2.08456768245403 -1.50262361839915 2.34979944514178 3.10705353472194 -2.17211859481553 2.56375592126799 2.70942847781297 -1.71172920249905 1.93866375259102 2.57873121185034 2.71432111610413 2.10838053607916 2.65651240205314 2.42817827281833 -2.64079003439124 -2.38147703555711 2.81501484548889 3.39289380947182 -2.68928558575826 2.12265470248567 2.66015398315933 -2.26367110008261 2.69472608122646 -2.49125567543889 2.25998027558685 2.16705115235012 2.59261433038264 -2.55704964747116 -2.48608764379976 2.52147046762381 2.5117813136012 2.83763103912054 -2.6993314712411 2.49790224180106 -2.15990858785321 2.60410078275208 2.85530417912484 -2.69105498574931 -1.65634515212924 -2.33267625621524 3.35257060926483 2.49226849677767 -2.54674118410696 -2.3896771429586 2.03651944307539 2.05571840134162 2.12807519681383 2.21389183863573 2.48543869229613 2.51866351360831 -2.46968044456979 1.89480655399215 0.991496059091551 2.66356978871536 1.93724589068138 -2.36517358413912 -2.07818520469717 2.64959826293096 1.35680336126911 -2.48553565627902 2.76647244927032 -2.77271073508986 0 5.90055460311521
2.39054777159335 2.73413892979352 -2.9835592451949 -2.37053896868003 -2.82312926904497 -2.31733143832764 -2.27789889921686 2.67271942740419 2.83722724978513 -2.42361011680514 -2.87347107090126 -3.07504912066154 -2.44264505458145 -2.63584290868249 1.47526369259938 2.42164457336074 -2.1931456953093 -2.15047726202638 -2.68918347677857 1.62272548331797 -1.86980822318969 -2.78616648896004 -2.82054119339662 -2.32720391077967 3.4656227054405 -2.29067560163168 2.26245734369192 -2.09536495918057 -2.86654664311353 1.74232334943292 2.81505762249849 2.2145111585094 2.72654961699923 -2.75854343766023 2.6000816885381 -2.33136605067254 2.41937220443591 2.72182771496744 1.79557668857701 2.15431568729773 2.80304991115172 -1.9525132498116 -2.44294121477601 -2.11777299115057 2.74471011113414 2.34929138645795 2.34787513278136 2.17807432487141 2.68164304303004 -2.348279299929 -2.58612377371249 2.58167441396562 2.65813796998771 -3.16038367931047 1.94451681517461 -2.54943365510294 -2.4449746838772 -2.63771907470084 -2.74690684048644 2.41162446106274 2.16431848805218 -0.0587854492512664 -2.23016359436605 -2.09119657899286 -2.85883993422722 2.71771427464291 -2.55531976186668 2.20485742290033 -2.57998499090209 2.42695054956681 1.82526009578903 -2.79887628106501 -3.54042678037412 -2.40854522317049 2.50430921115789 3.06113697895987 2.63433917201077 -2.32049393383378 2.78636846089468 -2.35753355116603 -2.66950348755429 -2.78794610603417 -2.74544787414895 -2.19458448246411 2.628814500004 2.21913028903314 2.5878490982458 -2.67414114755031 2.57615844624338 2.56719125369269 -2.76502741526975 2.07053064374193 2.49567513211672 -2.36404771167254 2.46071285825899 -1.81706007096843 -2.69305141826561 -2.32719502623449 2.21750166505189 -2.08507644995871 -2.34968213415734 -2.61807339845937 -1.85193798687802 1.99133716541814 -2.68326415631889 -1.86562996495503 -2.82892776575412 1.96693459140652 3.18116564860355 2.48174037237693 3.06804913448383 -2.054861860158 -2.58162223785552 2.38537707501956 2.52474995507509 -3.28745629454633 2.55688400367 -1.92807371242936 2.15532540394399 -2.64330371778028 -2.87679445295899 -2.40073667279835 2.64478123940465 2.62228543313986 1.935658028206 -1.99078608749444 2.04991776530704 2.73211263948181 1.7278089134235 2.20671117296135 2.47218096135897 1.90239693855107 -1.70705000515647 -2.88786437679123 1.49298265294269 2.87580381697625 -2.62958392284482 2.05205665590274 2.14728812622349 -2.58373876348303 -1.65292088622861 2.60398782979707 2.03462211203779 -3.11120979072006 -3.47971016544126 2.98760195875485 2.57366965994054 2.11067904074942 -2.66093096140099 -2.61102007051734 2.37438771356469 2.48383504721488 2.33815980828025 2.91907823034937 3.16631466333188 2.0074548490652 -2.46577329896547 2.06941849427404 -1.94048239368459 2.23658215159255 -1.49644448074164 2.41924855940691 1.96628986022093 -2.51556031788191 2.87571688203849 2.40324852074257 -2.28491805167972 -2.33753918655462 2.94840851135963 -2.66307911782771 -2.04568979521512 2.47724422041588 2.36916788098411 -1.94009648262936 -1.79468818730501 -2.54093463478135 1.97475145587471 2.48975352140211 2.17081286513742 2.12616785922248 2.06708683011499 -1.98563785257569 -2.28776166177416 -2.53099890244689 -2.89626962315293 2.28879668693173 1.83993161885636 2.17889547502893 2.57538052444555 -2.92169168814305 2.33209559675733 -2.89008412755772 -2.51792727746925 2.07559147932575 -2.12628260849338 -2.59521270882051 2.54830399231515 2.51985966962895 2.12048114468082 -3.12503946853433 2.62468363479882 2.37521335717138 2.83579120892335 -2.01637511695202 2.39629034643716 -2.04926925836777 2.78224976687114 3.56780235032289 2.40408151237584 -2.41436716957132 2.79230460518223 2.74002961566489 -2.41846027317635 -2.35594418232363 -2.6490959921714 2.23626132483151 -1.98116361060038 -2.46358071599724 2.26443581440928 -2.41416439419388 2.97910687309974 2.20518028494541 2.72177205691264 -2.45518469800658 5.62844632223277 2.71819351764802 -2.79388367288171 -2.5377279226503 2.82329707727099 2.16470079768829 2.86151670324308 2.22113522367291 -2.17640862116585 2.11663147768389 2.4097795300564 -2.37100373023776 -3.04984572363279 2.50267319909948 -1.77382633390677 2.27384246036448 2.77066337435456 -2.75735791637009 3.0882838654604 3.02552069120316 -1.98323405715843 2.54326889881593 2.45114259502837 2.63513925206205 2.25569110892923 2.69492115608549 1.90154512084929 -2.67309015264698 -2.41687856993344 2.68370556464035 3.11702090400132 -2.48603897587615 2.44871048659528 2.75433739385685 -2.85713132998154 2.66920541569167 -2.1840138074568 2.51029266228181 1.95681419032349 2.11181130969724 -2.60192639401293 -2.62865355610588 2.2240915909616 2.0819424618179 2.15167228807773 -3.26645322962262 1.91754449628932 -2.86929729928458 2.22337729024971 2.49888103001178 -1.87431244025236 -2.16359158195822 -1.33868073979723 2.99541484407877 2.16353265534718 -2.66946081578082 -2.64051526360579 2.27164787477167 2.09442337840018 2.10672509443749 2.75331679096117 2.3767696264278 1.97762895711956 -2.11545720095419 1.88649275881744 1.72106329393098 2.84665315229431 3.78277315033681 -2.35307750820976 -2.60049745761967 2.32765290962101 5.00006617653513 -2.22168769196535 2.37326003892503 -2.58516727083486 0 5.79800333800355
2.20969900522326 2.03006586605899 -3.01649295596295 -2.77663072113451 -2.24659379174666 -1.84725484442224 -2.86578971674021 2.25795789577433 2.76212682963201 -1.94156981291133 -2.03804117932533 -3.14197802170891 -2.73593496514902 -2.10633109984065 2.46651785130049 3.01826507703864 -2.6153870438192 -2.48560535888658 -2.73968445615841 1.64184107778669 -2.28777171276603 -2.28504361629093 -2.90911808951212 -2.10100381204994 1.95573683172553 -2.49740553779603 2.63198676483866 -2.00534939452561 -2.24713746322613 2.69480589677573 2.36136502776602 1.94892059390729 2.52354434802423 -2.64668810870148 2.95236334838358 -1.92287553101637 2.41815288628511 2.07488311041694 1.90857132801311 2.53136579495645 2.32412711220583 -2.1645558130293 -2.01009530277738 -2.26504063945875 2.18112400830298 2.23535100255645 2.57260429085653 2.58327540399919 3.09954521775055 -1.72454389023492 -2.02656821634222 2.11424707094168 2.54006854949694 -2.89257936413385 1.18887631953856 -2.14798059002637 -2.44295748519251 -2.00917080995894 -2.39710894116774 2.26158221029151 2.03733288750451 -0.417008166694964 -2.17029548112848 -2.62121334864148 -2.33940907538458 2.61311207618752 -1.83039315485069 2.73619204107954 -1.97085614160142 2.34199144943674 2.6109687751641 -2.44599916380808 -3.11330757913388 -2.26155749450219 2.56372077661875 2.07382021856037 2.59535201611235 -2.65545278832582 2.48034884082002 -2.42724386909759 -2.21410052747369 -2.81673760489185 -1.94591716833482 -2.20874755681346 2.06639121097401 2.68264127029063 1.94738808037962 -2.43129504361948 2.32184610824326 2.0645524386202 -2.10908129683028 2.572287634122 2.5490439449408 -2.79411717678451 2.58541152125838 -1.59289133059087 -2.81281678536466 -2.03320051837028 2.54633733878736 -2.32178004504309 -2.51326849458577 -2.07294845684718 -1.79996050730732 2.36928083053778 -2.83772232912782 -1.41440252799302 -3.58354266221981 2.16716262514733 2.41627810079984 2.04437269185638 2.88072423828781 -2.73266276702654 -2.57740965376877 2.00947707311404 2.68016629488139 -3.18030687261421 2.08454279636393 -2.55618591622641 2.84752341070867 -2.80939687386959 -2.22254023342003 -2.56781731009296 2.36069971090285 2.6120889066518 2.03633240262807 -2.57411767679194 2.07145952169643 2.6718748210891 2.16980115148785 1.86529321786131 1.93039258400083 2.67182378090525 -2.76385075074928 -2.94196845843436 1.41300840106021 2.62176146835511 -2.61325009658368 2.16745072123066 2.19482983226068 -2.72534394237179 -2.7476245586457 2.64543362142693 1.88820795203715 -3.24433979044845 -2.40899114271678 3.01574883604714 2.1375996593022 2.6849468832306 -2.64765796669274 -2.55012258260388 2.01503977753959 3.03078753005624 2.75553604663639 2.60069765510355 3.06698364605665 2.73164024646655 -2.67299757655692 1.96524306872766 -2.46833255749346 2.59418650674148 -1.57324411611565 2.42782621844292 2.28943303005863 -2.83539567037747 3.67757355440488 2.46674290040388 -2.16808068529014 -2.53466050365343 3.39417727551794 -2.74530889119419 -1.97947293434887 2.78429018421676 2.31138704034413 -2.01663121948818 -1.80904792308338 -1.98373598688425 2.52612724476627 2.20576276839676 2.39251993698481 3.4031640896854 2.68277785219514 -2.38529956132053 -1.9487184065804 -2.67205357493924 -2.88434743474453 2.4430393419894 2.45341246359212 2.34696628169455 2.04799884317313 -2.60410815046833 2.22518121071577 -2.73709656859656 -2.70576709269296 2.6785087244768 -2.07609641338645 -2.00940956350891 2.18819678368032 1.9004004156999 2.17770125828763 -3.49479991178431 3.08972252212824 2.12785036944985 3.03096862653626 -2.78338583504234 2.61129971192897 -2.68548059947605 2.41568511491394 1.65531604750104 2.04595734380452 -2.79352390731017 2.40973500627157 2.80031371226706 -2.31354624641746 -2.63902849697842 -1.89283059932396 2.02445705039177 -2.84871896290115 -2.77931188232449 2.62136806953701 -2.36708389007134 2.43410466256662 2.84829862999266 1.88547469677473 -2.24460978999856 2.73684450656585 2.56968297080751 -2.13029338578966 -2.22391727314018 2.26079613518815 2.62520507355746 2.39502790735133 1.99194913446486 -3.75739437304072 2.3727007139259 2.80113767044664 -2.29139682672761 -2.70354105264222 2.53085348243268 -4.76799988137814 2.14718426800799 2.62876352918025 -2.07754582132284 2.68454321212483 2.66887816372511 -1.7120436968021 2.2503792134907 2.44717707368161 2.92449824689431 2.32573448387098 2.22157454119753 2.47850668713066 -2.61784456546552 -2.63261389432453 2.85563645278788 2.77505106848894 -1.97382559221409 2.02597367968797 2.76989757379954 -2.49625065755013 2.87581928039475 -2.45038482065679 2.64975485329786 2.16198059639695 2.07997816283788 -2.57131226210031 -2.78834794967351 2.7696526022042 1.95240348525561 2.53141018766334 -3.35303237166595 2.33355840154137 -2.48425558590423 2.34961459082472 2.75639672701138 -2.40295973096309 -1.55984002166886 -2.21004003532012 3.46730778826264 2.64050605161537 -2.62562235992416 -2.70334397312109 2.67451286087169 2.2123424346701 2.81264239306418 2.76541694305297 2.20087584591299 1.99717127390252 -2.76981230407113 2.43583701635727 4.59722089396878 2.29221590756391 2.2520020038527 -2.70046646656351 -2.44987010128833 2.49552371802968 2.18573880444778 -3.54423740449988 2.1967536312686 -2.24949402559347 0 2.9826719751181
2.44493543857093 2.48800707206706 -2.53128107525219 -2.62228976039029 -2.10248315530159 -2.4358035108822 -2.10249152422508 2.44888404962762 2.60371720504813 -2.27502529962499 -2.52277005578388 -2.9955164983186 -2.3786233832967 -2.65934297609089 2.54563219041542 2.79513830475121 -2.81030370187829 -1.93908712481489 -2.64354811594974 1.69054959192081 -1.98789725716468 -2.02653423208505 -3.26184087314954 -2.63135175116311 1.44843770248627 -2.66847717242232 2.32190953533041 -2.04640778759062 -2.82207497981416 1.85799077520405 2.69759335923814 2.84022413927598 2.15919030384934 -1.93722811157201 2.30029396191648 -1.79135214195171 2.28355041404563 2.29412799653266 1.91513430564266 2.01978809046359 2.34274315031662 -2.21095758595809 -2.49260204114501 -2.78082571057005 2.13962145945603 2.5986398156493 2.75653450286522 2.60808721273646 2.56564201366152 -2.60325799521806 -2.67985420608361 1.99420980385445 2.92264876176337 -3.34644039677069 2.90687458838312 -2.21768896620024 -2.80274259453635 -2.49102711665718 -2.49372459427249 2.52504973245037 2.73575939580673 -1.30981397944108 -2.4234322480319 -1.28520578946825 -2.75688121650845 2.63745325326163 -1.26771508818668 2.45557150191984 -2.36657026090085 2.02947710902359 2.20385516014958 -2.93345659562748 -2.60898066731346 -1.98031122907749 2.51692220938339 1.91893027625986 2.17181962087816 -2.52039260453462 1.9192571771515 -2.01819013438096 -2.4304474163489 -2.29341496687456 -2.85197185787305 -2.77146868240189 2.76711509400092 2.51153057154959 2.22994309883138 -2.08444989945886 1.93752943224869 2.85507625485203 -2.26539744084135 2.66678742814317 1.88765523252063 -2.44082303180291 2.55904666628305 -2.00729875261305 -2.77101799104899 -2.19054703828972 2.69114649253339 -2.37988577146643 -2.72338092440623 -2.49009134463871 -3.43851008453172 2.34854683804484 -2.40656112653033 -2.04923254664325 -2.8347681266335 2.78469488348764 2.55075637505643 2.31192319125271 2.5231531931879 -2.15862361941548 -2.60506812411724 2.38203454468544 2.46586344272252 -2.83424688190988 2.79396603364135 -2.30839551781131 2.64929864191339 -2.04932592499572 -2.2213735208016 -3.06361145266309 2.41329663360655 2.47633076313776 2.16137942859337 -2.14217324523644 2.33057762780592 2.11814936971246 1.76473671973873 2.4676957514874 2.1136382845137 2.65457312002276 -2.01939826902409 -2.30961153850489 2.43698928576133 2.80339112768459 -2.57126573648291 2.29908264967399 2.3344702127516 -2.61384989370359 -2.03789943375795 2.02441879531424 3.12762293019695 -2.52817436022195 -2.00059418907982 2.99023391293121 2.33456573043873 2.34859059072278 -2.77337714120127 -3.2475373736177 2.52068178337752 2.60493242538441 2.8323808253605 2.87591513199045 2.62921389673035 2.81985432221221 -2.12017181691213 2.45638579838199 -3.45981637869756 2.70835295621156 -1.99922315214046 1.89886790028486 2.58946087374129 -2.24763501334294 2.50494937647562 2.26134639552634 -2.56622145783382 -2.2654840860663 3.14670191938636 -2.42745381466345 -1.87241614807831 2.44700859792986 2.67861802407598 -2.32291909901071 -2.59620407782393 -2.34311971822245 2.68216485088752 2.03299890742396 2.75844404176162 2.43786985455232 2.08066313085205 -2.76955133283618 -5.39577225099463 -2.18486931587314 -2.69471705991969 2.47931704561422 2.28520511573562 1.7982293363238 2.86127869996968 -2.10290832454145 1.97503857958869 -2.3578408188134 -2.61819756104236 2.62270109088802 -3.37399641321531 -2.06747252116416 2.29086082236607 2.15123151234533 2.80744646787331 -3.09611873269046 2.43082679807625 2.55734648669538 2.35977374885407 -2.24950115009048 2.25516716992684 -2.77723691812537 2.76537754312432 1.45573265937919 2.74834688333117 -2.52057383594785 2.85922149357278 2.65871186831417 -1.98006158274098 -2.39570722190923 -2.26354250597166 2.72125730969322 -2.0162506582233 -2.22057837448748 2.00689391221464 -2.58695721488163 3.21963075056966 2.71948759153396 2.83232574084514 -2.77522072085162 2.52534229397372 2.31139120292312 -2.65405136487819 -2.77197882393222 2.04391760603855 2.16906591238671 1.93673014169571 1.50464874397298 -2.46143180870727 2.43578116202746 1.87156293484171 -2.54707557808416 -2.90397966176975 2.35777751897585 -1.72834785674793 2.3537828650475 3.12824001258432 -2.60044493796829 2.36979672849286 2.89011088459939 -3.17261482560514 2.29250098759785 2.53657511321972 2.577136023539 1.52881512274045 2.31574268865274 2.83675235172021 -2.26217545673014 -2.67774565962451 2.74458975629533 3.52642510034858 -2.16037406006253 2.374143299153 2.91691864436509 -2.61110485497902 2.83315596851524 -2.04264453269381 2.56864177121205 2.42169034157014 2.2693276893648 -2.7646872799031 -2.30293404223127 2.41958412891269 2.26116718831752 2.50138389387647 -3.11053843518822 2.16362493340519 -2.76250241855927 2.1834818505221 3.04174169482413 -2.19107730632632 -1.77937297836609 -2.44416263870509 2.93430180780355 2.78298840662297 -1.88350183717508 -2.09401961550808 2.30054662210928 2.19395980106724 2.63437261279993 2.23459229855111 2.32468978317075 2.65600034349954 -2.4755003349032 4.16905859784882 1.95014824348897 2.42883694479796 2.26496480011436 -2.55096060683984 -2.28615195046401 2.4365962176396 1.75960639551525 -1.98460227137085 2.82613593809095 -2.66284083215093 0 4.45834286674463
2.75267108834465 2.11201877628273 -3.08214391715352 -2.36339796097153 -2.87891244412587 -2.17108596987607 -2.57083731095396 2.42752880005624 2.29892148854156 -2.34528063618703 -3.51694843577299 -3.34058635900926 -2.16631088102133 -2.6645836556125 1.87678883067943 2.54359076977032 -2.17007510036082 -2.28572169245247 -2.66563898369458 2.96742041668209 -1.74925503425338 -2.65995638470899 -2.86992731427042 -2.90988527158341 2.70678066648807 -2.09551712094212 1.96786380882606 -2.22842323545128 -2.81878304800584 2.34827796259914 2.93225629312173 2.35309970948381 2.22934740098184 -2.46683568687955 1.74002173535577 -2.84781804579923 2.79323125786906 2.0670492578067 1.84334535683332 2.80120418310171 2.03434067680431 -2.63054224985703 -1.99060692746659 -2.33044367378273 2.80773660494722 2.2691046476001 2.12216416788389 2.90366178432721 2.46645138520385 -2.61835128397808 -1.89492472019418 2.17949365677763 2.32509927182942 -3.29767174287414 2.30306243345027 -2.37629035492614 -2.13969340901805 -2.67564279891355 -2.8249485558427 2.37787959682169 2.45973572731322 0.817972849957428 -2.50343727872165 -1.75230004071336 -2.92342921796047 2.86603867226093 -4.34835192852151 2.05898468421528 -2.71251763801668 2.44497043785129 2.09568259252633 -3.12217170928859 -3.23133339955765 -2.43282379737837 2.50247619839223 2.01035617187286 2.11770554220358 -1.95792875372457 2.01069475924491 -2.43325771466354 -2.28819649951916 -2.68702583072926 -2.67064485456832 -2.8710154428 2.59227076788918 3.23204718552082 3.80826432558215 -2.09006495470717 2.89930159016654 2.38699799392315 -2.01029600507963 2.69850805543744 2.01490527635705 -2.72718570086795 2.18396264744044 -2.04051013334121 -2.02667575525951 -2.58301086755676 2.675427363295 -2.76514593614519 -2.63036053391919 -2.05389352489061 -1.13786826266191 2.62968536189336 -2.23991982031149 -1.92892037569796 -3.73038195009923 2.03228914415441 2.80434889433531 2.82770982986152 2.6262016995601 -2.20695313488308 -2.72945023932999 2.49582369980258 2.72976907992239 -3.0256858551093 2.31415533088176 -2.44629187142414 2.85781211871024 -2.45614927279273 -2.75477678583378 -3.2397170330515 2.21751335842898 2.63367488171676 3.3591187218885 -2.44041150257675 2.7291885026514 2.67226192687104 1.77687919168817 1.30981793857472 1.55458105688859 2.77076914091283 -2.1255093662382 -2.87665220452453 1.14369649023866 2.63632523316803 -2.55524709379313 2.30755112832855 2.05287419809042 -2.45441476443413 -2.07084807468381 2.50012388954219 2.71787898880878 -2.84346234685772 -3.3386566886579 2.74480438668827 2.42622557274279 2.27043292932552 -2.64862302187488 -2.95797213235864 2.02428232667752 2.49075202498838 2.48778003649868 2.21726965989454 3.75608001870583 1.95534493932668 -2.53223044160605 1.93521269548087 -2.11998727593355 2.00783205533333 -2.50912175681621 2.38521891656376 2.85417494383162 -2.24830328621452 2.1897176570915 2.71814717129115 -2.32897146229789 -3.199469570972 3.11769341182754 -2.76239252448469 -1.942768327359 2.91656914455347 1.95220870580447 -2.41742542417535 -1.62741187194644 -2.36012041207418 2.54097096620355 2.10406546802573 2.27703328995363 2.27798233164228 2.78366509107438 -2.63306697000384 -1.93109602858426 -2.29278442461685 -2.99170272700583 2.49741338840425 1.70408484932254 3.86901845923721 2.20514084572361 -2.67652302987282 2.12254479389759 -2.54469555427341 -2.81874848785551 2.15747614134918 -0.651033493725311 -2.51568812466432 2.5348133556249 2.26846160602808 2.89399186540166 -2.75513951087219 2.59223656494897 2.39675862179592 3.47928346034333 -2.80001411987188 2.7542266997309 -2.82247661940383 2.38884067895421 1.1432461055764 2.60225789512744 -2.49204522351163 2.7010386016501 2.21713094659388 -2.40641509879523 -2.07089601688548 -2.6551314598629 2.33183798030382 -2.89447986927848 -2.45905209729525 2.54189943800737 -1.97480213128073 3.37267142604457 2.61194399430536 2.78086096197796 -2.76944129482203 1.71040030251188 2.49473578923858 -2.08431162432298 -2.12269273226135 2.53693757678936 2.15193434401177 2.68313190188651 3.38326024035028 -2.76973866624662 2.56043815684076 2.57819486509138 -2.66720447834785 -2.80228028387846 2.27449028483583 -1.1375426424374 2.71050793321405 3.63122834178008 -2.54239617337236 2.38984366798484 2.80690881316764 -1.93172728746642 2.65347734988986 2.77136963371497 2.10051986646207 1.74775272483744 2.1861025765072 2.08577048426953 -2.82318636438826 -2.22959419873673 2.08542157329389 3.53280130331998 -2.02055302191467 2.56551203656033 2.48236381686755 -2.84861103520297 2.20257019761074 -2.68677007592361 2.56720576532493 2.74611706842946 2.39627307789417 -2.90342484288441 -1.69915526403931 2.06856350512365 2.79942008710985 1.73628603035337 -3.0089659101207 1.97879045867867 -2.59404826448115 2.01205634619195 2.9141782632022 -2.69158447374942 -1.42071838846215 -2.13780137474158 2.70173594426852 2.64812109133182 -2.79987132620235 -2.16838230880638 2.52681852274488 3.04863262991204 2.32160405351191 2.81051677515436 2.66486299456688 2.09244312097763 -2.74641436988342 1.92813814071899 1.9098414394434 2.59184056338893 3.08123210987921 -2.51315764840597 -2.63222424228269 2.59592418148672 0.634522501599878 -2.17275252609115 2.56955278044332 -2.62798853888914 0 7.24107415368679
2.67515843184892 2.83183723448469 -3.11372508289032 -2.82580037878431 -2.82707904701114 -2.18753972692348 -2.8912633118948 1.97148588387494 2.06984619178086 -2.77981466674169 -2.73145831991212 -3.08569260148446 -2.76998787315407 -1.93483592950059 2.21769737867883 2.56516345877766 -1.97315676747676 -2.71614843502641 -2.51870226174706 2.63000041542558 -1.99508259430351 -2.84140191112811 -2.87261915344435 -2.64906914862249 1.78942869336754 -2.10586825781288 2.14480431682621 -2.0843154659327 -1.99102438544663 2.5078250680514 3.02527357044299 2.86851452131661 2.90123991701864 -2.65414727529368 1.9872599014721 -1.53624259858666 2.97082697977239 2.68264887662476 1.66557324036989 1.82160128059594 2.6759423144856 -2.59591016847234 -2.02484459502688 -2.51319914544956 2.39981479955189 2.33516043841385 2.28716558981431 2.40998262516173 2.68432808420359 -2.60104173494643 -2.63190856226712 2.51883698703265 1.98954018782768 -3.23932726323612 3.50511649072376 -2.29398980426756 -2.13937673319253 -2.13802220139401 -2.13750319584384 2.28763750119802 2.32059534613266 -2.18677934158275 -2.86275676503745 -0.119789454631165 -3.11761903798336 2.2802426643532 -2.49091255738812 2.77641147362096 -2.33757727281809 2.64662056656859 1.93072050397378 -2.84539311435117 -2.50140488914339 -2.57116913394283 2.72030012978027 2.28793490824376 2.02079804051688 -2.18884449321152 2.796800390666 -2.01245346318184 -2.31221781813052 -2.0202687278913 -2.76497572490381 -2.04435364399979 2.56961047886886 2.73126792337456 3.46368306558845 -2.57135556556146 2.51710844645088 2.61489540654897 -2.02582010983859 2.67554517857205 2.76145946781025 -2.01784649647387 2.70576818820833 -2.13334339906123 -2.73653907065356 -2.26909523067509 1.88975996612563 -2.78068007228232 -1.95600490265467 -2.4356650511979 -1.9880945602011 2.6784244958242 -2.01804472086845 -3.52554000517257 -3.15692743370895 2.52650270876147 2.7457000333532 1.81919155453805 2.88401389064977 -2.78350202717216 -2.01991360163562 2.75375114436073 2.75437200534128 -2.72316352902176 2.87982063614233 -2.5457139460289 2.4213540729613 -2.93569635489219 -2.47024691635701 -2.88781722917683 2.22588654153521 2.83301682577357 2.28213673336639 -2.46912258107278 1.97257716226701 2.84348915542006 1.93572010993119 1.61404867300111 2.12646736900232 2.3332081796 -1.76431386053763 -2.16347440448912 3.66903800276075 2.02175389621854 -2.8621803687147 2.18829416017678 2.59673680244715 -2.3782563838876 -2.45378330050176 2.14127017924133 2.45390107349888 -2.64754174380226 -3.04372473920386 2.75047380638068 2.55658290799035 2.00437331360488 -2.87458481567231 -2.79413756465602 2.70695466236333 2.71930079786688 1.982432943292 2.83705132697081 2.78699829572484 2.8454265682847 -2.83137607045251 3.10097100278483 -2.51015775070469 2.43508949281909 -1.59554679217433 2.77505368283674 2.0487163783404 -2.43563671584434 2.73095165262949 2.76819619960256 -2.44409003073469 -2.76116121578468 2.91181047205363 -2.16251506549787 -2.4038865579487 2.63028146388919 2.19887999779688 -2.78238320319861 -1.90680219080734 -2.59931270546344 2.17516783780841 2.69613192868665 2.65682449864535 2.12000826277992 2.50980542251059 -2.83475595816532 -1.05725419901907 -2.51146883872859 -2.60678829159557 2.38604151352388 2.14590310164175 2.04964230154335 2.43254251928138 -2.88134331453159 2.79269352841749 -2.8067028892593 -2.76646297537036 2.37520203014482 -1.74784898004218 -2.264811552491 1.93658593370477 1.97227331252189 2.64171864868921 -2.89377879083152 2.14713076886331 2.55220565030889 2.52611330327326 -2.69006835789433 2.59029793653409 -1.97546706272301 2.55273066087073 2.08172531529216 2.29688668188867 -2.51479057537109 2.46209816699386 2.24237454930419 -2.74543180645001 -2.93249808450375 -1.96636990576104 2.74474976599789 -2.00657280063633 -2.18602247020285 2.86008560318472 -2.58575935893904 3.0561225320826 2.60301815949868 2.79644619511316 -2.02534931480467 3.35834201648121 2.27481062320303 -2.36396117057914 -2.08341684100789 2.39255832456602 2.88031955228405 2.11623537418899 2.04571228674898 -2.75277824359016 2.33014415124373 2.58750472287899 -2.07722032076568 -2.70241727544471 2.65816122695374 -1.78854396486166 2.54144697006309 3.10834322683907 -2.58600423101028 2.23741807071383 2.79288097846266 -1.8954074980004 2.55723847020364 2.82852356112636 1.97775691084247 1.86402038964342 2.6364822715736 2.63200972393653 -2.6198561697371 -2.74453851388943 2.52933405087645 3.43718158465036 -2.2618755286995 2.63196994762063 3.1555113773303 -2.46558717835583 2.2713369030464 -2.50313025459635 2.64891226471931 1.93833881049482 2.00541112179844 -2.8753163080561 -3.15565510214925 2.11442348310563 2.35377330524826 2.58632025085341 -3.14558877106088 2.76166580071695 -2.57825289313171 1.96946401234557 2.99221551737509 -2.46240415721983 -1.88869682270757 -2.3546187343903 2.9341847168932 2.20199678141852 -2.85520591478293 -2.49558974500747 2.38221138161376 1.85264807290752 2.71421863229893 2.18118315358801 2.83568857922523 2.13283005772157 -2.38924597289947 2.01266888741786 1.6541858425683 1.98699420585699 2.59817526889921 -2.71739981312858 -2.51947581538488 2.13053022221905 1.43452843212327 -2.82258551904115 2.87575428459179 -2.27818219432486 0 7.31633854680933
