2.07712326223526 3.17781716439548 -3.02721556816342 -2.5697243558215 -1.9571789957738 -2.96157116294901 -2.37080057433108 2.6605056381496 2.77681916133308 -2.15545134744054 -2.11431129326142 -2.85177104982211 -2.20512832616871 -2.04556132498485 3.51913104716538 3.24042339806652 -2.50352591754659 -3.54903938504958 -2.90754592815506 1.99702975018816 -2.45586549735487 -2.501627310705 -3.30225474012134 -2.68208217493034 2.39088553594388 -2.42178098581562 2.06715144110504 -2.38225577875719 -2.29988882198497 2.25259727164256 2.99245087806026 2.44526818150345 2.47376289342887 -2.09751541630925 2.59132361515473 -1.7075028657841 2.55698707983459 2.56414582390425 2.02848729727046 1.9507141116746 2.15557942482338 -1.88480360288106 -2.62273775247038 -2.62731941253353 2.22292682565993 2.77621305365714 2.3931935503542 2.44693830603618 2.33091568187566 -2.3007460637173 -2.4649900603098 2.48952969206159 2.43555391375029 -2.91744061319727 1.36184099164125 -2.0824015006005 -2.0334835534132 -2.81290904061143 -2.12929809360585 2.41214716648997 2.81435958194385 -0.205559978454635 -2.65321302970652 -1.5862492434996 -2.7186283513692 2.8574153992329 -2.15991743239217 2.61101633590498 -1.89826580340846 2.67598978498532 2.92593221103404 -2.53939101726269 -3.24380422246525 -2.87308138669904 2.22045485919212 2.31679382896036 1.94486073815291 -2.07118478348858 2.63021108065131 -2.12719105028197 -1.93298210797162 -1.94857349228683 -2.44567379597496 -2.60488323315463 2.53724056792452 2.78115645079776 2.47505256761229 -2.57192582639726 2.73687004618958 2.05130911110169 -2.86567581571129 2.73090321212668 2.57699723690866 -2.5410212670219 2.34799614972486 -1.83578922781007 -2.1831363063815 -1.91720367108064 2.3885738016537 -2.58414862575938 -2.57034843004806 -2.08402254120377 -2.20219312406668 2.05858351425951 -2.46735566449245 -1.90689362610725 -2.93580372008889 2.55745200509761 2.66615261611052 2.30733054136399 3.01365530579859 -2.75263020178054 -2.61203234030348 2.8508621055636 2.62846477154471 -2.98234857277265 2.45303916832511 -1.89224545041049 2.78297972442471 -2.5264875211805 -2.64772017586192 -2.61003133632732 1.90977631957347 2.69408510148009 2.07047686897132 -2.81196733096909 2.45621431202262 2.09856218136376 1.72164975815578 2.18885444995798 1.96804261021101 2.13738321419353 -1.99220513299909 -2.33888328894132 1.6445438654323 2.01992674018909 -2.30023658305613 1.94555013988374 2.48807108070824 -2.18452194586062 -3.89214687731687 1.91098406920176 2.16310373255791 -3.37408092580785 -2.37569676096259 3.00775734573981 2.29587486335355 2.80642939022532 -2.25156695293112 -2.460186155333 2.50015513430789 2.93442590933916 1.95332293073108 2.12965193475843 1.69190530069255 2.71867730453364 -2.4629061743784 2.29837959427637 -2.1314494697839 2.17786455008829 -4.60882559092657 2.59172146361201 2.10958998410264 -2.18572718778776 2.17009535681815 2.52468364403476 -1.94586933213654 -2.06793360858957 2.84930010977593 -2.25910927615931 -2.36348458569493 2.43907136472312 1.98539574428167 -2.48033199358185 -4.20779217110449 -2.64747163693793 1.95792069247026 2.67902788069177 1.74882346560829 2.588771408318 2.30390918516815 -2.13243845116985 -1.85933800227317 -3.27156529468094 -2.53531755325268 2.68715699665116 1.70787077376443 2.60940057609249 2.67637432013579 -2.25948219742855 2.1741316113521 -2.81723244604776 -2.45623441881202 2.39925422224023 -2.27125715383512 -2.37485766095798 2.61734802522255 2.47457887199372 1.90328383720779 -3.20979737383683 2.00210897732489 2.7146000989522 2.16123117751122 -2.78460104388289 2.99356346145412 -2.81841943287222 2.51940142414965 2.24456831519289 2.02908003798381 -1.95250582626949 2.92136505806524 2.72335717269733 -2.6520915218983 -2.05196519823882 -1.99047019614616 2.18443870231965 -2.64242886705822 -2.75363225499258 2.09580095699545 -2.39209024320147 2.56973004072059 2.72323084065258 2.19953429927937 -2.03053962838959 2.4123474313404 2.37433647918579 -2.74699450896535 -2.59064196044627 2.46295179780607 2.47281910058737 2.27020138160205 1.83964419925843 -2.16677045651938 2.04999864013262 2.53786305675004 -2.3309303466543 -2.90923813913512 2.33334978447133 -2.42673646868906 2.74839008160515 2.49587635197227 -2.68301746035849 3.00008195153458 2.79660037880639 -1.89359478174696 2.67681958490188 2.66995970712381 2.45102910501306 2.23938910430395 2.21975332790832 1.93279641338464 -2.18478630219857 -2.39736678115632 2.64404265488489 2.67505212089399 -2.53411709369094 2.58427193155831 2.87413347895391 -1.94112507402817 2.37210594996284 -1.94583040062083 1.88543712921863 2.37604011299327 2.17306160394278 -2.53423158048811 -4.08765752619568 1.92415447899968 1.73843964858395 2.08034428857628 -3.29903512891729 1.84205447210444 -2.50427594546465 2.73932487697512 2.82157073476573 -2.65106939220318 -1.74798378652356 -4.57542458804932 2.96265453962883 2.8017094255288 -2.366496498617 -2.26015984830158 2.41852722715209 2.47738584325991 2.17577578373131 2.19902042006905 2.64644177265781 2.74802619264442 -2.67380990862756 1.87845257839051 2.78725842022182 2.71698642075797 2.05391514667109 -2.25413285859234 -2.11547495941424 2.44433014971886 2.47356543898968 -2.73730136505805 2.15871888050069 -2.69638084538708 0 2.20682718990258
2.45864106738935 2.6665371237237 -2.57124001339979 -2.78507079702515 -2.56921580629536 -2.20723932645621 -2.03585129482184 2.78550799285986 2.63182663777155 -1.94507504266448 -2.41239309562337 -3.20986752879247 -2.17442397352509 -2.44105840959504 2.60829271071569 2.81226259352485 -2.69720158662054 -1.97846722261031 -2.56458423399217 2.44347191745903 -2.72618292193841 -1.90971508867421 -2.35323006993341 -3.64423044767089 1.63825222728088 -2.29856598450195 2.02618283733963 -2.73103520724741 -2.87675893130876 2.22794026808481 3.05734887132895 2.67782919920112 2.40541606200199 -2.66737719258898 2.78073616275213 -1.84835419094261 1.98026201580892 2.60228980290123 2.13864963592108 2.89011307541291 2.71420175624492 -2.63738649729942 -2.55938916404498 -2.26007669438596 2.45345117852674 2.8478392138259 2.81678571465013 2.03289553109879 2.92977794513549 -2.51209209932518 -2.7817780109573 2.06080513426724 1.89993269350097 -3.55456095576842 1.14623000707689 -2.44441659237928 -2.81480091259379 -2.84563211562109 -2.14317043228762 2.78476945076484 2.24870017777219 0.257462525736812 -1.98024863805476 -1.33524147007529 -2.51512401204821 2.15658482140759 -2.21488740351257 2.26032218923259 -2.45234017533938 2.79294957428511 2.11961889853854 -2.67845255233131 -2.778661560319 -2.42579832792622 2.67283864687263 1.81933380726308 2.28365997162026 -2.78864681404365 2.81115800033853 -2.21869916339192 -2.38343046570224 -2.77335101541246 -2.63412818807934 -2.09829147236064 2.58370277595133 2.86128280523856 2.37506985984444 -2.77466920161715 2.66940806700142 2.26658435174994 -2.00616600802909 1.9296479110296 2.93713123686063 -2.83874523154766 2.31562387601371 -4.04126696037099 -2.67334124760399 -2.43117681596172 2.67653745850693 -2.62067650982414 -2.50135141758594 -2.34649026887911 -4.52066264575144 2.73215144833894 -2.0837729129777 -1.90656056055146 -3.00626660848985 2.43266444850485 2.48434180989411 2.12234795594294 3.12047707634954 -1.90501448295147 -2.81264516093746 1.90420465573072 2.70123948658884 -3.0379817070946 2.33607017653829 -2.74885021235108 1.94194107465227 -2.77269213400285 -2.42609142792472 -3.10233331554079 2.58701862374068 1.9689268088497 1.92335004217446 -2.54821213180144 2.21432072757892 2.79759403892582 1.49766444015286 4.55731194242359 1.4440645030681 2.09665161040752 -2.82142108470551 -2.17069441675231 1.75584440948601 1.98436005823012 -2.53953967699395 2.22401185344369 1.78655126211488 -2.65643332678439 -2.38081654451052 2.16399234234812 2.1946664735993 -2.53787089589487 -2.30429908523324 3.2246352322663 2.58296866690308 2.84593323603108 -2.24565478496537 -3.03597653132485 2.44259508786276 2.39589325583273 2.27666917715796 2.71294396025195 3.27331720082594 2.83198279345042 -2.2777959268606 2.45025246841484 -1.93495419032219 2.32099634906148 -2.24464126935243 2.15097164277922 2.36535552911128 -2.13446560936319 2.11032040380572 2.69096222816338 -2.13701744781101 -2.56000905128238 3.04672741868227 -2.5962594248829 -2.87841542162713 2.07644455770823 1.95159829199393 -1.8796211993811 -2.05893950282355 -2.69550414892362 3.17087636521015 2.06221324085402 2.43797471777351 2.070895812173 2.21260915443164 -2.46646623096344 -2.17155436754926 -2.11942866598404 -3.01531004020198 2.9999442881018 3.79738630337255 1.98885840405901 2.82436948562958 -2.48141426845049 2.21697381650189 -2.21389862409403 -2.39637569200316 2.41601147097763 -1.72334222384273 -2.58110315163266 2.600348319422 2.63838468983985 2.1618544033919 -2.46872445897772 2.09014285964376 2.39882764525244 2.14877537866466 -2.54463826201239 1.98185758334953 -2.47024449310732 1.89299674660989 1.28645570639742 2.26087657581725 -2.23035498796562 2.11109693299904 2.4138744427302 -2.88486117966138 -2.17706204037261 -2.68542040353769 2.76228938052565 -2.88816542509578 -2.57459965713548 2.46013414273028 -2.42154136526654 3.18817402731448 2.21320739485016 2.26762576588408 -2.52819914275555 2.45723668983214 2.19153594556233 -2.18165146871713 -2.36169157810742 1.94349679152964 2.05691611770718 2.26832539458057 1.76758046287293 -2.16219145963399 2.76732891298664 2.79522885661993 -2.19925366354952 -3.06873169528097 2.77343600314687 -1.35296356861823 2.80463883325864 3.22824442275245 -2.58447116849295 2.27296625301328 2.97085639364581 -1.96480523163453 2.61094239180096 2.56323560836069 2.60425608412473 1.98948729622108 2.80727436819445 1.92397178933724 -2.61670111372245 -2.66830531242654 1.93373949600376 3.00936032390876 -2.01934854309528 2.057874194523 3.05975667219028 -2.45332152264141 2.66503487098196 -2.17465104758808 2.32255621619328 2.07734957457998 2.01001378239239 -2.65040247358772 -1.85644246129916 2.52953014988368 1.88940252997415 2.38792315668241 -3.33308242375413 2.51293166855752 -2.94325662557718 2.52098272656217 2.69943184749359 -2.41810378888842 -2.16253388637349 -2.30336287400105 3.1240989726919 2.8541609955147 -2.76260799866429 -2.25733905983211 2.84094344134787 1.79799011584513 2.01240815225115 2.73849769196422 2.00865168552324 2.72900965641685 -1.87210337423412 2.43804001176972 1.71802453648416 2.31585290334393 1.93600468233228 -2.37234514110088 -2.71348791591819 1.95010171720851 2.13181621829808 -2.03660547647229 2.6671452803791 -2.80783932308069 0 2.27049132539193
2.09133427273106 3.14023966264488 -3.24667612609199 -2.16290167061218 -2.63264676851778 -2.90641970540187 -2.21184508884035 2.24537513883717 2.60125533605107 -2.37678360439541 -2.1211870105388 -3.13459851629443 -1.92649139764007 -2.74337380007871 2.14311797407034 3.08411020307428 -2.38515762146458 -2.22209242195418 -2.79558263216362 1.58410367345762 -2.97292945186045 -2.10736640836785 -3.76538374774628 -2.46600912648076 1.40227472529355 -2.22169698221139 2.26618069963186 -2.33309670102977 -2.14596555541746 3.36821119015387 3.05138615481395 2.38567508447491 2.06517090149194 -2.2867548159256 2.53740410385079 -3.23372903139681 3.05427147943666 2.1594908439193 5.24904079690627 2.57059601252263 2.31724743655229 -2.23697430000557 -2.73486332463657 -2.07514947084943 2.53474100812023 2.14027951652933 2.36179815895328 2.15155043210483 2.85004569889109 -2.32418133445025 -2.62827466553762 2.43766749433143 2.1659761261993 -2.86799646140213 1.38269157549782 -2.54198518648569 -2.23251100893212 -2.43411410252938 -1.96405978485353 2.55412104100716 2.4614683001461 -0.978308221148466 -2.21739624382932 -2.72952583071029 -2.68434090527485 2.79538136425118 -2.53713058369518 2.17100711126733 -2.48209832639589 1.85859038651412 2.46066658848502 -3.29698211829112 -1.88473943178036 -2.16748740013693 2.38528672488344 1.95759315041961 2.37639314553078 -2.66065493751652 2.82118509765788 -2.19010963107026 -2.42551606632071 -2.48487583531029 -2.33918501693033 -2.44366182112385 2.3812004230891 2.22149887163737 2.02339907629257 -2.62373513969283 2.07041189235445 2.34541877470862 -2.36559955969581 2.43257097176469 1.99796639846292 -2.70353519233535 2.8447948647895 -2.61524358555843 -2.01429740430873 -2.64360547450847 2.08760089698031 -2.16312447844605 -2.36655093484451 -2.11398826200004 -1.70628880981783 2.63584953732768 -2.38162334752124 -2.36736178516953 -3.26982799032397 2.52616413470074 2.03125247774529 2.55044149670418 2.94791076287458 -2.56766662307741 -2.4165647246068 2.05500920237983 2.51328980037753 -3.00451165765612 2.49922850062395 -2.58822109600809 2.1457375528916 -2.50156404212215 -2.03144562966677 -2.68647422359782 2.10399015529594 2.74384993446228 2.15259032335625 -2.55340526596307 2.55763598791931 2.13582190136902 2.98654716301111 1.80486738620167 1.72591317591981 2.42950541020872 -2.42478037183376 -2.45018107149527 1.62992517076741 2.37351842939139 -2.39155087444966 2.43063164382627 2.49756711965463 -2.2351523707354 -2.63729336027094 2.26082271650557 2.85408951822115 -2.68288747492923 -1.87911893436895 2.52985818851687 1.85851265340215 2.06350699464658 -2.09999996564106 -2.57874516947873 2.48715070808044 2.90638784918536 2.77330904281402 2.7193623694215 3.17223293329325 2.56216074093654 -2.3937789941651 3.10265397865648 -2.40287645240523 2.1622871277498 -3.24441625082964 2.64400014558478 2.87392760720332 -2.02091530011451 1.98408062231011 2.7128146362408 -2.52957097171432 -3.01058307507093 3.48434588481633 -1.99124605082375 -1.96354122102688 1.9802349638151 2.22901487210628 -2.11458730911284 -2.36839106686476 -2.39285824463622 2.5691658309707 2.81202087034379 2.29982169980696 1.79707214146209 1.99687037635338 -2.33183160318546 -2.18332827279328 -2.24623646351629 -2.55215994182974 2.78139473048236 2.28580200002035 2.26520410435267 3.22860208694947 -2.29620194532739 2.78592556450217 -2.38011178402919 -2.79919545449599 2.54086472401863 -4.59153083875416 -2.6655322826814 2.19663139219523 1.94388986231406 2.8214401226011 -3.31631045803262 1.65199196839161 1.79870268575375 2.72571465765957 -1.95801552913378 2.56687254477308 -2.35330851243999 2.10558276471157 1.37317916086081 2.2755762186167 -2.35968414779585 3.34583718764676 2.49047914646884 -2.06654348501998 -2.52468333513398 -2.66498198495319 2.57326072907134 -2.54063141858655 -2.3012390914122 1.96083615224402 -2.53055629475158 3.26959628850444 1.98350005371378 2.42850892608833 -2.47323012332055 2.14158863979295 2.28757074454744 -2.89165807438657 -2.10779026610203 2.20374294148317 2.1278684913746 2.04794139964616 1.97924757489576 -1.78423117989926 2.68850171772913 1.86515091892736 -2.79118431107033 -3.01854695613793 2.53765429806598 -2.07918301065928 2.28981444652016 3.28963461125044 -2.60409613434962 3.10504706468714 2.46766105530957 -2.32852741697333 2.03895327355106 2.50860905548686 2.57418317167831 2.17632531851237 2.37390203172043 2.35038427586238 -2.35783077927454 -2.86469939434131 2.54860551798799 2.66001396080259 -2.76785116392229 2.21242592329316 3.16633852741841 -1.97042915368041 2.224070801469 -2.3705598646905 2.39567626376617 3.57592250072124 1.96137187826643 -3.02072146354574 -1.41098503153864 2.58502520969596 2.74115939270065 2.19339989488166 -3.49500801758449 2.22943744892521 -2.48621454744928 2.35272128375587 3.12334065694495 -2.2201605512962 -2.56822669396493 -2.68858275572813 3.22505729661483 2.53334126713154 -2.19592599234634 -2.17592456204965 2.10521545112749 1.744084715833 2.61287006320735 2.31783038682683 2.41157618368334 2.428688798694 -2.50296559202304 3.2765470483774 1.86347343833022 2.49557230827851 2.2866733118032 -2.19629366683686 -2.69899895805182 2.63855751515573 1.48216840706553 -2.44097424058373 2.37049282884261 -2.26199474851634 0 4.84052364652896
2.43998386433522 2.28856159513067 -3.03737716594127 -2.50382510337784 -2.85192752303849 -2.56818639179437 -2.84033358282097 2.06915850670217 2.01555394212532 -1.91555604423665 -2.33257362813162 -3.15995821268723 -2.67431971430647 -2.4948858905673 2.1960383820801 2.88510758287481 -2.25016915646963 -2.39473391088382 -2.54883592182878 2.01350646477823 -2.19915730866948 -2.41953425839371 -2.90878391073684 -2.37512624896606 1.12875518395802 -2.50594342804407 2.85998174924922 -2.43039608016155 -2.77910821570313 2.17109487147234 2.56665568974338 2.64878121293494 1.89841688785069 -2.59696768507027 1.89589155087129 -2.27047542110871 2.70856256460076 2.41835421940201 2.80782508996102 1.74201956328861 2.36713693612702 -2.36658969533734 -2.78539383539739 -2.33964199609935 2.31514619127074 2.42026520743494 2.2332821384337 2.43027628003673 2.64823872101029 -2.2408538833755 -2.36928726798227 2.79457304790642 3.23071488394133 -3.3294783905968 3.21201389240539 -2.78304532115888 -2.63681657998647 -2.51443352773721 -2.7827782922195 2.75889657460085 1.99061534896811 0.498511528544948 -2.82801664653163 -1.2837560149153 -2.86939779283163 2.75080211427953 -2.04788203445553 2.73476324886952 -2.67181592362749 2.47219088477729 2.13011110011086 -2.66768848855047 -2.95160439645311 -2.45001107853104 2.16344959514779 1.60778633708212 2.43568575710366 -2.76410708744596 2.63949892199954 -2.30963960419143 -2.76601719331684 -2.29310259136771 -2.82788795227472 -2.22391934287328 3.14812623581444 2.76194247705568 1.8988701213253 -2.67572248397212 2.29779226506075 2.8795572736702 -1.98066783602364 2.22891665376505 2.08794759249388 -2.00775362824484 2.07073137431984 -0.789717138583798 -2.36188860968553 -2.44445995310138 2.15295342735381 -2.5529759147309 -2.6990256441473 -2.66675530910733 -1.92562266351683 2.52399937532235 -1.98980827642636 -2.37969384783911 -3.20479636668436 2.15778669686725 2.60316160232615 2.57173930071556 2.97679074375932 -2.87575295208391 -2.30976331492134 2.35275480330437 2.61672776864289 -2.95682887576874 2.44994786334027 -2.34614913838892 2.53083231391725 -2.0644631892191 -2.05631276288659 -3.01599309350655 2.42746173959306 2.13948879315022 2.90439189255368 -2.59644390020257 2.41340091015882 2.51538657759351 2.89119976253926 1.50420275740782 4.4105822998985 3.02057345450733 -1.62308943482631 -2.60241365360611 1.76257278549029 2.83783357232192 -2.466207419409 2.1689281030494 2.5833444623223 -2.31934144731847 -2.54716314651177 2.53592339318539 2.41995914950662 -2.86178645102686 -3.43487818332241 2.95581167070592 2.61277313930954 2.83790855742148 -2.72174754926398 -2.80790156578077 2.17431408662961 2.01448305555709 2.67052035465581 2.32244131625176 3.64758250818208 2.43902159834458 -2.30970705480535 2.67634876927344 -1.69138472354459 2.49531135589257 -1.81055595384464 2.58966742943628 1.98227718434143 -2.811355692185 1.92388194223991 2.3279732836632 -2.65935991529681 -2.41204838367843 2.63534600170582 -2.16587081948691 -2.62326749947749 2.22517423287014 2.52877335619323 -2.66727288709953 -1.75449120929386 -2.70889199958992 3.42584058907875 2.75379694762835 2.24016841768044 2.61198701448786 2.32310956332868 -2.30305754480934 -2.012293901989 -2.73614061292226 -2.74950671661697 2.60491438548914 1.49182428287343 1.18983709467328 3.29071718838951 -1.97862174757899 2.14166114468406 -2.46422745229442 -2.5901641847812 1.95878216319169 -2.22129986906807 -2.53935440183263 2.43544949069443 2.26674044348377 2.22966588460244 -3.69403802632354 2.64793127632712 2.32428493644895 2.6948021580704 -2.53255428254081 2.24311390244015 -1.92801201101084 2.32048007193038 2.99554443224217 2.6491349046407 -2.18319763802925 2.62244107633017 2.56235634565591 -1.98872811981287 -2.69621975254979 -2.61451957172069 2.12398832137333 -2.65847187098874 -2.77593481318188 2.80607931925113 -2.00704958843453 3.03525671083524 2.56918474464162 2.46426505785741 -2.70565168646248 1.8546342766131 2.66025722252459 -2.7762042561515 -2.28725873476618 2.25974905497275 2.25214947709315 2.44385377441057 2.97229775900945 -2.36013222444017 2.6456501631371 1.98935083070599 -1.95840966968263 -2.93215248391797 2.02391625177743 -1.21639891776175 2.36608592345046 3.36709566015942 -2.61468278171305 2.55302809050832 2.81828258177812 -3.14487654396635 2.41299685113379 2.38093141435009 2.0127443100282 2.99878974526519 2.27966016414023 1.85515393409997 -2.70490195116377 -2.18783800254988 2.42099120995058 3.04946252196088 -1.84788797587166 2.82325458792227 3.24559913871721 -2.87814206976625 2.47639062169441 -1.97242972483664 2.69229166838418 1.59222634809028 2.73462545469947 -3.08303831274983 -2.28730628201953 1.983342818898 2.03472636464492 1.96876852450297 -3.89800313355731 2.41720385369607 -2.97442359456893 2.07740535360777 3.17518231880701 -1.91964002674075 -3.70883402862332 -2.13167497092717 2.53603025691799 2.75343812387049 -2.21866812628201 -2.63862732819242 2.79984253615661 2.67475461962472 2.83469219804192 2.14968464424163 2.21573300973671 2.40721637206998 -2.7593822996718 1.52968129506733 1.920838726415 1.94075530375937 3.53483903191629 -2.88672403199499 -2.15924727761541 2.16814541140636 0.932208382313312 -1.84354288784293 2.17772508805782 -1.88136274668495 0 6.28099864647253
2.53343528897011 2.2291840711751 -3.46846229680753 -2.70205745919076 -2.16419928602799 -2.69978092733647 -1.94998194672357 2.85999088436609 2.66218774654717 -2.09024787343111 -2.71844638499838 -3.43446599033755 -1.91414863046437 -2.58282922266101 2.14523662911045 3.13944676244309 -2.67868444378113 -2.48471925379452 -2.60253559754832 2.15636551104307 -2.06473803954221 -2.8506810014144 -3.21667392070267 -2.51773397920781 1.7575194815984 -2.03425800297459 2.73843782495366 -2.4108234388567 -2.48825281890275 2.19438828591043 3.09637182821498 2.70626101630171 2.62421090096885 -1.97698813069439 1.69829325723256 -1.7503456751422 3.4363724360895 2.20082068782627 1.13240895527324 1.82589880623361 2.29692172377366 -2.17694740424698 -2.59649394581828 -2.45974292264912 2.11522401005465 2.87487371358667 2.56626631179833 2.6992681482575 2.66290933520884 -2.38038905763048 -1.97816662888493 2.39274849850173 2.03318120006381 -3.77395912861375 0.826083314241989 -2.49721212782977 -2.3012576160562 -2.78783346684069 -2.72056684335423 2.80726182268286 2.01787215814479 -2.21281047695598 -2.44970117948143 -4.0241567366262 -2.87197821432845 2.09185806650023 -2.49573202622794 1.95944985632761 -2.60478555235212 2.25104588148291 1.859201134272 -2.79026363813662 -3.3577534442158 -2.09485783392904 2.12088291061455 1.74825956151056 2.55895171608019 -2.58099533526711 2.66097035695422 -2.54344980499099 -2.65193429369407 -2.82333672533983 -2.70558181024127 -2.76376588088072 2.60813482135814 2.75632685895792 2.91781781514605 -2.51472206150817 2.73061385096746 2.40974842903226 -2.51482390824906 2.66906892993675 2.16832320343941 -2.61641061373281 2.08970020296995 -1.67461061418165 -2.70212922305265 -2.67272606488883 2.17838358014324 -2.8947018789643 -2.44744759796733 -2.15817471952555 -2.22534818942066 1.84138782025603 -2.74617824052691 -3.37753146897357 -3.3858779933578 2.30710104825465 2.01078295056308 1.99237537483734 2.8754532022092 -2.65963328342486 -2.61808352675417 2.64445135569169 2.73441026350788 -2.00033753733189 2.24614157506989 -2.35154535184291 2.16422136055662 -2.07941622494636 -2.36173548743485 -3.44582590820711 2.18754416292547 2.79755575504419 2.40579438393303 -2.46106138365672 2.59843015363799 2.77960810501491 1.88170646393717 2.77182147498848 2.20686386311465 2.33411099354182 -1.39022532585797 -2.1840527211002 4.03047342792019 2.30366989600277 -2.21997298863159 2.09457321910352 2.62975457773958 -2.17706102547433 -2.13061163561991 2.13704183727983 2.23401638255698 -2.25528674371465 -2.63885195061535 2.48161514654553 2.16936834603997 2.21587159812683 -2.37981852503888 -2.90840624957597 2.56893360010517 2.9115533404198 1.97592862053337 2.31604599931389 2.54348716647907 2.35660156652618 -2.58451910315812 2.90050919531742 -2.47780427179546 2.63857021378652 -2.6399776196917 2.37147077658384 2.61767081184166 -2.21342209687994 2.59361290913311 2.29468477524198 -2.60355099677953 -2.05210728027778 2.96204294575179 -2.56640576961435 -2.6493188717539 2.06280373977548 2.27877471017557 -2.41836114562969 -2.15246311450944 -2.4866599120296 2.8663104155514 2.48297576286069 2.42846188138448 2.8685117403718 1.95079970905417 -2.42977807682728 -1.60358883324228 -2.70664723479857 -2.81095005892664 2.76226955861289 1.83491863946313 2.43359245123185 1.83296081500181 -2.4430174073497 3.00225026959323 -2.83367123314723 -2.77622739078994 2.14433101760176 -1.85468428877359 -2.48854263015674 2.34497746670925 2.51016631995936 2.23515588134097 -2.9515347267201 2.91042619008729 2.62672188223166 2.5334163482544 -2.74925412142221 2.84835760394141 -2.44827273266002 2.44220902902679 1.48551341409095 2.13851795947436 -2.79184143024251 2.74631309667295 2.80466698201754 -2.48430662098469 -2.74802453458794 -2.15560883327504 2.63565242256959 -2.85776237369492 -2.60426436284546 1.95607285477977 -2.40124475906933 2.93049661128391 2.50945406395245 2.13826620080823 -2.5130775547329 1.69217121261588 2.10826778901999 -2.89861942144857 -2.758296022685 2.8603007146 2.61591880320148 2.78221916656682 1.33590233927632 -2.96251002268524 2.69028336492923 2.83219461999934 -2.68192191725083 -3.59362789443196 2.06957865102852 -1.49763872888294 2.34079989443467 3.1538347481297 -2.15736734808323 2.63304882203873 2.7929253546649 -1.6950128752527 1.92194742411111 2.56201488457428 2.6786158790056 2.09166296484578 2.63979604179434 2.41924864142129 -2.62407382246351 -2.36476070637745 2.79829901136056 3.4983313493452 -2.67256903259277 2.09985053521135 2.72671899426204 -2.24694970211457 2.67799688245114 -2.4751936430523 2.24326394831068 2.14427939961767 2.57589800386578 -2.59146709153643 -2.46951100073216 2.50475463608456 2.49506459747058 2.88930869849686 -2.76350649884196 2.48118594184284 -2.1988964176702 2.58738442640409 2.86681391399326 -2.67433733348326 -1.62696346029151 -2.30644115355065 3.42024097596206 2.47555184680462 -2.5300248567541 -2.37296081534608 2.01980311522229 2.0390009331733 2.11135851494207 2.19717323986048 2.46872756000908 2.50194728186538 -2.45296357333445 1.8804463524534 0.949829722342341 2.6468534672573 1.93084436463276 -2.3484506829502 -2.06146884643939 2.63288187868334 1.33425375367074 -2.4840968163483 2.74975601372475 -2.75599441677063 0 6.00433466219174
2.37156525267373 2.77102897775242 -3.03294944555253 -2.41102739989814 -2.80413288037323 -2.32799208605447 -2.25890023967099 2.64524333731874 2.81823086170867 -2.40458545039069 -2.8732530937305 -3.13063545331999 -2.42364763266806 -2.60908771790009 1.4118195305299 2.40538777727571 -2.17414920866458 -2.12408940333271 -2.75082631194732 1.60372999422505 -1.85081183245361 -2.76716866682045 -2.85687224182138 -2.30793038355839 3.4521362387697 -2.27167907529864 2.24356525726653 -2.07636779746518 -2.84755030736043 1.72332696081726 2.8032222797454 2.19552695200773 2.70755322799347 -2.73936704972332 2.58108458709192 -2.33479605968832 2.43030607888293 2.7028341971883 1.75669763263273 2.13459444036366 2.78405352207236 -1.93351685812197 -2.42799739121182 -2.09877660981278 2.74137079357785 2.35167599844019 2.33934178257797 2.16696375452454 2.72877701881987 -2.32928290843339 -2.56712730609148 2.56267702297451 2.6667913647323 -3.23026659973947 1.93892986918181 -2.52689261604104 -2.42598372810085 -2.61872776861202 -2.72790537050551 2.39262721445629 2.1453378616799 -0.0227056842047499 -2.21116720627391 -2.12378929014125 -2.90447227114855 2.69871799805981 -2.55872130378735 2.18586098323232 -2.56098090055238 2.40570954795512 1.80754232738155 -2.82142567264835 -3.55394403147423 -2.38955031523387 2.48531287014814 3.04280390257903 2.6260744864516 -2.30151879622548 2.76737214331737 -2.33853723540399 -2.65061891484634 -2.76895306515074 -2.72644571113824 -2.17560117890289 2.61975929397121 2.25179906805753 2.61631031793133 -2.6551427721601 2.55716166487994 2.54816409145272 -2.74603111655471 2.0515342550251 2.5141347868923 -2.3450505914119 2.44171612541149 -1.81006117390791 -2.67405502381456 -2.30496073337505 2.19850524679268 -2.06623318895519 -2.33068764680729 -2.59907702277492 -1.84401754798815 1.9723382373713 -2.66393477848563 -1.84854101440024 -2.8694192891776 1.94793817999877 3.18876964974999 2.46274396168715 3.13333022091593 -2.0358640200418 -2.56262362980733 2.36637031714838 2.56825824185041 -3.35062949379875 2.53788761664443 -1.90907732014159 2.13632349598346 -2.67141328450758 -2.85779798444529 -2.4688556094396 2.62578472300984 2.60328904512908 1.91666164020328 -1.97178961534504 2.03092062009475 2.7131031128554 1.71687039724642 2.20757443929706 2.45472815121771 1.89809534329089 -1.68805836562719 -2.86881713380639 1.48743568464004 2.8568074305115 -2.61058707249705 2.03306536600005 2.12818342084851 -2.5647423673972 -1.66041719960805 2.58501679235841 2.01554585487909 -3.15813958299918 -3.52926357650274 3.0862453427363 2.55467327511034 2.0916826508558 -2.64186698767143 -2.67106060291933 2.35539132437401 2.52627249108231 2.31916338038895 2.90008185436551 3.19255895700677 1.98845857516137 -2.44913765561992 2.05128918441999 -1.92148600566972 2.21758777305029 -1.46000368882958 2.40025217142467 1.94729347894814 -2.49656585222477 2.88927978783277 2.47441040067785 -2.26592174646707 -2.31854277883028 3.03002853772716 -2.65695651186279 -2.02669236518731 2.45824769149837 2.35017148658549 -1.92110005701056 -1.79019953520188 -2.52193159140607 1.93359392712036 2.47075713338032 2.16300471079526 2.11682824665473 2.04812422557543 -1.9666414255855 -2.26523089674848 -2.5367419091135 -2.89870212699236 2.2786036058857 1.8209352308668 2.18252986527332 2.59306784849626 -2.90269524651071 2.31309920324601 -2.89133907891695 -2.49893088080632 2.05671773356494 -2.10374576700288 -2.57621734875132 2.5255790451539 2.4966735417333 2.10148458107911 -3.19446603102639 2.65446052756343 2.35621696868495 2.85348963300293 -1.99737872890252 2.37307558398461 -2.03027286000297 2.76325310591263 3.57010285458015 2.38508830724576 -2.39537078153774 2.80049282564642 2.72103322734905 -2.39946737575426 -2.33693926367404 -2.6300996092883 2.21955630322437 -1.98814549528103 -2.55742543120805 2.24533460512826 -2.38296232423554 3.02355795935556 2.18618407263821 2.70277542158256 -2.43618830033461 5.68641599954248 2.69917329006858 -2.78351495170839 -2.51770090615675 2.80430065104755 2.14605648588683 2.92391973318584 2.21312419666098 -2.16067856981908 2.09763759199855 2.390783748195 -2.35203202070209 -3.11256248001648 2.47691416126903 -1.75725393049199 2.32638206004625 2.83758509568664 -2.74443454617389 3.15008930927814 3.08302822615152 -1.96423766916877 2.52426765585015 2.43214620700658 2.59817723205804 2.2366676318659 2.67592331982374 1.88810001186423 -2.65408111012191 -2.39788218748204 2.66470904210031 3.16260268403829 -2.46704258316242 2.46095877532429 2.83099402835535 -2.83757906913311 2.649631425969 -2.17353368456342 2.49129636598841 1.94619238658717 2.09281492047379 -2.6937188446729 -2.64467950157172 2.2050963923975 2.06294736799717 2.16627161687259 -3.36827770758048 1.89854766017364 -2.95918305785973 2.20438088820344 2.53913058726551 -1.85531580413887 -2.1864909935005 -1.28779485814014 3.03981666012427 2.14453667171432 -2.65046442761399 -2.62151893809758 2.25265174412685 2.0754238974222 2.08772769408498 2.73431578799932 2.35777549240869 1.95863345467619 -2.09644334364447 1.86143159887904 1.70873911318902 2.82765671446414 3.79853644481611 -2.32786104824851 -2.58150090044227 2.30865675043603 5.00844112372673 -2.22352205224004 2.35425969790756 -2.56616445145749 0 5.92047979611641
2.19245784132192 2.07841939851002 -3.10398148576265 -2.8081529717528 -2.22935299817579 -1.83644854131828 -2.84855010261703 2.24451244663026 2.7448856172462 -1.92432795250049 -2.05365592795243 -3.2200509539987 -2.71869372100922 -2.08004895745228 2.44826946623166 3.07126850819156 -2.59814583400517 -2.47953435314931 -2.77426345147385 1.62459707265218 -2.2754858852634 -2.26780216451956 -2.93681026794065 -2.14439462336532 1.93822327263192 -2.48016422609266 2.61464744198473 -1.98810566737056 -2.22989582868563 2.67756368937885 2.40654781731693 1.93141780399381 2.50630313349563 -2.62943292354552 2.93513251647665 -1.91691004120119 2.4436570409968 2.0576411751762 1.89481830280359 2.51408251154859 2.30688618675474 -2.14731517762114 -1.99312297629601 -2.2477991438951 2.1526085816282 2.26935984682992 2.57764006240189 2.55700718589931 3.13958386517455 -1.70730281524266 -2.00932627739488 2.09712451485007 2.52616433510481 -2.91871614293933 1.16885192594052 -2.14886784261272 -2.42571617990087 -1.99194628544428 -2.37986771497617 2.24434100056211 2.0243830010109 -0.386278896382744 -2.15305427041488 -2.63225379865546 -2.39713671945408 2.59587086560798 -1.82183961115683 2.71895068676634 -1.95361491737345 2.33117935134439 2.59367818143362 -2.50165498947207 -3.17238153558575 -2.2443162797497 2.54647955859578 2.05657876878536 2.5695394793374 -2.63803784588063 2.46310764377869 -2.40999639170068 -2.1968573176012 -2.79949622941225 -1.92867595095843 -2.19149594858322 2.06686864194667 2.71214307740354 1.93424832922149 -2.41405407195827 2.30460489680761 2.04731351192564 -2.09184006930105 2.55504639073526 2.60302659553391 -2.77687584457235 2.5681660651069 -1.5696884206406 -2.79557036790414 -2.02223440640289 2.52909609929539 -2.30453678458661 -2.49602727467175 -2.05570726859607 -1.7880366405054 2.35203962867308 -2.82254462264484 -1.38537523503562 -3.63432501730727 2.14992107415537 2.43457426517642 2.02713148174248 2.97988673583998 -2.71542300340257 -2.56016842214025 1.9921942912393 2.68631437680168 -3.2146453863655 2.06730158654525 -2.53894483593093 2.83028200464489 -2.79868736889889 -2.20529904004413 -2.58483861000021 2.3434583304554 2.59484769692401 2.01909119290964 -2.55687646685199 2.0541827149546 2.65463474981678 2.146668080904 1.84605829124503 1.92612918868213 2.63952547569317 -2.74660544709315 -2.93089416155017 1.39540393043 2.60452026209472 -2.5960087940047 2.15020952354608 2.17758846663018 -2.7081026833909 -2.74892760109099 2.63180394206674 1.87095890402522 -3.28720860565446 -2.40578770449287 3.06665242969265 2.12035844430027 2.66770741075192 -2.63041678896081 -2.57769477181344 1.99779856763392 3.04606770656492 2.73839084064693 2.58345628461815 3.11659015389449 2.71440029296015 -2.71359784965923 1.96163784450559 -2.4510913477755 2.57694528961555 -1.54682225404445 2.41058500671468 2.27219182047598 -2.81815539684617 3.65700057457961 2.4706013783364 -2.15083946506725 -2.51741929344359 3.44222916719755 -2.72286377438931 -1.96223916172407 2.767048973249 2.29414583594296 -1.99939000954587 -1.79512384626165 -1.96649327944958 2.57447463744404 2.18852155867895 2.42592552431348 3.39906804069288 2.66552876063545 -2.36805841542585 -1.93108918281795 -2.67820691570711 -2.95759337961811 2.47809744649782 2.43617125387428 2.35338713779054 2.05834996337746 -2.58686703338663 2.20793918886458 -2.71845917598366 -2.68852572892007 2.66126569595562 -2.04808185007621 -1.99216821255299 2.16035833132956 1.88316296145181 2.16046001676575 -3.55886543318674 3.1022110504911 2.11060915969928 3.01792961663108 -2.76614462531047 2.59406343649906 -2.66823938570702 2.3984437373536 1.64342488212786 2.02882038777296 -2.77628269503024 2.40536412900776 2.78307250236323 -2.29630499397585 -2.62178866223425 -1.87558938964828 2.00721382696549 -2.83196275853533 -2.79207986677943 2.60411802710187 -2.34898719493763 2.44094444622614 2.83612494250054 1.86823374401225 -2.22736753520552 2.72108469455603 2.55243556626027 -2.11304506685138 -2.21948206986914 2.24355960095816 2.60795988982572 2.37470851649652 1.98782574147262 -3.76567834931044 2.35545951109183 2.78389587242893 -2.27415540557449 -2.78366002303161 2.5212159906198 -4.81393590402497 2.23204910432647 2.67604770423267 -2.06894199808173 2.7296062287842 2.74209986495845 -1.69480248711475 2.23313251487422 2.4299358639638 2.91576664905831 2.31277367645325 2.20430749173947 2.45171088074007 -2.60060335524349 -2.61537267911346 2.83839863660926 2.82897981674689 -1.95658600070276 1.99171001971419 2.89696411413218 -2.47870139188334 2.86234177661528 -2.44150844342501 2.63251364345983 2.13763374008009 2.06273695163327 -2.5984956388195 -2.78488251590164 2.75241002205594 1.93515893410357 2.56483549094632 -3.44954537335688 2.3163167911148 -2.52949334077614 2.33237337949951 2.80444695301239 -2.3857183381384 -1.53327951253306 -2.17423205951083 3.55345618691637 2.62478149170857 -2.60838115023248 -2.68610278319516 2.65727181450654 2.19486123475955 2.79540114870727 2.74817557624315 2.18368352379966 1.97992988961601 -2.75257239260316 2.4440183808691 4.64782684486932 2.27497469450683 2.28416664974283 -2.68232436139137 -2.43263400862862 2.47828244484981 2.15017542959152 -3.50130011236921 2.17951196744413 -2.2322752060324 0 3.05352206809492
2.42538035408821 2.52096676351664 -2.5827820259093 -2.67665214656467 -2.08292807209712 -2.3930522491638 -2.08294141270208 2.48975363144882 2.58416211980563 -2.25707769066136 -2.56740511964488 -3.08258204880102 -2.35906828958031 -2.64538563670413 2.52626664801723 2.88121019869965 -2.79074861810647 -1.91519086310338 -2.70606330341056 1.67099440521235 -1.96834217573517 -2.00697914892243 -3.31959814917236 -2.63828859766369 1.42885063705206 -2.64893262227121 2.30237929040477 -2.02685261756213 -2.8025198956693 1.83843569202908 2.74797006189224 2.82066592802364 2.1396352171181 -1.91767265840177 2.2807385102091 -1.76528443069389 2.29297274118265 2.27456812909533 1.90572648613648 2.00023294421356 2.32318806718051 -2.19140250194985 -2.47304154918611 -2.76127062476244 2.12401459930867 2.64854557977749 2.74713235296532 2.58687710054102 2.61535258341076 -2.58370291099312 -2.66029843075231 1.97465442302465 3.00557449051834 -3.38771130729435 2.89397057192534 -2.21157308208924 -2.78318755442919 -2.4714482785519 -2.47438002413945 2.50549465109665 2.71621749680727 -1.36058241505452 -2.40387710482958 -1.24648357506724 -2.77432746392874 2.61789814943608 -1.22164836572063 2.43601645126336 -2.34701441638396 2.00992959880774 2.18424300446392 -2.97241914190723 -2.64808352951982 -1.96075614581546 2.49736820235252 1.89937501348702 2.15153174004534 -2.50083600594001 1.8997020937242 -1.99863528562179 -2.41089224647988 -2.27387488641793 -2.83241677431232 -2.75191359711175 2.78864009353047 2.51063265267873 2.207869586263 -2.06489479132241 1.91791129768564 2.83552108642177 -2.24584233945716 2.64722130930295 1.94942095154271 -2.42126843389243 2.53950261572002 -1.99868047887429 -2.75146208672727 -2.18318639188546 2.67159140605555 -2.36036741368465 -2.70382554305694 -2.47053608772661 -3.48509622424848 2.32899176742661 -2.38552961210311 -2.02768816752757 -2.88173911844786 2.76513961167492 2.51838204211411 2.29236810755549 2.60611002419525 -2.13906853477337 -2.58551806919885 2.3624794289692 2.52988832373326 -2.90191115618145 2.77441095065715 -2.28884043416771 2.6298360301278 -2.02949820844853 -2.20181843879555 -3.05909902944387 2.39374146159577 2.45677567997888 2.14182434542185 -2.1226181616697 2.31100188952903 2.09859412820041 1.73859721416579 2.49702617083367 2.12529880060288 2.65636597930041 -1.99984334326071 -2.29002355399106 2.43510967377608 2.78383603237839 -2.55170951043616 2.27954294864729 2.31484016340152 -2.59429508979781 -2.04818965158898 2.00486319872012 3.10096977298843 -2.5498485741728 -1.97238023279755 3.04004762960498 2.31500983803159 2.3290355072308 -2.75382205730479 -3.30770760126467 2.5011267008212 2.61538155614474 2.81282572600202 2.85636006660164 2.64318029701691 2.80032738675801 -2.13565286398472 2.43237454781189 -3.44026115362901 2.68878967455847 -1.98608236166732 1.879312160697 2.56990579044879 -2.22808005245504 2.54414516164611 2.26000298794172 -2.54666661089971 -2.2459290004522 3.16752153872498 -2.40371060036408 -1.85285921256119 2.427453988254 2.65906294164675 -2.30337753949122 -2.59198440591326 -2.32357478462032 2.69453736790173 2.01344382425243 2.79009078450946 2.42748407946321 2.06110806630383 -2.74999653334793 -5.4362900892039 -2.1827970854987 -2.76729676682736 2.52785844343191 2.26565003256151 1.78020852271842 2.86682834682108 -2.0833532201792 1.95548339195431 -2.37450196652408 -2.59865641195366 2.60314501658115 -3.37031844940584 -2.04791783152452 2.26920212764022 2.13167477764939 2.78790610271151 -3.22197527045981 2.43607306945943 2.53779140349218 2.33072347762494 -2.22994606699687 2.23559468259601 -2.75768181509 2.74582246003692 1.43369534708543 2.7287942992873 -2.50102205590566 2.90478798854213 2.63915676051999 -1.96050574471287 -2.37615224511803 -2.24398742138474 2.70170211649792 -2.0000963328428 -2.29682748378156 1.98734042111847 -2.56140691425245 3.26136594042352 2.69993214345781 2.81276990611292 -2.75566563801384 2.53014621791481 2.29183602115065 -2.6324718019039 -2.7454183383949 2.02436252271023 2.14950983199759 1.91151133946604 1.46314028766201 -2.43730230289151 2.41623050549537 1.85200784979499 -2.52752735044149 -2.99222952940687 2.34259754648 -1.70774467235354 2.40864482430518 3.16737939156433 -2.57804965004261 2.42015456705827 2.92812265219129 -3.15305977273091 2.27294590594183 2.51702003004788 2.59427693255879 1.50925924124307 2.2961875992051 2.82391102150306 -2.24262036422925 -2.65819056834118 2.72503475820003 3.55647392403106 -2.14081896029135 2.36598962277397 2.92175836106003 -2.5912999128174 2.81359939696448 -2.02457744013776 2.54908668804074 2.43406740148799 2.2497726061951 -2.83766544653109 -2.29001166727126 2.40002864410526 2.24672219616096 2.50793033157012 -3.13823005272006 2.14406984807579 -2.80166885081144 2.16392676736257 3.12394090249098 -2.17152233315497 -1.74641747452618 -2.43555685105818 3.04750592368572 2.76342686558939 -1.86394675382581 -2.07446453233952 2.28099153891361 2.17439987947089 2.61481717952283 2.21503704161651 2.30513791824452 2.63644663607139 -2.45594579871696 4.18910600109081 1.92873412777444 2.40928186718556 2.26898511174584 -2.53215486919347 -2.26659686721416 2.41704110300659 1.73913679377727 -1.96520157749662 2.80657002004995 -2.64328574893705 0 4.56646178503381
2.73621658538592 2.17991422436004 -3.11676063093348 -2.4456028000571 -2.86246316973645 -2.1594823095376 -2.55438786754962 2.4095445593242 2.28247222826488 -2.3287488093011 -3.53796535885176 -3.40872205127267 -2.14986720871753 -2.64489697517242 1.85749598869506 2.58791086249632 -2.15362691550975 -2.28495717697427 -2.76243776530591 2.95110630419858 -1.73274543505575 -2.64348737894562 -2.91423614563337 -2.90723021713906 2.68815273790809 -2.07906783242999 1.95145812352323 -2.21197896669392 -2.80233160049946 2.33182868474673 2.9203743782822 2.33966908161868 2.21289815992401 -2.45055110673655 1.72357023453459 -2.85637778095398 2.81734492370988 2.05059812301422 1.82030646929951 2.7855223477413 2.01789139950212 -2.61409285892698 -1.97273503771064 -2.31397642003575 2.78231754263946 2.31394168739615 2.15172500644969 2.87646575912416 2.48389638769587 -2.60190200753449 -1.87847359943565 2.16304346684293 2.28497060124042 -3.37946701072152 2.29439551464496 -2.35419222160025 -2.1232482458813 -2.65920224222133 -2.80947608811645 2.36143313706194 2.44312859021275 0.879047475687736 -2.48698797718628 -1.74117202053562 -3.02729623211011 2.84958364000814 -4.37709354757103 2.04253542810336 -2.69607614315259 2.42821885242838 2.07595411442652 -3.14952580422622 -3.27986194681835 -2.41637515707631 2.48602686063995 1.99383528934158 2.09673444950412 -1.94147619731842 1.99424540756883 -2.41680830392231 -2.27174262167343 -2.67057259185325 -2.6541845114986 -2.85456596518689 2.56561419520506 3.2652252970218 3.849584355402 -2.07362708171248 2.88285141973336 2.3705478909718 -1.99384851149511 2.68205877204614 2.07883285599943 -2.71073743979123 2.16751331034222 -2.00142840909494 -2.01027058622384 -2.57239981252186 2.65897789836353 -2.75100487695009 -2.6139174733151 -2.03744382375476 -1.07316862419083 2.61323606538672 -2.22310228331046 -1.92341962137724 -3.80954385371638 2.0158439505791 2.779271592514 2.81126060479274 2.66562924341184 -2.19050638190032 -2.71300070453317 2.47937306724408 2.77503312644859 -3.07120978744973 2.29770608137496 -2.42984259380221 2.85205397904742 -2.47039549399094 -2.73832738061338 -3.32668555570463 2.2010769089822 2.61722560748748 3.34266640364163 -2.423961385128 2.71302428638703 2.65581208812334 1.7433412829989 1.2757624871644 1.53059667730901 2.75450823878889 -2.10892283552395 -2.85996619615603 1.12427023740399 2.61987596011467 -2.53881287878271 2.29109590401628 2.03594224542457 -2.43796545328137 -2.0529067669684 2.48369950326531 2.70320154371975 -2.83123488069079 -3.36186017312101 2.82472384924404 2.40977629574722 2.25398357493363 -2.63217374646913 -3.06301273048464 2.00783305111969 2.54334056665169 2.4713299015736 2.20082017706958 3.76474568959203 1.93889565222203 -2.57324231448309 1.91269938372467 -2.10353799475913 1.99138280616285 -2.55345866034139 2.3687696449151 2.83772566017813 -2.23185382976211 2.21643411260251 2.77917755924798 -2.31251750977587 -3.18283541959975 3.21316591437487 -2.74960553852772 -1.9264887541873 2.90011711947112 1.93575918098332 -2.40097641344565 -1.58836150699057 -2.34367878816206 2.58249072629202 2.08761619379493 2.33688681320327 2.2315235805043 2.76721390853958 -2.61661770869092 -1.91116142863465 -2.25196107656685 -3.02884751217444 2.53062901300004 1.68763557512265 3.89324073237271 2.18761959333704 -2.66007375503543 2.10609582733194 -2.51943052005694 -2.80229648109444 2.14098294124305 -0.598405693545326 -2.49923910286396 2.50267879944343 2.25170017967429 2.87754258071147 -2.81375810725388 2.56828334532271 2.38030934756633 3.46969571842904 -2.78356484598245 2.73319539762592 -2.80602736731738 2.37239137846639 1.11899445088626 2.58578872917935 -2.47559592316076 2.69924481972606 2.20068165995673 -2.38996582282836 -2.05444632621841 -2.63868218826473 2.31573357977695 -2.87697112782244 -2.48236393878647 2.52545012231373 -1.98041843917091 3.42324760898798 2.59541103362608 2.76439004106676 -2.75299317434792 1.67583103077715 2.47828778927189 -2.07117863305443 -2.1211791617463 2.52048795382389 2.13544488884962 2.62637672500244 3.40917689904535 -2.73691990354129 2.54398899180352 2.56172018857783 -2.65076230304255 -2.78090008285682 2.25208425787513 -1.08607830591956 2.71149072634152 3.66970508758648 -2.53082375937034 2.42321900437344 2.83449218711003 -1.91527801328784 2.63695199801153 2.75492035948417 2.08532552883878 1.7312197068459 2.16965328139558 2.11937170774674 -2.80676097425099 -2.21314490712858 2.06897226663249 3.55734404815318 -2.00410384689817 2.61943487727497 2.51466044286555 -2.83212927544204 2.18655649198674 -2.66855803435415 2.55075647790386 2.77811556279565 2.37982387672106 -2.92677131076805 -1.67981241798649 2.05211565765174 2.78531709666219 1.69828555254336 -3.06959693600846 1.96234149766808 -2.6090037544513 1.99560706409848 2.93927682677304 -2.67513255659424 -1.36864051789841 -2.12709806208172 2.82505136105003 2.63165555088469 -2.78342205193632 -2.15193293893863 2.5103691207096 3.02892857863016 2.3051477397135 2.79407434766854 2.64841189732856 2.07599583280186 -2.72994888245215 1.90623476163532 1.87166693541935 2.57539059191687 3.10643520832753 -2.49984641046323 -2.61577507211698 2.57947377227613 0.598875106820062 -2.15669281550711 2.55310437946875 -2.61153830596291 0 7.3955308802016
2.65615844940526 2.78878215347402 -3.14256451157369 -2.80447611416038 -2.80807937861796 -2.18216800469818 -2.87226139500136 1.94790711717433 2.05084652579858 -2.75813095481771 -2.76022826543615 -3.15682917080571 -2.75098819827969 -1.91461614762158 2.1985195060363 2.67109104805941 -1.95415709908969 -2.71857644787706 -2.52866632903802 2.61099351111375 -1.97608248119308 -2.82240219355192 -2.93903153564978 -2.67307586667907 1.77114406650715 -2.08686255155966 2.12579026110435 -2.06531331150196 -1.97202427016223 2.48882539990565 3.08285430367724 2.84789810858763 2.88224036778353 -2.63514451987715 1.96826002508355 -1.51698981641074 3.01442850766847 2.66365683035801 1.63737109402746 1.80260155397704 2.65694264647051 -2.57691050050143 -2.00584057723939 -2.49419946555456 2.37928656878989 2.37585153540355 2.29331943068218 2.40945527576344 2.71044739142175 -2.58204206670903 -2.61291090747115 2.49987234254805 2.00339058016846 -3.26003514401822 3.50355450937025 -2.28461046765393 -2.120376693754 -2.11902834767895 -2.11763864909052 2.26863783573901 2.30160654999999 -2.17892052094753 -2.84375723435804 -0.040944843611742 -3.12785930320098 2.26124323349451 -2.49460419130917 2.75741183150749 -2.31857757061002 2.6276185114024 1.91533138998446 -2.87455702687987 -2.57769134519067 -2.55216946448717 2.70130046976085 2.26782184893642 2.00154370841536 -2.16984457079014 2.77780072251998 -1.99345367316599 -2.293210632414 -2.00126543221099 -2.74597605477515 -2.02535246723057 2.58972670543138 2.78712858702313 3.5022765688508 -2.55235650750293 2.4981086715666 2.59589572382263 -2.00682904502068 2.65654716641594 2.75455403703003 -1.9988462549763 2.68676751734027 -2.15774283232707 -2.71754354944797 -2.2403568988722 1.87076030544662 -2.76168000931682 -1.93700112442342 -2.41666539974489 -1.97059574765186 2.6594247815581 -2.00321534713173 -3.50837510350743 -3.20283152353832 2.50750689472952 2.78731232620174 1.80019188647103 2.91651284601508 -2.7645023589923 -2.00091108743258 2.73475144056628 2.79247374518345 -2.72370522080214 2.86082097027378 -2.52671427660198 2.39174047715406 -2.92927223313165 -2.45124721476271 -2.93869777779724 2.20688064608072 2.81401715782043 2.26313706541685 -2.45012291350315 1.95354546748949 2.82448946214583 1.91643893275056 1.57945581956058 2.118152799205 2.3180211900295 -1.74531419208925 -2.145063927735 3.67771783022686 2.00275424287871 -2.84316021980881 2.16929327712985 2.57536527328796 -2.35925681352595 -2.45738602264503 2.13624901303716 2.43221196880041 -2.63722124594472 -3.08920394568705 2.79636087046407 2.53758399109804 1.98537364514922 -2.85558514757581 -2.868499722932 2.6879549942137 2.68681690778117 1.96343326120751 2.81805147887531 2.82731394974375 2.82642685884695 -2.86303079156943 3.12134738939192 -2.49115808139094 2.41610253954859 -1.56340428115672 2.75603928183302 2.0297167103794 -2.41663548873751 2.75393021640678 2.75839727412722 -2.42509375321251 -2.74216141072783 2.96022778739021 -2.1475470467448 -2.38491553246138 2.61128176764464 2.1798803227756 -2.76338298148303 -1.91080183721817 -2.58030776440487 2.16610695998426 2.67713226073742 2.69182050791432 2.1247539570542 2.49080333876113 -2.81575619032318 -1.01432630706431 -2.52593817116205 -2.64777677415381 2.39881083682913 2.12690343369233 2.04130931528595 2.48975989610072 -2.86234369027541 2.77369192184408 -2.83642104191676 -2.74746319948407 2.35677495259319 -1.72501101951703 -2.24581785842706 1.92571930783614 1.95326774563969 2.62271680869983 -2.99373726674386 2.10063890301372 2.53320598308945 2.57797334888984 -2.67106868986219 2.5710881604094 -1.95646743119156 2.53373099380105 2.08547523129903 2.27788666217259 -2.49579091759866 2.53389283354803 2.22337491544049 -2.72642623855626 -2.91449975176867 -1.9473702335194 2.72574721130258 -1.98940910087371 -2.14314531386566 2.84102086240485 -2.57898182214277 3.0999451202854 2.58402087660551 2.77746688842722 -2.00634964641516 3.35864616540631 2.25581034526128 -2.34861899875814 -2.0755678179172 2.37355865671281 2.86133953181106 2.08672511872936 2.05264184747063 -2.76807946943434 2.31114447245305 2.56850472648083 -2.05820979843454 -2.74428902563663 2.64065347340439 -1.76875176182618 2.56511599800193 3.16856270855701 -2.62883512494178 2.2484221534944 2.82734257430534 -1.87640783085396 2.53823868458385 2.80952389317714 1.96437310862245 1.84502115392076 2.61748261643597 2.62501079056841 -2.60085640982456 -2.72553888413599 2.51033528617079 3.47690562639029 -2.24287578237173 2.66180479542983 3.24387864363298 -2.44895824225843 2.25235632211692 -2.48171863269759 2.62991259676978 1.92549942475871 1.98641145387305 -2.89522594841432 -3.18555732379854 2.09542372670533 2.33147248701858 2.57019526454421 -3.17351108252144 2.74266588709284 -2.62847333167309 1.95046434444805 3.07679539427243 -2.44350006998492 -1.89515692620813 -2.31850758645418 3.02406185371253 2.18299696467986 -2.83620624577065 -2.47659007700466 2.36321171313499 1.83365546290492 2.69522735993251 2.16232054544502 2.81668864702776 2.11383038413492 -2.37024628788103 1.97809496150729 1.63349459458366 1.9679945320024 2.64149977216422 -2.70409257881028 -2.50047614741902 2.11153056525977 1.41478343182311 -2.84306550091586 2.85674709905375 -2.25918251489771 0 7.48150531860671
