2.09162884518498 3.1901568535338 -2.97135906131178 -2.54492402084661 -1.9716853117738 -2.95088199161441 -2.38530634594711 2.68590141344489 2.79132515950282 -2.16996283339253 -2.12714261357268 -2.8128958427641 -2.21963433153551 -2.01623902856338 3.495719370757 3.20511500300521 -2.51803191442284 -3.52969303123375 -2.84731521792289 2.01154051662141 -2.47037127081005 -2.51613331207059 -3.21186547376321 -2.68972107830664 2.40284882027634 -2.43628690683446 2.0816608800081 -2.39676178049865 -2.31439484375714 2.26710390463735 2.96383787943039 2.45977937428959 2.48826946870712 -2.11197300732273 2.60582962716998 -1.72288358865865 2.53257581433206 2.57865173317508 2.03688852717594 1.9652201980858 2.17008542398423 -1.89930959371865 -2.63890414819875 -2.64180203011091 2.22697634641426 2.76067415355276 2.39473463213676 2.44239484399518 2.30376788619209 -2.31525206492028 -2.47949613235997 2.50405264198625 2.46886675747287 -2.87840481846368 1.36219887355766 -2.08674553971226 -2.04798954528691 -2.82741969819003 -2.1439216562211 2.42664850500821 2.82886220046915 -0.231241252958931 -2.66771916781544 -1.60513670842566 -2.65484262648442 2.87192143469271 -2.16801901863835 2.62552233433488 -1.91277181891295 2.68960408892038 2.94867141711865 -2.53008032273576 -3.21317064468728 -2.88758717617765 2.23496087503972 2.33071827956469 1.95254269581574 -2.08568381933982 2.64471708227746 -2.14168402255644 -1.94750489188351 -1.96307944073973 -2.46017978350078 -2.61938946867535 2.53001203102107 2.73012479423321 2.4938627835746 -2.58643198741758 2.75137601905924 2.06581513768018 -2.8801818158428 2.74540921446161 2.59102988626566 -2.55552722542514 2.36250207227755 -1.85119929389921 -2.19764231742764 -1.93182186284415 2.40308005663719 -2.59865474158419 -2.5848587055868 -2.09852856073861 -2.21691741765899 2.07308951569834 -2.48201783736001 -1.91458456651214 -2.8923706078276 2.57195821349067 2.66510900981878 2.32183653900374 2.96644188487494 -2.76713662582305 -2.62653835180777 2.8653268994233 2.57784076661779 -2.94240968390221 2.46754516548686 -1.90675149135353 2.7974876740579 -2.53270368515018 -2.66222617116755 -2.59165366126657 1.92428043504545 2.7085910992323 2.08498286673845 -2.82647324306402 2.47072026459088 2.11305456676997 1.73609163246156 2.20343020811016 1.97158496330829 2.137800312582 -2.00671115385685 -2.3533867260558 1.65909362121126 2.03443276670686 -2.31474312231608 1.96005413517876 2.50260810744261 -2.1990279508848 -3.8780480080777 1.92356658159313 2.17852940654818 -3.35145435338656 -2.36840697615123 2.97218481909431 2.31038085251356 2.82093537003583 -2.26601925872787 -2.44212131030039 2.51466113238084 2.90098117733837 1.96782894263394 2.14415536090246 1.70044061510084 2.73318330259853 -2.41033407787618 2.31152430654621 -2.14595546753693 2.19237109519362 -4.58923057166359 2.60622746220756 2.12409598165912 -2.20023351961299 2.14313961191028 2.51396521606739 -1.960375369224 -2.08244035627274 2.81310885577921 -2.27439422585761 -2.37799301966533 2.45357736385102 1.99990174310499 -2.49483967988344 -4.17989261308514 -2.66197764846675 1.9714342705078 2.69353387844395 1.75439469133944 2.58893689302201 2.31841221290639 -2.14694444854137 -1.87552636351456 -3.2438039754719 -2.5009484116299 2.70513816703985 1.7223767714908 2.61730928837064 2.64247668486515 -2.27398808929032 2.18863760969166 -2.82865281961717 -2.47074041582641 2.41375596946069 -2.26463918484873 -2.38936371345755 2.62855378265127 2.48915105044458 1.91778993060325 -3.14152233840206 2.01445084843851 2.72910609685002 2.16259168845467 -2.79910704313369 2.99926111562308 -2.83292543086398 2.53390622454872 2.25251469475858 2.04358613872498 -1.96701182516842 2.90890815668334 2.73786312174469 -2.66659753673175 -2.06647120473272 -2.00497619545878 2.19894030503133 -2.6604820529405 -2.7521144807387 2.10998544039953 -2.40988771744939 2.53326182436653 2.73774233812223 2.21400964392542 -2.0450456287869 2.4172476608514 2.38901414502624 -2.76209497727596 -2.5751892648326 2.47745781657663 2.48733728077684 2.29894864807159 1.86353792147848 -2.16013955107451 2.06450461732278 2.55236905973164 -2.34543657176695 -2.88232608108629 2.34816372324079 -2.4430936395928 2.70244794609055 2.46332979090854 -2.69072861031716 2.93731528227968 2.73204012648725 -1.9081007794919 2.691217866744 2.68446570487599 2.4565898635865 2.25389495204225 2.2342593179281 1.93840171296361 -2.19929212423357 -2.41187277536954 2.65854865833201 2.64634521812129 -2.54862419907716 2.56702722309409 2.82585299654457 -1.95565359694421 2.38656118069639 -1.96110452591216 1.89994312694532 2.37492649171824 2.187567601695 -2.51996702665554 -4.0662326558769 1.93865912250519 1.7529457671074 2.05698187868561 -3.24394396284615 1.85656049096305 -2.4671651935092 2.75383086303775 2.74701838761529 -2.66558998510958 -1.75756227000228 -4.5382359021948 2.90592788821352 2.81621546709752 -2.38100164785096 -2.27466584615873 2.43303321477515 2.48810526527636 2.19028299715999 2.21356458258259 2.66094956266661 2.76253459633824 -2.68831590714557 1.89609349095886 2.79057352259035 2.73149241851402 2.05634063650531 -2.27008616638705 -2.12998514503525 2.45883499356977 2.46893527399992 -2.73668980070818 2.17322594783165 -2.7108868872514 0 2.16978597248639
2.47329912129499 2.62011605920666 -2.52985987727773 -2.79282800417481 -2.58387385987763 -2.22603728681489 -2.0505093952287 2.80096799815473 2.64648469133221 -1.95973318902115 -2.42651124562594 -3.13480844172837 -2.18927851180422 -2.46020579729017 2.622965907404 2.76949803088343 -2.71185964058556 -1.99300465274588 -2.57322704407102 2.45814825704501 -2.74084104450127 -1.92437314263347 -2.32587994192079 -3.65765430921779 1.65292956733693 -2.31322404277686 2.04085019456278 -2.74569344051964 -2.89141693066999 2.24259832187814 3.01087727442788 2.69248730827572 2.42007411563568 -2.68203526232329 2.795377056695 -1.86550633786382 1.97457121995702 2.61694773586865 2.1596229283905 2.90475066617942 2.72885980995442 -2.65204455098311 -2.57404748221475 -2.27473475052097 2.45217235237558 2.82795624519915 2.78595948986967 2.0484218192433 2.90401843894905 -2.52675015421609 -2.79643722355032 2.0754631880581 1.88927878160501 -3.52323153062988 1.16313823722702 -2.40633258355712 -2.8294589676122 -2.86029021336075 -2.15782860167317 2.79942750613412 2.26335708358477 0.211655213478468 -1.99490669353715 -1.35249165721345 -2.47079898474715 2.17124288485424 -2.23363233191931 2.27498024404949 -2.46699823190143 2.80760776042329 2.13460912457018 -2.6682050238219 -2.76217227228601 -2.44045638227161 2.68749670051151 1.83399186169061 2.2984188042954 -2.80413912467309 2.82581605413237 -2.23335722996665 -2.39809248257288 -2.78800908925966 -2.64878624490665 -2.11294946581344 2.60320694574835 2.86231839355821 2.38222532649197 -2.78932725262766 2.68406612074406 2.28124249254541 -2.02082406320293 1.94430647403379 2.9057431038417 -2.85340330677735 2.33028193126485 -4.01592073525043 -2.68799931623554 -2.44545701153602 2.69119551070318 -2.63533643122922 -2.51600947132626 -2.36114841290841 -4.46822304474522 2.74680950187681 -2.09877272431233 -1.92133801104991 -3.00761483871654 2.44732254642401 2.47124342992536 2.1370060052725 3.09919298687226 -1.91967260726652 -2.82730328980666 1.91886271094797 2.61013475525748 -2.94322021574813 2.35072823012632 -2.7635082447817 1.95660029196832 -2.79684986319384 -2.44074948093042 -3.03474525229507 2.60167666122971 1.98358486240133 1.9380080957222 -2.56287018538085 2.22897837158856 2.81225210516786 1.51099642664791 4.54143333988338 1.47529881749906 2.10399925091832 -2.83608298320746 -2.18535693550185 1.77045157506507 1.99901811201221 -2.55419784518298 2.23866490216917 1.80120964428732 -2.67109138044323 -2.35951515740756 2.17865436446921 2.20931065968249 -2.50780035263398 -2.32151083594185 3.1813403603531 2.59762672065347 2.86059129027767 -2.26031281993557 -2.98218289715504 2.45725314135306 2.33779845187747 2.29132723050407 2.72760201402978 3.22567992126311 2.84664144702979 -2.25857687845609 2.46108017719288 -1.94961224392652 2.33565440547434 -2.26106986665968 2.16562969642225 2.38001358269795 -2.14912357585533 2.083056185447 2.63558759642443 -2.15167584046823 -2.57466710506025 2.98040806436519 -2.61144728130281 -2.89307348749562 2.09110261141937 1.96625634688963 -1.89427925330422 -2.07417660881312 -2.71016198502787 3.14023505075799 2.07687129443526 2.44257071080846 2.05195938956591 2.22726728097099 -2.48112428642902 -2.18624845933375 -2.06817813644143 -2.98599289212664 2.99838390789829 3.81204435630495 1.98364512463822 2.77461974587804 -2.49607232231967 2.23163187640749 -2.2260587320314 -2.41103375853492 2.43068129064698 -1.73072274028151 -2.59576120562956 2.61009912058599 2.653043053239 2.17651245442916 -2.43958739370535 2.09441627189059 2.41348569883403 2.15294174617105 -2.5592963156569 1.99651566181927 -2.48490254670921 1.90765480018348 1.30021130946607 2.27553464686018 -2.24501305001597 2.08596095203252 2.42853249682584 -2.89951923598233 -2.19172071283374 -2.70007845711894 2.77694748717945 -2.9028372542598 -2.5390653281232 2.4747921993093 -2.43961921162946 3.17806683886989 2.22786545250518 2.28228486174921 -2.5428571963499 2.47703725366277 2.20619406810627 -2.19627482945241 -2.37687511289442 1.9581548485491 2.0715752139048 2.2800848466179 1.79446542487397 -2.13727700111936 2.78198696668116 2.80988673176622 -2.21391183896197 -3.00595026517203 2.78820708636011 -1.37990206189095 2.78922090108917 3.186734044705 -2.60065996417333 2.24383403345715 2.91675506740528 -1.97946328518692 2.62560044570103 2.57789366194193 2.60823622871519 2.00414707894623 2.82193242943786 1.94173567150651 -2.63135916760589 -2.68296336922672 1.94839755008242 2.97354793247337 -2.03400663585247 2.07358656818894 3.05758912864685 -2.46797980822289 2.67969870340368 -2.18931900784194 2.33721426977452 2.07597080368409 2.02467183597391 -2.63153873495354 -1.87108670908937 2.54418820679646 1.90409905760335 2.42379056437325 -3.29316386130188 2.52758972221103 -2.89466258794102 2.5356407801791 2.66919241219137 -2.43276184295654 -2.15474836326745 -2.31830889433251 3.03752687024915 2.86881881841059 -2.77726605224579 -2.27199711341764 2.85560149493507 1.81264928108707 2.02706668202823 2.75315577988027 2.0233096982396 2.74366770202542 -1.8867614298424 2.41648960317554 1.72731362100458 2.33051095702483 1.95445408156403 -2.38712780462019 -2.72814596956416 1.96475977703025 2.14680179548107 -2.03723509977573 2.68180334641561 -2.8224973767345 0 2.22166359230323
2.10727260857207 3.1190461592863 -3.22593238442111 -2.09817050331091 -2.64858229487397 -2.87880371512299 -2.22778101472361 2.26747124239553 2.61719086607494 -2.39278292658395 -2.10727121311717 -3.09009160728599 -1.9424398148431 -2.71991913815333 2.1413938444849 3.03034201659298 -2.40109314868552 -2.24841072852119 -2.73005715496883 1.60003631111259 -2.98886792488212 -2.12330178125712 -3.71954761080626 -2.50373576500026 1.41850138334632 -2.23766248761358 2.28215607060639 -2.34903279593465 -2.16190102574748 3.38414174165664 3.03371604652479 2.40166128492088 2.08110519988448 -2.30269022128113 2.55335491420341 -3.23399777375767 3.00358257715291 2.17542576813545 5.21384228879421 2.5865140717268 2.33318296298875 -2.25291011546198 -2.74450907113927 -2.09108475496286 2.5532753648219 2.11698400491442 2.31349190125877 2.14697077062697 2.82973331435665 -2.34011686129222 -2.64421023951328 2.4537070063104 2.19498866161219 -2.81370171365593 1.38393458951155 -2.56592455466131 -2.24844653798699 -2.4500654929417 -1.98027248410557 2.57006271240266 2.47739764679533 -0.945095599364546 -2.23333176654618 -2.72846546285949 -2.62970078064773 2.8113169775764 -2.51545356559449 2.1869426081829 -2.4980329260085 1.87464992568274 2.47040159080708 -3.26181845463595 -1.88104756730596 -2.18341334346919 2.40122238604449 1.97353030833952 2.39864426431741 -2.67550461773348 2.83712062671371 -2.20604769595163 -2.44148025301164 -2.50081593198521 -2.35512054205997 -2.45959757352079 2.38425136687913 2.19531966446076 2.03152914767405 -2.63967014412034 2.08630302038086 2.36135473622775 -2.3815351664537 2.44850682418677 2.01416539754269 -2.71947318510565 2.86073071241679 -2.62025255669971 -2.03024309985369 -2.65780839564774 2.1035349621108 -2.17834473702082 -2.38248646390837 -2.12992550557013 -1.74015857663283 2.65178507120983 -2.3969392910308 -2.39101992907917 -3.25588694662553 2.54210124718511 2.0420060640718 2.56637701855034 2.88357103580297 -2.58360314650044 -2.43269177003376 2.07094487687579 2.45129940111721 -2.95787338299456 2.51516402726664 -2.60422711764747 2.16167559424002 -2.49792612578216 -2.04738048992574 -2.64116058840184 2.11992496725082 2.75978546077185 2.16852385287765 -2.56934005241039 2.5736798165019 2.15175858165129 2.98529481475987 1.82298082957182 1.75921521281341 2.3985764128528 -2.44055977622114 -2.46926365063098 1.649140970072 2.38945397225219 -2.40749427071744 2.44657757376746 2.51335905031472 -2.2510877538414 -2.62405751279051 2.28033113497378 2.85356066465516 -2.60719387914713 -1.90896097274382 2.48396295844174 1.8744481809299 2.07944252296658 -2.11593545286114 -2.56047088622854 2.50308623445421 2.84551312733418 2.78924467761056 2.7352986980886 3.15302960416069 2.57809941698551 -2.38247667263293 3.10873783875381 -2.41881185780362 2.17822241054266 -3.23669404291363 2.65993567223688 2.88986269000314 -2.03684498323444 2.01453177774918 2.67174661021856 -2.545507790949 -3.02621976940888 3.43572275193416 -2.00707567254896 -1.9795181644775 1.99617049613386 2.24494961603516 -2.13053287379446 -2.3792749920262 -2.4087837886315 2.5751023756596 2.82795639665415 2.2249360626712 1.81006509430383 2.01280633396828 -2.34776694760157 -2.19115258717744 -2.25170921766185 -2.52168522018077 2.81597418164458 2.30173752693249 2.2863190203964 3.21689114929875 -2.31213750458315 2.80185852867233 -2.39410672885422 -2.81513566683353 2.55685221943974 -4.60528887275633 -2.68146807686304 2.20290710516504 1.95145302055283 2.83737574995001 -3.29478660673979 1.68448289282936 1.81463821131667 2.69139130461831 -1.9739510590234 2.58280285998358 -2.36924403828318 2.12151830179632 1.38639295909397 2.29256387363849 -2.37562141363355 3.33345903839375 2.50641467019582 -2.08247981611004 -2.54062762055307 -2.68091751042588 2.58919638246709 -2.55439446160864 -2.22257030348684 1.97677438437506 -2.5742821850018 3.21012109307954 1.99944581553423 2.44444488114232 -2.48916555314954 2.14812850158579 2.30331100143477 -2.89706962938464 -2.13724519765342 2.21968014653572 2.14380491573027 2.00775955840532 1.97513748878165 -1.7673653487262 2.70443916074483 1.88108609487839 -2.80712179525231 -2.97642460532757 2.54635492667594 -2.09058702433277 2.25813103364877 3.2392177932542 -2.635609190752 3.03221959449235 2.4189158826883 -2.34446291855425 2.05488843163018 2.52454458179722 2.60853925684232 2.19717158661122 2.38981060083151 2.36228617141923 -2.37376647102142 -2.88063493995473 2.5645441470148 2.59079561842247 -2.78378684996703 2.1614854506178 3.09872972327529 -1.98610604893273 2.2382006960758 -2.38704068246184 2.41161179008638 3.57322233759334 1.97730738087712 -2.97166917079002 -1.45966440041726 2.6009681193674 2.75886564578447 2.18076542951275 -3.44237225305273 2.24537298345961 -2.44576434902485 2.36865670408915 3.05975591544801 -2.23594345312622 -2.55441543519327 -2.69370032637756 3.19210156442499 2.54940599649453 -2.21186151893852 -2.19186646711408 2.12115108010158 1.76001182938104 2.62880560366323 2.33378137853462 2.42755456733712 2.44462489814754 -2.51890116119706 3.24951186664498 1.88798554222268 2.51150783480179 2.27395369411259 -2.20303392347461 -2.71493389361583 2.65449290874684 1.49345048945519 -2.44440001856498 2.38643018337224 -2.27793027201724 0 4.74179871299552
2.45384532005105 2.32560970469746 -2.97989371462634 -2.46615558747711 -2.86578523898291 -2.59353284014248 -2.85419635905634 2.06475185934479 2.02941165876773 -1.92940037709287 -2.33509971065069 -3.12397044923169 -2.68796441714851 -2.49037105956875 2.21262084038181 2.79367570255567 -2.26402750326509 -2.41572972094567 -2.49756362297588 2.02745932280056 -2.21627434433583 -2.43336891668885 -2.88039271447386 -2.35478350611667 1.14361719146886 -2.51980107641512 2.87389602123953 -2.44425392724506 -2.79296508084532 2.18495601918085 2.49406711033967 2.6630641009875 1.91227519538471 -2.61081714574358 1.90974936912543 -2.28125326036795 2.69404292502924 2.43221257678514 2.80384977565659 1.75588226329253 2.3809948370477 -2.38044713414898 -2.80166943992698 -2.35350024805648 2.30067659569163 2.43593076580928 2.14863812071373 2.4238569827786 2.59502664916006 -2.25471164969311 -2.38314501985992 2.80843118651403 3.21085955605237 -3.25697174009191 3.18850153893697 -2.80867837970285 -2.65067815656075 -2.52829232845434 -2.79660307824895 2.77275437736117 2.00726019971044 0.447249397241452 -2.84187436646 -1.31876264609319 -2.88410245830283 2.76465421905488 -2.05647271708699 2.74862098141608 -2.68567360082141 2.48703237548515 2.14343887697127 -2.64758323516359 -2.92041058598367 -2.46387995347295 2.17730734037131 1.62168844928607 2.4462923003299 -2.77798055204246 2.65335659639164 -2.3234973308477 -2.77990359726661 -2.30696172591801 -2.84172709852865 -2.2377771787746 3.10406948379195 2.72317516959929 1.89742595495285 -2.68958330248101 2.31164967178179 2.89338775027992 -1.99452564192983 2.24277442457612 2.16514382015335 -2.02160856806894 2.08458914443406 -0.81905224207686 -2.37575426651386 -2.45140298520322 2.1668120366001 -2.56883243442848 -2.7128833592807 -2.68061302676982 -1.97206163837566 2.53786457265495 -2.0023542204251 -2.38526909065505 -3.15652630332907 2.17163985295276 2.57302594592733 2.58559703357522 2.90900134586919 -2.88961030216831 -2.32362100566295 2.36661241883237 2.56607278734893 -2.92977367321316 2.46380559702733 -2.35993626894077 2.54473151606561 -2.04136580538963 -2.07017093091248 -2.98934309472674 2.4413194812469 2.1533465091209 2.91824960918891 -2.61030163171135 2.42719574348426 2.52924428158676 2.89080303643203 1.54638588453427 4.39707715232408 3.04850735499637 -1.63696369432064 -2.61632922743714 1.77624094267348 2.85169129026842 -2.48006112092823 2.18278881372836 2.5951566306327 -2.33319950583502 -2.56450948804106 2.55584297898288 2.43556857065728 -2.81893369967182 -3.40373269634643 2.90757729077685 2.62663065130884 2.85176737392927 -2.73560529031257 -2.76281361807902 2.18817180300164 2.04673914187182 2.68444225081614 2.33629905197967 3.59864683236939 2.45287943790054 -2.30107518485733 2.69376019608717 -1.70524244507154 2.50916964809407 -1.83634571469891 2.60352514986208 1.99613533903552 -2.82521966936625 1.93279787419375 2.35529558361773 -2.67322133274986 -2.42607449516737 2.5915768737104 -2.1779091505658 -2.63716498783754 2.23902937499661 2.54263155098518 -2.68113063197232 -1.78360312410375 -2.72274974525473 3.39969006775754 2.76765466359767 2.22146204046528 2.60654396041553 2.33696895654251 -2.31691529765263 -2.02094496524339 -2.70859878959438 -2.72704808412261 2.63409544189062 1.5056819988163 1.21333325010098 3.23663146754536 -1.99247946661006 2.15551976519355 -2.48828558126808 -2.60402553933847 1.97263023881951 -2.17195839321046 -2.55321299814095 2.4247306062289 2.28358052553065 2.24352361499774 -3.61085769608291 2.64119215512419 2.33814265243269 2.70986567485203 -2.54641199878844 2.25699120508542 -1.94186972806137 2.33433781764959 2.97885529443035 2.66180223751205 -2.19705541590281 2.56984456827565 2.5762140823325 -2.00258584290352 -2.7108051485768 -2.62837728779749 2.13974815698408 -2.67315979955921 -2.76501027040627 2.81993716122936 -1.99046856696847 2.97593871380238 2.58630165509817 2.47812860003753 -2.71950945806667 1.8801554079191 2.67412510085644 -2.80244034196455 -2.30148485486415 2.27360711061533 2.26606102322667 2.43506619287851 2.98047373931919 -2.34295944907146 2.65951209726486 2.00318718839237 -1.97228022417217 -2.89564857805489 2.03316355378232 -1.2439834078114 2.34057075594584 3.36604627957782 -2.62987970443103 2.50242271078145 2.75655074295696 -3.15873428916561 2.42685489098303 2.39478913031926 1.99345375738414 3.01042844815213 2.29351801928548 1.86198380289253 -2.71876621559256 -2.20169571693125 2.43484891292457 3.00388884063919 -1.86174573426437 2.81689892289841 3.19930696803206 -2.89269885408482 2.49386549087068 -1.98957427169321 2.70614943952047 1.63907083183804 2.74848323339356 -3.09237349798919 -2.31754987326439 1.99720061765185 2.04750819755007 1.93945977792762 -3.87067687517961 2.43106157426178 -2.95394820104585 2.09126308254798 3.11959254117537 -1.9336802148906 -3.70598604460897 -2.14928785782244 2.56711477691014 2.76823465622612 -2.23252660606576 -2.65247855507514 2.81370035752373 2.68764135488701 2.84855219134006 2.16356131583736 2.22959082267667 2.42107409029691 -2.77321295408861 1.55364268908081 1.92865110877117 1.95461231632452 3.50265962058616 -2.90312583444433 -2.17310512409381 2.18200319129479 0.971322544233246 -1.84562491442656 2.19155775949461 -1.89522356426522 0 6.15161246363685
2.54682186105096 2.22819366246319 -3.43386071931211 -2.62213117619496 -2.17758585479852 -2.71380328260348 -1.96336868950634 2.88535134212917 2.67557431612592 -2.10129445568169 -2.70075853023129 -3.3627848054821 -1.92753520561138 -2.59473034771196 2.15961412523459 3.0986088267502 -2.69207101486678 -2.49876654747834 -2.59968473104183 2.16973090617248 -2.07812284485092 -2.86406757143155 -3.18041055007608 -2.47617084494019 1.77092969017361 -2.0476166829481 2.75182447401104 -2.4241990088924 -2.50163781465976 2.20777485554295 3.06040219597349 2.71965052404499 2.63759747716739 -1.99037470891824 1.71167993770157 -1.76498342109619 3.40329682860086 2.21420803656842 1.1516070061013 1.83928473102597 2.31030829325248 -2.19033411299861 -2.60988332686433 -2.47312948314085 2.12978730393857 2.84088327723916 2.60856318847595 2.71542462266963 2.60013386622876 -2.39377562662913 -1.9915534007465 2.40613370123962 2.07145042963133 -3.71606719443034 0.835912146347846 -2.47458542915313 -2.31464418345502 -2.80121835179113 -2.73395378970935 2.82064843044054 2.03126026055846 -2.19826372338349 -2.46308774901178 -4.00566292315335 -2.82326985581714 2.10524463147813 -2.49887243458454 1.97283585745433 -2.61817217466556 2.26443412211676 1.87303579179979 -2.75860325082345 -3.30662455524519 -2.10824440520205 2.13426951113051 1.7616473142763 2.56666938262519 -2.59438135847096 2.67435692658476 -2.55683656099726 -2.66531287659227 -2.83673151830416 -2.71896842843957 -2.77715245044047 2.63133640296893 2.72566614615722 2.90943302388895 -2.52810885356701 2.74400041757017 2.42313564471925 -2.52821742416494 2.6824561801208 2.10988769767756 -2.62979710244233 2.10308612423235 -1.6788082219761 -2.71551706696061 -2.68815316120611 2.19177015918219 -2.90809028640683 -2.46083159281432 -2.17156127868888 -2.21812593316557 1.85477438980605 -2.76086572475472 -3.36806413402683 -3.35682379813448 2.32048922996288 2.01959623988644 2.00576194423448 2.85741172579603 -2.67301985290333 -2.63127030704513 2.65783743109468 2.69639908382243 -1.97069127026667 2.25952814399388 -2.3649319226104 2.17764795344297 -2.10973618780701 -2.37512205366747 -3.40365257576663 2.20093207234959 2.81094232451581 2.41918095339625 -2.47444795312316 2.61181673054847 2.79299468915663 1.8951769949718 2.75501231625849 2.20596985316838 2.36979502801955 -1.40361195321146 -2.19801132587547 3.99411348465879 2.31705641675166 -2.23335946940843 2.10796180181686 2.64207094769733 -2.19044756293775 -2.14359055214121 2.15023901867756 2.24745322479684 -2.26823248702391 -2.64689650471723 2.42154553666756 2.18275491745429 2.22925817071531 -2.39320509454875 -2.85989034608355 2.58232016903616 2.91263806203932 1.98931523229497 2.32943250458535 2.5255130214159 2.36999943187617 -2.56310238460782 2.9035027303919 -2.49119084126303 2.65195708627924 -2.63452094634077 2.38485705842543 2.63105738130839 -2.22680864048625 2.57824756719904 2.25881600397952 -2.61693756964437 -2.06549384655 2.92106901010066 -2.5800691088321 -2.66271753720341 2.0761904863102 2.29216127746797 -2.43174771971157 -2.16752250443091 -2.50004837594385 2.86941117310634 2.49636233232381 2.38229945278374 2.8459370545947 1.96418514926036 -2.44316476808888 -1.62706763051743 -2.70989178188049 -2.73039863689243 2.7548516066413 1.84830520890015 2.42823426490886 1.83932664283594 -2.45640405090445 3.01563514010185 -2.85047602014199 -2.78961396069328 2.15811520869267 -1.87390751582132 -2.50193085198338 2.36140533754422 2.52355305904667 2.24854628599722 -2.89949139639862 2.89435686863054 2.64010845354729 2.53914392522172 -2.76264067695547 2.86174823860809 -2.4616592970234 2.45559559854975 1.5102195961321 2.15190556109757 -2.80522798561361 2.68931091306138 2.81805355201888 -2.49769436792159 -2.76140283210865 -2.16899540273746 2.64903907247085 -2.88023580773411 -2.62780105768094 1.96947027244843 -2.39339082857508 2.902345626352 2.52286230892071 2.15165381776631 -2.5264641254446 1.70597338712386 2.1216545338173 -2.91202966918973 -2.7799854397037 2.8736874087329 2.62930365479821 2.80499884164411 1.37103151164197 -2.94669367202262 2.70366995297216 2.84558124174294 -2.69530542833259 -3.54058147110391 2.08170989117974 -1.50168130486125 2.34794583393566 3.11523152886088 -2.16920202053509 2.57614282442133 2.72723246543313 -1.70839944469207 1.93533399465166 2.5754014540374 2.71002222969725 2.10505072808522 2.65318263805828 2.42440934276607 -2.63746029561718 -2.37814727689254 2.8116851815345 3.41153171196558 -2.68595577983727 2.11598447109463 2.67285659434333 -2.26034096068329 2.69139546157949 -2.4879815072858 2.25665051777389 2.16233022997484 2.58928457280582 -2.56003739584441 -2.4823350862088 2.51814081228034 2.50845148680893 2.84629444377731 -2.71384085651123 2.49457248892335 -2.16514726189692 2.60077102042527 2.85503898432228 -2.68772507118256 -1.65076001094414 -2.32737907039243 3.36718756160989 2.48893869992956 -2.54341142626596 -2.38634738508338 2.03318968513474 2.05238857390935 2.12474539826767 2.21056181351706 2.4821098111309 2.51533377119629 -2.46635058118089 1.89323424047226 0.984448940218706 2.66024003245501 1.93778060898376 -2.36184333641941 -2.07485544231666 2.64626848922315 1.35225147258468 -2.48554771364677 2.76314266902654 -2.76938097888885 0 5.92043331936038
2.38714989248512 2.74446655207067 -2.99423834186291 -2.37856951571586 -2.81972934303224 -2.32196133612467 -2.27449862926023 2.66777996965557 2.83382732383423 -2.42020606029949 -2.87600158174908 -3.08502131796599 -2.43924501189266 -2.63156794585349 1.46349256368557 2.41724332078976 -2.18974574069786 -2.1464974735986 -2.69690613761202 1.61932487945768 -1.86640829710673 -2.78276633926834 -2.82635226635391 -2.32253494220413 3.46347282154428 -2.2872756448332 2.25910121609057 -2.0919649159311 -2.86314671403183 1.73892342343848 2.81520624313822 2.21111312288535 2.72314969091124 -2.7551083227426 2.59668163680598 -2.33208359496265 2.4246585352206 2.71842831794485 1.78801024236502 2.15076131646478 2.79964998509843 -1.9491133234016 -2.4399362157611 -2.11437306808593 2.74504535928036 2.35290060959334 2.34701771777152 2.17514961238695 2.68848679153344 -2.34487937364728 -2.58272382842894 2.57827415000482 2.65885936511365 -3.17089786959946 1.94424346231631 -2.54471199880825 -2.44157634756337 -2.6343200414059 -2.74350571091222 2.40822438711077 2.16092063326834 -0.0509537113604428 -2.22676366841032 -2.09656405775167 -2.86699379987048 2.7143143569227 -2.556060161983 2.20145749392756 -2.57658359788521 2.42328228199001 1.82192024416547 -2.80396762818236 -3.54161304714581 -2.4051455385521 2.50090929192159 3.05796435146107 2.6318834274321 -2.31709737361723 2.78296854758175 -2.3541336351634 -2.66612316016868 -2.78454675415918 -2.74204706994707 -2.19118641532728 2.62716027564161 2.22474028646573 2.59297851471997 -2.67074107346123 2.57275840988648 2.56378234674686 -2.76162750490353 2.06713071803121 2.49864566408271 -2.36064766747507 2.45731283097399 -1.81676446263468 -2.68965149192249 -2.32339086359038 2.21410173145413 -2.08169374747341 -2.34628218072129 -2.61467347409673 -1.85062902643026 1.98793671021746 -2.67993831286638 -1.86254886865149 -2.83457347303872 1.96353478394476 3.18274706114741 2.47834044221068 3.08382776061163 -2.05146172391689 -2.57822190199582 2.38197530446451 2.53263538022035 -3.30042377422249 2.55348407784421 -1.92467378531355 2.15192404999014 -2.64786788864734 -2.87339451150275 -2.41293791332519 2.64138129377209 2.61888550720989 1.93225810227483 -1.98738615372795 2.04651774153741 2.72871178953862 1.7258160373274 2.20691526413294 2.46769855585516 1.90063381770314 -1.70365070608078 -2.8844593243376 1.49248355993467 2.87240389139675 -2.62618393573214 2.04865784905157 2.14387721508945 -2.58033883606424 -1.6549648803679 2.6006414010186 2.03119189950846 -3.12058918633339 -3.49125976298542 3.00697681373444 2.57026973531683 2.10727911409685 -2.65751644250767 -2.62046017394649 2.37098778748309 2.49063306832148 2.33475987433305 2.91567830709911 3.17286664080181 2.00405494005501 -2.4605074488019 2.06608321650041 -1.93708246775477 2.23318257051584 -1.48958723202159 2.41584863349132 1.96288993508624 -2.51216073123877 2.87965436021503 2.41624076144496 -2.28151813797284 -2.33413925748348 2.96404291046211 -2.66132078531845 -2.04228970797632 2.47384425349318 2.36576795341873 -1.93669654910186 -1.7942097250303 -2.53753352888057 1.96859172268669 2.48635359547084 2.16878622595723 2.12417144487065 2.06369316249035 -1.98223791900668 -2.28424808298303 -2.53339999440863 -2.89383837265336 2.28632324825143 1.83653169293087 2.17839274894429 2.57864916337081 -2.91829174868235 2.32869567009846 -2.89056813238588 -2.51452734938365 2.07221316518851 -2.12345143484903 -2.59181294636853 2.54476433640841 2.51579539970117 2.11708117366564 -3.13899510856852 2.63139418925427 2.37181343117219 2.83773375373134 -2.01297519101219 2.39247183426 -2.04586933059572 2.77884979338113 3.5669788826334 2.40068216390545 -2.41096724363478 2.79361428587037 2.73662968964607 -2.41506111142881 -2.35254256772208 -2.64569606716019 2.2334122170244 -1.9826837892025 -2.47706725635259 2.26101811327347 -2.40909929494158 2.98657032659473 2.20178041761761 2.71837206329724 -2.45178477014751 5.63980422093488 2.71479145573852 -2.7916573296696 -2.53472969277981 2.81989714352952 2.16137812132071 2.87078383619444 2.21933458592544 -2.17305754222392 2.11323223662285 2.40637965143454 -2.36760849841059 -3.06265157695421 2.49803270085817 -1.77046027228992 2.28212930753904 2.7819227588152 -2.75521789270327 3.10233571542405 3.03520917951579 -1.97983413123282 2.53986822063539 2.4477426690971 2.62931026824762 2.25228925780885 2.69152101131959 1.89857239989276 -2.66968798246469 -2.41347864508124 2.68030562036474 3.12630498309932 -2.48263904885788 2.45169100527115 2.76953464774743 -2.85368196772833 2.66578145197919 -2.18219885184079 2.50689275228699 1.95590302223278 2.10841138348518 -2.61980043735694 -2.63330558388293 2.22069192592883 2.07854252448104 2.15294890264402 -3.28385915903356 1.91414449306922 -2.88725843362826 2.21997736209161 2.50618806961891 -1.87091246797427 -2.16549304893177 -1.32984847695621 3.00494661125455 2.16013279093112 -2.6660608898027 -2.63711533940312 2.2682480059448 2.09102214339218 2.10332497880375 2.7499154246073 2.37337008721607 1.97422913902838 -2.11205374964755 1.88198345036952 1.7183952620542 2.84325321717861 3.78468880016643 -2.34879138363971 -2.59709748945656 2.32425302546973 5.00100665680289 -2.22175706948748 2.36985950289678 -2.58176657105556 0 5.82089375536827
2.20644980509396 2.03890113576916 -3.03518489605759 -2.78141400025123 -2.24334463863867 -1.84540033641058 -2.86254091190941 2.25608001463151 2.75887761286634 -1.93832043745766 -2.03992297553496 -3.15578096241274 -2.73268573926902 -2.10116521021285 2.46392089152087 3.02904350050513 -2.61213782699622 -2.48532116409718 -2.74724419035266 1.63859111215541 -2.28569026566885 -2.28179435334174 -2.91573152658255 -2.10565925946897 1.95243038632223 -2.49415630709398 2.62871600460853 -2.00209955360122 -2.24388818916501 2.69155655619578 2.36852557956365 1.94561915564568 2.52029513016261 -2.64343858145085 2.9491172604967 -1.92130480842928 2.42242028364207 2.07163373827833 1.90550006922194 2.5280931503161 2.32087796242482 -2.1613067470179 -2.00690997567977 -2.26179157879474 2.17546210262652 2.23969191094642 2.57159439556514 2.57790594756024 3.10911436918939 -1.72129470516651 -2.02331882535166 2.11101468658224 2.53784081329366 -2.89639998694752 1.18474229525588 -2.14634883161499 -2.43970821457624 -2.00592541196455 -2.39385971900112 2.25833299342972 2.03505918027092 -0.411518118303987 -2.16704626405166 -2.62449630897454 -2.35008178870554 2.60986285872458 -1.82905279475654 2.73294278481007 -1.96760692139195 2.33966825202318 2.60771088875865 -2.45432945759713 -3.12294240752746 -2.25830827688091 2.56047155851248 2.07057094416097 2.59172944458871 -2.65219952301892 2.47709962712646 -2.42399366861503 -2.21085097291327 -2.81348834663562 -1.94266795051187 -2.20549692577191 2.0671510073562 2.68684198738959 1.94512169810141 -2.42804500939755 2.31859689096804 2.06130370092357 -2.10583207903761 2.56903841173078 2.55607875312065 -2.79086793243412 2.5821617043362 -1.58857907212702 -2.80956685738346 -2.03097570056358 2.54308811971898 -2.31853033436885 -2.5100192753558 -2.069699244299 -1.79658520954738 2.3660316149243 -2.83452862896884 -1.40886624263609 -3.59337828639521 2.1639133399047 2.42034433269387 2.04112347497614 2.89878767007349 -2.72941376498353 -2.57416043258302 2.00622134486589 2.68074184412403 -3.18719027517267 2.08129357955969 -2.55293672669138 2.84427415162049 -2.80723705455225 -2.21929101905225 -2.56983377471807 2.35745044921593 2.60883968985114 2.03308318582843 -2.57086845996905 2.06820497708065 2.66862595211047 2.16576499534258 1.86168600215612 1.92912698004913 2.66711772171338 -2.76060102603785 -2.93998945187952 1.40920112911311 2.61851225221393 -2.6100008561259 2.16420150865565 2.19158092579261 -2.72209472008651 -2.74651745577008 2.64307267840698 1.8849544723858 -3.25242612769366 -2.40810851488961 3.02591072277849 2.13435044138566 2.68169807631541 -2.64440875695251 -2.55598476647905 2.01179056071168 3.0334950751635 2.75230831348359 2.59744830772582 3.07828450544078 2.72839125959806 -2.68398917264749 1.96469173656359 -2.46508334069383 2.59093728719532 -1.56816509138791 2.42457700121212 2.28618381329715 -2.83214663535208 3.67538906761085 2.46858803359696 -2.16483146626854 -2.53141128683837 3.40394236264601 -2.74175726609542 -1.97622587246828 2.78104096699059 2.30813782519887 -2.01338200263764 -1.80646715018257 -1.98048648415818 2.53492516657942 2.20251355159717 2.3994265010884 3.40099305781673 2.67952754633302 -2.38205035597272 -1.94535570431767 -2.6716986619765 -2.89840374434248 2.44821042593615 2.45016324679252 2.34737423572435 2.04820870491068 -2.60085895366184 2.22193182965539 -2.7319035677132 -2.70251780461839 2.67525885983407 -2.07127912481842 -2.00616032830711 2.18396567158199 1.89715215487375 2.17445203287073 -3.5066987374975 3.09270233723494 2.1246011526425 3.02916820032394 -2.78013661823887 2.60805126378645 -2.68223138223205 2.41243587521805 1.65268078869222 2.04273123841117 -2.79027469004817 2.40603114774326 2.79706449542076 -2.31029701817986 -2.6357795117436 -1.88958138253232 2.02120739530286 -2.84552123703185 -2.77771420165528 2.61811644814623 -2.36209039848566 2.43537974218951 2.84624259234377 1.88222554685593 -2.2413604353783 2.73360017903525 2.56643239834707 -2.12704298696894 -2.22320820019343 2.25754780596744 2.62195521711797 2.3912986261225 1.99046349585335 -3.75923868062869 2.36945149839156 2.79788836170131 -2.28814755443101 -2.71663213906381 2.52903981787242 -4.77405274841091 2.16283514314105 2.639594869722 -2.07600591715653 2.69297017231856 2.68199301100418 -1.70879448000779 2.24712976231524 2.44392785688202 2.92309800064011 2.32348314383171 2.21832071485992 2.4743673212242 -2.61459534857537 -2.6293646764244 2.85238783446172 2.78469633041235 -1.97057661049312 2.02130538013357 2.79518149744857 -2.49298121171115 2.87310693060361 -2.44884904133561 2.64650563647504 2.15741624264131 2.07672894600042 -2.57856671806557 -2.78782636857211 2.76640310379033 1.94915417837299 2.53669137632135 -3.36842955153848 2.33030910173797 -2.49431042517132 2.34636537392993 2.76136526781052 -2.39971046114751 -1.55461943036167 -2.20448250922411 3.48070484580992 2.63752852229492 -2.62237314313244 -2.70009476420878 2.67126365845691 2.20908342969375 2.80939316565112 2.76216769045382 2.19763346436091 1.9939220419782 -2.76656324425012 2.43737593977682 4.60979000620681 2.28896668930807 2.25814935172432 -2.69719252632813 -2.44662168659233 2.49227450072841 2.1807088020829 -3.53700147311622 2.19350438662327 -2.24624813964408 0 2.996044653566
2.44158079609602 2.49319607840785 -2.53816464216369 -2.6306390611534 -2.09912851315073 -2.42877875321494 -2.09913751551138 2.45471428646711 2.60036256246711 -2.27196748770047 -2.53057868844868 -3.01474639327252 -2.37526873906842 -2.65672863813505 2.54231987864657 2.81395748754624 -2.80694905965436 -1.93522859672049 -2.65260822142618 1.68719492605072 -1.9845426153153 -2.02317958993646 -3.2747162192624 -2.63385774721879 1.44507672143896 -2.66512438745457 2.31856126223889 -2.04305312852885 -2.81872033754848 1.85463613305992 2.70637468495652 2.83686873921776 2.15583566129417 -1.9338733996559 2.29693921090741 -1.78670460897124 2.28464884722232 2.29077248342797 1.9135982186935 2.0164334293567 2.33938850817999 -2.20760294373788 -2.48924645906559 -2.77747106783509 2.13721750161665 2.60939157250997 2.75176050098368 2.60238753221718 2.57141575384932 -2.59990335293173 -2.67649944984463 1.9908551034586 2.93802348221212 -3.35453664056352 2.90352748868925 -2.21655179204776 -2.7993879612782 -2.48766798666131 -2.49043911483879 2.52169509061271 2.7324067299683 -1.3207850363915 -2.4200775942694 -1.27636217343734 -2.75940864454754 2.63409860702736 -1.25931042669148 2.45221687082759 -2.36321549812088 2.02612308816489 2.20049402351722 -2.94150630765975 -2.61672960433951 -1.9769565869136 2.51356775678336 1.91557559966129 2.16840331230444 -2.51703767725103 1.91590253494851 -2.01483553142974 -2.42709275305339 -2.29006323065784 -2.84861721546059 -2.76811403982252 2.77131440075047 2.51265559112318 2.22791106708875 -2.08109525349085 1.9341550138948 2.85172159849184 -2.262042794613 2.66343063236873 1.90346035904342 -2.43746847704793 2.55569458733211 -2.005996569781 -2.7676629765424 -2.18940188283088 2.6877918498145 -2.37653387968582 -2.72002618498169 -2.48673666402269 -3.44874863709184 2.34519219831156 -2.40320499790053 -2.04509300122822 -2.84181334536943 2.7813401839816 2.54409128584773 2.30856854894337 2.53558188467092 -2.1552689768981 -2.60171436050195 2.3786798976137 2.47893227787565 -2.84675423595438 2.79061139153596 -2.3050408755816 2.64596074975981 -2.04506622581046 -2.21801887986815 -3.06129121407069 2.40994195367759 2.47297612099607 2.15802478644974 -2.13881860302621 2.32722148968246 2.1147946798949 1.76035245202827 2.47319599809576 2.1162456983527 2.65268512751533 -2.01604365394886 -2.30624918934094 2.43665145935052 2.80003648272185 -2.56791085319635 2.29572845214502 2.33109227448657 -2.6104953037578 -2.03885807355295 2.02106398289499 3.12320472933613 -2.52854587510874 -1.99524413130732 2.99802340377568 2.33121094008746 2.34523594849388 -2.77002249894625 -3.25862886130377 2.5173271413505 2.60589993480679 2.82902617955169 2.87256049309442 2.63178938149527 2.81650358992793 -2.12106733073045 2.45132566307221 -3.45646169047265 2.70499700025849 -1.99717987157169 1.89551312554244 2.58610623157366 -2.24428039140903 2.51223509203873 2.26084115796051 -2.56286683178537 -2.26212944345462 3.15116315238594 -2.42383294838749 -1.86906124601669 2.44365405656646 2.67526338207219 -2.31956669257642 -2.59399450345864 -2.3397669257643 2.6849106706098 2.02964426528033 2.76204809120417 2.43502528174825 2.07730849384758 -2.7661967403782 -5.40375529218339 -2.18553891962791 -2.70799421518467 2.48782137330587 2.28185047359095 1.79445276047864 2.86463004664494 -2.09955367693458 1.97168391440393 -2.36074288501388 -2.61484534783459 2.61934629386012 -3.37306246500446 -2.06411792360392 2.28726607334089 2.1478765519969 2.80409473362086 -3.11910597450688 2.43030207360508 2.55399184454594 2.35346392569328 -2.24614650796256 2.25181225511075 -2.77388227316424 2.76202290099501 1.45180186470802 2.74499275764302 -2.51721982812455 2.8676949187057 2.65535722198715 -1.97670678569566 -2.39235276557501 -2.26018786340051 2.71790265973742 -2.01369355520056 -2.23038751822879 2.00354040212478 -2.58344956257962 3.22920692756613 2.71613288697857 2.82897094779229 -2.77186607877668 2.52690211918612 2.30803653909265 -2.6503350458734 -2.76767053862566 2.04056296385324 2.16571103939562 1.9301946837583 1.49567968253341 -2.45729192349747 2.43242729159992 1.86820829231464 -2.54372238572929 -2.91962362998782 2.35534877469459 -1.72480238233756 2.36314568140811 3.13501438508161 -2.59623928281556 2.37646119146028 2.89728231973142 -3.16926020521684 2.28914634572902 2.53322047107603 2.57680957298829 1.52546042131778 2.31238804485665 2.8350052187673 -2.25882081293994 -2.67439101654527 2.74123513424818 3.53197560660993 -2.15701941297821 2.37043223812726 2.91663821393814 -2.60772908230636 2.82980124535793 -2.03967148360418 2.56528712906847 2.42334209383554 2.26597304722071 -2.77625262872377 -2.30120025347676 2.4162293885811 2.25846535423151 2.50097109841545 -3.11664585204419 2.16027029087946 -2.770766823033 2.18012720838021 3.05616619096961 -2.18772268197168 -1.77502773163233 -2.44229606889004 2.95443732739337 2.77963306574615 -1.88014719498782 -2.0906649733645 2.29719197996221 2.19060449358475 2.63101789944069 2.23123763224785 2.32133580583017 2.65264598489543 -2.47214580618298 4.17378368551941 1.94630775065244 2.42548230377637 2.26604080953991 -2.54764174957005 -2.28279730830524 2.43324157035134 1.75565673674793 -1.9810449030298 2.82277937802883 -2.6594861899954 0 4.47927505677087
2.74970013560826 2.12237311262908 -3.08646259120885 -2.37953495192594 -2.87594182305024 -2.16859739495582 -2.56786666852454 2.42432412997739 2.29595086972009 -2.34228633301645 -3.51906461243624 -3.35454712752479 -2.16334111076426 -2.66107361247275 1.87284053719838 2.54885302341351 -2.16710466854015 -2.28510892369985 -2.68316415682386 2.96447390676086 -1.74625162527384 -2.65698184163274 -2.87900373389274 -2.91137535653273 2.70335039690483 -2.09254649765693 1.96490395654115 -2.22545358382546 -2.81581200718485 2.34530734060439 2.93253341751999 2.35049584185077 2.22637677867169 -2.46389994632674 1.73705051279902 -2.84782875455338 2.79621410892667 2.06407823204564 1.83941836328229 2.79839939497757 2.03137005394487 -2.62757159411911 -1.98748248320338 -2.3274702417706 2.80220320565934 2.27757480463149 2.12536515562582 2.90012411098969 2.46881085775357 -2.61538066197742 -1.89195380972683 2.17652273061069 2.32078182133332 -3.31819325370332 2.30440466989993 -2.37280148009334 -2.1367237294261 -2.67267250517263 -2.82226249917344 2.3749094806267 2.45671745373228 0.828800192343179 -2.50046665194539 -1.74856006251408 -2.94188146734813 2.86306723662305 -4.35433170471268 2.0560140691768 -2.70954849197879 2.44196542910616 2.09206311715018 -3.12718874049414 -3.24390160017321 -2.42985321674595 2.49950556942257 2.0073748604638 2.11390017738094 -1.95495718877611 2.00772412456293 -2.43028706313866 -2.28522515583385 -2.68405448173764 -2.6676719999111 -2.86804479314035 2.58657873343303 3.24090132048402 3.81495913528809 -2.08709808233108 2.89633079434663 2.38402708872149 -2.00732560471541 2.695537432656 2.02890911959108 -2.72421531891149 2.18099201493358 -2.03474090759094 -2.02371614525429 -2.58114879237623 2.67245667668572 -2.76246619307537 -2.62739147341437 -2.05092274075372 -1.12700087837318 2.62671473445309 -2.23693824100686 -1.9275872248878 -3.74301975587222 2.02931929105835 2.7987426042598 2.82473921632436 2.63725744602522 -2.20398298690743 -2.72647957240286 2.49285277246404 2.73943807134779 -3.03340462832497 2.31118471265128 -2.44332125018054 2.85679632534457 -2.45812726486453 -2.75180614818581 -3.25837285570082 2.21454491247698 2.63070426067467 3.35614698776971 -2.4374407010172 2.72627512319978 2.66929119931819 1.77067339265936 1.30366020713041 1.55061937438265 2.76733147012509 -2.12252710396802 -2.87364491742601 1.13906670491115 2.63335461235776 -2.55227947882414 2.30457842523102 2.04976197002833 -2.45144413211771 -2.06837101028547 2.49717394301436 2.71532855986013 -2.84499072160352 -3.34227221510554 2.75759049952682 2.42325495104172 2.26746228298396 -2.6456524004584 -2.97816934837263 2.02131170545144 2.49983097694547 2.4848088645537 2.2142989854579 3.75794321663236 1.95237431611403 -2.53881573341084 1.93166181362686 -2.11701665381289 2.00486143543448 -2.51685646873741 2.38224829600083 2.85120432262228 -2.24533262694214 2.19383245801268 2.73051641720823 -2.32599990386934 -3.19643139240472 3.13214459352091 -2.76016556796127 -1.93983767293523 2.9135980915928 1.949238030662 -2.41445485797194 -1.6199510606476 -2.35715155650844 2.54639839319505 2.10109484698329 2.28721516027472 2.26913812857227 2.78069337973407 -2.6300963511376 -1.92758271878584 -2.28563924941862 -2.99955657793797 2.50216689082852 1.70111422828578 3.87590334182007 2.20189164752861 -2.67355240875811 2.11957420289628 -2.54043536655727 -2.81577715184313 2.15450357337595 -0.642052725913934 -2.51271755775768 2.52959491819751 2.26539725386651 2.89102124475535 -2.76432671378479 2.58732081839684 2.39378800075428 3.47817490939878 -2.7970434988966 2.75040967129894 -2.81950600145105 2.38587005493086 1.13971663282541 2.59927983338902 -2.48907459492312 2.70143782184933 2.21416032319825 -2.40344447719904 -2.06792532881973 -2.65216083932424 2.32891477070905 -2.89147832903399 -2.46474376005106 2.53892880909543 -1.97334526190589 3.38555570307838 2.60893508439181 2.7778870536647 -2.76647083046522 1.70511270286996 2.49176525590751 -2.08232511855436 -2.12261475490619 2.53396687089286 2.14895650809873 2.67111654154563 3.38853267596018 -2.76355206283663 2.55746752693527 2.57521912284276 -2.66423573192099 -2.79467172077383 2.27037878525947 -1.12945832043523 2.71173486244323 3.64038705034925 -2.53938986799453 2.39818864986647 2.81111460661667 -1.92875666643436 2.65049603119785 2.76839901267254 2.09779657076388 1.74474724595593 2.18313195093615 2.09146311817698 -2.82022014830482 -2.22662357433068 2.08245094467899 3.53922671316432 -2.01758241719112 2.57297854987666 2.48204806108231 -2.84563450261007 2.19959472156923 -2.6832820961767 2.56423514053627 2.75198720923098 2.39330247173104 -2.90682712164228 -1.69594188836903 2.06559305033231 2.79672426671267 1.72989558229366 -3.02029592460482 1.97581987596469 -2.59619059722023 2.00908572424374 2.92501662580333 -2.68861319510045 -1.41046027153657 -2.13588174536523 2.72550421611204 2.64514301376691 -2.79690070515117 -2.16541166888077 2.52384787915113 3.04526259810244 2.31863219352402 2.80754721296515 2.66189202237925 2.08947279585624 -2.74344065468272 1.92426971545768 1.9021286734446 2.58886981335639 3.08747654695266 -2.51080832259586 -2.62925362895653 2.59295336807025 0.627698789593795 -2.16910451103807 2.56658224527339 -2.62501779392524 0 7.27010163369687
2.67184798426261 2.82601835244004 -3.1203183408327 -2.82081157566769 -2.82376868109646 -2.186101381182 -2.88795247355532 1.96680161904736 2.06653582638443 -2.7758444700274 -2.73783241935647 -3.09815820743568 -2.76667750632712 -1.93117468859877 2.21431065730354 2.58435377643605 -1.96984640162183 -2.71604460157935 -2.51902982990114 2.62668854861251 -1.99177207356452 -2.83809153508429 -2.88534084886003 -2.65248095702366 1.78623125624973 -2.10255635826451 2.14149083590088 -2.08100468799314 -1.98771393360263 2.50451470229505 3.03559062403147 2.86503199975714 2.89792957652201 -2.65083651602629 1.9839494931505 -1.53288322254111 2.97844106695915 2.67933992975049 1.65986167918839 1.8182909066817 2.67263194871673 -2.59259980272678 -2.02153370761898 -2.5098887758493 2.39626938524107 2.34340155955824 2.28951558673131 2.41033798274045 2.68948866587576 -2.59773136926261 -2.62859856683413 2.51553312819492 1.99194884198187 -3.24591506013995 3.50727114946954 -2.29227221776301 -2.13606627185951 -2.13471280865805 -2.13393372605906 2.28432713603676 2.31728675403849 -2.18598199203235 -2.85944641323841 -0.105486160536699 -3.12180452499537 2.27693234131525 -2.49389930094633 2.77310111406335 -2.33426689807451 2.6433099782788 1.92806948518026 -2.85107102644778 -2.5158138299119 -2.56785876786754 2.71698976741974 2.28437172108686 2.01736516470293 -2.18553406232264 2.79349002488244 -2.00914308338841 -2.30890568177941 -2.01695777155689 -2.76166535953612 -2.04104303437573 2.57355744139892 2.74347713424255 3.46870033449666 -2.56804531141572 2.5137980628654 2.61158503468763 -2.02251241839859 2.67223512565158 2.75471903956599 -2.01453599531204 2.70245740906407 -2.13796983837274 -2.73322925051714 -2.2636974847179 1.88644960129212 -2.77736861076698 -1.95269376305618 -2.43235468819495 -1.98500371898937 2.67511412177317 -2.01480823541797 -3.5235682248675 -3.16665383992232 2.52319306209326 2.75362336872919 1.81588118877713 2.88733877659874 -2.78019166135875 -2.01660215220229 2.75044077166656 2.76084767327332 -2.72353007969489 2.87651027074543 -2.54240358002819 2.41610665968273 -2.93624294349606 -2.46693654514239 -2.89785165115494 2.22257544613496 2.82970646002562 2.27882636762029 -2.46581221536927 1.96926142767782 2.84017878773285 1.93234609337646 1.60777790034551 2.1257699584899 2.33012891270609 -1.76100349471267 -2.16030266150488 3.67260572072981 2.01844353325858 -2.85886615646135 2.1849835459993 2.59303517239935 -2.37494603093308 -2.45604835149234 2.14074403769007 2.45000459737978 -2.64627382769964 -3.05407188376303 2.7592969418753 2.5532726786542 2.00106294772642 -2.87127444990119 -2.80823983655269 2.70364429654539 2.71425724144973 1.97912257281575 2.83374092684866 2.7938711819757 2.84211619355331 -2.83436691579114 3.10567472122096 -2.50684738439064 2.4317811988211 -1.58960661008678 2.77174033208511 2.04540601259262 -2.43232609681899 2.73685668855843 2.7676080581855 -2.44078022597022 -2.75785083174587 2.92051587484433 -2.15933948383912 -2.40058255442996 2.62697108987863 2.19556963095492 -2.77907273135136 -1.90731764027635 -2.59600150775313 2.17366791545077 2.69282156294062 2.6664668121923 2.11982662323709 2.50649508256082 -2.83144557965042 -1.04930492658184 -2.51400852269994 -2.61252443084053 2.38844903730923 2.14259273589568 2.04755855032068 2.44255290799924 -2.87803295935253 2.7893825939376 -2.8096881382469 -2.76315257984207 2.37203808298492 -1.74311545769167 -2.26150246230866 1.93372810208585 1.9689634046071 2.63840779249851 -2.91275335682191 2.13978673552511 2.54889528469266 2.53815012242881 -2.6867579921448 2.58696214995616 -1.97215670239744 2.54942029529564 2.08198565617542 2.29357624995754 -2.51148021174273 2.47293889517778 2.23906418976352 -2.74212052936794 -2.92936857659729 -1.96305953926811 2.74143903306089 -2.00368204055927 -2.18016413529176 2.85676501263409 -2.58341642896995 3.06443069422743 2.59970809030573 2.79313991901751 -2.02203894900413 3.3577697601491 2.27150015800761 -2.3612572976555 -2.08139588609118 2.38924795887057 2.87701183242646 2.11092945105875 2.04675678030627 -2.75705804519707 2.32683378296426 2.58419431330522 -2.07390821271738 -2.70872193510695 2.65511111573357 -1.78479962591868 2.54606363488721 3.12059611315855 -2.59465072468694 2.23868551074778 2.79822769194574 -1.89209713241405 2.55392808157888 2.82521319538034 1.97563732669871 1.86071004116201 2.63317190923655 2.63244077068876 -2.61654578907765 -2.74122815444792 2.52602387771247 3.44606207565523 -2.25856514463085 2.63348021545602 3.17093160698161 -2.4624812866027 2.26802696655622 -2.49942127612144 2.64560189897321 1.93582997864269 2.00210075605155 -2.88018676700132 -3.16106754706808 2.11111311906146 2.3500858681827 2.58431058041676 -3.14905628756278 2.75835540639697 -2.58688837592732 1.96615364661057 3.0071777855765 -2.45911081451847 -1.89066143134823 -2.34847939895839 2.94970637929502 2.19868637892446 -2.85189554900408 -2.4922793792469 2.37890101580834 1.84933827276897 2.7109098484551 2.17789696405378 2.83237816645706 2.12951969090008 -2.38593559998553 2.00526091778629 1.65061778096856 1.98368383868885 2.60679270801921 -2.71423277685447 -2.51616544964092 2.12721986522089 1.43135327219087 -2.82501288165884 2.87244247222653 -2.27487182644924 0 7.34788240678395
