2.0863927079275 3.18441708277642 -2.99098997959881 -2.55233953404615 -1.96644894471405 -2.95451584382438 -2.3800702394304 2.67691661599339 2.7860889008722 -2.16472509579009 -2.12217300865535 -2.82634804824741 -2.21439807024224 -2.02636522308404 3.50441518386367 3.2174124220072 -2.51279565620412 -3.53689586425639 -2.86746696282626 2.00630265711069 -2.46513511452705 -2.51089705177659 -3.24288027211718 -2.68786840204065 2.3986021828605 -2.43105067492858 2.07642341202063 -2.39152552062079 -2.30915857179347 2.26186758978897 2.97231636062822 2.45454159155614 2.48303308038959 -2.10674789106404 2.60059336278531 -1.71732670030407 2.5417523992978 2.57341553975646 2.03363103939514 1.95998389292001 2.16484916491024 -1.89407333728178 -2.63308339584453 -2.63657260681675 2.22549562655727 2.76330859341203 2.39058360908845 2.44369815646476 2.31461603351517 -2.31001580602432 -2.47425984850816 2.49881077670458 2.45648736365839 -2.89028102139979 1.36186323502516 -2.08459559292868 -2.04275328869312 -2.82218261829681 -2.13864365860009 2.42141315339586 2.82362708274147 -0.222440074433789 -2.66248287542367 -1.59795967864174 -2.67791462135672 2.86668515784144 -2.16470964763598 2.62028607558014 -1.90753555297586 2.6845845312546 2.94070062700989 -2.53240938046043 -3.22513221935506 -2.88235102812279 2.22972460825244 2.32562657780763 1.94871657210083 -2.08045135277487 2.63948082253443 -2.13645259536589 -1.9422626974389 -1.95784351976565 -2.45494353003331 -2.61415304952707 2.53329527557957 2.74833124472623 2.48894602418459 -2.58119569274113 2.74613977316455 2.06057885909414 -2.87494555700593 2.74017295433248 2.58494501782141 -2.55029098272674 2.35726583912871 -1.84556913259374 -2.19240605370472 -1.9265488834464 2.3978437211286 -2.59341843378282 -2.57962100748887 -2.09329229354479 -2.21158632609435 2.06785325510536 -2.47677701360847 -1.91170903017026 -2.90824419141829 2.5667218456567 2.66563363736574 2.3166002806125 2.98324909902395 -2.76190019937166 -2.62130208559685 2.86010875360146 2.59595298294065 -2.95650792793512 2.46230890719908 -1.90151519197819 2.79225070124939 -2.5296198075983 -2.65698991345891 -2.59953309582056 1.91904473598718 2.70335484072072 2.07974660822321 -2.82123700634276 2.46548402073736 2.10782170990409 1.73087215318468 2.19816866129995 1.96929238784052 2.13786272394294 -2.00147488640548 -2.34815109396369 1.65384050311806 2.02919649786036 -2.30950682202355 1.95481842948151 2.49737848066026 -2.19379169008247 -3.88249415898409 1.9183229129764 2.17278546541881 -3.36007506689392 -2.37101482205254 2.98436188046072 2.30514459756618 2.81569911596174 -2.26080149491553 -2.44537978997792 2.50942487382413 2.91235020710526 1.96259268151066 2.13892013223629 1.6973355287493 2.72794704393831 -2.42913070688328 2.30625960951606 -2.140719209025 2.18713457328552 -4.5972870440975 2.60099120335965 2.118859723199 -2.19499707194906 2.15155348252956 2.51789727230821 -1.95513908817985 -2.07720387751435 2.82601253806911 -2.26775515757224 -2.37275592764953 2.44834110481106 1.9946654842572 -2.48960320313474 -4.19200299524756 -2.65674136508508 1.96562090533521 2.68829761993238 1.75137529545192 2.58830550718069 2.31317689176927 -2.14170819013651 -1.86984339379312 -3.2509886865987 -2.51411023179315 2.69905838503206 1.71714051298833 2.6157266729573 2.65393492224642 -2.26875187605188 2.18340135096322 -2.82496916947534 -2.46550415837782 2.40852105360832 -2.2671622085429 -2.38412741641421 2.6235552301494 2.48388711391405 1.91255362619847 -3.16724297037235 2.00934012695161 2.72386983828584 2.16268261103022 -2.79387078413817 2.99699566267393 -2.82768917226632 2.52867043540952 2.24989366696358 2.03834982559436 -1.96177556587175 2.91173830911914 2.73262686952414 -2.66136127042731 -2.06123507014335 -1.99973993642932 2.19370612496324 -2.65421765727262 -2.75126244273631 2.10486722240466 -2.40388578642466 2.54517852381949 2.73250531506856 2.20878127230544 -2.03980936855624 2.4149738952248 2.38371775124919 -2.75659919458713 -2.58023018523333 2.47222155088798 2.48209679893356 2.29024575743302 1.85493855646839 -2.16229862885827 2.05926836951628 2.5471327993873 -2.34020022772403 -2.89199999074174 2.34280649033261 -2.43730772414187 2.71950975010604 2.47427816162056 -2.68831432599845 2.95819198590897 2.75410749901225 -1.90286452098423 2.68601157864437 2.67922944636442 2.45425135412839 2.24865445912437 2.22902306310344 1.93596105867339 -2.19405592395881 -2.40663651895104 2.65331239831986 2.65514746999841 -2.54338755157216 2.57327953912051 2.84411527129564 -1.95041447892205 2.38133497016928 -1.95563139484685 1.8947068684446 2.37618009692753 2.1823313431834 -2.52282000514067 -4.07380550858572 1.93342334383807 1.74770946750753 2.06393514385031 -3.26520771620089 1.85132422417307 -2.48113604802809 2.74859460938427 2.77262061854139 -2.66034401640839 -1.75406109476734 -4.55316445517556 2.92272101430138 2.81097919319187 -2.37576558993384 -2.2694295876388 2.42779695895739 2.48383218571214 2.18504626944595 2.20830720606601 2.65571331800968 2.75729754495534 -2.6830796483249 1.88999853120888 2.78805756838098 2.72625616000571 2.05515155713207 -2.26469661352246 -2.12474749223265 2.45359906235923 2.47123638061042 -2.73805409850698 2.16798928388245 -2.70565061300897 0 2.18321197910951
2.46796850347813 2.63639626805304 -2.54551760075102 -2.79338091962273 -2.57854324218932 -2.21911568718991 -2.04517875777036 2.79532929282635 2.64115407364989 -1.95440253759227 -2.4194098577114 -3.1622058028668 -2.18388778123191 -2.45337701095291 2.61762892893378 2.78813778654938 -2.70652902271867 -1.98771531041721 -2.57001195160685 2.45280264046138 -2.73551041299295 -1.91904252478281 -2.33468194304441 -3.65325325319352 1.64759052581861 -2.30789342357692 2.03551539254437 -2.74036276724622 -2.88608633469864 2.23726770410362 3.02663816319858 2.68715667702992 2.41474349792136 -2.67670463843561 2.79005244459716 -1.85920124824914 1.97779892997748 2.61161717028718 2.15156493654195 2.89942772718352 2.72352919221393 -2.64671393325459 -2.56871692317715 -2.26940413184397 2.45240540265719 2.83717887381173 2.79500432333687 2.04290278554183 2.91164066227714 -2.52141953598619 -2.79110625914004 2.07013257025764 1.89196126190674 -3.5338836131923 1.15311051226958 -2.42069033753214 -2.82412834923894 -2.85495957761375 -2.15249791492226 2.79409688772544 2.25802686523106 0.228242447974273 -1.98957607528542 -1.34579427808772 -2.48805701484356 2.16591226230668 -2.22525319299796 2.26964962586333 -2.46166761337366 2.80227710494114 2.12919594844045 -2.66951254254226 -2.76648307513712 -2.43512576422966 2.6821660827959 1.82866124363421 2.29305735879847 -2.79850438103941 2.82048543637559 -2.22802660682541 -2.39276041438689 -2.78267846263177 -2.64345562583589 -2.10761886881131 2.5962612048346 2.85987494693896 2.37882946211964 -2.78399663559166 2.67873550277955 2.27591184317769 -2.01549344479835 1.93897565622218 2.91656151331677 -2.84807268153977 2.3249513128681 -4.02429787430209 -2.6826686928564 -2.44023331200385 2.68586489354213 -2.63000479686966 -2.51067885357035 -2.35581776159616 -4.48799676408379 2.74147888420587 -2.0934387839951 -1.91596965168001 -3.0087905843273 2.4419918939924 2.47610870376547 2.13167538903881 3.10632813568746 -1.91434198120179 -2.82197264049807 1.91353209274203 2.64373138799299 -2.97702920911935 2.34539761243499 -2.75817763499003 1.95126925805779 -2.78844295421489 -2.43541886344529 -3.06050681419761 2.59634604948329 1.97825424472392 1.93267747804622 -2.55753956769393 2.22364789354227 2.80692148452916 1.5060746057163 4.545438151698 1.46439818475416 2.10078014456307 -2.83075113841973 -2.18002496770949 1.7647830952793 1.99368749424541 -2.5488671805563 2.23333609481482 1.79587892730072 -2.66576076272385 -2.36699450882178 2.17332215852866 2.20398417433716 -2.51931604453963 -2.31504637284487 3.19473335752195 2.59229610289669 2.85526067210273 -2.25498220917332 -2.99985376208422 2.45192252369771 2.36100197901581 2.28599661289879 2.72227139626033 3.24543762805315 2.84131054485357 -2.26384097436876 2.45720940414877 -1.9442816262356 2.33032378696956 -2.25515529997086 2.16029907871466 2.37468296500773 -2.14379299303608 2.09174917911256 2.65607435070796 -2.14634509111361 -2.56933648729631 3.00301845040071 -2.60602935518847 -2.88774286367949 2.08577199366244 1.96092572876203 -1.88894863549018 -2.06866857983361 -2.70483143391753 3.15233066063762 2.07154067674732 2.4397078056765 2.06054863730802 2.22193663280145 -2.47579366794412 -2.18091584896806 -2.08831003881456 -2.99812072993657 3.00042651286604 3.80671373899175 1.98410753605721 2.79216255936799 -2.49074170453085 2.22630125658006 -2.22141076911149 -2.4057031354759 2.42534628582612 -1.72932179204226 -2.59043058775719 2.6060952336877 2.64771236132417 2.17118183777778 -2.44845980052473 2.09241044756515 2.40815508114595 2.15076245333162 -2.55396569794635 1.99118504094257 -2.47957192902181 1.90232418249927 1.2955402515461 2.2702040227019 -2.23968242671921 2.09550601391027 2.42320187896966 -2.89418861702146 -2.18638985049224 -2.694747839431 2.7716168622175 -2.89750445337348 -2.5493650931755 2.46946158032444 -2.43414306193216 3.18155913196761 2.22253483343606 2.27695395763823 -2.53752657864489 2.46923949754017 2.20086342284601 -2.19093035953469 -2.3712185072145 1.95282422944045 2.06624413717662 2.27588515886919 1.78372827728726 -2.1465183633625 2.77665634911216 2.80455617900038 -2.20858116833273 -3.02589518048826 2.78282659920166 -1.37045085198265 2.79442175109694 3.20093544497386 -2.59475208534082 2.25594547851825 2.93787431283409 -1.97413266750918 2.6202698278837 2.57256304425399 2.60354499175371 1.99881598410023 2.81660180911147 1.93529959562842 -2.6260285498285 -2.67763275026753 1.94306693224779 2.98445844172591 -2.02867598985022 2.06735974275789 3.05361109868995 -2.46264913980267 2.67436747970551 -2.183984315 2.33188365208658 2.07647722213632 2.01934121828586 -2.63924043323069 -1.86571013622916 2.53885758776155 1.89875205286622 2.41100380514924 -3.30789462142267 2.52225910450049 -2.91165007994537 2.53031016248318 2.67997611843526 -2.42743122513452 -2.15779519440432 -2.31289533475402 3.0680972014809 2.86348827550681 -2.77193543455775 -2.26666649572085 2.85027087724496 1.80731832501039 2.02173589079963 2.74782515209424 2.01797909589875 2.73833708740919 -1.88143081164104 2.42257415899119 1.72430291178863 2.32518033928384 1.9497705799623 -2.38174618689407 -2.72281535185297 1.95942915735777 2.14135119714702 -2.03677523265894 2.67647272328894 -2.8171667590186 0 2.23961990531873
2.10153125980559 3.12788800787061 -3.23463823673572 -2.11800279759608 -2.64284203692412 -2.8874711993481 -2.2220406104609 2.25931611412542 2.61145060661246 -2.38701874909673 -2.11125834487441 -3.10529190579189 -1.93669521262274 -2.72970303070107 2.14195011458748 3.04807451749491 -2.39535289052908 -2.23796391591446 -2.75396423412285 1.59429723333128 -2.98312625991416 -2.11756156239874 -3.73755530247673 -2.48993457555576 1.41267976397472 -2.23191169686988 2.27640231842765 -2.34329235178379 -2.1561607879419 3.37840244101157 3.04207211482561 2.39590797353964 2.07536538875476 -2.29695009989579 2.54760888254896 -3.23509767017339 3.02325729905187 2.16968571257643 5.2281647196915 2.58078261099911 2.32744270502081 -2.2471697638265 -2.74125329708496 -2.08534459223538 2.54754799724169 2.12269662268825 2.33106215629677 2.14829855322361 2.83604932543743 -2.33437660319462 -2.63846995007771 2.44793359272084 2.18507919674182 -2.83314409935475 1.38530740630027 -2.55674766444999 -2.24270627899034 -2.44431939919277 -1.97441452486818 2.56432105187687 2.4716284992214 -0.956778185906073 -2.22759151051668 -2.73048594629 -2.64737034091485 2.80557669824347 -2.52280990308683 2.18120236390659 -2.49229300714548 1.86886735923773 2.46683437772672 -3.27493000197992 -1.88413660672177 -2.17767646757833 2.39548208987499 1.96778966860908 2.39195172917389 -2.67012101508104 2.83138036646061 -2.20030620261559 -2.43573701762977 -2.49507380301477 -2.34938028476253 -2.45385722410525 2.38268850163131 2.20508460429271 2.02803780362361 -2.63392995775216 2.08058630531046 2.35561430470385 -2.37579489051538 2.44276648463353 2.00836028471846 -2.71373208677678 2.85499031732789 -2.61829130199776 -2.02449784188243 -2.65232835653087 2.09779518807392 -2.17285786852256 -2.37674620486682 -2.12418470350583 -1.7270296781992 2.64604481258363 -2.39111491870303 -2.38271246876991 -3.26342932780055 2.53636019963785 2.03789286449435 2.5606367632285 2.9063685761015 -2.57786250675545 -2.42687390713762 2.06520456322057 2.47326547974739 -2.97151465942238 2.50942376933861 -2.59846158888425 2.15593413337257 -2.50006230440325 -2.04164047661653 -2.65796828914033 2.11418502616981 2.75404520286891 2.16278474427018 -2.56360008889122 2.56788987450145 2.14601766791905 2.98366793131549 1.81670656102221 1.7482810218371 2.40848678410653 -2.43486601526499 -2.46225327155765 1.64189421936333 2.38371370908696 -2.40175101135306 2.44083797835396 2.50764389092423 -2.24534754699798 -2.63014117723884 2.27320009402079 2.85379174288162 -2.62930987579724 -1.90003915324152 2.49966766111465 1.86870792261073 2.07370226400233 -2.11019520948159 -2.56947908605199 2.49734597654432 2.86627266748842 2.78350437335414 2.72955818425232 3.15862023967726 2.57235807416828 -2.38498104370849 3.10700209495589 -2.4130716628919 2.17248225276368 -3.23922833816716 2.6541954141789 2.88412259600822 -2.03110680718338 2.00269086251535 2.6845071000975 -2.53976711578854 -3.02063268657649 3.45161341925451 -2.00148454629754 -1.97375722747591 1.99043023546677 2.23920956051067 -2.12478850497228 -2.37535223863892 -2.40304675786143 2.57418943413536 2.82221613875101 2.25215989884699 1.80360549269975 2.00706591261394 -2.34202677106657 -2.18823275124146 -2.24807310261775 -2.53314111815257 2.80172579172042 2.29599726867949 2.28017692721684 3.21848888479402 -2.30639723464919 2.79611891140624 -2.38725166551175 -2.80939420139645 2.55109479357657 -4.59981077416164 -2.67572771396291 2.20036455413766 1.94874880946861 2.83163543294807 -3.30128038404272 1.67425884450527 1.80889795366085 2.7038783795028 -1.96821080030209 2.57706252030948 -2.36350378065268 2.11577803627856 1.38135231326533 2.28651250716622 -2.36988053906779 3.33749660472421 2.50067441323818 -2.07673931185373 -2.53488399740409 -2.6751772529714 2.58345607062623 -2.54942327938979 -2.25394703768939 1.97103270667395 -2.56727314498544 3.22993002040903 1.99369890437994 2.43870446645193 -2.48342534181881 2.14600306501673 2.29763659096066 -2.89488327633084 -2.12646790170224 2.21393931483856 2.13806428359226 2.01851451099201 1.97651509894677 -1.77277543903642 2.6986982692339 1.87534597151968 -2.80138087381721 -2.99730477180522 2.54314709729065 -2.08736394213309 2.2677979484713 3.25739384842871 -2.62455361544243 3.06199520588925 2.43464839314374 -2.33872266858636 2.04914834342538 2.51880432389408 2.59814921358036 2.18976624250459 2.38408010692099 2.35778296953548 -2.36802615701277 -2.87489467493969 2.55880279253281 2.61699331811635 -2.77804652046728 2.17954541049501 3.12387267947376 -1.98040867360775 2.23282759539057 -2.3810838978694 2.40587153217769 3.57443187467993 1.9715671275596 -2.98977894168836 -1.44194692460234 2.59522531821927 2.75258417647669 2.18615457322802 -3.46236404079126 2.23963272273242 -2.45733762022126 2.36291648263805 3.083749520608 -2.23026850378651 -2.56037196792398 -2.6912685931821 3.20679028344849 2.54362022535195 -2.20612126090985 -2.18612422674796 2.11541079981838 1.75427389154992 2.62306533790427 2.32803453795286 2.42180172799115 2.43888439042768 -2.51316088654488 3.25750347434655 1.87876397842925 2.50576757665696 2.2769525690767 -2.20056352350526 -2.70919392862997 2.64875269926358 1.48937242071634 -2.44193302715641 2.38068945685062 -2.27219001396315 0 4.77728297288834
2.44903017539858 2.30752235310903 -3.00099160582399 -2.48080894302431 -2.86097140266761 -2.58414776572376 -2.84938068522032 2.06648414802183 2.02459782219664 -1.92459759662918 -2.33546068841487 -3.13541252413862 -2.6832161304715 -2.4913859259141 2.20708141238949 2.82598401497557 -2.25921346247232 -2.40811804382757 -2.51647983030152 2.022629754797 -2.21012380581557 -2.42856328763115 -2.8902644351258 -2.3624176348338 1.13839355970574 -2.51498726997246 2.86904879428402 -2.43944006550004 -2.78815159118949 2.18014148898908 2.51898678486422 2.65818792943938 1.907461066923 -2.60600421132812 1.90493537374758 -2.27912248950766 2.69789532838259 2.42739852923757 2.80592938232189 1.75106670814095 2.37618092475255 -2.37563338330053 -2.79598622628331 -2.34868621803702 2.30449817004918 2.43079135302173 2.17743566290345 2.42533164642903 2.61477389383374 -2.24989778603127 -2.37833116787154 2.80361723583303 3.21593793672394 -3.28414493362634 3.19569388141552 -2.80165416252425 -2.64586286873856 -2.52347810490963 -2.79180311928415 2.76794046290242 2.00135335490477 0.464421143908387 -2.83706052809832 -1.30731328499595 -2.87682447168282 2.75984229434979 -2.05440155172774 2.74380713855501 -2.68085977876643 2.48187168755327 2.13858399849722 -2.65590354166455 -2.93434359367209 -2.45906224915966 2.17249349243623 1.61686099516328 2.44198823693402 -2.77316177449877 2.64854277521342 -2.31868348834521 -2.77507137080155 -2.30214725366261 -2.83691989320838 -2.23296329354333 3.11962118562648 2.73620295036271 1.89929459571812 -2.68476840435148 2.30683600421498 2.88858802079754 -1.98971177760442 2.23796056906727 2.13429101034574 -2.01679575081268 2.07977528584811 -0.807407971691696 -2.37093796270528 -2.44850872584909 2.16199795641561 -2.56342561153832 -2.70806952097069 -2.67579919033456 -1.9560691887456 2.53304794042177 -1.99754199028943 -2.38366728872477 -3.17467047922736 2.16682780605167 2.58239858535325 2.58078318415139 2.93218142771045 -2.88479657590557 -2.31880717683426 2.36179863287799 2.58298183496726 -2.94100599983931 2.45899175687245 -2.35514774770438 2.53990295311954 -2.05095334940932 -2.06535693038489 -2.99785405321269 2.43650563695509 2.14853267279251 2.91343577271122 -2.60548779069221 2.422404952256 2.52443038301412 2.89190836744138 1.53133938842118 4.40293123318644 3.04126516578722 -1.63214404484504 -2.61149549201827 1.7721460021533 2.84687745329961 -2.47524828813918 2.17797384507909 2.59131865640893 -2.32838554373973 -2.55993201390195 2.54888029349836 2.43012065524943 -2.83223966384013 -3.412090071154 2.92403830517487 2.62181690031554 2.84695308598394 -2.73079144744837 -2.77893192095567 2.18335796650167 2.03407442858668 2.67960276950506 2.33148520735587 3.61501735887448 2.44806556287849 -2.30441923302021 2.68737225166259 -1.70042860661605 2.50435561210433 -1.82717234876585 2.59871131149836 1.99132133924053 -2.82040357259781 1.93014428711746 2.34251229275479 -2.6684061048152 -2.42118145606394 2.61110811609013 -2.17416849443234 -2.63233827503797 2.23421647182542 2.53781763477319 -2.67631678281559 -1.77311563896128 -2.71793590207441 3.41112433272315 2.76284082726978 2.23175567721192 2.60985820860119 2.33215448729669 -2.31210144940519 -2.0177248520346 -2.71991183407351 -2.73479369918517 2.62711037522466 1.50086816249729 1.20394463288523 3.25902009592085 -1.98766562909887 2.15070575819095 -2.48114870104732 -2.59921027825153 1.96781774850511 -2.18804994062512 -2.54839875232712 2.42714762131529 2.27764602131369 2.23870977069983 -3.64033385513183 2.64149325335555 2.33332881609959 2.70469085868785 -2.5415981623114 2.25217325681385 -1.93705589155096 2.32952397092478 2.98648825504901 2.65735460686227 -2.19224155141946 2.58954186154018 2.57140024278719 -1.99777200342627 -2.70575126857264 -2.62356345142916 2.13410166154226 -2.66791804872885 -2.76697017883862 2.81512327064277 -1.99422580426644 2.99863959505794 2.58015306677647 2.47331283747122 -2.71469559489519 1.87214272445967 2.66930733405107 -2.79333803152761 -2.29638674157213 2.268793128778 2.26122289976869 2.43905500885108 2.98019419991712 -2.34934905809657 2.65469666827539 1.9983812793857 -1.96746181824157 -2.91036789029191 2.02966328303393 -1.23409209551628 2.34509931293903 3.36585483951488 -2.62356791985957 2.52006503306638 2.77992344008206 -3.15392041981082 2.42204098142144 2.38997529399142 1.99820820383105 3.00617055636851 2.2887041329284 1.85969250669395 -2.7139497723632 -2.19688187938133 2.43003508086641 3.02127685326492 -1.85693187398547 2.82011460140298 3.21876956045264 -2.88774933039781 2.48793690558017 -1.9834139613787 2.70133558551313 1.62166587656255 2.74366937685887 -3.08905205047429 -2.3055901651095 1.9923867329014 2.04310510441465 1.94969919714818 -3.88751088725855 2.4262477364982 -2.96074133715919 2.08644924325522 3.14050162392457 -1.92879242744405 -3.70538652744466 -2.14307214724 2.55454413763712 2.76307888220434 -2.22771259510644 -2.6476667512139 2.80888647747487 2.68313303691558 2.84373749547176 2.15874490395146 2.22477695098401 2.41626025380956 -2.76840881108516 1.54633983064665 1.92528212081942 1.94979873275134 3.5134823605906 -2.89751167372635 -2.16829123644305 2.17718933415977 0.957328638059137 -1.84332285343751 2.18675280821011 -1.89040860478188 0 6.19877116931698
2.54184500846162 2.22720799400892 -3.44583860959892 -2.65135589424004 -2.17260900353324 -2.708503406056 -1.95839176307624 2.87558302189383 2.67059746454245 -2.09740156982793 -2.70712885766597 -3.38854374988846 -1.9225583525592 -2.59011045521981 2.15403115688253 3.11344912047481 -2.68709416262496 -2.49380059801931 -2.59870933320025 2.16476157915071 -2.07314658674488 -2.85909071962311 -3.19291226507364 -2.49214737803048 1.76594390617074 -2.0426499329071 2.74684758244306 -2.41922586464176 -2.49666152748453 2.20279800392427 3.07439140301862 2.71467407984701 2.63262062276275 -1.98539785461209 1.70670304624817 -1.75952230829547 3.4140488718014 2.20923087056042 1.14425738128823 1.83430810634773 2.30533144170571 -2.18535718943628 -2.60490597118715 -2.46815263470791 2.12447043138666 2.85403074857775 2.59245224990265 2.70975239469684 2.62461417744536 -2.38879877519157 -1.98657645900034 2.40115726744305 2.05784349314389 -3.73733265469693 0.831151735961729 -2.48207961504044 -2.30966733259112 -2.79624212087187 -2.72897675128264 2.81567157414022 2.02628292621416 -2.20419264930756 -2.45811089744956 -4.01373932414964 -2.84153524395275 2.10026778104426 -2.49620385003393 1.96785919703428 -2.61319530474487 2.25945677220871 1.8678455565768 -2.76972310313149 -3.3226121925832 -2.1032675529376 2.12929264318912 1.75666992888845 2.56281520334346 -2.58940468235394 2.66938007498135 -2.5518596480289 -2.66033878306779 -2.83175170428923 -2.71399155582209 -2.77217559886408 2.62287366882418 2.73606572141186 2.91398874828682 -2.52313192980765 2.73902356708726 2.41815856256512 -2.52323726941809 2.67747908340586 2.13372601950357 -2.62482028288465 2.09810928930628 -1.67664226976749 -2.71053972270527 -2.68283904288646 2.18679330428288 -2.90311264754952 -2.45585573367804 -2.16658442942767 -2.22017188498637 1.84979753823269 -2.7557959363473 -3.37138801576569 -3.36708560455888 2.31551177814935 2.0138271377003 2.00078509272123 2.86249905758008 -2.66804300140906 -2.62637468520894 2.65286074714907 2.70963577456779 -1.98100027386568 2.25455129233391 -2.35995507068298 2.17265727757106 -2.09848794248268 -2.37014520331769 -3.4153537282399 2.19595469839746 2.80596547297261 2.41420410185599 -2.46947110158129 2.60683987513377 2.78801783083083 1.89016531821708 2.76142807003903 2.20550482385755 2.35655576562269 -1.39863506907483 -2.19277455217494 4.00781293182795 2.31207958290173 -2.2283826528412 2.10298414965516 2.63734511492771 -2.18547072283043 -2.13868254435969 2.14536925906176 2.2424446191459 -2.26347116958673 -2.6432727152815 2.44442851405875 2.17777806511422 2.22428131798886 -2.38822824299238 -2.87625784919544 2.57734331766391 2.91263602647743 1.98433836526857 2.32445568653393 2.53066009042762 2.36501988361162 -2.57288779374923 2.90185482122305 -2.48621398972034 2.64698012097803 -2.63635345781807 2.37988033902288 2.62608052976751 -2.22183179965018 2.58203201434747 2.27332822102415 -2.61196071673933 -2.06051699620005 2.93838096063877 -2.57506705461993 -2.65773515886816 2.07121356613044 2.28718442664108 -2.42677086624094 -2.16155081001209 -2.49507090811392 2.86702172705912 2.49138548078358 2.39894437291332 2.85518102311403 1.95920849286342 -2.43818785913504 -1.61845453173543 -2.70976908913638 -2.76101605063984 2.75389860770715 1.84332835736922 2.43089710165953 1.83538579791608 -2.45142717124698 3.01065926612456 -2.8446400068849 -2.78463710900106 2.15295974172697 -1.86662494618557 -2.49695341167793 2.35629007400631 2.518576143172 2.24356811523473 -2.91913195434581 2.90038209595674 2.63513160138697 2.53562044281524 -2.75766382993426 2.85677060463179 -2.45668244748805 2.45061874698469 1.50053062432976 2.14692828115202 -2.80025114053593 2.71071020024027 2.81307670032945 -2.49271701120965 -2.75642869748543 -2.16401855119774 2.64406222011409 -2.871366971724 -2.61582207559405 1.96448923498753 -2.38905170735725 2.91203499806445 2.51787568057651 2.14667671975223 -2.52148727371644 1.7005140173923 2.1166776552786 -2.9070463120545 -2.77222736560759 2.8687104990894 2.62432737968657 2.79704600756488 1.35836278565403 -2.95180086154869 2.6986930946834 2.84060436714015 -2.69032932244503 -3.55912799090028 2.0770160222094 -1.50024335249458 2.34507305822219 3.12902199558528 -2.16447696558703 2.59624741431536 2.75382444255091 -1.70342259316046 1.93035714288552 2.57042460249718 2.70221559698347 2.10007366025514 2.64820577664613 2.42102277369444 -2.63248347696553 -2.37317042469123 2.80670848122558 3.4428547824041 -2.68097886076631 2.1091160820393 2.69269673438508 -2.25536334060111 2.68641625641595 -2.48314285103321 2.25167366623364 2.15529584751898 2.58430772152451 -2.56844926620347 -2.47749016741889 2.51316412239325 2.5034744949659 2.86182861037372 -2.73419385743916 2.48959564473993 -2.17550688209713 2.59579415957998 2.85665366480434 -2.68274789135496 -1.64208462494049 -2.31940012354452 3.38786841170223 2.48396176888001 -2.53843457469581 -2.38137053344431 2.02821283339982 2.04741155300726 2.119768472345 2.20558440601159 2.4771344347859 2.51035694714761 -2.46137356367286 1.88969428389509 0.972547595088096 2.65526318302808 1.93649809443218 -2.35686546993057 -2.06987858258686 2.64129161855529 1.34551010113912 -2.48532451188576 2.75816578520643 -2.764404129879 0 5.95128465146054
2.38114690892542 2.75814967876393 -3.00902992440369 -2.39080835518656 -2.81372261372685 -2.32612382017922 -2.26849131097621 2.65933614361561 2.8278205946811 -2.41419159930856 -2.87617554755255 -3.10131069343614 -2.4332380137708 -2.6237873506888 1.4441279646055 2.41067044901326 -2.18373898901467 -2.13869414371208 -2.71141309641667 1.61331787297773 -1.86040156727751 -2.77675923960296 -2.83553631252863 -2.31519323838139 3.45900409557676 -2.28126887519328 2.2531300934023 -2.08595798275725 -2.8571399962535 1.7329166941429 2.81297025858938 2.20510960956954 2.71714296151525 -2.74904385966557 2.5906747079251 -2.33235972985873 2.42974400077294 2.71242244863407 1.7756584522165 2.14453695178108 2.79364325570903 -1.94310659302625 -2.4346547144598 -2.10836634169074 2.74429916442182 2.35518560645609 2.34499596956362 2.17039473694824 2.69926392884315 -2.3388726435664 -2.57671707271396 2.57226701889261 2.66091666429563 -3.19108348012566 1.94273782344467 -2.53852968603843 -2.43557125905267 -2.62831485952549 -2.73749733066501 2.4022174265912 2.15491777235096 -0.039468378917663 -2.22075693923752 -2.10607260962987 -2.87967987493579 2.70830764781395 -2.5563221592175 2.19545075519083 -2.57057441692667 2.41671725930598 1.81608227753718 -2.81067108755864 -3.54490404525804 -2.3991392218721 2.49490257502058 3.05223665765916 2.62829077604609 -2.31109661824003 2.77696183894109 -2.34812692688346 -2.66014810704882 -2.77854098489723 -2.73603877217841 -2.18518316961043 2.62353684512591 2.23390344060731 2.60131879202549 -2.66473383677645 2.56675153963098 2.55776433000949 -2.75562080185655 2.06112398984293 2.50369854385628 -2.35464073729269 2.45130600190639 -1.81530803369652 -2.68364476216853 -2.31655491123755 2.20809499191711 -2.07571879937262 -2.34027580999046 -2.6086667481565 -1.84799744877588 1.98192920978244 -2.67398543189362 -1.85708205499074 -2.84463160643257 1.95752815740188 3.18484483721058 2.47233370652649 3.10435680347154 -2.04545463771521 -2.57221447059226 2.37596556516925 2.54421716337108 -3.31990935592496 2.54747734897108 -1.9186670546474 2.14591579436256 -2.65557744968456 -2.86738775430611 -2.43146906428233 2.63537453132216 2.61287877808036 1.9262513731456 -1.98137940565682 2.04051082970486 2.72270220942228 1.72225765163885 2.20693002738218 2.46145832623556 1.89798984768861 -1.69764517789053 -2.87844137283352 1.49065647638377 2.86639716275271 -2.62017707465402 2.04265274908119 2.13783995832119 -2.57433210445599 -1.65729221544589 2.59468162011485 2.02516027943692 -3.13463871846979 -3.50689596756146 3.03916254827075 2.56426300780384 2.10127238427247 -2.65149146576512 -2.63748735018813 2.36498105804286 2.50236228292381 2.32875313237414 2.90967158205804 3.18216101798204 1.99804824146067 -2.45390579369166 2.06030806298889 -1.93107573862492 2.22717642307458 -1.47849794916448 2.40984190436702 1.95688320773129 -2.50615455824628 2.88483689448807 2.43630249525172 -2.27551143033955 -2.32813252301614 2.98793881541297 -2.65864415661922 -2.03628261467291 2.46783747521391 2.35976122213527 -1.9306898095963 -1.79296164983276 -2.53152495386905 1.95676160182755 2.48034686633866 2.16617692056913 2.12028363648075 2.05769648317494 -1.97623117852076 -2.27754518451627 -2.53598767509711 -2.89247423269814 2.28277190559888 1.83052496380796 2.17812173341102 2.58320027700221 -2.91228500047427 2.32268893962886 -2.889883385935 -2.50852061676626 2.06624176289753 -2.11692335487861 -2.58580651344157 2.53779099040687 2.5085469645961 2.11107438590535 -3.15884901915562 2.64073782220511 2.3658067019252 2.84244283453685 -2.00696846186933 2.38531359499013 -2.03986259868326 2.7728429615228 3.56679467732365 2.39467636594103 -2.40496051449772 2.79610113718281 2.73062296045518 -2.40905548989828 -2.34653306316422 -2.63968933967694 2.2281902788025 -1.98448254625794 -2.50296934530353 2.25497977096279 -2.39968134673948 2.99926960646825 2.19577372410471 2.71236525470528 -2.44577803815164 5.65704861990906 2.7087802410755 -2.78779018622128 -2.52881907722093 2.81389040258014 2.15548234862608 2.8878839247563 2.21610880016603 -2.16772477091115 2.10722639315331 2.40037305426395 -2.3616089629583 -3.082675064953 2.49017259875493 -1.76489357133191 2.29724169736576 2.80064874186083 -2.75080879505131 3.12126382636132 3.05138417632902 -1.97382740210994 2.53385979490448 2.44173593996492 2.61890209917381 2.24627781664065 2.68551394629575 1.89404490775701 -2.66367779731824 -2.4074719177193 2.67429885676382 3.13990312966609 -2.47663231784291 2.45607111730949 2.79158747417042 -2.84759106082351 2.65969205359622 -2.17873067341902 2.50088604993179 1.95281030902663 2.10240465398046 -2.64772269148887 -2.63784280279808 2.21468558373843 2.07253590138576 2.15564966772383 -3.31227119412605 1.90813763569577 -2.91401924250632 2.21397062801668 2.5186524443473 -1.86490567082378 -2.1704936004196 -1.31438813594878 3.01904383222776 2.15412616292489 -2.66005416061156 -2.63110862339237 2.26224135983125 2.08501384590425 2.09731795735587 2.74390696713029 2.36736401004917 1.96822258652197 -2.10604139936689 1.8744480187782 1.71352404940022 2.83724647317954 3.78716784858446 -2.3410703808053 -2.59109070518643 2.3182463626422 5.00169774557368 -2.2219991263884 2.36385179756094 -2.57575819147131 0 5.85681477775828
2.2014524167013 2.05315457907455 -3.062895347106 -2.79051220964879 -2.23834735290443 -1.84205571652379 -2.85754400309903 2.25258375810738 2.75388020569141 -1.93332282634614 -2.04435766083164 -3.17843897175275 -2.72768832142102 -2.09342784404312 2.45924561743333 3.04511762227486 -2.60714041997989 -2.48369804787604 -2.75804757357101 1.63359284380113 -2.2823044984743 -2.27679688617173 -2.92459330400325 -2.11556697505634 1.94732182891946 -2.48915887666187 2.62368138231915 -1.99710137640804 -2.23889065219638 2.6865589529219 2.3802954676582 1.94052668423035 2.51529772169019 -2.63843978992543 2.94412437485582 -1.91913670501326 2.42903976605767 2.06663613075368 1.90142858155179 2.52308698675242 2.31588064790722 -2.15630954330371 -2.0019996202123 -2.25679420025651 2.1671670756986 2.24800760658153 2.57138865999741 2.56945353483314 3.12355069598236 -1.71629734199408 -2.01832118660265 2.1060497852839 2.53416651931768 -2.90380626456259 1.17878518131886 -2.14622000416537 -2.43471077765425 -2.00093294650272 -2.38886230667305 2.25333558643191 2.03145075368913 -0.402688237527313 -2.16204885673751 -2.62776971369653 -2.36750575798906 2.60486545043711 -1.82660275176154 2.72794533218322 -1.96260950958229 2.33651545327075 2.60269958179091 -2.47007724635817 -3.13922271112971 -2.25331086814046 2.55547414917655 2.06557344184498 2.58528779460846 -2.64717959345042 2.47210222465837 -2.418994622372 -2.20585301762423 -2.80849088862898 -1.93767054134387 -2.20049680350756 2.06741586769076 2.6950813455797 1.94161222440966 -2.42304737870248 2.31359948337771 2.05630703125037 -2.10083466912425 2.56404099431256 2.57018485448057 -2.78587048693974 2.57716307605989 -1.58142881325016 -2.80456800694199 -2.02770795871344 2.53809070795333 -2.31353248407631 -2.50502186509007 -2.06470184365602 -1.79218849809603 2.36103421007481 -2.82966576567535 -1.40026820729548 -3.60882175249004 2.15891580450339 2.42676419553028 2.03612606787313 2.92762463678853 -2.72441672614288 -2.56916301913286 2.00120888689421 2.68157049931352 -3.19744419437018 2.07629617255742 -2.54793936053818 2.83927667932565 -2.80359081237105 -2.21429361698918 -2.57448828563795 2.35245297483368 2.60384228286161 2.02808577884119 -2.5658710528927 2.06319763155066 2.66362910673569 2.1593789907913 1.85608637155791 1.92766849946112 2.65919399558888 -2.75560260608103 -2.93686203804897 1.40379321830964 2.61351484604582 -2.60500342340467 2.15920410608848 2.18658409691221 -2.71709730249187 -2.74574129058613 2.63919180260116 1.87995458021898 -3.2656505310526 -2.40665164706167 3.0412924737746 2.12935303263964 2.67670123418553 -2.63941135616192 -2.56406102552617 2.00679315367569 3.03893025058156 2.74734182044908 2.5924507633739 3.09272367826884 2.72339422183297 -2.69902438373763 1.96350695310012 -2.46008593370662 2.58593987753141 -1.56051646397757 2.41957959361025 2.28118640635141 -2.82714950344199 3.67000236673757 2.47007532736668 -2.15983405621455 -2.52641387981208 3.41899343554357 -2.73556294539248 -1.9712314247265 2.77604355953681 2.30314041999566 -2.00838459557603 -1.80223973950443 -1.97548865019192 2.54885235429509 2.19751614461001 2.40854833603431 3.39977757714982 2.67452829190693 -2.37705296766031 -1.94022222892857 -2.67314037183115 -2.92026875707736 2.45752075969385 2.44516583980535 2.34931481557566 2.05102329017696 -2.59586157552317 2.21693419808795 -2.72511372146969 -2.69752034297052 2.67026079065161 -2.06311970730222 -2.00116287888467 2.17615758770398 1.89215609783592 2.16945461740665 -3.52500375455566 3.09664073365181 2.11960374564495 3.02570659271076 -2.7751392112471 2.60305626757695 -2.67723397421194 2.40743842140779 1.64907908251997 2.03776615901331 -2.78527728216467 2.4026587089013 2.79206708837405 -2.30529959483 -2.63078246091692 -1.88458397555802 2.01620938163968 -2.84073672376102 -2.77981430123933 2.61311641857876 -2.35517585727996 2.43799458398205 2.84289410814072 1.87722822953276 -2.23636275617578 2.72897538539499 2.56143308158768 -2.12204332325829 -2.22231441151586 2.25255179001409 2.61695694270845 2.38573469493317 1.98919479667332 -3.76164716931722 2.36445409322554 2.79289086935222 -2.28315008767343 -2.73959542954058 2.52620899866608 -4.78602758968177 2.18668629475133 2.65516958382382 -2.07340694000418 2.70681673742116 2.70246255718145 -1.70379707303001 2.24213127298282 2.43893044989487 2.92052708602508 2.31987912490006 2.21331532657399 2.46750994253514 -2.60959794144833 -2.62436726780918 2.84739139133345 2.80088536640477 -1.96557957694588 2.01255694802 2.83214660640878 -2.48793742032491 2.86924132124511 -2.44645031246119 2.64150822944522 2.14993594639327 2.0717315388816 -2.58659214142266 -2.78690911398785 2.76140526355272 1.94415647904918 2.54515901691856 -3.39567034931426 2.3253115732002 -2.50878070822204 2.34136796637357 2.77174880603877 -2.39471298101641 -1.54680664821609 -2.19443291418024 3.5053961448638 2.63299998347536 -2.61737573616092 -2.69509736403422 2.66626628586921 2.2040383214645 2.80439574764604 2.75717023495174 2.19264761800771 1.98892459443467 -2.76156606747583 2.4400411599995 4.62725524253674 2.28396928129499 2.26820191376628 -2.69213922182904 -2.44162571374987 2.48727708277931 2.17144073196029 -3.52507491360057 2.18850687397125 -2.24125702026118 0 3.01683833928225
2.43584495940943 2.50205370866542 -2.55135572787405 -2.64531834021797 -2.0933926768628 -2.4166719825923 -2.09340308664027 2.46750020006498 2.59462672549607 -2.26668981836076 -2.54430943218466 -3.04284947212422 -2.3695328996593 -2.65247775859877 2.53664214438196 2.84056692346963 -2.80121322321236 -1.92844372531151 -2.66883276972395 1.68145905772302 -1.97880677969159 -2.01744375365703 -3.29309344903374 -2.637708607544 1.43933219535326 -2.65939154096478 2.31283373027497 -2.03731726945737 -2.81298450104805 1.84890029678226 2.72098061357757 2.83113194688164 2.15009982424005 -1.92813745471434 2.29120324559127 -1.77910859430924 2.28710829808206 2.2850350793266 1.91078218426601 2.01069757133777 2.33365267191297 -2.201867107268 -2.48350910392282 -2.77173523066617 2.13269116891758 2.62378940869138 2.74719969654944 2.59437212326939 2.58402577008132 -2.59416751638225 -2.67076340783847 1.98511917186908 2.9628733109482 -3.36673934981719 2.89822523891877 -2.2144945656593 -2.79365213993615 -2.48192504179759 -2.48477346732276 2.51595925485593 2.72667484745314 -1.33638046122576 -2.41434173976469 -1.26401836449756 -2.76454683142975 2.62836276464665 -1.24618107782966 2.44648104544868 -2.35747944408316 2.02038893748322 2.19474602960891 -2.95421351294768 -2.62797599107167 -1.97122075061054 2.50783223855888 1.90983971301134 2.16249727113757 -2.5113013891131 1.91016669858973 -2.00909976397721 -2.42135688943754 -2.28433186797344 -2.84288137889359 -2.76237820285767 2.7774745648475 2.51212409690704 2.2219000030576 -2.07535941066709 1.92839607298333 2.84598573685175 -2.25630695290154 2.65769157245362 1.92409225420523 -2.43173278203902 2.54996227809236 -2.00386381341686 -2.76192679281148 -2.1873613902422 2.6820560126293 -2.37080444814222 -2.71429021209501 -2.48100077934205 -3.46323012777201 2.33945636575151 -2.39747443436697 -2.03851842687792 -2.85419122394433 2.77560427759395 2.5343829126385 2.30283271244898 2.5583620451791 -2.14953314012824 -2.59598008433273 2.37294405290509 2.49715877300701 -2.86609104757906 2.78487555531363 -2.29930503915909 2.64025159625447 -2.03843910910533 -2.2122830451438 -3.05949289311658 2.40420608729787 2.46724028472155 2.15228895017173 -2.13308276663307 2.32148143362719 2.10905878859977 1.75282153153609 2.48217725654083 2.11962821122441 2.65144209337971 -2.01030786327934 -2.30050314143584 2.43582382912571 2.79430064247444 -2.56217466436435 2.28999421017807 2.3253309678515 -2.60475954625785 -2.04115374037048 2.01532796186465 3.11549582755656 -2.53216780226361 -1.98680197671975 3.01179349706964 2.32547485598462 2.3395001120756 -2.76428666247537 -3.27528839314749 2.51159130524776 2.60827941500136 2.82329033891374 2.86682466209093 2.63601703190168 2.81077466061408 -2.12310152307728 2.44386566674799 -3.45072580179897 2.69925881824773 -1.99361342387418 1.8897770941358 2.58037039525919 -2.23854459046224 2.5238491721475 2.26021580322397 -2.55713105187968 -2.25639360639665 3.15686111009748 -2.4174000021101 -1.86332498166267 2.43791836726157 2.66952754598799 -2.31383476369712 -2.5918538091321 -2.33403406353625 2.68850248813015 2.02390842900232 2.76920038845912 2.43119507246571 2.071572662267 -2.76046099444599 -5.41545995398007 -2.18541889238413 -2.72874429193707 2.50109719018672 2.27611463731208 1.7885844058225 2.86790772828753 -2.09381783394833 1.96594804557355 -2.36543800564236 -2.60911338156676 2.61361018625853 -3.37164533936825 -2.05838220060325 2.28095635088004 2.14214021178319 2.79836326994517 -3.15639072857462 2.43023908319445 2.54825600825853 2.3442577126553 -2.24041067170742 2.24607473481697 -2.76814643193951 2.75628706474205 1.44531617900326 2.73925769653564 -2.51148499665758 2.88070140933588 2.64962137877057 -1.97097069709955 -2.3866170302066 -2.25445202661456 2.71216680162774 -2.00903902209783 -2.25058521341638 1.99780469526786 -2.57677849798462 3.2419291479638 2.7103969557992 2.82323488657416 -2.76613024260512 2.52837170975021 2.30230067386119 -2.644006047005 -2.76027396378852 2.03482712750768 2.15997486038622 1.92033590327508 1.4824503570113 -2.45030158065763 2.42669272250133 1.86247245549907 -2.53798879966297 -2.94459962504082 2.35098415414189 -1.71876071899265 2.37814691216024 3.14635988549317 -2.58924117086487 2.38865844065299 2.90710693719481 -3.16352439521656 2.28341050988857 2.52748463479793 2.57777941646829 1.51972442546693 2.30665220679499 2.83102266125364 -2.25308497414092 -2.66865517818113 2.73549932514633 3.53926665213871 -2.15128356903053 2.3655464604475 2.9173165355379 -2.60194781688037 2.82406516778688 -2.03442380533269 2.55955129279052 2.4266342382777 2.26023721094262 -2.79764461239232 -2.29748840560602 2.41049343607866 2.25408468694094 2.50134695165638 -3.1247867413771 2.15453445400939 -2.78133939935187 2.17439137210553 3.08014787718839 -2.18198688054873 -1.76604220920826 -2.43931109819751 2.98616033140077 2.77389561482962 -1.87441135865459 -2.08492913708708 2.29145614367767 2.18486737644196 2.62528195714758 2.22550174952879 2.31560097075735 2.64691054542981 -2.46641013645643 4.18070909095994 1.93995538989226 2.41974646943036 2.26712842394539 -2.54199694171568 -2.27706147200349 2.4275057254387 1.74940337527618 -1.97514600681609 2.81704034557936 -2.6537503537019 0 4.51156983768775
2.74484993804789 2.13873033212218 -3.09595606723001 -2.40377875228316 -2.87109275030169 -2.16470054977307 -2.56301755768703 2.41905452297154 2.29110180056473 -2.33741013600251 -3.52374189289904 -3.37579825293644 -2.15849357612814 -2.65551352958671 1.86690206498601 2.56005591540484 -2.16225589437164 -2.28465047969243 -2.71150446274812 2.9596542749419 -1.74138348903743 -2.65212706252168 -2.89377832045217 -2.91209866506755 2.69787764355073 -2.08769742189332 1.96007053980098 -2.22060594893419 -2.81096226656273 2.34045826648729 2.92879747333987 2.34635795797292 2.22152771291204 -2.459105819363 1.73220039393254 -2.84970833489845 2.80209638276919 2.05922865934515 1.83280863891375 2.79378236799024 2.02652098026362 -2.6227224809606 -1.98236680821637 -2.32261673653018 2.79433243518457 2.29035016914667 2.13118196763878 2.89399671311725 2.47519902345391 -2.61053158857785 -1.88710419568513 2.17167336000881 2.31130689343858 -3.34595426903431 2.30367255976295 -2.36483583335918 -2.13187590156407 -2.66782531357985 -2.81775650329582 2.37006121412309 2.45181842739213 0.846113921316637 -2.49561757122459 -1.74442668477079 -2.97211504038421 2.85821660658248 -4.36435159455821 2.05116500218383 -2.70470188465965 2.43703553029953 2.08616937135875 -3.13521605667916 -3.2597971345158 -2.42500426938284 2.49465647917009 2.00250759567928 2.10762545379573 -1.95010705148418 2.0028750297415 -2.42543794856137 -2.28037482324915 -2.67920428405854 -2.66281959460804 -2.86319566482265 2.57794581095676 3.25173274570858 3.82684385506714 -2.08225272272166 2.89148141238381 2.3791777152881 -2.00247695511806 2.69068835707811 2.04862221870574 -2.7193665654437 2.17614292345548 -2.02451276186838 -2.01888063678912 -2.5781556982512 2.66760752949152 -2.75824647961162 -2.62254440185659 -2.04607347231574 -1.10788777886811 2.62186565569331 -2.23206717309856 -1.92567526386629 -3.76432681013288 2.0244716474615 2.79065450226763 2.81989015888006 2.65007684350427 -2.19913466107601 -2.72163042805345 2.48800326410269 2.75405789650137 -3.04766586379357 2.3063356448655 -2.43847217681813 2.85508932128869 -2.46181696855489 -2.74695704329191 -3.28559864557116 2.20969957114136 2.62585518797677 3.3512967914402 -2.43259136080086 2.72151756307762 2.66444192713208 1.76063913256675 1.29356225755997 1.5445559977008 2.76239998458011 -2.11764186735701 -2.86874226489383 1.13298461164933 2.62850554003606 -2.54743495493507 2.29972728087961 2.044750460114 -2.44659504555947 -2.06237816935065 2.49235408960573 2.71102136063683 -2.84384458531469 -3.3486820918687 2.78047949565558 2.4184058774565 2.26261318455054 -2.64080332633464 -3.01079151856396 2.01646263244648 2.51483074759328 2.47995950806599 2.20944985910405 3.76056097395519 1.94752523974942 -2.55207955205331 1.92516262961165 -2.11216757894286 2.00001236756541 -2.52943429608385 2.37739922406765 2.8463552485244 -2.24048349168046 2.20046020087108 2.74840280517178 -2.32114943019237 -3.19151380008529 3.15944315513533 -2.75627330537469 -1.93503982247864 2.90874820321621 1.94438887652243 -2.40960586751924 -1.60827456277246 -2.3523049198869 2.55652765161064 2.09624577428491 2.30617965196183 2.25498692902303 2.77584319513026 -2.62524728097008 -1.92174459704583 -2.27328400733141 -3.01008980888927 2.5107165910315 1.69626515559655 3.8832206250132 2.19653635425558 -2.66870333591766 2.11472519477995 -2.53343498316163 -2.81092723700591 2.14964545223552 -0.627088447980744 -2.50786855840226 2.51978760656087 2.26044030220287 2.88617217153333 -2.78099540215889 2.5803211469306 2.38893892805701 3.47513164750876 -2.7921944262944 2.74414193319405 -2.81465693464911 2.38102097612378 1.13323883099093 2.59442447586592 -2.48422551425417 2.70158531429516 2.20931124721169 -2.3985954037968 -2.06307638240744 -2.6473117673472 2.32414880838883 -2.88629510112068 -2.47314428383181 2.53407972585021 -1.97189857826972 3.40256277663216 2.60405938779907 2.77303265632634 -2.76162206202768 1.69554311172374 2.48691643856843 -2.07877965663869 -2.12208765794189 2.52911769779452 2.14409564717893 2.65389180805414 3.39693619948609 -2.75355832886382 2.55261848470784 2.57036244862615 -2.65938894334625 -2.78546860954904 2.26383314336855 -1.1153112945298 2.71512016395594 3.65308609555353 -2.53586996185029 2.40931132021821 2.81979219144054 -1.9239075937522 2.64562932233697 2.76354993997416 2.09345451206274 1.73987283027899 2.17828287132983 2.10045875345726 -2.81537805672021 -2.22177449654379 2.07760186197883 3.54732807177556 -2.01273337627633 2.58789505653852 2.4896152048275 -2.8407758865771 2.19477859186262 -2.67782753219557 2.55938606372677 2.76062208748221 2.38845341914516 -2.91142042445965 -1.69064394140367 2.06074429459568 2.79240846244288 1.7194963143641 -3.03715348522384 1.97097087711905 -2.59998462644911 2.004236649309 2.93584423802675 -2.68376333338728 -1.39495798010142 -2.1328132616157 2.76265654935716 2.64028840833104 -2.79205163244161 -2.16056256944624 2.5189987681482 3.03968678803041 2.31378112329442 2.80269994763792 2.65704240932868 2.08462435946344 -2.73858688688388 1.91810007946714 1.89070060898133 2.58402054355953 3.09490365948032 -2.50667949398733 -2.62440457404966 2.58810400852214 0.616945746791622 -2.16352668162837 2.56173338975419 -2.62016846142557 0 7.31546337676935
2.66610337789016 2.8143163145465 -3.1292553306402 -2.81291480927857 -2.81802417246185 -2.18392687727047 -2.88220725829793 1.95863940259253 2.06079131855626 -2.76919502682395 -2.74684600884654 -3.11886555228708 -2.76093299596424 -1.92457110054161 2.20847634276886 2.61440769851298 -1.96410189300731 -2.71637902617135 -2.51967837209607 2.62094188590083 -1.98602744829772 -2.83234701644742 -2.905207182203 -2.65872333119264 1.7806774206255 -2.09680952090147 2.13574169101986 -2.07525946060223 -1.98196930092352 2.49877019379764 3.05174979481021 2.85889708981479 2.89218510427043 -2.64509123796342 1.97820488879997 -1.52706236207768 2.98992476557352 2.67359774039938 1.65100035183149 1.81254637950336 2.66688744022566 -2.58685529424872 -2.01578816996023 -2.5041442636987 2.39003139300929 2.35453129642761 2.29253104531984 2.41069341314273 2.69602194859043 -2.59198686085756 -2.62285464311467 2.50979890393101 1.99599564393185 -3.25403713973355 3.50896122458775 -2.28933856215157 -2.13032164629369 -2.12897003417128 -2.12787784285485 2.27858262840789 2.31154535184471 -2.18420183971705 -2.85370192913587 -0.0820863892886809 -3.12613213953499 2.27118790112746 -2.496042317324 2.76735661343535 -2.32852237847215 2.63756490168561 1.92346349668665 -2.86046813235615 -2.53971416291845 -2.56211425894194 2.71124526292133 2.27825457973359 2.01142763693788 -2.17978947566655 2.78774551635409 -2.00339854156887 -2.30315883863828 -2.01121223778698 -2.75592085022773 -2.03529809643727 2.58000013789922 2.75952244470917 3.47902509072413 -2.56230097978412 2.50805352490601 2.6058405299732 -2.01677093462974 2.66649111231978 2.75063690375409 -2.00879130033261 2.6967125879891 -2.1455517622034 -2.72748564378928 -2.25494038176551 1.88070509456214 -2.77162251674573 -1.94694797309934 -2.42661018411503 -1.97969564220337 2.6693695996854 -2.00924985826882 -3.5187323579147 -3.18206966843119 2.51744968392527 2.76534734622067 1.8101366802781 2.89497576936501 -2.77444715276336 -2.01085668907756 2.74469625235748 2.77128272285968 -2.72393690803793 2.87076576287309 -2.53665907118373 2.40724462293748 -2.93428948576731 -2.46119202731815 -2.9127710610997 2.21682928736171 2.82396195155401 2.27308185915008 -2.46006770698379 1.96350826400802 2.83443427289378 1.9264921206914 1.59736857028041 2.12368866416398 2.32469496039512 -1.75525898606891 -2.15474260568258 3.67615571548868 2.01269902899987 -2.85311556900643 2.17923866826055 2.58661210619176 -2.36920154739315 -2.45778244704104 2.13936053022873 2.44349238984852 -2.64278287284937 -3.06859443282073 2.77160030489763 2.54752839242629 1.99531843910049 -2.86552994139966 -2.83183497942919 2.69789978795283 2.70483763295697 1.97337805946172 2.8279963660316 2.80594141056838 2.8363716711338 -2.84092384970266 3.11196588524745 -2.50110287517652 2.42604025680344 -1.57986310133606 2.76599138082951 2.03966150411901 -2.42658114378251 2.74473728413782 2.76639464530659 -2.4350366488577 -2.75210628416231 2.93493461698583 -2.1540198027732 -2.39484687224221 2.62122657241956 2.189825120568 -2.77332805178321 -1.90802614676795 -2.59025536383851 2.17052125113349 2.68707705447052 2.67809753922644 2.11967403635357 2.50074994462141 -2.82570103403395 -1.0366333260018 -2.51747873334386 -2.62312670071797 2.39181382350124 2.13684822742551 2.04408375871374 2.45880104595901 -2.87228846461662 2.78363747927556 -2.81675854767278 -2.75740803386708 2.36648153171831 -1.73596311840263 -2.25575984898104 1.93020528043896 1.96321841117564 2.6326626626598 -2.94335297011524 2.12661312494951 2.54315077643053 2.55523495416777 -2.6810134836539 2.58116704396112 -1.96641220276039 2.54367578708645 2.08215563171085 2.28783164144582 -2.50573570657624 2.49292158672493 2.23331969120476 -2.73637434771535 -2.92389568512585 -1.95731502942719 2.73569388028383 -1.99843582998907 -2.16917825186294 2.85100151660831 -2.58031286483534 3.07738734575759 2.59396422175536 2.78740170832028 -2.01629444041059 3.35713203974842 2.26575545993835 -2.35664577280218 -2.07788774639626 2.38350345046702 2.87127269069025 2.10179283071585 2.04825811495562 -2.76122128836998 2.32108927080676 2.57844971869558 -2.06816064365944 -2.7211997360753 2.64984362040444 -1.77850950667748 2.5527959835469 3.1385463386911 -2.6082072996274 2.24123463474265 2.80808420908889 -1.88635262419297 2.54818354175674 2.81946868691023 1.97188428088098 1.85496568316531 2.62742740524057 2.6307766627099 -2.61080125361741 -2.73548365656123 2.52027963854228 3.45863979790228 -2.25282061038995 2.63799123070234 3.19624857627909 -2.45715561529432 2.2622846617851 -2.49291616460142 2.63985739050299 1.93163001354085 1.99635624758794 -2.88639463482121 -3.16910818503045 2.10536859120707 2.34353257824898 2.58017015676226 -3.15556230362937 2.75261084072881 -2.60153051847956 1.96040913815624 3.0308187250763 -2.45339400271895 -1.89291356206798 -2.33757433904635 2.97597513531162 2.19294183283521 -2.84615104033812 -2.48653487075853 2.37315650720389 1.84359541665554 2.70516781228484 2.17219195852814 2.82663358541302 2.12377518037624 -2.38019108436026 1.99404740562 1.644399786187 1.97793932806946 2.61954785528513 -2.70902293029973 -2.51042094117061 2.12147536324476 1.42570879297444 -2.82997251716602 2.86669569417537 -2.26912731435283 0 7.39674331966699
