2.09427923052192 3.19516992435846 -2.96165032875696 -2.54094482892213 -1.97433580544398 -2.94981754936352 -2.38795667769088 2.69038160489596 2.79397560384272 -2.17261395248336 -2.12999160314767 -2.80548874289323 -2.22228477743723 -2.01057797786333 3.49084225729876 3.19817393744429 -2.52068235850953 -3.52610289963185 -2.83705941386081 2.01419183956032 -2.47302165941922 -2.51878375745152 -3.19599566787605 -2.69024869006783 2.40520295417617 -2.43893733707654 2.08431161485574 -2.39941222546974 -2.31704529946875 2.2697543600699 2.96038212117875 2.46243062931367 2.49091997318328 -2.11461840540261 2.60848007502386 -1.7256788635491 2.52856865658092 2.58130213697536 2.03881640239227 1.96787067526227 2.17273586858387 -1.90196003697916 -2.64188223755442 -2.64444917348829 2.22764164543067 2.76059163313855 2.39892486329612 2.44148756794258 2.29704759097771 -2.31790250935495 -2.48214659131789 2.50670610616175 2.47525351245577 -2.87255515084457 1.36267947093135 -2.08778364824233 -2.05063998876649 -2.83007033279531 -2.14659734925457 2.42929886590503 2.83151188583935 -0.235453262723027 -2.67036963000374 -1.60830252237404 -2.6429807715097 2.87457189097667 -2.17019306606406 2.62817277877666 -1.91542226860846 2.69216283494668 2.95264176003905 -2.52880542941504 -3.20611911111987 -2.89023753758935 2.23761132519253 2.33332017053317 1.95481469482927 -2.08833206301437 2.64736752722469 -2.14433165600115 -1.95015857116031 -1.96572956310589 -2.46283022394938 -2.62204004015986 2.52714955966761 2.72033360153809 2.49537249580875 -2.58908245359586 2.75402645469744 2.06846560042332 -2.88283226025999 2.74805965950879 2.59504310630518 -2.55817766011515 2.36515250517578 -1.8540764581721 -2.20029276391791 -1.93449217085572 2.40573053647329 -2.6013052110395 -2.58751000038685 -2.10117901030235 -2.21965150892511 2.07573996092193 -2.48467004320213 -1.91604284578409 -2.88354894734174 2.57460874874496 2.66426793694263 2.32448698320125 2.95805723065312 -2.7697871569879 -2.62918880199461 2.86797055348977 2.5684177115236 -2.93531806306886 2.47019560964302 -1.90940197834633 2.80013848549503 -2.53531451237171 -2.66487661501747 -2.58679515062562 1.92693045306852 2.71124154351262 2.08763331102071 -2.82912367868258 2.47337070173805 2.11570385845529 1.7387314162832 2.20609395880845 1.97304798951174 2.13742350508066 -2.0093616040864 -2.35603695809125 1.66175315980433 2.03708321544391 -2.31739357574041 1.9627043220111 2.50525813408985 -2.20167839620266 -3.8753488467518 1.9266079037943 2.18155731254253 -3.34686126584563 -2.36730790487448 2.96607196966269 2.31303129478502 2.82358581236698 -2.26865739942321 -2.4419881805384 2.51731157669573 2.89528182994495 1.97047938700654 2.14680521079515 1.70205511614673 2.73583374697871 -2.39968826602384 2.31424065796074 -2.1486059118175 2.19502172320379 -4.58398155970399 2.60887790667598 2.12674642592319 -2.20288411042505 2.13894413301405 2.51117226165721 -1.96302583038837 -2.08509090178629 2.8056857262899 -2.27805136441159 -2.3806439626437 2.45622780848943 2.00255218749697 -2.49749019186574 -4.17203549986536 -2.66462811040838 1.9747626784336 2.69618432272427 1.75665078597284 2.58887559212441 2.32106219467836 -2.14959489277221 -1.87849082854932 -3.24095901787701 -2.49326219554223 2.7084157187544 1.72502721576591 2.61736109257898 2.63533498215478 -2.27663850612117 2.19128805409742 -2.83033849122096 -2.47339085904892 2.4164057789081 -2.26330974724498 -2.39201418869703 2.63107811710291 2.49181867588734 1.92044040613515 -3.12780247151885 2.01700465469701 2.73175654115911 2.16251527188481 -2.80175748766339 3.00062629405773 -2.83557587519395 2.53655645224533 2.25348824962702 2.04623662545133 -1.96966226995946 2.90765577295383 2.74051356446177 -2.66924798612698 -2.0691215564743 -2.00762664005595 2.20158892241112 -2.66373122819868 -2.75390108336191 2.11257624423499 -2.41307575943806 2.52781554296044 2.74039303413489 2.21665606436171 -2.04769607468328 2.41855935264698 2.39169233914742 -2.7648755811242 -2.57258864279873 2.4801082642791 2.48998985841047 2.30341665549543 1.86787065255713 -2.15939132486082 2.06715505430173 2.55501950494451 -2.34808705748527 -2.87688526370102 2.35089109844885 -2.44568267446224 2.69239971323187 2.45757855717855 -2.6917086315227 2.9275021181927 2.72112609338306 -1.91075122377059 2.69385447554964 2.68711614915631 2.45764361888552 2.25654823327225 2.23690975963988 1.93988227291739 -2.20194253671799 -2.41452321758814 2.66119910314953 2.64246011035234 -2.55127484840273 2.56356722856478 2.81566714682876 -1.95830493810136 2.3892082340231 -1.96381778151776 1.90259357121893 2.3738536397679 2.19021804597532 -2.51990548027639 -4.06273519910037 1.94130931194006 1.75559622999138 2.05315653585936 -3.2320869986721 1.85921093943376 -2.45987657205492 2.75648130533502 2.73423690087709 -2.66824648890162 -1.75927027852789 -4.53020689914731 2.89687759599177 2.81886591626596 -2.38365200959383 -2.27731629043947 2.4356836577099 2.49036913551792 2.19293369067457 2.21622789977744 2.66359978123083 2.76518537810873 -2.69096635172329 1.89933845475137 2.7922668324408 2.73414286279025 2.05726508610922 -2.27278164464368 -2.13263626779027 2.46148528282517 2.46767874581553 -2.73635273711467 2.17587664481572 -2.71353734047467 0 2.16240850448488
2.47615522799997 2.61188452271879 -2.52121202654216 -2.79115333924062 -2.5867299664984 -2.22982321950609 -2.05336551412631 2.80397722670295 2.64934079795008 -1.9625893154613 -2.43112174033295 -3.11962931749524 -2.19216286282698 -2.46380150267364 2.62582606314537 2.75777205384792 -2.71471574735958 -1.99584477932952 -2.57556904065706 2.4610172481567 -2.74369715368067 -1.92722924932412 -2.32113158485921 -3.65855377495291 1.6557921396928 -2.31608015032168 2.04370893265232 -2.74854957286327 -2.89427302509971 2.24545442855308 3.00325604076224 2.69534342122424 2.42293022227484 -2.68489137190367 2.79822999633837 -1.86869876396344 1.97280247511197 2.61980381659876 2.16409132711135 2.90760264861296 2.73171591660279 -2.6549006576241 -2.57690350692135 -2.27759085769345 2.45214292972252 2.82282492761412 2.78429682115336 2.05135821737329 2.8992689294648 -2.52960626117933 -2.79929350496744 2.0783192947593 1.88870885954666 -3.51663164170357 1.16945410786242 -2.39940788991916 -2.83231507470227 -2.86314633076089 -2.16068477591733 2.80228361319402 2.26621302835425 0.202459015947478 -1.99776280044028 -1.35600423225796 -2.46131912940157 2.1740989939182 -2.23852686709684 2.27783635092681 -2.46985433893208 2.81046388282231 2.13750136172545 -2.66832766079581 -2.76055523816836 -2.44331248919588 2.69035280715514 1.83684796857213 2.30128729759718 -2.80716493913355 2.82867216078997 -2.2362133400136 -2.40094951113792 -2.79086520238714 -2.65164235254566 -2.11580556133065 2.6070510151405 2.86509974711413 2.3842036121109 -2.79218335879418 2.68692222760693 2.28409861546052 -2.02368017036601 1.94716269989535 2.90054834707427 -2.85625941737774 2.33313803843355 -4.01071750402475 -2.69085542614641 -2.4482744491684 2.69405161701204 -2.63819321269287 -2.5188655780013 -2.36400453640219 -4.45810446115548 2.7496656084888 -2.10162947267885 -1.92421571712627 -3.00524740903305 2.45017865138161 2.46865735778033 2.13986211115854 3.09500726279478 -1.92252871497236 -2.83015941271054 1.92171881783401 2.59183210124316 -2.92511434944032 2.3535843367491 -2.76636434697135 1.95945661923576 -2.80117885727589 -2.44360558745152 -3.02043281796264 2.60453276427705 1.98644096901604 1.94086420233609 -2.56572629200109 2.23183440801878 2.81510821318024 1.51355544673184 4.53960863424526 1.48042958764993 2.10589404395677 -2.83893952844274 -2.18821377896167 1.77357645582693 2.0018742186812 -2.55705398190664 2.24152002206483 1.8040657906432 -2.67394748709509 -2.35661379051485 2.18151135967435 2.21216469735126 -2.50017230615949 -2.32516707038569 3.17382093149084 2.60048282731902 2.86344739725957 -2.26316892276492 -2.97260248150757 2.46010924795613 2.32371965497591 2.29418333710424 2.7304581207038 3.21415283932446 2.84949772876367 -2.25596000886684 2.46344831885499 -1.9524683505468 2.33851051253911 -2.26418493693886 2.16848580305286 2.38286968931818 -2.15197966251596 2.0788414433992 2.6241779303252 -2.15453202153363 -2.57752321172446 2.96816645594358 -2.61431949234928 -2.89592959880669 2.09395871808377 1.96911245373582 -1.8971353599973 -2.07711739102838 -2.71301805372282 3.13424903764586 2.07972740105583 2.44470031052847 2.04660075093414 2.23012340461249 -2.483980393527 -2.18909549716013 -2.05748577536894 -2.97793525577081 2.9967295585935 3.8149004626874 1.98463843769348 2.76477040185463 -2.4989284289931 2.23448798427402 -2.2286721166935 -2.41388986868391 2.43353965761432 -1.73119574755752 -2.59861731238719 2.61261328400576 2.65589919382302 2.17936856034704 -2.4353775570527 2.09562911001819 2.41634180545469 2.15444250668275 -2.56215242229052 1.99937176900873 -2.48775865332999 1.91051090680159 1.30258536891522 2.27839075723326 -2.24786916217976 2.08047062484554 2.43138860353201 -2.90237534337459 -2.19457696109776 -2.7029345637395 2.77980359780822 -2.90569473621952 -2.53448732462218 2.47764830678308 -2.4425309430391 3.17589021434474 2.23072155992269 2.28514110150733 -2.5457133029897 2.48129409257666 2.20905018909053 -2.19913253329646 -2.37991584748994 1.96101095568027 2.07443164717961 2.282758130594 1.80038365491187 -2.1325222780048 2.78484307313018 2.81274280219347 -2.216767978196 -2.99600034431047 2.79109415509634 -1.38491944618404 2.78544384563719 3.17869854038873 -2.60384179940625 2.23585604337433 2.90414743424924 -1.98231939180198 2.62845655244134 2.5807497685625 2.61116884855113 2.00700344459138 2.8247885372958 1.94513244115468 -2.63421527427116 -2.68581947659895 1.95125365677458 2.96936527773356 -2.03686276344694 2.07693439536488 3.05977573286593 -2.47083594232654 2.68255497703832 -2.19217783852036 2.34007037639509 2.07562022097737 2.02752794259453 -2.62796308721843 -1.8739926215049 2.54704431417759 1.90696616821423 2.43079807417962 -3.28434879816849 2.53044582884365 -2.88457811421147 2.53849688680101 2.66386672205676 -2.43561794967214 -2.1527401564857 -2.32120561572041 3.0206313703194 2.87167488953188 -2.78012215886643 -2.27485322004911 2.85845760155684 1.81550556708755 2.02992288535494 2.75601189154232 2.02616579647595 2.74652380686235 -1.88961753660901 2.41349438831969 1.72870352289178 2.33336706370302 1.95649328268458 -2.39001556368599 -2.73100207619743 1.96761588464031 2.14970326166135 -2.03753548958793 2.68465945690538 -2.82535348337383 0 2.21163411016798
2.11058809862205 3.11379733103738 -3.2198883810419 -2.08985035823179 -2.65189720658711 -2.87511541372227 -2.23109601877646 2.27210011888704 2.62050577861526 -2.39611224688051 -2.10642257103905 -3.08166631308852 -1.94575699208298 -2.71428155694161 2.14121129965653 3.0226412757855 -2.40440806049667 -2.25427613582114 -2.71710083859226 1.60335062137425 -2.99218509295983 -2.12661668412666 -3.70996926425766 -2.51188621969188 1.42186021083279 -2.24098310243606 2.28547490774255 -2.3523477994276 -2.16521592730062 3.38745641315407 3.02827770639169 2.40498206801793 2.08441978307083 -2.30600500269378 2.55667304487412 -3.2330179354755 2.99263962897784 2.17874053558545 5.20542319747675 2.58981037399146 2.33649787479303 -2.25622507817442 -2.74637331886358 -2.09439963639537 2.55627259485854 2.11413092478546 2.30389891557644 2.1463189164901 2.82750187158093 -2.34343177312085 -2.64752518365868 2.45703688170017 2.20033501441775 -2.80365777606902 1.38326598344627 -2.56979062165472 -2.25176145037454 -2.45338408282632 -1.98367738620974 2.57337794319837 2.48074431396726 -0.939355771357831 -2.23664667677971 -2.72735230129553 -2.62021070415366 2.81463189682279 -2.51193557762775 2.19025751414783 -2.50134765296447 1.87798624154087 2.47265424311716 -3.25435594822431 -1.87977748585643 -2.18672646859543 2.40453731420103 1.97684534743789 2.4022070315283 -2.6786294919628 2.84043553995167 -2.20936346973976 -2.44479155889909 -2.50413199977973 -2.35843545313071 -2.46291253198622 2.3860144458845 2.19010083607541 2.03365848749041 -2.64298522884355 2.08960089798767 2.36466974956492 -2.3848500861464 2.4518218012305 2.01805148824918 -2.7227884905915 2.8640457203415 -2.62129559194981 -2.03356182247135 -2.66107249681427 2.10684961818254 -2.18160217824269 -2.38580137662801 -2.13324073127471 -1.74754438966556 2.65509998197033 -2.40028864436415 -2.39545175309003 -3.25029231268528 2.54541671257053 2.04502890166298 2.56969192838506 2.87070950590159 -2.58691827148328 -2.43604956146975 2.07425981965748 2.43977973072588 -2.95032669195014 2.51847893895805 -2.60755934871725 2.16499121505055 -2.49671873189433 -2.05069529090663 -2.63223766236513 2.12323971338561 2.76310037245335 2.17183778330796 -2.57265479275353 2.57702387311698 2.15507386150276 2.98680324899054 1.82650553472131 1.76464242409508 2.39388317838156 -2.44385964113377 -2.47333340281128 1.65354450942941 2.39276888702848 -2.41081086262548 2.44989105696662 2.51666449998438 -2.25440264242122 -2.62077186288639 2.28426860324554 2.85357646213226 -2.59677185579497 -1.9139574245747 2.47544261391257 1.87776309291341 2.08275743569118 -2.11925035493818 -2.55297820661496 2.50640114612737 2.83437950207903 2.79255964264229 2.73861372218157 3.15030007286412 2.58141488601628 -2.38151756671715 3.10952108056831 -2.42212672450053 2.18153728905718 -3.23558113157582 2.66325058401504 2.89317751108089 -2.04015877948718 2.02023055984008 2.66598608878559 -2.5488229266686 -3.029420845444 3.42811011471106 -2.01036416254775 -1.98284823957349 1.99948540943564 2.24826443048559 -2.13385011275078 -2.38165659927229 -2.41209703774231 2.57505280675919 2.83127130833571 2.20998409921811 1.81492735049284 2.0161213336785 -2.35108180461049 -2.19293998937426 -2.25355213409954 -2.51686074096423 2.82448896987858 2.30505243883307 2.28869200225062 3.21694444580041 -2.31545242326357 2.80517312044198 -2.39853836820621 -2.81845084987563 2.56017541190747 -4.60773119153079 -2.68478305237681 2.20458682883228 1.95310883253328 2.84069071691 -3.29048724647549 1.68990749699674 1.81795312286973 2.68515439715936 -1.9772659710736 2.58611789315388 -2.37255894976721 2.12483322339869 1.38933917689415 2.29602409585796 -2.3789366284517 3.33112118648643 2.50972958136018 -2.0857948630511 -2.54394449156373 -2.68423242177873 2.59251132207796 -2.55732318025715 -2.20597003433053 1.98009068812184 -2.57664287337109 3.19913535331428 2.00276585848423 2.44775988033869 -2.49248043344733 2.14965974977303 2.30659526171914 -2.89856387950692 -2.14328767928187 2.22299535718137 2.1471200540781 2.00386162951967 1.97458538190309 -1.7644826831567 2.70775438565979 1.88440091713526 -2.81043701947762 -2.96311454382162 2.54851472440576 -2.09220437728808 2.25333861450272 3.22919373098541 -2.64164303663955 3.01492715134401 2.40991700415642 -2.34777782558673 2.05820324258556 2.52785949347878 2.61373815089002 2.20135102504174 2.39312049648671 2.3650878913714 -2.37708141444041 -2.88394985566537 2.56785966271213 2.57603265745221 -2.78710179544954 2.15148094032053 3.08540869860195 -1.9894050120356 2.24140504650426 -2.39049129318936 2.41492670177133 3.57243014609011 1.98062229085811 -2.96172457809018 -1.46995765548089 2.60428447739834 2.76241190387331 2.17775812426565 -3.43049897499282 2.24868789659249 -2.44008505335622 2.37197160097359 3.04567875968463 -2.23921962208766 -2.5508114884449 -2.69537590079296 3.18348631927266 2.5527451314232 -2.21517643069518 -2.1951823421001 2.12446599955809 1.76332561244989 2.63212052154929 2.33709900311638 2.43087603386687 2.44793999608089 -2.52221608296889 3.24573212278154 1.8937478953554 2.51482274668655 2.27295539907902 -2.20463726666223 -2.71824861955899 2.65780779284456 1.49617120204645 -2.44532291555375 2.38974549449731 -2.28124518793157 0 4.72247452596499
2.45657050025564 2.33699146809623 -2.96875478283111 -2.4584023660637 -2.86850977677178 -2.59842535023386 -2.85692175778168 2.06418643113381 2.0321361967089 -1.93211331682574 -2.33494704315135 -3.11886149264859 -2.69065789023089 -2.49078131456357 2.21570487748221 2.77624172886633 -2.26675213562085 -2.4201972581999 -2.48681925866955 2.03019055331718 -2.2197438923004 -2.43608873678805 -2.87407971960647 -2.35087618341104 1.14655387535919 -2.52252559670145 2.87665277704405 -2.44697847366801 -2.79568943458839 2.18768067736354 2.48095698447199 2.66581417784913 1.9149999838807 -2.61354267861763 1.91247401042236 -2.282172853015 2.69187964428038 2.43493724196188 2.80290698437368 1.75860781054174 2.38371941719492 -2.3831716262443 -2.80494942470554 -2.35622487457157 2.29912517362336 2.43973906549079 2.13308558829958 2.42306405561622 2.58362969584664 -2.25743620403113 -2.38586957244855 2.81115576127202 3.20911066257841 -3.24206375750608 3.18513394674877 -2.81224440821926 -2.65340367573988 -2.53101709682623 -2.79931947018336 2.77547899026432 2.01056222102276 0.438340594870001 -2.84459890580734 -1.32463777560297 -2.88876688461494 2.76737785212077 -2.05775395399485 2.75134552358359 -2.68839813058085 2.48990965099036 2.1462285942165 -2.64181420312799 -2.91126639033069 -2.46660651036453 2.18003188450954 1.62441890861356 2.44881360232077 -2.78070709163431 2.65608112526714 -2.32622187281218 -2.7826427610891 -2.30968658603558 -2.84444803832269 -2.24050174536376 3.09600350068613 2.71734410264227 1.89628281502813 -2.69230837763486 2.31437409626664 2.89610275264633 -1.99725019286469 2.24549897208807 2.18256546299006 -2.02433258302786 2.08731368970843 -0.826323578297489 -2.37848023064046 -2.45326183773321 2.16953668705375 -2.57172312812827 -2.71560789887483 -2.68333756483808 -1.98088297662162 2.54059068835078 -2.00510850249543 -2.38635891268509 -3.14622445923784 2.17436326152921 2.56731502437815 2.58832157993156 2.89616124016685 -2.89233478370785 -2.32634553915312 2.36933693011347 2.55906078929066 -2.92269447478811 2.46653013657438 -2.36264343508069 2.54746368298091 -2.03679400349279 -2.07289553743501 -2.98497758731519 2.44404402226989 2.15607104691804 2.92097414703688 -2.61302617215594 2.42990754218911 2.53196888539502 2.89035857429181 1.5546905296685 4.39410459664099 3.05213642865699 -1.6396911428804 -2.61906401208217 1.77812081156931 2.85441582847051 -2.48278523369426 2.1855139613515 2.59728178476297 -2.33592410515919 -2.56676220484432 2.5596617356666 2.43865847771135 -2.81342145141509 -3.40021321248112 2.8982784976143 2.62935514247973 2.85449216328556 -2.73832983291503 -2.75420272158437 2.19089634092157 2.05331738670272 2.68718053953512 2.3390235944091 3.5898992287824 2.45560399268887 -2.29866094840689 2.69734699587225 -1.70796698404444 2.51189426280951 -1.84134540341594 2.60624968891105 1.99885996750631 -2.82794542753329 1.9347169449797 2.36436237920887 -2.67594660912339 -2.42885114359273 2.57991486465641 -2.1801042442455 -2.6398965872895 2.2417534444195 2.54535611503708 -2.68385517833771 -1.78932442495778 -2.72547429110206 3.39293397834404 2.77037920139455 2.21476245910981 2.60445590611065 2.33969385154789 -2.31963984179115 -2.0230854942871 -2.70266091946697 -2.72311816519127 2.6362831071908 1.50840653660822 1.21931413900331 3.22356752298407 -1.99520400509629 2.15824436155385 -2.49175539653629 -2.6067510505691 1.97535541285334 -2.16501905153628 -2.55593781850892 2.42506330359307 2.28694805438348 2.24624815716905 -3.59515124411529 2.64188446336085 2.34086719023221 2.71202473223053 -2.54913653665534 2.25971697459368 -1.94459426594214 2.33706236026285 2.97444820391516 2.66434154293619 -2.19977996983823 2.55852307868351 2.57893862080868 -2.00531038242312 -2.71366559389331 -2.6311018256157 2.14296523292826 -2.67628628196295 -2.76226534408941 2.82266172653556 -1.98985942462983 2.96378325791028 2.58977034467573 2.48085415719563 -2.72223401323463 1.88387353864952 2.67685204383492 -2.80745038948106 -2.30449030473037 2.27633172358572 2.26880187514088 2.43230748640419 2.97947047909018 -2.33978355259385 2.66223749500271 2.00590718955642 -1.97500743639416 -2.88638038370747 2.03522462267307 -1.24949207515723 2.33967784093948 3.36674140483556 -2.63387720747196 2.49414874388852 2.74442879567566 -3.16145884964998 2.4295794562453 2.39751366811611 1.99184539515345 3.01290284899242 2.29624258503857 1.86317216774692 -2.72149210072917 -2.20442025585683 2.43757344872009 2.99424547544686 -1.86447028399708 2.81370934802566 3.1881668682878 -2.89548487702458 2.49699991851974 -1.99304996100749 2.70887398446184 1.64876112347908 2.75120778346612 -3.09306346908094 -2.3244128522445 1.99992519109218 2.05003953107271 1.93345802222201 -3.85963522641691 2.43378611290573 -2.95163522494938 2.09398762119823 3.1086616015386 -1.93644738874584 -3.70692655859557 -2.15314290884967 2.57457832091921 2.77111172163385 -2.23525121397227 -2.65520209418295 2.81642492371111 2.69019973974505 2.85127720081835 2.16628693626965 2.23231537846064 2.42379862805386 -2.77593201575337 1.55771584886858 1.93069691140226 1.95733671313418 3.49776555251249 -2.90650811669922 -2.17582969282756 2.18472773555909 0.979133187666125 -1.84784044214256 2.19427724199701 -1.89794864876663 0 6.1256828980265
2.54972339328388 2.22933113594986 -3.42841446834037 -2.60622648825825 -2.18048738623002 -2.71695555738243 -1.96627027175998 2.89062799234948 2.67847584776172 -2.10350885343038 -2.69703651771638 -3.34832340949254 -1.93043673784337 -2.59784064441202 2.16294393713228 3.09068100598346 -2.69497254697517 -2.50162413167457 -2.60166770403168 2.17262832635761 -2.08102406017483 -2.86696910342237 -3.17379558868781 -2.46733140044594 1.77383732822966 -2.05051271054694 2.75472603823284 -2.42709854076981 -2.50453904405468 2.21067638721157 3.05306017958704 2.72256853757464 2.64049901078178 -1.99327624199038 1.71458149234131 -1.76813736252413 3.3985641796935 2.21710977104557 1.15605106561478 1.84218613953708 2.31320982486772 -2.19323569287022 -2.61278508034473 -2.47603101313062 2.13284469513275 2.83412682523886 2.61684047404918 2.71867633956247 2.58750165893696 -2.39667715819997 -1.99445499493409 2.40903505596148 2.07882457581027 -3.70472250673611 0.839079309060794 -2.47101761129836 -2.31754571469983 -2.80411953575942 -2.73685543818441 2.8235499634304 2.03416199474853 -2.1948904824782 -2.46598928063582 -4.00003724375173 -2.81322247861297 2.1081461626812 -2.50045253183608 1.97573728232943 -2.6210737165909 2.26733585518227 1.87612051623211 -2.75284164037092 -3.29782629504745 -2.11114593733629 2.13717105367057 1.76454914751362 2.5690925767559 -2.59728277478073 2.6772584582327 -2.55973812484421 -2.66821296252655 -2.83963451329317 -2.72186997406521 -2.78005398207088 2.63597593600933 2.72152528833845 2.9059347461113 -2.53101042420486 2.74690194859083 2.42603729710501 -2.5311213495178 2.68535784754487 2.09510934147124 -2.63269861546563 2.1059878082737 -1.68024169276451 -2.71841903550826 -2.69103878200693 2.19467169249716 -2.91099211459222 -2.46373259109001 -2.17446280953989 -2.21743283916161 1.85767592143798 -2.76379620215436 -3.36670995162848 -3.35089446842753 2.32339109271262 2.02414902056327 2.00866347582852 2.85560070946732 -2.67592138447499 -2.63412632434545 2.66073886547432 2.69049387247058 -1.96602215684392 2.26242967569735 -2.3678334543833 2.18055635478651 -2.11598590276077 -2.37802358462095 -3.39932288902421 2.20383397749436 2.81384385612761 2.4220824850071 -2.47734948473569 2.61471826470571 2.79589622527247 1.89810084550891 2.75131689441911 2.20689821830885 2.37686539194308 -1.40651350624772 -2.20106833192269 3.98650425569135 2.31995793882646 -2.23626098293406 2.11086379170536 2.64488001176706 -2.19334908873274 -2.14690040130509 2.15307283116287 2.25039033274868 -2.27104776896073 -2.64876092897669 2.40875804742683 2.18565644960006 2.23215970303683 -2.39610662616833 -2.85159171176244 2.5852217005667 2.9126355143371 1.99221677177703 2.33233401304232 2.52337535583744 2.37290221118838 -2.55740586186503 2.9051570445452 -2.4940923728762 2.65485869167147 -2.6337108010696 2.38775850284254 2.63395891291952 -2.2297101655991 2.57694262739191 2.25117167189859 -2.6198391020053 -2.06839537756045 2.91117229911448 -2.58297780239979 -2.66562290073979 2.07909205556989 2.29506280872993 -2.43464925258584 -2.17115552279511 -2.50295023712049 2.87172467724687 2.49926386393465 2.37362989809751 2.84079693848991 1.96708662755308 -2.44606634022825 -1.63188512098439 -2.7096246941426 -2.71354386694812 2.75714258315872 1.85120674050538 2.42664141976475 1.84232113650003 -2.45930559859781 3.01853584243733 -2.85370227287734 -2.79251549237594 2.1611379798107 -1.87813036663601 -2.50483265607557 2.36421133603695 2.52645463730147 2.25144850307952 -2.88941067302032 2.89106886480858 2.64300998548023 2.5413430413036 -2.76554220636582 2.86465003216046 -2.46456082737674 2.4584971301761 1.51601663349881 2.15480736584813 -2.80812951371113 2.67763266840635 2.82095508370616 -2.50059627429821 -2.76430296607048 -2.17189693434798 2.65194060456254 -2.88536724933387 -2.63540404861163 1.97237429149372 -2.39656234432224 2.89808252760673 2.52576965108829 2.15455545252366 -2.52936565705275 1.7092319825414 2.12455606467013 -2.91493401302925 -2.78434985135325 2.87658897886597 2.63220478979042 2.80875008646886 1.37797500261535 -2.9449349843085 2.70657148839587 2.84848278573571 -2.69820671291576 -3.53072933733541 2.08422070519776 -1.50254969322701 2.34960507078396 3.10819014904297 -2.17174880367252 2.56548649032156 2.71200844293753 -1.7113009762977 1.93823552637111 2.57830298564824 2.7137666464775 2.10795230576038 2.65608417488641 2.42766451341347 -2.64036181080906 -2.38104880923154 2.81458663112256 3.39553844819793 -2.68885735197619 2.12166676226899 2.66196441162898 -2.2632428239152 2.69429776131251 -2.49083449015043 2.25955204938475 2.16642678080341 2.59218610421667 -2.55741673010051 -2.48557378759641 2.52104225604224 2.51135307814586 2.83885960496328 -2.70153834363815 2.49747401632977 -2.1606240597515 2.60367255599751 2.85528244374124 -2.69062673922425 -1.65561032874645 -2.33196822873377 3.35479413087197 2.49184026541689 -2.54631295790055 -2.38924891674761 2.03609121685524 2.05529016615875 2.12764696498873 2.21346357755263 2.4850105893124 2.51823528949948 -2.46925220361 1.89465606726263 0.990561890078797 2.66314156272313 1.93742818914323 -2.36474528875474 -2.07775697784507 2.64917003440695 1.35619369545313 -2.48561227888451 2.76604421985616 -2.77228250911346 0 5.90340536997669
2.38999665650242 2.73556833904144 -2.98510335702995 -2.37162286441082 -2.82257786935636 -2.31799446897673 -2.27734745287763 2.67196710108416 2.83667585010389 -2.42305833136435 -2.87384591983484 -3.07644673742353 -2.44209364142516 -2.63517639476659 1.47354177652931 2.42100386538147 -2.19259428978686 -2.14988529350524 -2.69020701022733 1.62217397503648 -1.86925682350128 -2.7856150576657 -2.82131542898541 -2.32648750903379 3.46527724680516 -2.29012419718322 2.26191378951076 -2.09481354291326 -2.8659952427124 1.74177194974856 2.81510044193799 2.21396003137618 2.72599821729927 -2.75798714056328 2.59953027104728 -2.33143400063418 2.42015249299136 2.72127638972081 1.79442547642169 2.15374199519344 2.80249851145785 -1.95196185007457 -2.44245460906395 -2.11722159193542 2.74470367967078 2.34982176586229 2.34762519078745 2.17759264185198 2.68266548937144 -2.34772790021853 -2.58557237125625 2.58112296473092 2.65814368630116 -3.16175304249054 1.94444984492262 -2.54863572481441 -2.44442354151161 -2.63716780154658 -2.74635526445165 2.41107304058506 2.16376738119768 -0.0576053111832511 -2.22961219468466 -2.09187166790918 -2.85994915997062 2.71716287589608 -2.55538558119884 2.20430602296924 -2.57943338848705 2.42636492112633 1.8247159010304 -2.79958085088945 -3.54048777267931 -2.40799385702598 2.50375781240295 3.06061820892734 2.63389835032256 -2.31994299511749 2.78581706301759 -2.35698215277907 -2.66895487450653 -2.78739478599951 -2.74489636166065 -2.19403332704332 2.62853362649272 2.21989800292678 2.58844043046643 -2.67358973813911 2.57560702997394 2.56663844444578 -2.76447601776632 2.06997924408492 2.49606832204734 -2.36349629560575 2.46016144189949 -1.81696126311562 -2.6925000185261 -2.32659424120737 2.21695026425324 -2.0845275283301 -2.34913071888775 -2.61752199897212 -1.85167496550714 1.990785687417 -2.6827261362912 -1.8651240572576 -2.8297004383204 1.96638320676446 3.18138523710477 2.4811889721063 3.07036346571672 -2.05431043053774 -2.58107078591648 2.38482541327081 2.52584953821831 -3.28926228717582 2.55633260400392 -1.92752231257919 2.15477377621434 -2.64383376506871 -2.87624305129787 -2.40247367614591 2.64422983706274 2.62173403346187 1.93510662852777 -1.99023468688916 2.04936635233649 2.73156114022292 1.72744728138904 2.20667481963987 2.47145123694557 1.90205802858513 -1.70649868725409 -2.88731228029525 1.49284742469015 2.87525241735211 -2.62903251611904 2.0515054236622 2.14673561820231 -2.58318736359556 -1.65317315784284 2.60344477502261 2.03406500570426 -3.11254762526169 -3.48137098863549 2.99022620590417 2.57311826044681 2.11012764095504 -2.66037709344487 -2.61220355318318 2.37383631386786 2.48471684916764 2.33760840748267 2.91852683106295 3.16722902261256 2.00690345173728 -2.46496053828704 2.06887239873908 -1.93993099400662 2.23603079995977 -1.49536824658045 2.41869715973164 1.96573846063957 -2.51500896661943 2.87620366794877 2.40504168500192 -2.28436665395295 -2.33698778645143 2.95062191495425 -2.66274932207347 -2.04513837860098 2.47669281431113 2.36861648107917 -1.93954508196076 -1.79455169271347 -2.54038307501295 1.97386309426194 2.48920212172396 2.17041221394335 2.12583629505518 2.06653631670176 -1.98508645181361 -2.28721125935979 -2.53129554878136 -2.89582351219833 2.28834851517815 1.83938021917901 2.17876030114627 2.57587098538274 -2.92114028647804 2.33154419698654 -2.89012273802141 -2.51737587749171 2.07504312425083 -2.12587015015787 -2.59466133129314 2.5477551391496 2.51922630000347 2.11992973857258 -3.12697987693278 2.62558136249179 2.37466195748372 2.83594539386451 -2.01582371727258 2.39569024347633 -2.04871785841892 2.78169836207906 3.56758864328405 2.40353019507448 -2.41381576989234 2.79247357720063 2.7394782159771 -2.4179089844366 -2.35539255005076 -2.64854459261059 2.235791551567 -1.98132099720054 -2.46527149425166 2.26388187571873 -2.41340754336878 2.98008426940938 2.20462889448728 2.7212206461931 -2.4546332980444 5.62999651536364 2.71764183408553 -2.79349388394655 -2.53725976331023 2.82274567664216 2.16416064378111 2.86266970071269 2.2208374528684 -2.17586304668621 2.11608017525515 2.40922813310499 -2.37045300859507 -3.05157462848477 2.50194757366251 -1.77327083380754 2.27492775114787 2.77226753910771 -2.75701059535644 3.09033933898002 3.02681430065682 -1.98268265748105 2.54271742029625 2.45059119535021 2.63424631137 2.25513946110362 2.69436972838484 1.9010147866408 -2.67253843729626 -2.41632717039858 2.68315416249059 3.11828640041777 -2.48548757605523 2.44906253615049 2.75643042137257 -2.85657226027345 2.66865155004047 -2.18368527043857 2.50974126482764 1.95664435406097 2.11125990997764 -2.60445184360458 -2.62932242049538 2.22354022998633 2.08139105950552 2.15178202857086 -3.26887759053325 1.91699308571583 -2.87185635197091 2.22282589029022 2.49979723344713 -1.87376103389236 -2.16377805917009 -1.33739543937669 2.99679063246768 2.16298126443896 -2.66890941609539 -2.63996386396763 2.27109648344319 2.09387178375658 2.10617366843948 2.75276517208936 2.37621828109663 1.97707757267708 -2.11490530923423 1.8857696077022 1.72064816385945 2.84610175139407 3.7831534527009 -2.3524164122185 -2.59994605156632 2.32710151594332 5.00023997676237 -2.22160757045731 2.37270856194555 -2.58461577496707 0 5.80126641903141
2.20922441943625 2.03130676818893 -3.01919172089174 -2.77728510975621 -2.24611921154937 -1.84698063801873 -2.86531519179172 2.25768403361186 2.76165224120162 -1.94109520061451 -2.03830839064794 -3.14397816093684 -2.73546037532661 -2.10557516798949 2.46614282737544 3.01985776339558 -2.6149124553781 -2.48558154191163 -2.74075671097068 1.64136637417315 -2.28746515652285 -2.28456901937027 -2.91010748046086 -2.10160262699145 1.95525445412533 -2.49693094729344 2.63150952607017 -2.0048747117003 -2.24666286877386 2.69433128835732 2.36243345777498 1.94843932222981 2.52306975942337 -2.6462134890485 2.95188919593508 -1.92264063668755 2.41869231110839 2.07440849764317 1.90805586290632 2.53088594082274 2.32365253341247 -2.16408124667439 -2.00963036045769 -2.2645660778866 2.18028710526874 2.23593168197867 2.57240631008206 2.58247936048423 3.10086053566991 -1.72406930636399 -2.02609360122821 2.11377461339343 2.53975702226289 -2.8930526060384 1.1882659619378 -2.14766143435259 -2.4424828869284 -2.00869674770989 -2.39663435185706 2.2611076218422 2.03699633222064 -0.416218593152664 -2.1698208926468 -2.6217162646282 -2.34082090750763 2.61263748771306 -1.83022595841345 2.73571744663719 -1.97038155266068 2.34163122405069 2.61049296076558 -2.4470590590962 -3.11461449855058 -2.26108290595934 2.56324618800165 2.07334562286191 2.59484262158021 -2.65497782297574 2.47987425279345 -2.42676913561858 -2.21362589189122 -2.81626301005604 -1.94544257977955 -2.20827278574059 2.06651355314126 2.68314263131278 1.94704704327574 -2.43082027672155 2.32137151973568 2.0640779188465 -2.10860670827436 2.57181304499628 2.54988505283242 -2.79364258427128 2.58493685954299 -1.59228445326149 -2.81234210616474 -2.03286367602598 2.5458627500515 -2.32130537948976 -2.51279390578182 -2.0724738690246 -1.79944588719257 2.36880624225337 -2.83725474444922 -1.41359019647587 -3.58497226759428 2.16668802948996 2.41681570407242 2.04389810340662 2.88332484456663 -2.73218820821391 -2.57693506469094 2.00900166041099 2.68029235342344 -3.18127669236173 2.08406820792599 -2.55571133172485 2.84704881677318 -2.80909636122805 -2.22206564528998 -2.56807792881261 2.36022511565703 2.61161431821429 2.03585781419068 -2.57364308835233 2.07098425830643 2.67140027400752 2.16921799954792 1.86476551476661 1.93017992983586 2.67116524708245 -2.76337609700481 -2.94168559621203 1.41243251328002 2.62128688002756 -2.61277550432562 2.16697613350173 2.19435528359309 -2.72486935317685 -2.74743346179349 2.64509342782697 1.88773260295898 -3.24549468946785 -2.40885899960433 3.01723476506956 2.13712507070191 2.68447235390218 -2.64718337937383 -2.55099921174165 2.01456518909803 3.03109689115368 2.75506449364588 2.6002230444445 3.06869333249561 2.7311656909692 -2.67464646384652 1.96517231849492 -2.46785796905607 2.59371191787641 -1.57250048349877 2.42735162994235 2.28895844162807 -2.83492110829628 3.67731783663565 2.46703522134449 -2.16760609651972 -2.53418591521409 3.39554550380165 -2.74480614779248 -1.97899865247463 2.78381559570847 2.31091245217193 -2.01615663104382 -1.80868830904534 -1.98326135759852 2.52737841097216 2.20528817995938 2.3935686814479 3.40275374939798 2.68230311372131 -2.38482497445844 -1.94822703601109 -2.67189759657878 -2.8863689415611 2.44375981539009 2.45293787515474 2.3469577085182 2.04795959830497 -2.60363356498268 2.22470659708186 -2.73628852996393 -2.70529249171215 2.67803403305142 -2.07539817876147 -2.00893497360589 2.18765054425053 1.89992596739201 2.17722666837808 -3.49660499381096 3.09018145928998 2.1273757810114 3.03070265902735 -2.78291124660435 2.6108252021546 -2.68500601098725 2.41521052412364 1.65492337427719 2.04548594262032 -2.79304931881609 2.40909147863517 2.79983912382252 -2.31307165644529 -2.63855394234216 -1.8923560108877 2.02398239871531 -2.84824126481202 -2.7788947597451 2.6208930853691 -2.36633878048091 2.43422869893378 2.84799568934836 1.88500011776034 -2.24413518409555 2.73633292274655 2.56920818087139 -2.1298186578345 -2.22379757849293 2.26032167345058 2.62473039288265 2.39451446851961 1.99170579828251 -3.75765849983748 2.37222612567644 2.80066306471118 -2.2909222292781 -2.70534967500226 2.53059060252818 -4.76880103431591 2.14948586990032 2.63034806743285 -2.0773123003583 2.68569550748486 2.67072837747335 -1.71156910836546 2.24990460399751 2.44670248524423 2.92430265302358 2.32540208073957 2.22109930843647 2.47786138952088 -2.61736997701535 -2.63213930572492 2.85516194313645 2.77632974164057 -1.97335103803374 2.02526870405264 2.77363321684606 -2.49577365279396 2.8754056486647 -2.45016059177658 2.6492802648574 2.16135132132191 2.07950357439642 -2.57247658218168 -2.78827454648169 2.76917797297346 1.95192888590685 2.5321576928887 -3.35513104936243 2.33308380091239 -2.48568157171873 2.34914000238188 2.75700113346761 -2.40248513277252 -1.55907601591315 -2.20927192131372 3.46915326678877 2.6400666138628 -2.62514777148764 -2.70286938594684 2.67403827421527 2.21186698524168 2.81216780287634 2.76494234932235 2.20040227835793 1.99669668371237 -2.76933774122506 2.43604046885033 4.59900877832967 2.29174131891 2.25286703548663 -2.69998865964277 -2.44939561686884 2.49504912970558 2.18503973319635 -3.5431560793027 2.19627904019255 -2.24901987072067 0 2.98460079216433
2.44455042359754 2.48877934680009 -2.53224335183697 -2.62355649868933 -2.10209814037933 -2.43488792402645 -2.10210657154781 2.44961131967824 2.60333219006509 -2.27468516687635 -2.52389027562417 -2.99829465547018 -2.37823836806168 -2.65905644224079 2.54525270188954 2.79790233548465 -2.80991868694653 -1.93862753149 -2.64484669321775 1.69016457353109 -1.98751224227442 -2.0261492171629 -3.26376367932379 -2.63179045927335 1.4480516235979 -2.66809242041303 2.32152541958008 -2.0460227700803 -2.82168996487652 1.8576057602827 2.69889567958072 2.83983899512718 2.15880528887336 -1.93684308662223 2.29990893030308 -1.79076839069877 2.28374305285939 2.29374286344327 1.91499765417041 2.01940307260211 2.3423581353963 -2.21057257102763 -2.49221688169901 -2.78044069556284 2.1393709525601 2.60040118876143 2.75592231171763 2.60735381290222 2.56640795185951 -2.60287298027762 -2.679469175718 1.99382478028324 2.92484896756035 -3.34763444523319 2.90646152332402 -2.21761702976504 -2.80235758074225 -2.49064146232076 -2.49335056274642 2.52466471757112 2.73537464729237 -1.31145422933219 -2.42304723142124 -1.28397031446023 -2.75720931999955 2.63706823770243 -1.26651558833887 2.45518648867301 -2.36618522971567 2.02909216142025 2.20346921899403 -2.93461612211658 -2.61023918991809 -1.97992621415311 2.51653722121529 1.91854525566791 2.17142831994827 -2.52000754994872 1.9188721622217 -2.01780512449407 -2.43006239814693 -2.293030368356 -2.8515868429092 -2.77108366742019 2.76779417823783 2.51182501935638 2.22983444884431 -2.08406488398548 1.93714145907585 2.85469123787322 -2.26501242527298 2.66640210330896 1.89018790760303 -2.44043802904549 2.55866202398201 -2.00719470057218 -2.77063291800851 -2.19045386060727 2.69076147754199 -2.37950107473742 -2.72299589718391 -2.48970632384581 -3.44011693182531 2.34816182347097 -2.40617546537619 -2.04872642536949 -2.83587764294009 2.78430985857428 2.54986318832131 2.31153817630663 2.52495733594607 -2.15823860443406 -2.60468321980159 2.38164952909856 2.46786629562673 -2.83612221464707 2.79358101872574 -2.30801050287738 2.64891596629681 -2.04879909111335 -2.22098850603469 -3.06322644327083 2.41291161218909 2.47594574821685 2.16099441367218 -2.14178823030605 2.33019245041147 2.11776434703144 1.76420975449323 2.46851705384097 2.11412392626878 2.65431511904705 -2.01901325785482 -2.30922535380669 2.43700424678577 2.80300611235253 -2.57088068467231 2.29869768133531 2.3340812864444 -2.61346488703733 -2.03808849181876 2.02403375397359 3.12709428861235 -2.52824581142645 -1.99988743789302 2.99134093595009 2.33418069559951 2.34820557578968 -2.77299212626336 -3.24922504064013 2.52029676847509 2.60511636437955 2.83199580977774 2.87553011752163 2.62966341245314 2.81946983648238 -2.12040787567908 2.45572648865609 -3.45943135677925 2.70796776178577 -1.99902308546841 1.89848286585379 2.58907585881649 -2.24725000118776 2.50611833749371 2.26132710853326 -2.56583644436727 -2.26509907108109 3.14749402744912 -2.42703448300739 -1.87203109536106 2.44662359750301 2.67823300917803 -2.32253439003147 -2.59591318738398 -2.34273496420456 2.68266661155476 2.03261389250277 2.75890162387287 2.43753188556293 2.08027811696226 -2.76916632448541 -5.39693926246402 -2.18507628784705 -2.69667440986988 2.48064560892667 2.28482010081425 1.79776078990433 2.8618567543386 -2.10252330874791 1.97465356121517 -2.35832080643548 -2.61781288236509 2.6223160535339 -3.37393699174317 -2.0670875095341 2.29045159506723 2.15084644980386 2.80706187577377 -3.09943699329639 2.43080665261344 2.55696147177339 2.35891337959752 -2.24911613517182 2.25478213157942 -2.77685190280383 2.76499252820499 1.45524202671616 2.74796194256326 -2.52018890910023 2.86048545062564 2.65832685280565 -1.97967654597795 -2.39532223464805 -2.26315749098638 2.72087229355889 -2.01597805659708 -2.22181859368204 2.00650914999557 -2.5865701725846 3.22115582709801 2.71910256762524 2.83194070212047 -2.77483570593948 2.52567898277982 2.31100618462616 -2.65361758505233 -2.7714483133759 2.0435325911115 2.16868086383908 1.93589146191124 1.50342820685829 -2.46088245604334 2.4353962549926 1.87117791985818 -2.54669076478758 -2.90620866020616 2.35751695557297 -1.72793659946228 2.35517030066302 3.12923034850518 -2.59995102857448 2.37082288358304 2.89133147538205 -3.17222981367914 2.29211597271415 2.53619009829853 2.57716059319355 1.52843010075958 2.3153576734395 2.83658250670285 -2.26179044157184 -2.67736064456363 2.74420474442806 3.52735647863476 -2.15998904442052 2.37369244336522 2.91693455001944 -2.61071688294627 2.83277094439473 -2.04232090920501 2.56825675629087 2.42195905362841 2.26894267444354 -2.76626918992082 -2.30277869626118 2.41919909859704 2.26086409677692 2.50133625041807 -3.11149656614103 2.16323991842913 -2.7638842326895 2.18309683560114 3.04378711437761 -2.19069229390322 -1.77885839462729 -2.44396907922258 2.93723833400258 2.78260330504088 -1.88311682224728 -2.09363460058688 2.30016160718763 2.19357469685662 2.63398758743023 2.23420728004118 2.32430486363187 2.65561536985078 -2.47511533625807 4.16976902940852 1.94968747785698 2.4284519299967 2.26519988508958 -2.55058015314541 -2.28576693554059 2.43621120200089 1.75911921417073 -1.98418394450618 2.82575065322497 -2.66245581722751 0 4.46135196479197
2.75232921226586 2.11357734508223 -3.08270779660148 -2.36576866052831 -2.878570605791 -2.17081880601188 -2.57049546794809 2.42715489069302 2.29857965054811 -2.34493521841864 -3.51723049415435 -3.34246663727835 -2.16596915852332 -2.66415046103185 1.87629227937585 2.54431664932689 -2.16973329025198 -2.28568848534422 -2.66815296511104 2.9670822213314 -1.74890718053332 -2.65961394653479 -2.87115461896518 -2.91019180623517 2.70636613888646 -2.09517528225733 1.96752349500042 -2.22808155399871 -2.81844115107042 2.34793612412589 2.9325041682362 2.35280408321696 2.2290055615365 -2.46649874205384 1.73967980968649 -2.84780784387279 2.79374395691409 2.06670735883156 1.8428782982023 2.80088637744917 2.03399883813823 -2.63020040618942 -1.99024378439945 -2.33010141236351 2.80699568657735 2.27035941165995 2.12262784599055 2.90323885221957 2.46672062921252 -2.61800944547787 -1.89458284162664 2.1791517695253 2.32461779640123 -3.30070063723237 2.30336017196106 -2.37590845465248 -2.1393517198901 -2.67530098360588 -2.82465185055529 2.37753782931915 2.45938608580142 0.819392135664239 -2.50309543954687 -1.75180382779283 -2.92602304974903 2.86569672513464 -4.34925095274332 2.05864284688655 -2.71217600366084 2.44462469394883 2.09524971203784 -3.12296999113385 -3.23329346024876 -2.4324819624673 2.50213435894145 2.01001275436057 2.11725289515707 -1.95758676368403 2.01035291892715 -2.43291587179421 -2.28785456316882 -2.68668388766623 -2.67030269652184 -2.87067360087604 2.59149222852835 3.2334170938038 3.80929215434982 -2.08972382486325 2.89895972692756 2.38665611330965 -2.00995419460789 2.6981662168692 2.01701698462393 -2.72684390043545 2.18362080748731 -2.03978073395895 -2.02633569947756 -2.58282460567348 2.67508551374665 -2.76484088032739 -2.63001892976792 -2.05355166252141 -1.13643945784858 2.62934352257344 -2.23957648461886 -1.92881992849629 -3.73212313383362 2.03194739685484 2.80357178195455 2.82736799257323 2.62788049905455 -2.20661136345405 -2.72910839433727 2.49548181972012 2.73112863899379 -3.02670772226739 2.31381349296466 -2.44595003306704 2.85774703925013 -2.45648649237142 -2.75443494523857 -3.24237901189892 2.2171718277403 2.6333330433867 3.35877673808321 -2.44006964049396 2.72885442187986 2.67192007458261 1.77609131791121 1.30903325983866 1.55404601200038 2.77035743499745 -2.12516643341952 -2.87630467636421 1.14305692711151 2.63598339487252 -2.55490568775496 2.30720900936876 2.05251040971276 -2.4540729243958 -2.07066354049839 2.49978691377813 2.71760429199511 -2.84378306999334 -3.33918740273481 2.74652576836078 2.42588373430591 2.27009108676843 -2.64828118350088 -2.96077137103465 2.02394048832079 2.49211144611037 2.48743809675445 2.21692781227358 3.75632234120612 1.95500310068835 -2.5330757146409 1.93480951561344 -2.11964543747963 2.00749021710603 -2.51029468638343 2.38487707830253 2.85383310549406 -2.24796144256708 2.19037406263923 2.71998693964182 -2.32862948892979 -3.1991189363962 3.11961033931083 -2.76215317602735 -1.94243287911653 2.91622725277772 1.95186685957105 -2.41708359340345 -1.62642520235399 -2.3597788210299 2.54172662805871 2.10372362969562 2.27843679754228 2.27681342832914 2.78332307886038 -2.63272513208549 -1.93068180083611 -2.29186397252574 -2.99285986965288 2.49799765612618 1.7037430109932 3.87017591865805 2.20474354643417 -2.67618119153245 2.12220295945154 -2.54415520742479 -2.818406557212 2.15713415959526 -0.649870165739293 -2.51534629460963 2.53425150351684 2.26810612584892 2.89365002715021 -2.75643579611658 2.59153447874509 2.39641678346595 3.47926249432547 -2.79967228155153 2.75377252998314 -2.82213478149476 2.3884988402363 1.14282679917656 2.60191479017273 -2.4917033838867 2.70118380758289 2.21678910790761 -2.406073260386 -2.07055415820712 -2.65478962160786 2.33150254541195 -2.89414530917541 -2.45985058942078 2.54155759846493 -1.97464220692551 3.37465749051866 2.6115953304511 2.78051866367423 -2.76909947648086 1.70974656827442 2.49439396052347 -2.08411530234773 -2.12277619407668 2.53659572461559 2.15159144889277 2.68152656021973 3.383969758333 -2.76894543124711 2.56009631569981 2.57785221717294 -2.6668629249942 -2.80117851024059 2.27398507267834 -1.13647943688377 2.71059276117987 3.63259837877659 -2.54197834349237 2.3910816269836 2.80743788161544 -1.93138544913774 2.65313391798707 2.77102779538486 2.10020304491014 1.74740475255857 2.18576073749003 2.08669025061832 -2.82284515225831 -2.22925235991522 2.08507973379867 3.53380421763181 -2.02021118576448 2.56652906575368 2.48210680685639 -2.84826833863007 2.20222708600647 -2.68634558551884 2.56686392636004 2.74705275927737 2.39593124179681 -2.90401463809402 -1.69877973963916 2.06822169379902 2.79911276723855 1.73539978917398 -3.0106567511533 1.97844862516823 -2.59438947844687 2.01171450776654 2.91584830698984 -2.69124254434155 -1.41929448473183 -2.13759791129738 2.70504397033611 2.64777801433409 -2.79952948787091 -2.16804046761434 2.5264766813131 3.0482305069469 2.32126203586503 2.81017508784458 2.66452110563611 2.09210132053422 -2.74607208916554 1.92766135996827 1.90880020556877 2.59149870635135 3.0822488209854 -2.51290929174572 -2.63188240491303 2.59558231356447 0.633615142380517 -2.17231981041291 2.56921095419672 -2.62764668528456 0 7.24522930337616
2.67473123556425 2.83113208099221 -3.11483364941574 -2.82509420327334 -2.82665186391655 -2.18736700362336 -2.89083606344677 1.97091070042288 2.06941900875343 -2.77928695943138 -2.73249461691562 -3.08751165200399 -2.769560689933 -1.93437192103049 2.21725849863449 2.56800016671254 -1.9727295843914 -2.7161476968083 -2.51882470789705 2.62957300982309 -1.9946553858282 -2.84097472603729 -2.87443428142768 -2.64954741064617 1.78901722722881 -2.10544085429743 2.1443767292304 -2.08388822608857 -1.99059718959248 2.50739788498046 3.02669477571629 2.86806748737692 2.90081273812991 -2.65372004279674 1.98683271324918 -1.5358082748474 2.97195792403857 2.6822218908611 1.66479315910668 1.82117409658443 2.67551513141231 -2.59548298540345 -2.02441734054385 -2.51277196184041 2.39936180507807 2.3364044873977 2.28751739705346 2.41004626985477 2.68516121069131 -2.60061455188455 -2.63148143176942 2.51841073128182 1.98988075175523 -3.24033960927328 3.5054042054263 -2.29378141745835 -2.13894953491601 -2.13759514258976 -2.13703488110398 2.28721031821307 2.32016840200307 -2.1866909160501 -2.86232958397302 -0.117788789019816 -3.11844789541182 2.27981548729059 -2.49143892089165 2.77598429142678 -2.33715008834059 2.64619335882116 1.93038372544046 -2.84628392589701 -2.50347330846035 -2.57074195082504 2.71987294720109 2.28747273023838 2.02035582077021 -2.18841730030319 2.79637320759146 -2.01202627842797 -2.31179036767926 -2.01984147017602 -2.76454854191339 -2.04392642758875 2.57014695828743 2.73316976995363 3.46437578964149 -2.57092839852086 2.51668126095492 2.61446822240738 -2.02539332214304 2.67511803969568 2.76021391137781 -2.01741929244111 2.70534092636847 -2.1339992208024 -2.73611196571345 -2.26836112063251 1.88933278317377 -2.78025275829469 -1.95557760838841 -2.43523786850637 -1.98768765479827 2.67799731156823 -2.01762734663684 -3.52532607549688 -3.15829041475487 2.52607563148084 2.74688185630769 1.81876437146664 2.88443279156099 -2.78307484409186 -2.01948623256426 2.75332396033017 2.75533937631162 -2.72321307481135 2.87939345312002 -2.54528676292112 2.42065269266929 -2.93590153835619 -2.46981973254167 -2.88934774606781 2.22545926393835 2.83258964270384 2.28170955029695 -2.46869539800888 1.97214926226737 2.84306197209507 1.93528509276378 1.61319497069999 2.12640387107298 2.33281392703252 -1.76388667745955 -2.16306699047174 3.66977896258057 2.02132671354681 -2.86175263771768 2.18786694016228 2.59625373388802 -2.37782920257284 -2.45417773948088 2.1412397998411 2.4533857696002 -2.6474675280443 -3.04527428136794 2.75177720139526 2.55615574349086 2.00394613051511 -2.87415763259826 -2.79613604058502 2.7065274792841 2.71863686047071 1.9820057594815 2.83662413892226 2.78795714218517 2.84499938396483 -2.83179671105623 3.101686830375 -2.50973056755618 2.43466259562381 -1.59474595518896 2.77462606413939 2.04828919527076 -2.435209498109 2.73181225981605 2.76814186464224 -2.44366292785844 -2.7607340303923 2.91310811302017 -2.16210452517812 -2.40346028336999 2.62985427941138 2.19845281457756 -2.78195600559748 -1.90691193874008 -2.59888541189202 2.1750107647394 2.69570474561722 2.65833798558416 2.12004833981387 2.50937824956334 -2.83432877401678 -1.0561577060923 -2.51186887104603 -2.60755114659082 2.38642649023525 2.14547591857232 2.04941554691672 2.43397938354132 -2.88091613307635 2.79226625154089 -2.80711539734941 -2.7660357877235 2.37479571915816 -1.74719412157492 -2.26438455109028 1.93612501103877 1.9718462391924 2.64129138290931 -2.89648381657279 2.14615625735635 2.5517784672579 2.5278517627151 -2.68964117482487 2.5898673475528 -1.97503988044241 2.55230347782593 2.08182958547994 2.29645948833905 -2.51436339259572 2.46355655940676 2.24194736711704 -2.74500450146876 -2.93209737100845 -1.96594272259666 2.7443225318946 -2.00620975045203 -2.18527126923048 2.85965713221211 -2.58541591270031 3.05732988588403 2.60259101538432 2.79601959716657 -2.02492213172765 3.35831372321273 2.27438342694304 -2.36360779402894 -2.08317316021855 2.39213114150344 2.8798927168219 2.11551767637027 2.04589901420434 -2.7535250443195 2.3297169678182 2.58707753412423 -2.07679289799531 -2.70336264790397 2.65777112208519 -1.78805080808592 2.54209411561411 3.11013437115573 -2.58722844488098 2.23762410666734 2.7936149516982 -1.89498031495383 2.55681128401449 2.82809637805694 1.97749887690356 1.86359320547551 2.63605508901668 2.63219311351912 -2.61942898466656 -2.74411133170202 2.5289068973999 3.43853969858108 -2.26144834283255 2.63227645033351 3.15772865982193 -2.46518788277352 2.27090975981731 -2.50264860657883 2.64848508164987 1.9380158485092 2.00498393872886 -2.87604988808168 -3.15648543354915 2.11399630006662 2.35330157949039 2.58607837189337 -3.14610123926835 2.76123861413048 -2.57945498247155 1.96903682927783 2.99439751366461 -2.46197938837748 -1.88902497117142 -2.35381300616163 2.93631615236378 2.20156959293975 -2.85477873171091 -2.49516256193588 2.38178419853695 1.85222096383802 2.71379167575572 2.18075940074372 2.83526138858428 2.13240287452863 -2.38881878860252 2.01162324265086 1.65372501791271 1.98656702261268 2.59943371041847 -2.71698976772628 -2.51904863231591 2.13010304051725 1.43409575314958 -2.82290347547504 2.8753268944558 -2.27775501097037 0 7.3208776563677
